function [y1] = anomalyDetectorFunc(x1)
%ANOMALYDETECTORFUNC neural network simulation function.
%
% Auto-generated by MATLAB, 05-Jun-2025 15:28:12.
% 
% [y1] = anomalyDetectorFunc(x1) takes these arguments:
%   x = 100xQ matrix, input #1
% and returns:
%   y = 100xQ matrix, output #1
% where Q is the number of samples.

%#ok<*RPMT0>

% ===== NEURAL NETWORK CONSTANTS =====

% Input 1
x1_step1.xoffset = [30.3460437994352;30.3460437994352;30.3460437994352;30.3460437994352;30.3460437994352;30.3460437994352;30.3460437994352;30.3460437994352;30.3460437994352;30.3460437994352;30.3460437994352;30.3460437994352;30.3460437994352;30.3460437994352;30.3460437994352;30.3460437994352;30.3460437994352;30.3460437994352;30.3460437994352;30.3460437994352;30.3460437994352;30.3460437994352;30.3460437994352;30.3460437994352;30.3460437994352;30.3460437994352;30.3460437994352;30.3460437994352;30.3460437994352;30.3460437994352;30.3460437994352;30.3460437994352;30.3460437994352;30.3460437994352;30.3460437994352;30.3460437994352;30.3460437994352;30.3460437994352;30.3460437994352;30.3460437994352;30.3460437994352;30.3460437994352;30.3460437994352;30.3460437994352;30.3460437994352;30.3460437994352;30.3460437994352;30.3460437994352;30.3460437994352;30.3460437994352;30.3460437994352;30.3460437994352;30.3460437994352;30.3460437994352;30.3460437994352;30.3460437994352;30.3460437994352;30.3460437994352;30.3460437994352;30.3460437994352;30.3460437994352;30.3460437994352;30.3460437994352;30.3460437994352;30.3460437994352;30.3460437994352;30.3460437994352;30.3460437994352;30.3460437994352;30.3460437994352;30.3460437994352;30.3460437994352;30.3460437994352;30.3460437994352;30.3460437994352;30.3460437994352;30.3460437994352;30.3460437994352;30.3460437994352;30.3460437994352;30.3460437994352;30.3460437994352;30.3460437994352;30.3460437994352;30.3460437994352;30.3460437994352;30.3460437994352;30.3460437994352;30.3460437994352;30.3460437994352;30.3460437994352;30.3460437994352;30.3460437994352;30.3460437994352;30.3460437994352;30.3460437994352;30.3460437994352;30.3460437994352;30.3460437994352;30.3460437994352];
x1_step1.gain = [0.0787973278784463;0.0787973278784463;0.0787973278784463;0.0787973278784463;0.0787973278784463;0.0787973278784463;0.0787973278784463;0.0787973278784463;0.0787973278784463;0.0787973278784463;0.0787973278784463;0.0787973278784463;0.0787973278784463;0.0787973278784463;0.0787973278784463;0.0787973278784463;0.0787973278784463;0.0787973278784463;0.0787973278784463;0.0787973278784463;0.0787973278784463;0.0787973278784463;0.0787973278784463;0.0787973278784463;0.0787973278784463;0.0787973278784463;0.0787973278784463;0.0787973278784463;0.0787973278784463;0.0787973278784463;0.0787973278784463;0.0787973278784463;0.0787973278784463;0.0787973278784463;0.0787973278784463;0.0787973278784463;0.0787973278784463;0.0787973278784463;0.0787973278784463;0.0787973278784463;0.0787973278784463;0.0787973278784463;0.0787973278784463;0.0787973278784463;0.0787973278784463;0.0787973278784463;0.0787973278784463;0.0787973278784463;0.0787973278784463;0.0787973278784463;0.0787973278784463;0.0787973278784463;0.0787973278784463;0.0787973278784463;0.0787973278784463;0.0787973278784463;0.0787973278784463;0.0787973278784463;0.0787973278784463;0.0787973278784463;0.0787973278784463;0.0787973278784463;0.0787973278784463;0.0787973278784463;0.0787973278784463;0.0787973278784463;0.0787973278784463;0.0787973278784463;0.0787973278784463;0.0787973278784463;0.0787973278784463;0.0787973278784463;0.0787973278784463;0.0787973278784463;0.0787973278784463;0.0787973278784463;0.0787973278784463;0.0787973278784463;0.0787973278784463;0.0787973278784463;0.0787973278784463;0.0787973278784463;0.0787973278784463;0.0787973278784463;0.0787973278784463;0.0787973278784463;0.0787973278784463;0.0787973278784463;0.0787973278784463;0.0787973278784463;0.0787973278784463;0.0787973278784463;0.0787973278784463;0.0787973278784463;0.0787973278784463;0.0787973278784463;0.0787973278784463;0.0787973278784463;0.0787973278784463;0.0787973278784463];
x1_step1.ymin = 0;

% Layer 1
b1 = [-0.096095862827215966506;-0.32303438204773904374;-0.055487842559598987702;-1.9442318126939599487;-0.050656176267393313029;-0.37278288241909907086;-0.50719607263931487662;-0.043433312206857699334;-0.053390571545175867507;-4.7506443532739615065;-0.11583292893669874801;-0.87846306396264639549;-0.98951493627866360381;0.03263551351188102162;-1.9317268062551784524;0.016831516178684103463;-1.8155820058215528245;0.50986517574615519699;-0.16884353253807585227;-0.023770312781491251958;-0.74641686492599679248;-0.87527409706983771986;-0.060958194988800257219;-0.093731904765706322569;-0.13555329649867522979;0.50719306925091955929;-0.10873411710918522155;0.045672390257945519321;0.089334716799052610314;-0.04868000694285491009];
IW1_1 = [0.097878675970242717819 0.14605521546179361936 0.19152798665013345825 0.23350277603352082023 0.2811873980043537169 0.31936571064389107644 0.35410633739245522822 0.39005257031311135751 0.40766156669297221038 0.44778812008909502085 0.47010843767505006152 0.49547061753019205899 0.52256553824152396359 0.53552718725194170535 0.55877673899364799226 0.57396430992035585295 0.58853857331410253106 0.5922278406020200503 0.58667111632409962851 0.59758515409045542821 0.59781088068544041558 0.5817456871485423564 0.57870757608152689766 0.55621433636919015431 0.55354973735256396417 0.52880466765198863577 0.51535857378411409346 0.49517002784620639533 0.47280848516134943438 0.43659035892678288437 0.42145497518824298622 0.39705994685021850366 0.35442642559057324636 0.33863267232456517597 0.29373260936973066837 0.27406828477638278674 0.23875910139980935365 0.21565884376898350472 0.17614928591461448404 0.15526575900508771122 0.1344621937120332178 0.10174177871404466167 0.074355088388791193421 0.061189194336056608459 0.037500210853342860751 0.015452199493523097185 0.0082528976817357897061 -0.011147240770614656388 -0.017205622639529839085 -0.023763408648357658981 -0.028095147162623273357 -0.037575561517028337188 -0.046169819064778620799 -0.037775596582087990483 -0.04363906116522939943 -0.030920102050069082217 -0.021454592348984401901 -0.0029581541689982122911 0.00034281118855273201617 0.013226113319534521517 0.028730969891229685836 0.054527506056565318293 0.066945155835973990666 0.087267671334101751257 0.12326825284038116226 0.13444595169314110805 0.17191356019759704288 0.17849098950331815372 0.21425950670932164543 0.2283282828292797495 0.25851582022928754068 0.26960757980816768553 0.2863889067369511654 0.31129807167926559774 0.32032243938187610066 0.33146063332598363349 0.34089284315190143682 0.36689097341938164965 0.37023578745857033123 0.37028971386704440105 0.37257325381358952221 0.36758213537775147328 0.38276718758804589848 0.38053030742777588236 0.36232464463562513712 0.35970005285756750935 0.34603959946905193945 0.3290445829153377244 0.31754765914464821996 0.29659991138368307917 0.29319248922600943397 0.26028926392434992287 0.25547762354344533131 0.22651894681445106094 0.19250180842275990689 0.17069726973009213822 0.13048615516079908883 0.1080534169022125679 0.073874530973018201485 0.05843579108666619587;1.3666517878701960331 1.2099349133207375484 1.0424218152744455512 0.86691984724014015118 0.69343799160626218292 0.55236686793197242729 0.46097308560517669118 0.39545668338697492761 0.34507467733433955237 0.30229739922283405118 0.28476480933131653739 0.27461118957530916695 0.28431045701655555114 0.29285519751248290099 0.28121742779100317167 0.279806210193634608 0.26780028015295126442 0.2494444292911748573 0.24167430790890453984 0.24447494678710601779 0.23935408429318633106 0.26309778541808798158 0.30652029145347037264 0.34920887192864535908 0.40747162504149381235 0.46375056068247771934 0.51225752547633507383 0.55590626044211766121 0.57875784703866317571 0.57748433764071072094 0.53544437540993583546 0.46814168588324145404 0.39347083606790095311 0.33342017450645416998 0.24232360135937236478 0.16406751218446924412 0.092480011871263978485 0.022891362432402015403 -0.032372536505973457943 -0.094526921400748434299 -0.13881306190982845017 -0.18618419556824530869 -0.21383203788180121796 -0.22898448816076050205 -0.22622880733601724579 -0.19752644366967520018 -0.20146083958770147349 -0.19616795318496646483 -0.18718224416705558921 -0.20164086115953233636 -0.21641421091571944046 -0.23453905768773075646 -0.24624988788698143338 -0.25007684688693965214 -0.2684334769356385153 -0.29257734945934255055 -0.30695165890925635299 -0.31642129677470992588 -0.31973038883778165387 -0.29950600731110094133 -0.27352623506276307896 -0.228877681094490526 -0.17706289463946089935 -0.15758436405837208949 -0.13664413852612078415 -0.11275501592051451194 -0.10015250792085395037 -0.12613804955909579952 -0.17352278610071203424 -0.21858408171153267952 -0.26610453786225901629 -0.28232360108225812434 -0.26559574860534818086 -0.23909475420013967528 -0.20120891257547907083 -0.15749237915240876795 -0.10106911543302138368 -0.037988256531948691452 0.0058021313042229943208 0.058479060545693781203 0.095396817543322270927 0.12988826773592129782 0.15392962709993909809 0.1720344618545748272 0.18099342826923814354 0.16198679650586533807 0.14454695511850007561 0.10906965571992700836 0.050321129507622741617 -0.00032643790588512077398 -0.057295136174531427486 -0.11772803633080158869 -0.18433650562453082755 -0.25016469203473606919 -0.3297989016488085956 -0.3761673210536251033 -0.43806011478297984807 -0.48873386920905254049 -0.55160608342601580301 -0.62239720814534049698;0.20971988471297159373 0.2665803426766576445 0.30911976958526454773 0.34361486275341074359 0.37321388393955290397 0.4166287903906682466 0.45534367653652002561 0.47758562742280374902 0.51764949949979621735 0.54320354961837635788 0.57100844483975998767 0.60084888555525139964 0.62492388898487361004 0.63304687034670981127 0.65266918540345864042 0.65805064047825423401 0.66977314849575042555 0.67576004870996064788 0.68615469948855334348 0.6752516611629546528 0.66904000657881135261 0.65417914191509274335 0.64787103629710518504 0.62125624110397192901 0.61491832385922218229 0.58216725808620439775 0.56602293081255794505 0.54072236815677077182 0.51751533653230541443 0.47885498231159107085 0.45998251493678010693 0.41627568475290838146 0.39377184118474067853 0.35133813215502640581 0.32138077084420824114 0.29829366897600217978 0.26728435357551399987 0.23999591581140541918 0.21182274653899471617 0.16952347199533251976 0.14693572511555830218 0.11190241108723264496 0.10210061123529441673 0.07434952077501140455 0.057962884885345351826 0.022012591563689187096 0.018370664310092554156 -0.011961228614379719806 -0.0075225950762188732029 -0.034883273507118166268 -0.042532760533146952986 -0.04789980197916329091 -0.051917096203701565416 -0.039768694273260130068 -0.042782723172747352813 -0.045505812924631280914 -0.032647813472788118905 -0.028699236977044500357 -0.015436361026397954141 -0.0066431040527684618452 -0.0054606664481776688927 0.011266584334162031006 0.020227693008067388486 0.039785568840431141668 0.043288958970560557915 0.065372398716206717162 0.07878419403853696712 0.10720849167933303725 0.11096064778107377069 0.1433699379843016708 0.15172107640202842083 0.17897214281350440346 0.19733942973831783418 0.21334158015506371475 0.22267131535362605366 0.22181606182737703681 0.23745160029199038898 0.25435712590241071895 0.27599937978502236957 0.27800821032858263893 0.28519047613620268633 0.28326826979334757128 0.30127839636455144845 0.290591750225512091 0.2893226664789784186 0.29755723723022675653 0.28600461494463075285 0.2816532094351162363 0.27711459635637031296 0.27498434110614489168 0.26614451911548009377 0.24410368726440270781 0.23926059370243771274 0.21449448081426078505 0.19539524434184898927 0.17029186039726329494 0.1588672876274271617 0.14133035772901181293 0.11858672115071185182 0.097668365187720429521;-0.79086100541813764142 -0.72526364769841522584 -0.66762062850011372195 -0.62097407138941662641 -0.62384279509027340538 -0.60273859733235801706 -0.5512776057839217092 -0.48295412356546196797 -0.35370624264910061063 -0.19362597231951839127 -0.050004627989707298164 0.062143496011470789053 0.12726015363709447525 0.18785704204279168872 0.19420205789432148924 0.1791745067925738788 0.13267247051428474047 0.0751805781827670494 0.027455921371130669051 0.0057296508809359068815 -0.025713764478931346036 -0.091875295117253771848 -0.13304198816972348518 -0.19815464595788553903 -0.25673983135337857808 -0.29898338785198114165 -0.33823463774052459074 -0.41085428500338400104 -0.47217963738677298791 -0.51248222420922462383 -0.52043062233965764474 -0.47931059078445892307 -0.44112536606553065521 -0.37290128639812397671 -0.30462192794638615068 -0.25808589781062807322 -0.22110548171479901813 -0.15476251913476454791 -0.07866143872812900173 -0.007018268321717205209 0.071055294090436080245 0.11056026627329192114 0.13888672775166646667 0.18296613467410835496 0.24008589502695162898 0.28254266569357999739 0.33682092496316723418 0.41571029089880956464 0.49328197142728658076 0.55834574687477256383 0.60329373135922736981 0.64395021033506616437 0.62621071173324038828 0.60663286748667732962 0.56152521458785598085 0.50636622693137822715 0.48068200522794207741 0.46248409172395965605 0.44578520961514567222 0.39399459262571673301 0.33805221392945011827 0.30829289779609392319 0.27223594213503909955 0.24220716072617443082 0.20951926169051982018 0.18559055808784111208 0.19368697433457099377 0.20167126347997943459 0.23514289502853527591 0.25443916067143662607 0.25240954839352996997 0.27255537445734950852 0.29300696079883664646 0.30468037862279551131 0.33027457667918619366 0.33772140637914344063 0.33405867596211769044 0.30114943476881622653 0.2904288245193729634 0.26349159417209777612 0.25785171320004823814 0.2605325244226736614 0.26796494774788737203 0.2657047885275279353 0.24982510773550173355 0.25516821272037543133 0.25010319916138618046 0.24947485937167532266 0.28192010694814512162 0.33955334701862721625 0.40473313226728646619 0.4832162560060778711 0.52447529191024488959 0.54990584726410440819 0.53168193502170146836 0.49444735070302892055 0.45062084521487877353 0.39523207285330452798 0.30213463417676478251 0.21664968038716769794;-0.1383766919116059535 -0.14735387115964218574 -0.13838226719183183144 -0.12286166890711261446 -0.1241028731675513086 -0.11543386602069688474 -0.1019922642517804845 -0.094586949600761305312 -0.082918908995799261996 -0.083021104712057577912 -0.076600216851281821562 -0.065714936363106352113 -0.058392661727958629359 -0.045180001571718565734 -0.040377153590517377013 -0.031363156846434953051 -0.035825944542773074941 -0.016130013388046877953 -0.023910434737931231253 -0.011932056922810765215 -0.0027871409620032110491 0.0008452587770381603683 0.028290288819362022915 0.027680758441571456235 0.039862670257764909465 0.061535657911548150012 0.080493562695156131714 0.083441004078732269877 0.10777885752173212153 0.12445152356662059212 0.14285093235034407311 0.15501715327831608326 0.18267340493528566592 0.19428480092952593594 0.20483728579688181837 0.22871717185897419422 0.24442065527084752552 0.27464958176285536595 0.29802210097724496363 0.30583763233517130553 0.34020377368986054467 0.36988363204613089463 0.38621089059391072729 0.3977620216819459098 0.43001247007534326716 0.45247358153545003123 0.47523100957141056755 0.50085809776665046744 0.52209151960089150712 0.52206184872662997343 0.54406171456603213965 0.55160934155239627064 0.57176834997747327805 0.58530981675234328154 0.59940337156949952124 0.60803624743519046891 0.63358605034774739817 0.63288295223970325587 0.6431561391667800498 0.65238433072280677116 0.65126270948500708524 0.66334729912750634018 0.66456199618882927371 0.65749108996749516809 0.66572571812134162528 0.65507840467753830627 0.6590274843728621823 0.63469966300288538363 0.6331454979519148818 0.62767624800487031855 0.61667593131415143759 0.59016941770457687078 0.5823493516971228745 0.56477100589142326115 0.548209571372950899 0.52752878704088557171 0.5134347453228874647 0.47837324620021709487 0.47042383135057996846 0.44325748545727855499 0.41903301605353748815 0.38894142211891719052 0.35707026043462591902 0.33800891859945514373 0.30621184737753637251 0.28516061931766378823 0.24466066142943737605 0.22446845630472583855 0.18932477428969926581 0.16386418481322012619 0.12924995415335144289 0.10839380940217026306 0.069974531341501930437 0.026760025617975843892 0.0046821876675960981753 -0.02508915710983947861 -0.061961956436381540603 -0.10541010226694379204 -0.12188995853930247037 -0.15715154837406056232;0.2420958581439836832 0.3097262182396557928 0.37608886574088062904 0.4445135946839633978 0.50273452418397313046 0.52628549749918129841 0.54449580811003150949 0.52130906994967174395 0.5154570430019735916 0.51481595970842330967 0.51567102930328256871 0.51018854220086662377 0.47578149670158759177 0.40640114507185892689 0.34190999324333865017 0.26184645065217504456 0.16084911126198861431 0.084004810472969676516 0.015921122492446589808 -0.0098992051832036097314 -0.01294422123695302719 0.011766298684691624266 0.04565679975561805215 0.052531582947388716365 0.051544659694919878201 0.043789062871872674876 0.012174527313716496449 -0.046888098373399404728 -0.11482794861524264762 -0.1906610800369461789 -0.2628553009970133747 -0.31399450995368899386 -0.33371970880505796853 -0.35178610772810886553 -0.37852238154411316229 -0.38688222585862791503 -0.40235915809920536068 -0.41164274228383967991 -0.42492751749188212296 -0.42683605559223602999 -0.42524963136078303139 -0.43585517084271158117 -0.45248652984641934971 -0.46530251927453303296 -0.47938530329415512954 -0.48718613128285676028 -0.48155938718612367744 -0.4813978794130095995 -0.4533739987927238313 -0.44369430652037500362 -0.39112730413985247191 -0.31368195140418697608 -0.25162215798766163211 -0.1744505368436738979 -0.11695803602032336932 -0.026817374774941536014 0.07337208690764475405 0.20554705611511137064 0.34194970532134488783 0.45215567544858653592 0.55890177788130246395 0.62845358271476181589 0.68918233459984545863 0.7282680854547123328 0.75704486573155505003 0.74642423367599319839 0.75949997322633533425 0.75955625602118026496 0.76298015723341661154 0.74684609200560536646 0.76438139524364090427 0.76936723334005063801 0.78007225003088054294 0.77702539957420280192 0.75030868751415291662 0.75058278124920640995 0.74125884748813442027 0.72393832394214907566 0.70436666112167800602 0.68822345506109261493 0.66130471609627194951 0.61521323675279393495 0.59470883338619084935 0.55999423013529869841 0.52800331950348244892 0.47285379868755406108 0.43887949064495901386 0.37798679204574220369 0.33567945710128965775 0.31604751397146824132 0.28717822594015118831 0.29737885904499883338 0.3206112466488657553 0.36559965418268292048 0.41283819558864764954 0.46147458162852178498 0.51972039726624452705 0.57568529914291388661 0.5986763934863644776 0.60973882423609715442;-0.13263714225175426975 -0.077545305356168617306 -0.045862766660665792162 -0.0099160370862375959988 0.0024370551183930146133 0.011142710650806139996 0.041767473789855097399 0.050030887930451052592 0.061072888484517001695 0.079081913451092888945 0.099719112563347755973 0.12628368291219782549 0.16789443847074039806 0.20642186592990455218 0.26537513339001972401 0.3314320791144192424 0.39104544497135806935 0.45500458996941645085 0.49366059531391043302 0.50296470093327427797 0.50428913986671564107 0.480439813162321816 0.42807184627869665494 0.3786349546563658186 0.33025456897843474824 0.2705967552874372628 0.21257090302978093321 0.18101176298557627997 0.1447466623783923434 0.13571137558419088531 0.13860504069807783045 0.15260612151662522606 0.17291178816281041475 0.19054621970105956041 0.2188145487115474852 0.25744424748993732788 0.27954503793852081284 0.33055025575478513833 0.35383340500827836772 0.40110639785174562189 0.43587100011903934238 0.46048799655786382123 0.45752107456414442543 0.44484360445554821384 0.42779414374953478317 0.3706932729407439453 0.3154969607957923694 0.27199240649645067824 0.21298488347906055496 0.198875975236932373 0.18944902609966593476 0.22208589977030659957 0.26785315091302980273 0.33459647053585739318 0.38156667175507358314 0.41676084043188127426 0.42025380423945157826 0.4022647432094511033 0.35181193321062392831 0.26728451962263716224 0.1564930368825725171 0.035919562948491245979 -0.076141762393056769409 -0.17271830127506235253 -0.2551677835222715407 -0.32683570043261289673 -0.36474679187488251442 -0.38832033897150552981 -0.39464668221298188078 -0.38720152228264204108 -0.38141763523599597763 -0.35910891437608305488 -0.3342998938004226317 -0.31126196429645025532 -0.29519198001180324553 -0.26538688047035069451 -0.26804808656659556698 -0.25831024535456437174 -0.27320087376697232973 -0.28846025990254470228 -0.28168156427648860518 -0.30913481725986285964 -0.32101320593134669013 -0.33748691386985629759 -0.3633756190696538213 -0.37750749530299471113 -0.37846875078283498395 -0.36250980077748828911 -0.34003075580457553517 -0.30504331906401771501 -0.26499542249716068198 -0.23509768144515516552 -0.21671166507151354286 -0.19094952532604492212 -0.20809024211879975641 -0.21057322245154369567 -0.22201180035090142817 -0.2195823685576811235 -0.21460121869283577123 -0.19729821021911486678;-0.18974862016251975438 -0.18195535616375976828 -0.16722966977036490821 -0.16321188372183864645 -0.12649691046029237773 -0.12660653341223312984 -0.10683446706608927534 -0.090371326631334847335 -0.077371490717343172072 -0.050358130345363447122 -0.030203667720684765352 -0.010819788730011771841 0.0081069691507507004452 0.034337979121597569931 0.044289724437665892176 0.063318869495333399144 0.098115412530929188573 0.10335458932954005862 0.12443797591514632606 0.15317151868955763971 0.16592601520360567013 0.18957685551649605671 0.20527790831133782556 0.22761842392990558337 0.25058243444583977455 0.25738940527087605936 0.28311348064545344139 0.30175576883051791199 0.30871145825393736528 0.31493354535346046452 0.33515479156970662267 0.3595136737919189529 0.35665203656330862758 0.37682340017186788383 0.38158025807378492811 0.39510339859846232979 0.40763067309732253785 0.40624887121480562913 0.41435694351517032841 0.42412027557215037366 0.43565452707266510979 0.43814050371825036256 0.46070487742078114479 0.47432574774816260721 0.46818085038500928396 0.49900120263708758195 0.50243534417132584835 0.51479203065993073274 0.52742912830653554401 0.53244209714686252521 0.55676348276540910121 0.5641557382123547626 0.55427213630174054781 0.56089421301892317118 0.57310722858266149871 0.58435608026083862843 0.58376726568303494158 0.58821575508349133177 0.5904291602302461639 0.58042371082118582315 0.57654942441649348339 0.58125329155686644711 0.57748745923554922754 0.56051715085344999689 0.56435644257234751642 0.55820990212068077874 0.53425831069162943443 0.52747608898406206368 0.52310866668939082214 0.52110245721360015647 0.50514307537176295071 0.48002836797516285072 0.47527706231319827301 0.46696451536620081635 0.44646205693223939281 0.44101242311879246261 0.41895907711098590021 0.40320018109826288866 0.37815592642315137839 0.35453268660939879497 0.33486316880279815011 0.31421927918883607589 0.29231041494424281346 0.27502380176821544788 0.25143801646679331263 0.20994537439219335129 0.18822605350905952104 0.15273553331258321597 0.12893027949540825094 0.091699402379473063385 0.070466923465054912001 0.039004625679888486889 0.011020952351055031057 -0.021731730061128218257 -0.060825164705895981565 -0.095179109928507518723 -0.12414684254056648771 -0.15605869000402203262 -0.19422976574656569682 -0.21950106741412842015;0.025471353371838079821 0.041289984772307407324 0.083505600288574191592 0.12418213135659945945 0.14902199692358575334 0.1695355126286913483 0.20309012933001666101 0.22979007382609614729 0.26241759940908471194 0.29266757302593271461 0.30551592497055851672 0.32577630092581555399 0.34227580150165237693 0.37171524849475989782 0.38872395636036827238 0.39645451791580116341 0.39755082604228447751 0.40000958542496789505 0.40636083199097172702 0.40947518427249735007 0.3996813683993493127 0.40802122649533223431 0.38461187438825067408 0.3793599874821972362 0.35924975120107960347 0.35955394281687069746 0.35287371262593003607 0.32562074934406010085 0.31583967651273697763 0.28850617852302029576 0.28638126153505583105 0.25721569006026229198 0.24579411874871370802 0.23665061177154311789 0.2166713119176268687 0.19265340608342082507 0.18411694678732168362 0.16783649474192921525 0.15205030697747390356 0.13692850725836255843 0.13390346866871419285 0.12955685120523199871 0.12056674849389467652 0.11475935141784149307 0.10089928077185157662 0.10907100973098426966 0.11024439659652605916 0.1165820525091490617 0.10777586772986950947 0.11691663109173945634 0.12643900943131416992 0.13266589423236410661 0.16395525845363059791 0.17134254906636850468 0.18946304842843011973 0.20228860949017257731 0.22226016259581513057 0.2483620398354760006 0.27526733411984699584 0.29472802193368197177 0.32502559595492519495 0.34030495401603294559 0.36354181491089465617 0.39443616275022452822 0.42340454873172317374 0.44100576664632906709 0.46656154177015002338 0.48258758902450898942 0.52208094669129401222 0.531609381769688083 0.54425472447667722076 0.57368140438913428625 0.5801885658239253063 0.60682932098616249039 0.60668639641142851904 0.60875860062854048049 0.62535148886473179708 0.6177894315209870868 0.61166017604198763546 0.61737479691177277186 0.60985995888506172591 0.59900645910422933849 0.58357715267688503591 0.56828239062784080549 0.55162662135059159496 0.53810820463739461594 0.52146896690276767217 0.48724732851341184814 0.46494212990386218909 0.43808636502703907079 0.39671500523729058552 0.37623877087890800208 0.3265537083657358286 0.2951675849379215566 0.24352653973616317229 0.20208544854105847666 0.16190416041635330435 0.12817131668916867393 0.076437477546781706916 0.038929471680768698572;-0.072313322374248381608 -0.016298310535844635905 0.031040747422316779247 0.076351379473206873461 0.09158039138216554631 0.11416507989090526887 0.1275448857853239415 0.1160104218184869751 0.11735783515580180958 0.1159536904222103898 0.10414370833846095521 0.077622353631198626189 0.07730200281367888282 0.060077936722766442368 0.074488344781823506713 0.10456722496013423629 0.16057581254097205714 0.21710688972926089901 0.28119310051974605313 0.33867991974813699274 0.4007421385140168546 0.45077797372710826096 0.49243430355721951042 0.51379018210995619498 0.53111359551551462488 0.48652478550269268043 0.42425481054940733516 0.32389262614849839705 0.28177907212394953662 0.24586076923931837745 0.23764121168010765572 0.22700605888725042258 0.180837691654437277 0.17531659371037688899 0.18137082809227861313 0.21789738015486412315 0.24663370508182602681 0.27010820425784809462 0.29986383603289890054 0.30975777912743546194 0.3199634236403852694 0.29289393023689125339 0.25551895858274820128 0.2189216101128722558 0.15657486380342747201 0.094203793669351484907 0.021443935862951440247 -0.014455506565045433964 -0.077063762523350287648 -0.080910016743863291677 -0.088053651111783218242 -0.072236237639634839902 -0.0093036794232679142364 0.056439622329301449011 0.091631389226761866817 0.14234651619289653834 0.19898717143397903762 0.24883336400030445223 0.29772567370842373258 0.34096300332579032588 0.35773772998105390908 0.37637694137978144893 0.37692826292230563467 0.37769610376722745348 0.358950231019399435 0.29528562082857701121 0.24040513428609200375 0.18202315782447675563 0.14038898588837911419 0.095464180349882493681 0.058101048677188717184 0.035049052387168121159 -0.017918728452898685655 -0.02801004113791002656 -0.027714128597890418798 -0.044794459045983191225 -0.049670359953156120736 -0.076635312021624171774 -0.091036780774485806522 -0.11715510760739390739 -0.13696230827727068347 -0.1839135429126642074 -0.19373492071240877577 -0.17477651017024461999 -0.17606906792392196248 -0.14486107984850801755 -0.10797725353135724513 -0.051825301889665789656 0.0039118268378547310996 0.079342831234922917005 0.13628668475299007823 0.17501506968417207544 0.18166278308067820846 0.17311903514372825597 0.13943537685094703482 0.11183433985443232139 0.041766691148491158492 -0.058265542432470673884 -0.2253809340328047639 -0.42505996853660382717;-0.063198875799415785148 -0.045593275044494604997 -0.036741054610905800326 -0.014462817214099695645 -0.0097373022878751974013 -0.012385335671498956187 0.0062618060967415799939 0.009035597956066600267 0.014876932953836413329 0.016720054523554739312 0.024840143966648263463 0.02791536285302807438 0.018486012917491866786 0.020417887864373474721 0.036161579446800512505 0.031421873538119642066 0.033002124489151289655 0.024630563388185762463 0.022127544445586844191 0.031469953956149612773 0.032490776071370811029 0.017284938933466408029 0.028044680131269011936 0.019197990504571178089 0.016318184235278167943 0.027825454544944186464 0.0067483644875356938592 0.013591852544276170761 0.016203334886157806649 0.0034004279990681560326 -0.012286186685325040796 -0.0042542705489810039854 -0.0077258984272287455769 -0.018513214914986111242 -0.019552609573865481485 -0.030047845574690278114 -0.034805907485303259896 -0.042605565018671590072 -0.045809278990342996996 -0.054248053795504382057 -0.040480488997831812203 -0.039722825741941449051 -0.035743436543862285026 -0.027905613691789416669 -0.018653842791391858635 -0.024606297984882959107 0.0017184972020446245573 0.012489610423183744939 0.027068246781356587738 0.042794886932410187985 0.06531907884765376926 0.081962053421227601402 0.087382813319485913572 0.1206043029985825743 0.14267629737382739319 0.1681268898164234582 0.20525922947060901147 0.22497228183918818734 0.25297103962883316086 0.29626818175618779838 0.32393761169957274726 0.34723205266629725285 0.37645624126371968199 0.40931030963001430178 0.43968286647639459597 0.46656489931614103517 0.49321594878969304832 0.53643631042682771159 0.54641566171655231443 0.57788091998810853234 0.59010536952659553567 0.61069056592591286492 0.6297728522607003443 0.65793954426849776684 0.66630523750740555666 0.67625655514030003079 0.7013446841135677623 0.70799867727001208895 0.71149461375725586709 0.71666279271865984679 0.71680763462600105562 0.71078340587764532454 0.69741492333905186207 0.70346378059286951423 0.68779526992753547976 0.66685612506376013009 0.65579374622266040085 0.63837189759796197919 0.59737187255883950066 0.56918639947692972747 0.55236099411183448016 0.51918574704222120175 0.47260195542197469543 0.4448854838548579882 0.38736257582369137964 0.3488476015358586424 0.31797144321703096903 0.26085915766164108343 0.22098407648312043405 0.16621745286632969019;-0.11875701616535803973 -0.23803429407948284435 -0.32543672075458796034 -0.36379064792992826805 -0.37530609345844551106 -0.33338180496686264931 -0.25170029532309295961 -0.13755400757762020758 -0.0039968317458532309078 0.15194362629444960189 0.31647107234549171073 0.47543267428139346364 0.59778163496229785867 0.68264807927226867079 0.73192961703429681997 0.75872121916480039783 0.75889596311637641524 0.73950635711893686342 0.68796057352611450497 0.61118506137412897949 0.51311083231606524624 0.40864510809293563831 0.30956236423467581309 0.23352542229495698578 0.18959110498127954014 0.15118645634092930941 0.12917721344213478618 0.11620565827934589698 0.10767245149143442329 0.089741809939662464668 0.069403712150713503526 0.040613708664188521991 -0.0028459830184974356342 -0.035021980745687179837 -0.071217888854019209544 -0.10995108102028955388 -0.17092258244472288697 -0.22659222123353220391 -0.29421111991823623022 -0.3280681145799838605 -0.35641300641735651489 -0.36184858950613291162 -0.35518396104731042584 -0.36665612384322893158 -0.35141268539831010953 -0.34351901632543074827 -0.31495758031895554341 -0.25102155120976710201 -0.19217994170035179735 -0.10584720352937826426 -0.027665559709234024965 0.034292304727817898846 0.076164693234029162694 0.098964297562478154013 0.089786158477224972674 0.054337094144567901766 0.0058591751331889194154 -0.065108349202913917697 -0.13429347015215578609 -0.1891941870514528834 -0.24811813510031927033 -0.32067109427530687826 -0.33951738288844512947 -0.3342674155851883544 -0.32359098478652653652 -0.30047542686021883052 -0.27136463635023883034 -0.24260808452127777257 -0.19601887386995983653 -0.14365291052909101577 -0.07959442310858777514 0.0027363280316074719591 0.057278203857982726288 0.10554749323860733445 0.13197020702950884585 0.14474548000951767412 0.15094336761390261814 0.14959853893709326722 0.13339484379338076292 0.098360326160701727627 0.073880751084083109981 0.06758299357743549618 0.068490088901052459391 0.080530109875807553976 0.11207132956359092124 0.16338672433348994106 0.21561176856036448624 0.28364669690671734381 0.3450254067381319234 0.38343997388130895976 0.39715102315331701766 0.3875956066409016465 0.3485444761038776762 0.27334749784042933207 0.17158276607886763232 0.041648155244030878042 -0.12418245460815352521 -0.29568243639087543606 -0.47886366816695924431 -0.62990813300884285209;-0.1680873490152297034 -0.076064159708070969157 0.041888969501942152629 0.16192261536379978781 0.25326116056823527733 0.30849189491350920145 0.31225543322630655574 0.26906920870609213337 0.2039576005552005411 0.12448079618060975404 0.053471702176808848239 -0.022044923032768115601 -0.10460377247461118133 -0.17220042129259996444 -0.20561092661829891148 -0.23856679088794802146 -0.23192202616789558967 -0.17686849000297188983 -0.11014199001488149399 -0.03805404881871370798 0.034434921408332222481 0.1033089007579124502 0.14942050826324090873 0.18987571468366060135 0.20558600142384553244 0.21737339619663426094 0.20971987861972091194 0.17425464600122703152 0.096074104657313752487 0.020421350573063414002 -0.056756698496148644262 -0.14893569957426183725 -0.21894635389027372607 -0.29269230324779221819 -0.35843738011505038576 -0.42317995039166039772 -0.47602252811788520193 -0.51305016994045560264 -0.5127432598379656481 -0.50184427575977041958 -0.44375937879461030411 -0.3741604334614564431 -0.30984168626645497424 -0.24437605975161216798 -0.20845998452372446752 -0.18776719766570859615 -0.15809823235641118355 -0.11792373453790926108 -0.083474963725192558028 -0.03793354328858788288 -0.021713866555998054958 0.023779801489582728241 0.068937453884520188963 0.11170499121523040642 0.17236000399445808307 0.21273794001398674269 0.24060838610872675725 0.26831602581783858819 0.27482255546029066284 0.26124062152560356687 0.22641766690200640366 0.18316398808295650258 0.12362760496236144259 0.04922545148301810114 -0.022258680218406073914 -0.090861939457273527276 -0.14977760458549901901 -0.19149742999928506815 -0.19703438179644408579 -0.1811041389957150638 -0.14475541885538253939 -0.10096250314719484864 -0.048136850153770539829 -0.0056601957890518904762 0.051380486610315356799 0.097010897956309738444 0.14222374327153133877 0.19681525907955949029 0.23748172501506847887 0.28641520583727447802 0.34043956246079770667 0.40915640154667115569 0.45816557849174627259 0.52217372838797160295 0.5315355354531722254 0.51771249936065333319 0.44255077951510596312 0.33760521142636967795 0.2151794564266037435 0.10477886830518705341 0.040366913720119954045 0.047413662107041308624 0.10392180102275934417 0.20344628341682965966 0.2948238934385696286 0.39754625310844049491 0.45950360754621294435 0.50529182252111215501 0.52896530017313714289 0.51686776004689782837;0.14729185884611911694 0.16952247732794542556 0.19688369910994488188 0.21878916714011584221 0.24309429991428574414 0.28752644244958702746 0.30837051682198868274 0.32037416609164554027 0.35705325669861692761 0.38238218435013154872 0.40111000551927278313 0.425929403909636628 0.43538124849352533019 0.4592398451455795283 0.4592563995353375339 0.48955603647524609245 0.49536891215776174269 0.50344540325265096925 0.51308447110814936476 0.52137211207953193526 0.53128249003892169533 0.53232884556340243076 0.54412951352271776706 0.52692354788817497013 0.54183880735099465564 0.53388778275583304023 0.51422877813292200422 0.52128651558006022793 0.49738145800291672094 0.49361987158916925678 0.48625018697403055157 0.46228419889069705118 0.45363882362875507237 0.42776459729786853181 0.40612239401563698937 0.38370851366276520489 0.36267558768561891647 0.35137859851721120474 0.33077234480357853297 0.31766583170107953737 0.28838593986452160101 0.26689661943909592789 0.25700684503246457036 0.22935718322665524238 0.21832736125587060005 0.18948422573149864556 0.18811502060968884886 0.16941953328556344505 0.14185546295415665807 0.1425187303020950258 0.12741056951732926406 0.10011956576775996042 0.099666497969830333825 0.078364190093246410829 0.070940632584482882228 0.057594412763604760364 0.063536571164775387799 0.049949009965746506146 0.057078587138618283592 0.053192815746200751426 0.038094926410355563207 0.043568014730653754907 0.039061569670008476629 0.02545590007748474437 0.043903086512656799845 0.042376035361467223606 0.02938441456290832865 0.039586133142620681669 0.040449131701322714461 0.05093530317852308642 0.043384039832324972075 0.057394367730228351698 0.053948067802790627967 0.060786648319570098231 0.075051050776927294428 0.080921641106506000951 0.090833056065898684639 0.09634982578200959602 0.11231612199302594413 0.10147177811697541405 0.11415432477623953245 0.10909742514905867994 0.1185642508410454099 0.12523681065244318678 0.13165759594173120917 0.11803851741654189378 0.12405743294698430568 0.13134086820478960145 0.12662949662923200789 0.1355078695429906277 0.1231240045821950374 0.11549522043089904821 0.11172154394161479263 0.12223174328167174529 0.1065801610889773321 0.10477781420212083086 0.098204997293816653769 0.081252788341172665909 0.07149351376151953652 0.066152869414711615303;-0.93960676379664187508 -0.79692670618026395513 -0.67155058933094724516 -0.55546159428475527786 -0.46645973865475959252 -0.39853723309562050225 -0.33604258858095781282 -0.26489288848195952086 -0.18943222687799249337 -0.10053013673197480626 -0.0033370465278931261098 0.085344788869339258119 0.16284840605108114042 0.22344178345372822658 0.2720810793341051359 0.29658358435653681129 0.30641770755444008856 0.30739595821955079114 0.31014881750195399945 0.30093112831223489678 0.27111932946702976821 0.24201407018691162287 0.2177239990068348674 0.20544805809478347558 0.21012656693508230399 0.21867777425939058378 0.24490195652276167126 0.25912331122145093598 0.22912283127605839739 0.17647273657983483797 0.12886217634149432776 0.077971457050365802766 0.0049549737735385956938 -0.067094404156885945056 -0.13360187746657667396 -0.1860010359389396295 -0.21963678933057420584 -0.23204389239699843572 -0.21759814377274322439 -0.19367726955323952276 -0.12780304204578191163 -0.042840503436608348697 0.079526415168391123567 0.19290170817661239644 0.28994310585159638327 0.37032471943330774744 0.43995006570299205473 0.52739538432265231638 0.62394074213572670029 0.68857077054816673289 0.72254462332677371617 0.69237199425268414199 0.61141209677985275395 0.5139604740443154407 0.36654423257134810532 0.20519422189427283243 0.023995396408985347758 -0.15926782935553501774 -0.30296975389915509203 -0.4026092614015558957 -0.4508563418404873957 -0.47110097494275976482 -0.42950283806730660263 -0.35236735463340262964 -0.27484921736689660321 -0.18423323445437839174 -0.10913417154855194202 -0.060617167482567332892 -0.038854745381399415083 -0.029434843519811682011 -0.01888673111798377241 0.010321856406471336537 0.049508429366632467072 0.11045811093319662932 0.17775391847384947042 0.24684881537921307681 0.32895995745935646681 0.38211758540936924256 0.44217222175702319831 0.48756746683970664247 0.49867942598894038353 0.4812757658994545884 0.44289087535129145756 0.38256674692739012222 0.32487569938262617075 0.24506065761741549491 0.16877444728920346084 0.07876242327814771127 -0.0060198977177526218421 -0.0987849010391745469 -0.1830151116981920123 -0.27259143066471108741 -0.34953712456311275547 -0.4043865541137167674 -0.41992210103627181095 -0.3772166353983491538 -0.2780779035473648908 -0.13987518860200129356 0.028109280856131121235 0.21631802244562547966;0.010802736759023415583 0.034404117012216205163 0.065517818134707653255 0.091691320684603949687 0.099736991384398926419 0.13412128389124322592 0.15885941961991811855 0.17872464096197629435 0.20074927787386118161 0.22794972123003820474 0.24355464133925824877 0.26727367404922347527 0.2793952588940002979 0.30312283729221989326 0.31085720020662555019 0.33083588190390417205 0.36016224796766982408 0.3793369098005715534 0.38995138888496860829 0.40183768225251309536 0.4356386946114333969 0.43991535103804230156 0.44942477087659421509 0.47339877465998669859 0.47518847510080264307 0.48015615212885631724 0.4940752869757468746 0.50345539815348316903 0.50091295027694660025 0.51200636086342721232 0.50235038637107309878 0.50220239106297115406 0.50791335760205302829 0.50446210281710701651 0.50990074469143542579 0.50160668105977146425 0.50046433668913270498 0.49152474494278103334 0.48267890128646034897 0.47237537581525917973 0.46943290713340601883 0.46153595004009412284 0.4462227501753966985 0.44120443820906590782 0.42505504153181661309 0.41908472332407137317 0.39879414915611816062 0.40510619062865110829 0.37968595843053715155 0.36279337377268061626 0.35775370116635923923 0.33534763259817135239 0.31409588498465340622 0.29789172306814015734 0.29670214714227999275 0.27567788204469195756 0.27413624968506744572 0.24147319566994349116 0.24212092193580553312 0.22613664947101158598 0.2109793317009670266 0.19713434815613276041 0.2026784457535724393 0.1905481166853819075 0.17765770114448523054 0.17582405103341627872 0.16692111162158132509 0.15286462251932855794 0.14599680976209000738 0.13174743379809716881 0.13766817170491460476 0.12730180272748545245 0.11213826085269959498 0.10399116378534668803 0.1078293887360024933 0.1076100427982784602 0.098552722555792796055 0.090573678944724400619 0.083113040339847440996 0.095418280770233759869 0.087767991321486132916 0.068041032723576422292 0.081566869931105512315 0.060990091540089733102 0.062945238457269236942 0.057363475881038447635 0.047801712915717622931 0.047660699266248683637 0.048078917056872123859 0.043950383851083844877 0.037662887626347188452 0.039214956636584023808 0.04192934817246534579 0.043453290026383518951 0.024904380956603581337 0.030804854808855364201 0.032494824475679633113 0.01486430345063212248 0.017712437869713978933 -0.002911861997728671346;-0.12417029236412903404 -0.074532981936157538527 -0.054982306830490774996 -0.062017275773324220811 -0.087803888826289241964 -0.099193416071275630763 -0.11283225590747808509 -0.090809873362053789014 -0.067960173868089709948 -0.041489813195128684431 -0.014121452798075223578 -0.010197163623029935342 -0.02432232805053922628 -0.044125055183328307229 -0.079538380561362739818 -0.12471748893071349373 -0.16047663154511970784 -0.18986132700983562871 -0.23522782795400221101 -0.24567422891821871778 -0.26821418119401829738 -0.27026546079970970027 -0.26395139086974561682 -0.22448234569019240303 -0.17839950787684227818 -0.11623612636019317601 -0.075755037009317890973 -0.014037674217731669485 0.072980196699282837147 0.14160940042259492766 0.2296688838918517217 0.30811252176400083513 0.3506644020246045268 0.36722841152995855385 0.35252310965164940226 0.32670219818352119745 0.26548394471374747727 0.20020455088209446193 0.13916557992174985459 0.11097606790621157569 0.10054997744433834261 0.078102140300670530593 0.044530797826199709777 0.010141371210461651298 -0.06235714030330163915 -0.14036908319166266357 -0.19671156282618523781 -0.23836188632152208178 -0.23252012202898825199 -0.2153190023644313833 -0.16927548714657578155 -0.10871065971766577518 -0.044811641671123558783 0.0028506094787841287051 0.051287965542942098862 0.082856490013231226532 0.10066153853803042062 0.10249349235224432253 0.08488417082054811047 0.049722377524443452101 -0.0078662551989300555366 -0.05678090436430148491 -0.088603299206430355395 -0.10309655477773690957 -0.10669773666771413534 -0.074024469527766964538 -0.026046899790066767311 0.067656612281715905466 0.18496405510968058628 0.25812085556158298472 0.32348413608934456498 0.36083153261055966876 0.34508672405020579532 0.31501059017881116731 0.26220878830853061592 0.20245164353966577098 0.13988822650118851176 0.10834147200493964014 0.10406518776402430559 0.14743524068064706167 0.20534273511772802023 0.27026572952093524949 0.33861822525931983829 0.38152716497007710394 0.42019766873500102866 0.46410711544685762098 0.48868681466851859874 0.49616826196318042363 0.50370214024584958334 0.44230154679794969619 0.34284638077753076812 0.21345117253181059014 0.077825643675728653492 -0.059911574042358257952 -0.20114422840390946967 -0.32132685424014884035 -0.43121789959431755523 -0.54149484635796818477 -0.64323413830405151703 -0.71658791599480842205;0.46840175117977822516 0.31197114818487137189 0.17951229410491342797 0.055177957054334876574 -0.063904979542051862373 -0.1663209470551627045 -0.24834705272888768501 -0.30312558623739188635 -0.32286001959469595723 -0.32822179671835638448 -0.31192757064364606823 -0.28351022351007421074 -0.23743871246634801198 -0.18183392774889828303 -0.12822258984065798559 -0.090141108652787335642 -0.057660338877803633817 -0.037289413185024045116 -0.054596561440732674364 -0.038728745335876432754 -0.045451061836258681292 -0.035401019685074162913 -0.016730736449293816953 0.036114339893086523647 0.087488089220981404837 0.1326217379752979153 0.18762027581971099655 0.22878418566529476474 0.26838347770623505184 0.28608165473631241849 0.28643432054712680834 0.26002796473401434962 0.22919854969344397033 0.21006102961123546136 0.19266435336833295788 0.15963659495199220006 0.14601917833219116294 0.14211792253084520876 0.13648785059042037315 0.11307271058249795948 0.096654169312132359737 0.059268806914881740078 0.041425000702904613004 0.030056629428274219545 0.019204720171467903889 0.02639790164384708121 0.02632752475180105689 0.051924029917793830535 0.090616678427568667087 0.13951997158699694368 0.17475411936776516497 0.19546553794851787011 0.182789263655847245 0.14853513471100604493 0.086518830355064690885 0.018989919142778140942 -0.064453483026784150201 -0.15907424209214801603 -0.22315991525346912105 -0.28637497110007248402 -0.32923954563526325323 -0.33177022824942753454 -0.30008826845766828351 -0.26359902049284927861 -0.23211657074610433926 -0.22165765813320792432 -0.20853942341284470441 -0.21771134438303538228 -0.24507442976185983552 -0.29807254981808789518 -0.33496364390577992864 -0.36005705637312657164 -0.36471156739652937917 -0.33279855506581146329 -0.28243799328613139465 -0.22307111432746246082 -0.15594309667400399477 -0.093031388579407583994 -0.05632012227902764151 -0.0051565468585532975992 0.044548658768709351041 0.10040008727010926726 0.12721584250076131695 0.14280998695510452312 0.15225520117782384566 0.16368811909628563916 0.18036388303020123303 0.19756312543778850599 0.19949463290523464232 0.20720738756713966144 0.1920612019411500615 0.16231381182516507744 0.12826761521574694958 0.095901350742034166541 0.059357419819236624525 0.035600728351131788463 0.038096784859553665947 0.050286749886056796022 0.061927892773383549918 0.077245820759334934968;-0.012545914917484850271 0.0099303681625740759104 0.019568454887746399712 0.043154476194320154359 0.047830206379596430788 0.041319271317161683499 0.023726668868258346534 -0.0058256076480173221016 -0.032782659611383234421 -0.064374479686223520791 -0.099496540101616876006 -0.11330113654405500612 -0.13247263008428269981 -0.1447991213478434791 -0.15336914484454564067 -0.11986392100300277685 -0.05469811917987115607 0.03099406350526869372 0.1441282206255678211 0.27335173013738406356 0.39756220603914316225 0.49593171519990986162 0.55206519205088533386 0.55612533291539911762 0.51821247783063373316 0.44158589111703688834 0.35087944487305267049 0.23073312116034336294 0.13285889084214175249 0.066459698617352194749 0.012888416695737862916 -0.001616716570938049255 0.0087460979260506090116 0.04254471824429999216 0.094212034673668162976 0.13352139323575692997 0.17236876310387452826 0.18862204434615861826 0.18259908136941346846 0.15230160960188285357 0.099124046664195650247 0.025657435910635659898 -0.056779025758189431705 -0.15213074682378097124 -0.26517190652954142349 -0.379724241489945602 -0.46576967968220367444 -0.52594405519916020975 -0.53062562702054449915 -0.48434820428064306874 -0.38192904379233610923 -0.27371408170480937549 -0.19281664085748870252 -0.13265919493254504924 -0.1026611999761828653 -0.081574689655357024431 -0.079950274110930696914 -0.09441108553797505909 -0.09865021447041537328 -0.11724551756419109017 -0.16336219940908328074 -0.21679428659999339102 -0.28414450316701928001 -0.33916022214183139116 -0.37859088451044753398 -0.39245881432264434485 -0.36521415206690277522 -0.29792492376239959606 -0.20003951537312897324 -0.089371528910084221953 0.022695371672318536554 0.12814072911837082192 0.24508751896257693903 0.32205241062363487714 0.3685081029451427459 0.37368872163185007373 0.34441470238038884855 0.30148403334295320599 0.2242226359650368317 0.13161106279316733825 0.035932462674006515613 -0.080401417682374756724 -0.20266391640274133978 -0.29301591900391377177 -0.35970507279345509399 -0.39043854304294056679 -0.37335665346189406133 -0.31766443085349649333 -0.25273032781575921479 -0.14319347102531557181 -0.021410981339339416746 0.082073872535177658238 0.17272452334896912229 0.28186066855404751097 0.39809619485590319599 0.51631778638474401522 0.67515607018166812203 0.83787223980203551221 1.0025767195637520501 1.127429693734059768;0.045927927145153028821 0.058425680958945770682 0.1024707718868942824 0.11565722717376772377 0.1363065160211711091 0.15407679301064552968 0.18418418647665246723 0.19178105335811956866 0.2046417404032867815 0.22412951591919003103 0.24802279765340617956 0.26292924510842169417 0.27023093915528278997 0.27097857984927520292 0.28174773086634935515 0.28512599373434843741 0.306169253884179704 0.29680195937717390731 0.30689648292650706374 0.32025805977527749269 0.31996798350169214364 0.31136237526473753423 0.32627814939177979259 0.31975972661727952717 0.31596061969963024074 0.3111723250604832014 0.29820206446595148853 0.29513685841546938304 0.30628836657330910098 0.29643420913310958298 0.28895453532179232736 0.28164680894639082531 0.29001416462526852236 0.28592952588133524472 0.28465714899349553457 0.27897344997174072789 0.2770764133449919453 0.2695896762181949069 0.26910238416258647209 0.27382953605590404367 0.27068616102505871357 0.25620945997220817558 0.25696463274229908169 0.25598142928361283799 0.27254327309929660128 0.25869378637336010174 0.26758001951808402241 0.26508181582011441924 0.27339877684863783669 0.28858982667966925906 0.28766968207563919924 0.2839889330657759392 0.30530477503416952878 0.30781322902643681871 0.31200545226980652691 0.32691177380890179549 0.3291999325483213612 0.35161948885301425038 0.35142194234335377701 0.35350440230576440914 0.35825874392841666749 0.37374806946949057362 0.38811902204865278421 0.38530108345423819127 0.39881096757940143194 0.40858174414462311574 0.40292837960875849124 0.41329709580111034795 0.41277674721498569532 0.41821761018843239821 0.41414590046572063997 0.42336887846292287074 0.41809858733024274358 0.41772114653176228849 0.41893957752864485755 0.4305830412630037296 0.42587544816955730242 0.41432030720520707234 0.41682757467831593745 0.39065362163670297457 0.38745278160994389705 0.38292257506766669284 0.36222792339719234178 0.35686448145027943601 0.33740953548236662929 0.32342870627897246649 0.30415056428787290432 0.28774614003481058244 0.27111701287022460516 0.24947895028661623562 0.22649219924306546181 0.20675153994819917003 0.18911481983788491767 0.16011721288371860705 0.13766191095920890519 0.10552181165239946092 0.086122326467922033499 0.051058106619005727556 0.02979749581889131263 -0.0026281578035922863526;0.26253225683862135842 0.31411514737847762158 0.35371269056188864299 0.4018538047326710716 0.43920496959809018911 0.45867281414870902934 0.4618588749377225966 0.45786318242066648132 0.48262951966384520786 0.53588070877607685283 0.57880215229406151156 0.54787061887739285648 0.47813529273456017998 0.35759211686233161043 0.24071954334268355624 0.1282767389066710173 0.030453863892751505821 -0.028421847570578789161 -0.077069611837738583038 -0.10783008421456298509 -0.1148163725276558772 -0.12069844134717605533 -0.13686005737557338513 -0.16237290475331200845 -0.16678253052425326408 -0.15101996476256088209 -0.11195618967740304794 -0.083541917215104288807 -0.082049376631297632478 -0.08566045187524394533 -0.072615264796603101738 -0.041523245466158438532 0.0062968849129533708761 0.048030265915257094878 0.078778520064773982501 0.10935196979688985297 0.12486355520979602884 0.12853362597197959261 0.12242306706780338443 0.14893308567101720685 0.15205982918163868378 0.13153667338727362268 0.069568376730372361028 0.006915146251541720232 -0.059125201897089571523 -0.1033768202149320109 -0.15078675253094339648 -0.22314205341410142669 -0.26227731412090427021 -0.29543218491370398793 -0.31759515841946539538 -0.30684644911185693372 -0.26544531855753727978 -0.246151847984231259 -0.26362600782331985227 -0.26344767136744023928 -0.24985770852320277058 -0.25141865604924290567 -0.29891048640659456659 -0.40331172118690389317 -0.52085504924291781137 -0.61040746410812141143 -0.64442821139058670266 -0.64344574678381161181 -0.60096366916420373983 -0.57764662353683204898 -0.53652394185421348194 -0.48357855071046679241 -0.41986055020021373352 -0.33406140003967932373 -0.25611432303238085284 -0.16534149795102054403 -0.092308954484250055339 -0.015867091495449604788 0.082720383969995162077 0.18214643734242869089 0.24404800547146468515 0.26137236413306180749 0.26337743613497927031 0.24330483891106627348 0.19887970866475762621 0.12474712830523673746 0.066387495565940340958 0.042790361241322509567 0.041453408833245240783 0.046946964942023439171 0.077731838793548210798 0.076713512151180635046 0.072467615107909486016 0.051993298872861450077 0.067375751595516966685 0.095743192480986907822 0.10560047728982323301 0.1060714668012479045 0.11113680359518469942 0.093487085051617721532 0.076026757088454050004 0.039790486508489306128 -0.020166853863886866766 -0.062079291739296688091;-0.19747516680042018211 -0.083064685781104388718 0.023348856629327386508 0.090180925596824806911 0.12755642192483049313 0.12117047131779122571 0.092656249083388708687 0.043090741248769708072 -0.0054571777956352388039 -0.054309274430191567529 -0.096271952205066249619 -0.12312191500095691354 -0.12242443365530494837 -0.13060323183849509299 -0.11504447423682576113 -0.090247704608013942784 -0.08346043643032596826 -0.078114622857957824453 -0.10321665889256434467 -0.11982515225513758195 -0.15301786530507233142 -0.17645414385884231057 -0.21995271599972268661 -0.23442004470489061219 -0.23709355917391036761 -0.21087631516210172955 -0.16211384376827420173 -0.067642890658941010051 0.014757253534893946534 0.13950916425742507232 0.26837738938650285148 0.37989137663236172138 0.48523179347374228998 0.55823055951690203624 0.62084021398885091969 0.6491144030604234505 0.67255030588233133404 0.66273656880518949652 0.65098755174604383544 0.63560445658029818272 0.59851711680139052518 0.57041252832957733965 0.53896541771280981337 0.50090203268283561844 0.47692402542789746889 0.43469123141377952191 0.4127199684891898479 0.41708801248523436067 0.39933914524336516783 0.3891759366204067816 0.38082377298128006204 0.39682834598935007309 0.39973185994137533372 0.39717300841720776239 0.39871555281736870135 0.4173050502004224116 0.42418496352147294637 0.44913201275776021282 0.47765189652446882196 0.49921131958423314856 0.54350655134411940406 0.57460682531768902948 0.61990076718762021635 0.6399431682252046949 0.66873877583990670725 0.63990654284089198978 0.60799722431315672555 0.56986914197758364864 0.51210181559842582466 0.43638649031823417701 0.37836386766883206567 0.30845363735028696883 0.25168986149279093389 0.20634861095275977561 0.17231592805950857183 0.12929742953509265613 0.08643850627644802942 0.056175504859394063961 0.0075295832395971071943 -0.042783946122218148578 -0.091478506417691965447 -0.14671146983899188698 -0.20110645896273557365 -0.24195250647971047742 -0.29370416131382587333 -0.3151459320057466984 -0.35614941092497021113 -0.37553322724480753259 -0.39417101572039353607 -0.40275412362535945032 -0.42769931501201491342 -0.4262651456779002479 -0.44243862082795376578 -0.44215517189544334409 -0.44685557331434017092 -0.46517204226497987918 -0.45493744267948382776 -0.46486717171226504819 -0.48760242974025103102 -0.51111938983116023127;0.0059817097431105687236 0.050706645125894893311 0.089204084951496009914 0.1158216361711178477 0.17743873174799035253 0.22082935081618942919 0.26786644724559882658 0.29417677747864323656 0.34505332618608131057 0.37678441836569864787 0.40464477058464459747 0.45127482739353130814 0.48061617039669540796 0.51346534877583038803 0.5362537048605517942 0.55195480589441436869 0.5660077115377633028 0.58821977007819492567 0.61681720272750528711 0.62261301937773361193 0.63450792078004591978 0.64247305359376927214 0.64281170828999667499 0.6405971729791066771 0.65274883015824236576 0.64085483899648743034 0.64766471991020369003 0.63156599405197932917 0.61021111535600713882 0.6135725804205769407 0.5927937385534558512 0.58888465124966182795 0.55833517945823607498 0.53618346875469924395 0.52206681318827730109 0.50946689851348858635 0.48704674283930970979 0.46444724105140927639 0.44027663169694958301 0.42412238150567754813 0.38966008392326523246 0.38621648898549698625 0.35161264599408009746 0.33561462850410667125 0.31624948126737167931 0.30637098033567916611 0.27689204286724078408 0.27240113839035040577 0.25287252822774580752 0.25355524317740779638 0.2393727383683767751 0.23188430419982447583 0.21553299985012724926 0.21354994690321291162 0.18744784267517664023 0.19120869327155062822 0.1710688111351870988 0.14797402408218615633 0.12127988750241244786 0.10023554920806658497 0.06862162194791215919 0.040890108132403180097 0.0056042871273367647275 -0.017629437746810985854 -0.030247128006949165063 -0.059145598426368559131 -0.091762810554114185302 -0.10490658127503814379 -0.12069000353955551541 -0.1340302256766593425 -0.15516679262484692203 -0.15653088097080106178 -0.19011361360240675022 -0.19390773385659912376 -0.22971825068026416328 -0.25543545871233924727 -0.27111676125337436094 -0.28102851553699276232 -0.29613284260187766606 -0.31700317303689817816 -0.34430230563253416687 -0.34604571269179434934 -0.3495220831503637049 -0.35872619497323482429 -0.37750610109486093524 -0.36404854542480130641 -0.36847080062526060829 -0.35078138878152231861 -0.35792358711861971265 -0.33711307936837558996 -0.32280612985441148322 -0.30515729560691179367 -0.2734023214833695703 -0.2608711957784155544 -0.22719378052206387619 -0.21991749859109854803 -0.19538936923026736792 -0.18645848839517112361 -0.15859972719472234526 -0.14524635307492550496;-0.099810837323772355623 -0.09901830169293045214 -0.082898758690311727393 -0.0685199465553121001 -0.057381124600896983579 -0.033243558936995466768 -0.030025841046875223483 -0.021090961564752538221 0.001763426733231328097 0.011289198769420048796 0.015062454142178214808 0.014959019306575532804 0.023109201415947144137 0.043614611155644571194 0.047434533483079639737 0.055473158196999952652 0.056169098972763405186 0.067309140086287105875 0.074809508495444737575 0.0726375158655042652 0.084190570711376144786 0.0970981331344708265 0.08733577381997149891 0.10542299595399173828 0.10077334089324496702 0.11255359039641915642 0.1116959976780137892 0.12353962395531055407 0.13244779722626842666 0.14288940216265105798 0.15337151020282471792 0.16353564658478406124 0.18997307400630744634 0.18414119547488613793 0.20023507413762445251 0.21782364126420566963 0.21738988404491230155 0.23200240348010547908 0.24235169718304130915 0.26198297983396362509 0.26990775543373923817 0.28798710558183182595 0.30450079977894772831 0.30415735052622672185 0.33096861948497047212 0.34662580237375661962 0.34412217310697729156 0.35913576215676118464 0.3902886161038271462 0.39843288424862360886 0.40971695735683494322 0.43065154581034753578 0.4529565507217244158 0.46999814561054836792 0.47626370214774971235 0.50078302858671153164 0.5045563064394924524 0.53437299315613118189 0.55131926295553190798 0.56812818507198092899 0.57034788876770992072 0.57841704563483897772 0.59839913414096390643 0.60568637379701073531 0.62016955116216720967 0.63369750172853378523 0.63526093447540155079 0.63895228125236280814 0.63437744929048234255 0.64616943455518738304 0.63180302177004810105 0.62994704412196478316 0.6285647715628238652 0.6306996504575478335 0.61912363986935148308 0.59267465577144462507 0.5879606829726080619 0.58007383857438410413 0.55786436612345913222 0.5327987618169935935 0.51333739223283769704 0.49214480322360837361 0.47459413081708906601 0.43870982772035099773 0.42320320177164327813 0.39380491139533779776 0.36056013056368663161 0.32370000150836009123 0.30510542063915641053 0.26743980380545900877 0.2374454656021590393 0.19346524343706278382 0.15797100243079501003 0.11543766043664177579 0.07727095152404632461 0.046559405146362912997 0.014821509174921788932 -0.040307238720540920773 -0.064112503936512632574 -0.11398598992489758497;-0.33565138345702377753 -0.32867502409513293937 -0.30578378353582619242 -0.28827399603444453513 -0.27497399179463372088 -0.26530441381105668297 -0.23441722802614919918 -0.20819986820425828711 -0.20470251360752261816 -0.18014972036536849864 -0.15962178649346192572 -0.14140812697972390821 -0.10158600511687478074 -0.099522692559316006111 -0.062625416722852753071 -0.053259875973603910959 -0.017846373702516491605 0.0052042142399188551574 0.022370507236997350109 0.037657575667192785818 0.047769783722365899425 0.070415160891520597874 0.090591331524613835646 0.11782519463953550209 0.1479379326761381952 0.15454213756266174662 0.18552361518047474909 0.20578704228846603219 0.21382480716932153464 0.22932771229557477599 0.24156224494563643956 0.26464889043841927085 0.28539260302816632509 0.30195817219030912648 0.31860867560561750844 0.32481538648493485377 0.33467549107989486012 0.34762691063595280161 0.37059649022860430279 0.37288991153637485176 0.39246668042791421627 0.39902520389745532725 0.41275392584777964577 0.42354451891246402973 0.42848578840991552452 0.44395119665177085189 0.45805106096528824811 0.46296013651678247225 0.48341281825556059459 0.48596525513986188471 0.48979314102741355885 0.49531459926905885283 0.50560122875402102594 0.52025309588220602919 0.527873298563461546 0.53854992018643677021 0.55566220654937115153 0.55118459642102435314 0.57329899659208893858 0.58096018198031429414 0.58651502776119646132 0.58317363424186441367 0.58862679479988078146 0.59702442439325886792 0.60427539073523983681 0.61402502528037450347 0.60641126772028275393 0.62104243611467069286 0.62095282319426547968 0.61967710440627721269 0.60784624221127447896 0.62073725484037356459 0.60418991129924581873 0.60359173387471576344 0.60787067970782360238 0.59972204206214729805 0.57945474123322848747 0.57379607846314650832 0.57045199252736100703 0.5491868424875372412 0.53883414361312165219 0.51191047452518134708 0.48162577061322914274 0.4663702567849607461 0.44320336220492806412 0.42287248353454109928 0.38376869077840314315 0.36229772135560928126 0.34150676331576046429 0.30508812150894482063 0.28041031246626624274 0.24171039605558239383 0.19190167726647819335 0.16367615857393855161 0.12212514669770235809 0.09085356653395874893 0.047644263072797232716 0.01032153264030616531 -0.037652478407419545658 -0.064698984609152521141;0.734516477366806253 0.62672733714767125957 0.54547749201594297741 0.45500501372995455496 0.38705913427272908844 0.29025877871656952101 0.20048324636486314354 0.094228425497204448824 0.014854679472035572929 -0.05271317738248113699 -0.10606143446113305839 -0.13158144553500800145 -0.13152516748498926935 -0.12542999808536847706 -0.10907568488764513015 -0.094079448961816206087 -0.052860934405913301282 -0.031150624186823929612 -0.0072338937353469646638 0.015942086250494855171 0.025495547599052578724 0.048531681723404274109 0.052799924026388583842 0.052523749510363142157 0.023176699898351020568 -0.0034898640787381345757 -0.027078989641466398586 -0.069935143590641818401 -0.11252473058394771299 -0.15644569311862288608 -0.20361882245780046907 -0.22306234855665363348 -0.2206909378362280072 -0.21151374361694549875 -0.19791346664899051033 -0.19289453489185284796 -0.19935248968714386342 -0.19536626127214651305 -0.17590818671148500396 -0.1554601333273006869 -0.13609843710843541609 -0.087766400757267604149 -0.040784677944659390725 -0.028360791780712428511 -0.020631901339601528556 -0.039509631936083325354 -0.059000095227152965505 -0.067100202016015908502 -0.080290858141272167248 -0.089574630941737468093 -0.11180407075014552054 -0.13733419780227190676 -0.16376180125960568268 -0.17111418835237041103 -0.14318354593352364268 -0.095878688857223795527 -0.06032281788312669063 -0.02481098970722390995 -0.0076157811547084728818 -0.01117786959924516911 -0.023961213655629393093 -0.020703515213816366114 -0.029648135018405165353 -0.052735942188048355594 -0.086616609695531129876 -0.13074411271082966857 -0.15070897051879014739 -0.15635239394051200779 -0.12070812222454443963 -0.054842765690801292822 0.038047637984112994691 0.12966678324129110589 0.2361139693681564844 0.31388996823530840308 0.38769572323333900687 0.42490044890330574967 0.46533171501262832193 0.47028755216759660085 0.48956779320604804084 0.50091768216947241132 0.51388536329469269859 0.50175437700428748844 0.42322616825026243559 0.3327709977565538324 0.21300439236814924793 0.071011337492149800843 -0.060499644853081603613 -0.17502026002069179245 -0.27297056751299181299 -0.34795789188846160123 -0.39625514876549655652 -0.41630757899255510512 -0.4007496283873071552 -0.35172940583706657769 -0.28250632613861348386 -0.1875015736769334862 -0.10720119979276619693 -0.036289762126076006987 0.0045350162731893481002 0.012538227568257016842;-0.097396277393580088511 -0.048951124325017733585 0.0050392486828317942238 0.036532922754055174863 0.098827177252282405462 0.13156240850893669014 0.18080360029634184871 0.23544810506148855511 0.27233241323551760082 0.32466649404646846788 0.3522190236902776328 0.39929458454003996515 0.43212005194413322107 0.47538481052154452078 0.50696496300659110723 0.5378680411748665291 0.55677607395044959038 0.59773732965475001588 0.61658003871990574307 0.62918814916486653921 0.64866092517352869073 0.67648669639768499451 0.67022587568437375083 0.68855937755618956686 0.70147981239731971304 0.69379906152329196001 0.70502099422126340844 0.69529069333338122672 0.6888323014320859583 0.6739686148932968468 0.6612009261809521643 0.6681751436852345627 0.63659146035387170759 0.63468602058215672912 0.60959437057551935091 0.58336646881678944077 0.57713663445903995441 0.54569184115100977106 0.53415682471930991948 0.52100201836592152649 0.4936467719795341047 0.47087183301531576607 0.4422974061606327334 0.43557826879160560507 0.41544079816132739591 0.39774698107676498271 0.36269235178885494975 0.34708705444961646114 0.33441883937112243386 0.31231942727157768758 0.29554318627833575661 0.28211568280394300201 0.27614648821081011487 0.26045330396677129903 0.26145356900871574712 0.2422456089682860636 0.24526244487512605108 0.23712112490740377968 0.21975633009655590189 0.20903401644969504813 0.21180645453389293498 0.20163109767332229594 0.19959396548595975673 0.20450719641269751725 0.21839426062422473418 0.21142066766910463937 0.20990019373432736161 0.22725750424500421043 0.22974195384776696649 0.223806124936398676 0.23433044696930946382 0.23665490176371084541 0.26029933324873150147 0.26529522552750467446 0.25199240843071141205 0.2656113502149437533 0.25620186613916240415 0.25654311175211830243 0.27046395413833929089 0.25355446450224577992 0.26243090176960842674 0.26080109054390882006 0.24984569676047127529 0.23815433197534710552 0.22431759927279923406 0.21822457041089066143 0.21120324020642378127 0.1932702104730845416 0.17310121270701511742 0.14287759621930151699 0.13989884966362534091 0.10957623420157729111 0.092535588009019606459 0.064654606299595629437 0.029603456947304148533 -0.001862824817066825343 -0.021022939803034743772 -0.054090272983893128433 -0.080380111160022069128 -0.10123371836958817982;0.21331814266183216078 0.2305528810152205621 0.25178968094427378599 0.25827646665789322222 0.27857035114583211799 0.26868489017304308941 0.28649053667105583987 0.27542181213981031807 0.27198851768435972076 0.27268120358679809323 0.26513173495439906757 0.2357400510368328761 0.22891387025264875454 0.20770798908031318231 0.19318635755763441386 0.15513740248052421133 0.11912004708331297431 0.10179707309898126943 0.072114372885059563334 0.052819054868381613843 0.023905007333045416584 0.013015188711943077859 0.014971197991244255404 0.012226098059188936218 0.013014509983072956867 0.0028209447594840660577 0.01077578082777983122 0.019807169284706976214 0.00080923340880625048432 0.013488379113403210427 -0.0082591904780755856508 -0.0018055964351717649664 -0.016190617366601104538 -0.031890397744637748179 -0.024555913257469440258 -0.042444396420385388513 -0.037233020037750821918 -0.046985353187128590935 -0.061551399803993288307 -0.053874773759959096453 -0.056176421928068008549 -0.057449752511909500663 -0.040527331296267760097 -0.041211344628791890532 -0.03677741376263671258 -0.019105864222048931506 -0.019164509815362686801 0.0014880533268937239273 0.0081564942399827179698 0.036215507701221741343 0.066774411258044494288 0.0822854943541729833 0.11229513806327785785 0.13233434757290016281 0.17313589572693785512 0.20654515200246095774 0.24190043984696091295 0.26602185739550487931 0.30678001075354693894 0.34265808338686049028 0.39348755797121126587 0.4190108242558480689 0.44518744125218084884 0.48010541533474015985 0.49407960279542256776 0.51737590371132735623 0.5435091155700016996 0.55982198144421246866 0.57441950466221558536 0.59114776384803757736 0.60067637993607048141 0.62001562067815907398 0.6261280654087543196 0.6559994076007901187 0.65242863103797621438 0.67773433577040709253 0.66736458946272203541 0.68179204487024736014 0.67991359243637039533 0.69047741430268982921 0.68182311605832157664 0.67606257423811066953 0.66443049785652896766 0.6575285408560747058 0.62208510600142707947 0.61545223108484314878 0.59635859775146093931 0.56247178358351246352 0.53938654806892283311 0.50693887219675060063 0.4598475196129129805 0.43118849559531774451 0.40016713324607683377 0.35486600550288643907 0.32849658975530132698 0.27414622363504331792 0.24201637666090233814 0.19232150306333015144 0.14675952450204332589 0.11808682252691010683;-0.17995962912561500047 -0.34811178126453629078 -0.48662413092794443159 -0.59849702895126943858 -0.65809645449760434399 -0.64255114415033820485 -0.60192331493127948505 -0.50079995004149069349 -0.36893918377288331678 -0.25645914849287287929 -0.15283206464079682196 -0.068412668418823235905 -0.025613299123571013627 0.019627242286555292988 0.02449758233981858338 0.034306758325485915695 0.022090781885571744714 -0.012961676919965860535 -0.032167492442835801669 -0.088790840639004081636 -0.1237249257615605641 -0.15175959326515039982 -0.20197286896266195 -0.22498664925918293589 -0.24195584666536179563 -0.27614128832480383524 -0.31602020795673863018 -0.36897034520772309385 -0.40140600242272833631 -0.45185813501103311296 -0.50179116888744002001 -0.55755163255105322229 -0.60056291898785540972 -0.61235949610268758381 -0.59332217675246690103 -0.55495742834165351365 -0.46596411735782855557 -0.34098182826556489022 -0.19636291207757183841 -0.033300324448163394486 0.12767278511052576606 0.32059573369516125574 0.50279545571843209384 0.67174130920529973032 0.81228669109322459985 0.94341522221333673492 1.029644314192013077 1.0889375082055294808 1.1050932678970133427 1.0623840746054913353 1.009230265838015228 0.92290720510818435862 0.82875841755603663064 0.76810997603900876829 0.69892284512206348523 0.63346109919297577395 0.59635049991852528972 0.54134651827376067956 0.52258154499668618698 0.51189422787318972219 0.50315071528366628328 0.51756088906111386017 0.5185155388453606129 0.53223292966561386308 0.54061754313907850467 0.55325957473402775921 0.57770871959904657178 0.58732997124794339427 0.59495407766103614033 0.58610864761416880953 0.58594415371061925324 0.57694457681956934358 0.58464351942613335122 0.57857436682143426054 0.56774269089829731971 0.54919342830892570184 0.53767623129290054163 0.51395385300456053468 0.51107081802335718734 0.51872302299838601858 0.51304057063732688704 0.50781479245128235966 0.48552666182458709132 0.47627491689198281355 0.45679230408331256141 0.43633872220032676736 0.4024249238844804788 0.36688775828966463388 0.32769376773128372493 0.28975451566128301861 0.24180242816169672526 0.20952868786735498463 0.16309056764367341197 0.11661650454469706106 0.07936571670194049466 0.030912051490293742523 -0.0161077988830479156 -0.062361988699559667282 -0.11258909275132536476 -0.16672834609520792437;0.116065674913021874 0.14065378764235805797 0.16853673711566988236 0.19354134385661150852 0.20845166083472121965 0.22902957722913722116 0.25619905170749202039 0.27468257562635112201 0.285583303479587991 0.30634196853154793683 0.31668751383050958159 0.32179384767223628838 0.32392787430861996745 0.32300230509160920978 0.33983479396535098971 0.3344136765480802409 0.33294820081698328629 0.32688283565432102451 0.31266914465927486688 0.31632134255071386875 0.30529824643059622069 0.28820248847993401586 0.28396832662491078292 0.28842510460232861913 0.25960667448093011078 0.2636747367171062284 0.24914656810012258958 0.24055218643093156938 0.22601623390362060584 0.2060351166352135388 0.18377364946124657985 0.18616810246816006824 0.1653389764866567968 0.14307005415563120443 0.14918162324965333898 0.12534700645996696422 0.11287754673476910194 0.1076235899734453022 0.090178610725158800387 0.067022181723917897966 0.058008358022276503008 0.053268045271404808327 0.039366337797892697603 0.035124758342762608943 0.032984070333339172987 0.01019435261063978207 0.0063419978383954913118 0.01518411516968042399 0.0089720918803975549527 0.01733325214954847468 0.022324828442042008586 0.01557910952124719195 0.01964145141067545966 0.043434952807332533053 0.053925909442881024558 0.07718846336937827679 0.080997834064263737885 0.11484962276135544934 0.11996423946301416896 0.14450132953164485095 0.18608617765096596708 0.20279609586770064311 0.22633236765900952014 0.25008487741386564718 0.28666623865579515806 0.30725359751160119526 0.33286919784899582364 0.34906648790708821872 0.37381176537823995742 0.40574811664263121802 0.41123141412215152846 0.44580935954285105804 0.45963060367500202519 0.47634323236152076309 0.48629026462788899066 0.49734177650197286535 0.50309615994747047818 0.51091552450949351272 0.51505504997839779424 0.52829137354895772116 0.53306047856904648086 0.5400337138262313319 0.53418710796202706348 0.5352645632854047264 0.52423134451623987218 0.52795022613954445401 0.51612481314219305073 0.51152787955187495328 0.49412915798018325342 0.47848505471492708274 0.44792795133775037408 0.44815227330951373785 0.41972562153082004777 0.38880455004526903728 0.36098078246792042467 0.34292721628332650807 0.31169379422490373077 0.27184192181398975086 0.23549880690083152546 0.20282304299528433611];

% Layer 2
b2 = [-0.079525759995836997618;-0.11247816968663160164;-0.16333159528596277732;-0.19247181406146188221;-0.22775905663210416208;-0.26568843754498944199;-0.30105486040354706434;-0.31822435520357139627;-0.36009625586917470841;-0.38641297659785217578;-0.39605691971612461133;-0.40408468535662173116;-0.40880180293945883596;-0.40648196270486647297;-0.41640229521429916737;-0.40685257514607486851;-0.4052244233322960798;-0.39667576735465170934;-0.39787679864927816276;-0.39856909935133061351;-0.40228654506826122539;-0.3919761466528831062;-0.39829239117913234347;-0.4079887242825389615;-0.3935416809811668748;-0.39302190746482584816;-0.37601702516355578476;-0.37238097714129941851;-0.36568517499900199397;-0.35115657514601084088;-0.32594166475784897008;-0.31935135951093435169;-0.28476548612425117701;-0.26667298908801040369;-0.26068954646600150937;-0.2359048704427581522;-0.22487346906191366114;-0.22911885225930736509;-0.21141248012977162385;-0.20654646718823457818;-0.19758646248781516763;-0.19294040683235982869;-0.16731873536676344916;-0.13877171639903662648;-0.13581723018194902242;-0.10417449111705098796;-0.074101959143696355392;-0.063045937924243872219;-0.038684952849467144076;-0.017161230595587606551;0.0026156528538488921926;0.0085390233576915150482;0.01803445488279475234;0.032613394979521419248;0.021384810382038932364;0.0080334251496231127987;0.00064437496013726816048;-0.025768691168104464195;-0.038653267018253674447;-0.047391545266890357235;-0.066127008562246875067;-0.060509562552790122081;-0.084105867115000162992;-0.10033928840322639542;-0.12480198285840475581;-0.13913641390129896647;-0.17624320540221821707;-0.19976766641307977523;-0.23205293321188930067;-0.25111675216775575237;-0.29095673564461033145;-0.30152047247757052251;-0.33936258996159296419;-0.37601605272905375132;-0.38552006286123474688;-0.41777825225444542578;-0.4306561560891870033;-0.46169855615388277759;-0.46392087202340082097;-0.47609559581770705128;-0.45916379460994127815;-0.47138447780405240417;-0.45293686881884193118;-0.41896121759164095533;-0.39199773420849265415;-0.37910270360427372749;-0.34714256853164321415;-0.31837172424226040102;-0.31401861283488519128;-0.30204076167161497679;-0.29630911896204586986;-0.29790752541346005033;-0.28534647337038021586;-0.29589929235497475224;-0.28583811807670705951;-0.27926042249911214865;-0.28421994883803503029;-0.26797534705629788565;-0.27254918260461197255;-0.26298124527438815345];
LW2_1 = [0.19268337738095031586 1.493614932959326902 0.058721417543694018337 0.93471230315771602903 -0.17269150792110687931 -0.80721839127894789989 0.70767989015594146007 -0.29120389440433414041 -0.020683163059632633102 0.63992018373499259809 -0.041197641750242326719 0.37159940937191610066 0.31860798710306476034 0.061336818001602649852 -1.9972938704492266826 -0.049665524006077071961 0.026322656989799089744 -0.15494547245465634111 -0.53300582889024195055 -0.06855194555297149106 0.062723072400301685403 -1.1437465529880230797 -0.11422987898564242182 -0.12384628793120638912 -0.36620332549582251813 1.4581476269094202358 -0.094017826248065802797 -0.038111078404336126702 0.3473027634396041452 0.12201356114607245229;0.19255255960207565136 1.4063814026002459112 0.041972459915563753441 1.0548685675242195359 -0.22251100181983660131 -0.73532553496458497033 0.70892786649547023803 -0.34737086656184967826 -0.058091659750792473682 0.79439442595095099975 -0.061511956152120253472 0.23486828114010735447 0.31939681631321925614 0.060098290334668111323 -1.9316183473150254635 -0.077916482924891450335 -0.002189337487677603996 -0.18552690836366417249 -0.357396111638403291 -0.10167554994401646618 0.29199421268433667365 -0.93133459391738204758 -0.00059357757600521040588 -0.15688914756571900599 -0.41796547016157314935 1.4776691111355024777 -0.10936530171690335422 -0.038263566893213800391 0.093923380206480666654 0.10851959410749623114;0.18322624240289486774 1.3377119033153661576 0.030728984659627398696 1.1282912438731038662 -0.2626669942616383091 -0.62832014348396747483 0.67671145143355193596 -0.37354102526288995856 -0.087444106779400759821 0.92626095481879833216 -0.10182592829103359611 0.10880865945382924009 0.32030780201486791503 0.049917634573692859501 -1.8012468295240504634 -0.10558181746384712185 -0.048123024137500754194 -0.26161282984325390233 -0.21639417966815360783 -0.11221945116578287138 0.54555530382957251323 -0.7279176544413626937 0.088315546622971141666 -0.20018099504856476378 -0.43430403605923917354 1.4421913079704946625 -0.11210644652961825052 -0.048015114640047290573 -0.13344577915951558178 0.081811027460761534535;0.17413159692276916624 1.2804835623904453623 0.020616975456519259086 1.1520907584386823608 -0.28750000937396086309 -0.47790241866457056075 0.62092185543647271384 -0.42925327431587623206 -0.097074551655203830669 1.0357957607359795649 -0.12104432802670553326 0.0017175239118040362338 0.32400475491089564262 0.030420592680474440456 -1.6154579680875187364 -0.10637926559139661287 -0.10337663516174341871 -0.35758872102453004294 -0.10939984448541255346 -0.14090740005120555578 0.80618145809476449148 -0.5382126869288578197 0.17164148312889038195 -0.25373284767746812074 -0.48042497076652324051 1.3621695913637974495 -0.12663479023481827301 -0.041423053938314545463 -0.32215700509872863266 0.070713871688836887897;0.18136059087470396411 1.2280800656401578141 0.016667198206396748039 1.1308961046322967281 -0.30977800036291258667 -0.28800314114286990064 0.54938615303586091354 -0.44733797763660088087 -0.14353666487347524483 1.1230806041001384354 -0.16189868679576205346 -0.072968859578366462859 0.32669812110734286481 0.023901370754383574613 -1.38510687156778034 -0.13879485195107338358 -0.17019876171155756683 -0.46965699077278844076 -0.039381906345765486932 -0.1695249359545436818 1.0567044170519841462 -0.38250879403798065947 0.24466922131233490023 -0.27573092163756673934 -0.5147140186129248729 1.2425203426670579088 -0.12595197801820789962 -0.02098149018325171089 -0.46511457648701381995 0.037353518414572246809;0.16940709221103575355 1.1860013771070219146 0.0028678458002516435399 1.0591482013791326811 -0.33801678584656008608 -0.061127308459000176399 0.46538776216188715296 -0.49288860061633071874 -0.15973446473723701411 1.2016983404424068649 -0.17733632838508259222 -0.11452649676272462498 0.331471023357057748 0.023908601889473746205 -1.1198412276557023759 -0.13279875645864297473 -0.2428997018230521221 -0.59166824576360710353 -0.00034412195675372200462 -0.18417103309223784025 1.2848484076639059559 -0.26231107839898282208 0.29529890315861312411 -0.31603681452782705907 -0.53225602610410538418 1.0895567906607839248 -0.12787958407097391178 -0.023503995830056904903 -0.54563597200585933766 0.016938432552988956503;0.16662152782544228935 1.1375952819576002906 -0.0024993804860471533109 0.96304121170706358246 -0.37563824247714605598 0.1903365467445015391 0.38691175710887487638 -0.53032404749294104196 -0.18784321749451038386 1.242583870172679239 -0.19764285412817411691 -0.10143074602253529526 0.32620459260167961046 0.028099941757989882474 -0.83474260909168807032 -0.14694186562460706535 -0.31661583226285050507 -0.71181398346451307813 0.012297688052013745069 -0.2052314693862711259 1.4802148483737416207 -0.16907716246895534984 0.33937815213394889602 -0.36275574721367165321 -0.55961155300594045414 0.91398453160304349296 -0.12559510233880000207 0.014391405775802897093 -0.57117249100564082553 0.0043743751252347685271;0.15878284555986996174 1.0815319959210745182 -0.0037359715529056516416 0.84411020708045059191 -0.3957515705919988358 0.45350024211687123277 0.30906520247528401768 -0.54081994218763396187 -0.20681934874664897883 1.2624683173163080419 -0.23234209474112441085 -0.029912341207652223818 0.30859152129902872597 0.012874167983943560906 -0.54112296350693789293 -0.16568008905016351484 -0.39199270074917053064 -0.82004659791095735333 0.0045857078334013067974 -0.22936821243848540264 1.6297425156173386274 -0.10927585082814121609 0.37314493382911118058 -0.38069058592733179269 -0.58185590985620161408 0.73092042284704794586 -0.13991670852181037343 0.037425774255608224017 -0.5397577357782772367 -0.01936742385187882956;0.15365035780057739734 1.0125733331690998096 -0.005365685126305617253 0.7235256451445871706 -0.42580221963878694957 0.70663682866581134512 0.24115940098082416787 -0.58241425456328110855 -0.22343285731313716758 1.2484507334378620591 -0.2534236590310877113 0.10502047001972553142 0.2681442134423828727 0.0063179415258248425302 -0.25318978598609725994 -0.17695686795636722533 -0.46224625175451294901 -0.90696037197599022051 -0.01432591789699002964 -0.24066392763780658504 1.7187035887271331358 -0.085176449287680949807 0.41349165298055795548 -0.41258042394034744049 -0.59442602757027651617 0.55540445825128870183 -0.1245936105516825404 0.056190053556478582186 -0.47382445744537421417 -0.032211899347732692034;0.15387138681542961161 0.93203587569458290485 -0.012095853852499402828 0.61421710780591465273 -0.44352626053676336149 0.91687196328834175141 0.18980876853556255535 -0.60149923676397931693 -0.24366336178500211385 1.2173050550674233694 -0.27678590666946645271 0.29789006461844252938 0.20829951199164303821 0.017274451155973046673 0.016882337023050874442 -0.17120968928461050007 -0.52354514854018585623 -0.98082485504525362963 -0.037676329435867447759 -0.24813981084912650754 1.7598293093424812739 -0.090786931504937606885 0.43193955092325952982 -0.43532124322714282894 -0.60924678929450770681 0.38235314734774339396 -0.12319418053488929987 0.077155010705844975782 -0.39417260985071800317 -0.039901076337268415184;0.1506261071163197407 0.83977808781352603074 -0.002612805330153335822 0.51752096586002949152 -0.45597312296993236513 1.0757851980915444923 0.16118135326921484429 -0.59907292851834725855 -0.26667453283745967685 1.1665659133793209179 -0.29405280669144040484 0.53651108550281600973 0.12934679072385563137 0.014765906853201758026 0.25526447955481040841 -0.18279739865036448432 -0.57133849062917152484 -1.0168977770830094354 -0.055964547339351668198 -0.25249582377327428606 1.7396409883913004357 -0.1208021000293212216 0.45477452263202922111 -0.45760945838187427892 -0.63086144790089182521 0.23902935505570271912 -0.10687064720815003804 0.099469831877986289448 -0.31190717615544033547 -0.043929134923068643981;0.15005722547881042428 0.73631150970957659485 0.0092925659743971246451 0.43774302306064077905 -0.47731033633912495207 1.1680701080098385702 0.16115109323143814168 -0.60706048022917169504 -0.26776120317299045848 1.1074225755760356282 -0.30316619963362684276 0.80226453229219607532 0.037944848358965721502 0.034390750719493677623 0.45315245232077666637 -0.16359097715271547768 -0.60281455342430423361 -1.0183792977034449301 -0.057248098779461908947 -0.25569779237744122424 1.6583537947435755822 -0.17047676051563567801 0.4820532120142098087 -0.48720554050708281268 -0.6354529724756157183 0.13251112998849789992 -0.09718613083195176694 0.098811120720724746058 -0.23972378316970704981 -0.050119218024708360459;0.15504460324574242946 0.62823880799242370898 0.017188604319224545791 0.37372337896473811769 -0.48299789491578332123 1.1861133349945056636 0.1911434669178357082 -0.60553393042337855245 -0.27234035012898222261 1.0586899453995455289 -0.31087102157031504257 1.0678941249783944212 -0.050732124010694351623 0.045260422493144970846 0.60628795192318041263 -0.16295158163132261731 -0.60998611122518997529 -0.99457398899733040487 -0.038159672842112329905 -0.26155578065225448814 1.5296252736934696781 -0.23252626907670936873 0.50023321781062912716 -0.49838950656418207208 -0.61097190262021860985 0.052669930944644026416 -0.070975680241348260147 0.097523182042494396815 -0.18595982855269158063 -0.061502029854419500154;0.16474186533116896847 0.52060634730190347153 0.036972870783919663251 0.3258754070966025651 -0.47347605018715799297 1.1369111730474079636 0.24883431649144024944 -0.5942424181784440318 -0.25650795040886864573 1.0258192218206940716 -0.3194018949141965158 1.3161705084848800418 -0.12888436795336291607 0.047154208031279419566 0.7107196470667428434 -0.15275426123577745541 -0.59521046208121108911 -0.94764496390030383832 0.01937709119444056341 -0.25858969071200077483 1.344735912450592652 -0.30810998351700880082 0.53072694909021167486 -0.4990440784706195454 -0.61858862001789716167 0.010359855999784959094 -0.049170877480650909686 0.072918886431716595231 -0.16200679134143075588 -0.072754202226916253604;0.17728018090103617177 0.42077734678769840304 0.039386244665321125391 0.29246101079038278048 -0.47819588186789846462 1.0197707554638495431 0.33632371099257118985 -0.58824263603763038422 -0.25063926422973320518 1.0247264060053531409 -0.30482404084796493882 1.5217779753400091369 -0.18033240138979897416 0.05652618988361137603 0.77116867438025960002 -0.13964583237895253354 -0.55724608654561536003 -0.90418680601120582363 0.12028830414300417662 -0.23773960386007911283 1.1274390322812442022 -0.38071184364907623143 0.53917542246010807805 -0.49020897611915875691 -0.599818711444344288 -0.018531382938779886183 -0.023620567696463506957 0.035887294756004946283 -0.16808465086336726868 -0.060732659637091235272;0.18070324744884050383 0.33640805214186475514 0.068004886798316246943 0.25802963893401564821 -0.47100984350464791817 0.85899334663352444608 0.45553345589080823652 -0.56813401445939426537 -0.25721720006944231995 1.0560916358067060639 -0.32505987306588068897 1.6636824300813799482 -0.19296434796543099344 0.068887114208809205329 0.7867066433771525702 -0.12213958784660930434 -0.48895254826058764941 -0.85232489484641826838 0.27427692529027675183 -0.23339256798572924345 0.87973964720332697986 -0.43301134015618109041 0.53261807505923575157 -0.48498625915488058347 -0.58053639468039075489 -0.02558442752034694595 0.0021001191466084533598 -0.015535184572457848978 -0.18669350212488586283 -0.063691875229133762537;0.17770802204407076808 0.27652180593967828903 0.080605047896903550542 0.22526892649435953375 -0.46363124546935202686 0.67107206031634214494 0.59247394406091724584 -0.54967546937849343092 -0.24742462017852268064 1.1258932904693892407 -0.31770114416431161075 1.7341124051999312616 -0.16823764772049618066 0.085042774883103119943 0.77040478615809815377 -0.1056430886399029323 -0.39863535393585347588 -0.80224015596975595255 0.47996211352725032251 -0.21138836713451830684 0.61202877295793711721 -0.47489930684501496794 0.50664594213522851085 -0.49763183370893410151 -0.56106202985133069028 -0.024854940521839754414 0.016651128985755297984 -0.095479546408938908986 -0.22609381124969257781 -0.058415563764509285949;0.17545222311254612957 0.24427116031610643376 0.082867097129354735929 0.18429544656075325104 -0.46011022170157883648 0.48070069523258718291 0.7319317427095428652 -0.53921986967463975127 -0.24594694897691254942 1.2211802298970240166 -0.33875611140223654827 1.7304169287859401116 -0.11293685053531231366 0.088819670692918004096 0.72992015187709902158 -0.08726712701666389238 -0.28373848684529306974 -0.73720579979640654678 0.72194304225743555214 -0.21466200338051166785 0.33572538796206863321 -0.4962063379087838233 0.4713553322874032836 -0.48840661716688010818 -0.54887488108001947218 -0.016882183665508570386 0.046724008792846577487 -0.16482694756364527078 -0.27284776718446068777 -0.059378319843690838264;0.17784386120833201028 0.24571960538520704054 0.096546403662536695034 0.13258972575125807514 -0.46620785441141393557 0.29584580641652313826 0.86202678203989790973 -0.51021067412539145014 -0.25457766331610881538 1.3412640621312805767 -0.34430557625971869307 1.6517322740143680626 -0.03236241702364357764 0.095448375579952393633 0.68035239138544256754 -0.081192200158386143571 -0.1579568763834345857 -0.65365901589027530783 0.97959124485290882678 -0.20906925945675997047 0.071573303746531105607 -0.49915371493052479446 0.41070947812281066724 -0.48620260736050485706 -0.5288176929875206822 -0.0080203948663203541297 0.062374179781951907819 -0.25394682225423159672 -0.32026103694612184647 -0.077574772449298473598;0.16836718347814363939 0.28059371893998252823 0.0904228312854337829 0.070252670147650922439 -0.46986286926580556056 0.12998184781032806612 0.96791724833741143996 -0.49846665604198486799 -0.2664971131704980678 1.4674211018477796298 -0.34766969732853270081 1.5097511457154502157 0.066186992129726687772 0.10038905425006663941 0.63070130668366175541 -0.070691509788666118119 -0.027065846985892802468 -0.53519132885203735128 1.2280178888443744611 -0.20508394562783599513 -0.17026698003531839931 -0.47417287546024056155 0.33756405195535693631 -0.50631112764474395238 -0.51376654288765744028 0.0012916586992280341961 0.076681294860954152259 -0.32267311709459323144 -0.36765665343768516582 -0.074509379880740508884;0.1350512994821107815 0.33899730697112134825 0.091096561923419666629 -0.0025091941841274027422 -0.46677521894588119844 -0.011637366070376181995 1.028972739136952308 -0.47536691547847043093 -0.26354187550612584445 1.6022796798317719968 -0.3581727076906842111 1.3232364078585654443 0.16954943878813202862 0.098103173098010698627 0.59004334570104999269 -0.05036266594266441271 0.093705790252365472881 -0.38071053168991836335 1.4406371475051173991 -0.20114911913980548785 -0.37848735673546995972 -0.42927151938221580485 0.25773784124054549549 -0.50214653209943227452 -0.52045405559417612373 0.0052251279626054029231 0.095948358862865859575 -0.38841142104063419715 -0.41274756563697589939 -0.09470101675928613294;0.12207329032521649359 0.41721313512790425548 0.073496692925429429888 -0.089556795072160827464 -0.4732898023355197048 -0.12325665271971819603 1.0334984674118308234 -0.46018974423795161455 -0.26955634860314703349 1.7392797943526505655 -0.36398656039682925067 1.1097007778270862044 0.27006058816739930695 0.082049261132243839212 0.56358396338693916849 -0.043181642322838241499 0.19148147157395450924 -0.17681105255491655348 1.5985189216082429375 -0.20944683600046185012 -0.55317486882784305813 -0.36090226286725074489 0.18436653063270463937 -0.50469250818922795077 -0.5039504234767084867 0.013487122985092359073 0.10795391704328216598 -0.43532147127038584022 -0.44897373526235018204 -0.11280270275797586732;0.10750293279246690703 0.50752768086230426459 0.069865986764353335547 -0.18157151387649184127 -0.4703744418429705032 -0.20927814116210352591 0.97520279657685660091 -0.4338607053275246872 -0.28364940138766947531 1.8812845918542253632 -0.36849520240309791008 0.88569510148536911842 0.36139836802651176262 0.085808944027192898818 0.55632338327736507999 -0.054137369656601735946 0.26109637549864461725 0.051350185635034344134 1.6874756389286784675 -0.19801500389899986954 -0.67879053091005925324 -0.28156249173953529219 0.11049287613038911993 -0.50994557568231679845 -0.48497614564045327112 0.00070021587359304611822 0.10053549636037159565 -0.45746450088360862685 -0.48327571390314932875 -0.12555245585488264415;0.083144128225713570535 0.60107247797337570727 0.050855523706821836871 -0.27942655310489467047 -0.45758544886480800873 -0.25878248536558273729 0.8617164786538539234 -0.42088859176691528763 -0.29337640927048064254 2.0033105212663300243 -0.3757010110064608055 0.66900741395054763583 0.43084014931717307118 0.071135928048675287072 0.56164195073962197569 -0.035729574207356541715 0.30332603613114583752 0.31533055929652120675 1.7105410495554747019 -0.20254177845353557585 -0.7672255498075694069 -0.17874164249875468258 0.063547653278232488216 -0.51497649042510074135 -0.47362513652177956613 -0.015829746410629851744 0.10340535451495698471 -0.46234802796027069105 -0.50312990032325954903 -0.13222386478326594861;0.059300149348575165176 0.68790212947791284925 0.049586481079607280797 -0.36459977235922519379 -0.44191904461650682867 -0.27209109606175696516 0.70607245652171091166 -0.39139862466521624373 -0.31543672695231106395 2.1087829999561957806 -0.38494336189700723017 0.47211499974311932348 0.47112751411502895582 0.068333724968283771073 0.57333598338668101402 -0.041440814453739725776 0.32636116158235756179 0.5840175571085256534 1.6685154950037330845 -0.21776463528102307787 -0.80470120155349689206 -0.066278451290193829415 0.025671452534307824533 -0.52349747363288035018 -0.45208801945933740907 -0.060237406631034516591 0.1161973522471084902 -0.45876915091224146348 -0.52370677523007358456 -0.15137903603202038094;0.021477429499189338441 0.7577207439682251966 0.035921443874978017941 -0.42811522241472665939 -0.43800109380236584844 -0.24401665864037835885 0.52297095487029388039 -0.37002481175430429472 -0.31125731464477041088 2.1909671961404284524 -0.37253776230841745276 0.30451946510983984862 0.47742163817727117925 0.052918108295602457603 0.58150193903631886005 -0.034921204755660385788 0.34046364078357566063 0.84684516072772419992 1.5673898587752610467 -0.2085510507362448307 -0.79223218324709576699 0.052058785623169692713 -0.002168130087092835865 -0.52132567075797831002 -0.42914112373072865747 -0.1372068587733633882 0.11302285727008969107 -0.437036209573191059 -0.55148691355467371888 -0.15625222879775152451;0.018123449434170310623 0.80274151360508649855 0.012365317656244625283 -0.4575561125888912839 -0.41657213204939225193 -0.17695617415776454528 0.33479605601022904837 -0.33447776942950957491 -0.31832968634769975846 2.2354516847214287445 -0.3853781095403883139 0.17204172627503433457 0.44478733921572766175 0.044512437716966432588 0.57667818940789949966 -0.023420886380027660517 0.35951098038957879366 1.0953195340622092768 1.4257094044598563887 -0.2092617086940291582 -0.73927836294701287922 0.17291197914093089927 -0.010191016215800804967 -0.51150849903858486289 -0.4100622850142544018 -0.24063108474631131339 0.11443577811092589536 -0.42422470219326641194 -0.58988882904637418569 -0.17624852164349513739;-0.014278823526894746099 0.81507114156672844096 0.0060995863300992714251 -0.44710255797145903589 -0.40037006748166381609 -0.081030527883068859119 0.15779303785812404115 -0.3044882384712304102 -0.32759907520626851962 2.2496261910481134549 -0.38368925888983262951 0.075980744680021403137 0.37819696531295715625 0.045067645779083120861 0.5508850555366232582 -0.02997774708760360049 0.39087863932704530745 1.3147840659359524285 1.2509156658207118973 -0.20737025439765321977 -0.64148242811030531385 0.2940272662643530488 -0.014704419266484669224 -0.49825402674839958106 -0.36816679791617262785 -0.37807178293761656285 0.12780197889755948171 -0.39104641622972280413 -0.63977459223163346547 -0.18904212455542690474;-0.03746689692256639781 0.79651818265709384281 0.01057974006755321543 -0.37916178527283223021 -0.3612195346849330635 0.030129801543030496763 -0.00026090924293936906646 -0.28558511736601266406 -0.31896880802131694077 2.2281318451055489582 -0.37462115103864784826 0.017721786264144549772 0.26778144535439002416 0.03225926330078286719 0.50905515414122826101 -0.021086640928017423569 0.4316167843332950893 1.4840076264977239973 1.0683959872988348927 -0.19610431481315945823 -0.51782733755034804357 0.39797432383265662903 -0.005359383390496120364 -0.47705899279143981762 -0.33712894197340026459 -0.54333699108845112669 0.13545491026253489442 -0.3794759945529606604 -0.71228888822550695537 -0.19315670476655341647;-0.042887736494082819017 0.74164031701714960843 0.00010192082612543113874 -0.25650069674974679268 -0.33985426923634975971 0.14685774535484047432 -0.12330154824748000564 -0.24084123845854091273 -0.32834926969011696274 2.1702365464963251362 -0.3737551726471946556 -0.011686653242794844965 0.12096416520460001598 0.033768361847141284415 0.45081729656949037777 0.0065729789134588286967 0.48163526391288002948 1.6071136126780551923 0.8947332604240418874 -0.18800294876769568786 -0.37038404628947024788 0.49439293744250872864 0.015643612648878722771 -0.45725633423710826397 -0.29782073682291565486 -0.71871882813357157449 0.14248886610940619812 -0.37039679176094725266 -0.79331213426365754238 -0.20867398034221831815;-0.055881532626379598616 0.66152073402702415983 -0.014584792652716274328 -0.079012677249797588774 -0.2966627536079798344 0.25324231840324851195 -0.2125342676668032782 -0.19470497093875008265 -0.31000510078770643352 2.0757565085809903671 -0.37069824572318282874 -0.014512623886979027221 -0.067993577288423034943 0.032394155531040060014 0.39017171870684813628 0.0049227721866317705399 0.53146698946662784824 1.6705425545362857509 0.73907482726823736652 -0.16860646760940273259 -0.2103063408191243322 0.57447608647341497079 0.041963864054762357869 -0.43622846488825506306 -0.28023094834640338568 -0.89522040147608805682 0.14680300485499689356 -0.35017938262936582072 -0.88424473657473401378 -0.20271299994570510239;-0.071209476737767035681 0.55508232532812584736 -0.023717084777088934255 0.132649182706954194 -0.27302854660336195458 0.33966515355763865491 -0.26252196321551907188 -0.15716157483463705224 -0.31172663063848732312 1.9488072790444828097 -0.35464935175125605893 -0.0027445766617207418767 -0.29794394109087263267 0.020393671507083974137 0.32699689317550822976 0.025031823637203683836 0.58365199889292040947 1.6919294643266904465 0.61645758766358527136 -0.1681703483217736883 -0.050122933328609363401 0.64352012116122281338 0.080934470743653050273 -0.40078618127652265724 -0.22018606437489024463 