function [y1] = anomalyDetectorFunc(x1)
%ANOMALYDETECTORFUNC neural network simulation function.
%
% Auto-generated by MATLAB, 06-Jun-2025 11:09:36.
% 
% [y1] = anomalyDetectorFunc(x1) takes these arguments:
%   x = 100xQ matrix, input #1
% and returns:
%   y = 100xQ matrix, output #1
% where Q is the number of samples.

%#ok<*RPMT0>

% ===== NEURAL NETWORK CONSTANTS =====

% Input 1
x1_step1.xoffset = [30.3460437994352;30.3460437994352;30.3460437994352;30.3460437994352;30.3460437994352;30.3460437994352;30.3460437994352;30.3460437994352;30.3460437994352;30.3460437994352;30.3460437994352;30.3460437994352;30.3460437994352;30.3460437994352;30.3460437994352;30.3460437994352;30.3460437994352;30.3460437994352;30.3460437994352;30.3460437994352;30.3460437994352;30.3460437994352;30.3460437994352;30.3460437994352;30.3460437994352;30.3460437994352;30.3460437994352;30.3460437994352;30.3460437994352;30.3460437994352;30.3460437994352;30.3460437994352;30.3460437994352;30.3460437994352;30.3460437994352;30.3460437994352;30.3460437994352;30.3460437994352;30.3460437994352;30.3460437994352;30.3460437994352;30.3460437994352;30.3460437994352;30.3460437994352;30.3460437994352;30.3460437994352;30.3460437994352;30.3460437994352;30.3460437994352;30.3460437994352;30.3460437994352;30.3460437994352;30.3460437994352;30.3460437994352;30.3460437994352;30.3460437994352;30.3460437994352;30.3460437994352;30.3460437994352;30.3460437994352;30.3460437994352;30.3460437994352;30.3460437994352;30.3460437994352;30.3460437994352;30.3460437994352;30.3460437994352;30.3460437994352;30.3460437994352;30.3460437994352;30.3460437994352;30.3460437994352;30.3460437994352;30.3460437994352;30.3460437994352;30.3460437994352;30.3460437994352;30.3460437994352;30.3460437994352;30.3460437994352;30.3460437994352;30.3460437994352;30.3460437994352;30.3460437994352;30.3460437994352;30.3460437994352;30.3460437994352;30.3460437994352;30.3460437994352;30.3460437994352;30.3460437994352;30.3460437994352;30.3460437994352;30.3460437994352;30.3460437994352;30.3460437994352;30.3460437994352;30.3460437994352;30.3460437994352;30.3460437994352];
x1_step1.gain = [0.0787973278784463;0.0787973278784463;0.0787973278784463;0.0787973278784463;0.0787973278784463;0.0787973278784463;0.0787973278784463;0.0787973278784463;0.0787973278784463;0.0787973278784463;0.0787973278784463;0.0787973278784463;0.0787973278784463;0.0787973278784463;0.0787973278784463;0.0787973278784463;0.0787973278784463;0.0787973278784463;0.0787973278784463;0.0787973278784463;0.0787973278784463;0.0787973278784463;0.0787973278784463;0.0787973278784463;0.0787973278784463;0.0787973278784463;0.0787973278784463;0.0787973278784463;0.0787973278784463;0.0787973278784463;0.0787973278784463;0.0787973278784463;0.0787973278784463;0.0787973278784463;0.0787973278784463;0.0787973278784463;0.0787973278784463;0.0787973278784463;0.0787973278784463;0.0787973278784463;0.0787973278784463;0.0787973278784463;0.0787973278784463;0.0787973278784463;0.0787973278784463;0.0787973278784463;0.0787973278784463;0.0787973278784463;0.0787973278784463;0.0787973278784463;0.0787973278784463;0.0787973278784463;0.0787973278784463;0.0787973278784463;0.0787973278784463;0.0787973278784463;0.0787973278784463;0.0787973278784463;0.0787973278784463;0.0787973278784463;0.0787973278784463;0.0787973278784463;0.0787973278784463;0.0787973278784463;0.0787973278784463;0.0787973278784463;0.0787973278784463;0.0787973278784463;0.0787973278784463;0.0787973278784463;0.0787973278784463;0.0787973278784463;0.0787973278784463;0.0787973278784463;0.0787973278784463;0.0787973278784463;0.0787973278784463;0.0787973278784463;0.0787973278784463;0.0787973278784463;0.0787973278784463;0.0787973278784463;0.0787973278784463;0.0787973278784463;0.0787973278784463;0.0787973278784463;0.0787973278784463;0.0787973278784463;0.0787973278784463;0.0787973278784463;0.0787973278784463;0.0787973278784463;0.0787973278784463;0.0787973278784463;0.0787973278784463;0.0787973278784463;0.0787973278784463;0.0787973278784463;0.0787973278784463;0.0787973278784463];
x1_step1.ymin = 0;

% Layer 1
b1 = [-0.06374153411580484041;0.043206408296859302731;0.015658262224927943507;0.030431192222751191762;-0.75953496821758781365;-0.17930918627339903493;-0.12545188856084077411;-0.091854703868455983562;-1.1303091780416980594;-3.00709120378494843;-0.25815781036614704469;-0.13055367862971470339;-0.27621914292168953109;0.012382573984899652303;0.02014325103913971321;-0.22060009438817329563;-0.13961067614503311352;0.0014839372528503160485;-0.21347311738158863959;0.023023082777961348389;-1.0196483488756231672;-0.18703797929241139375;-0.31707954484154515784;-0.21830791484922898449;-0.23223731691894158868;-0.031081446756071461068;-0.029497572033197798358;-0.029245955523292427314;-0.051427749964848973319;0.025508305103799432806];
IW1_1 = [0.020434112690612255686 0.097346533443759833415 0.18580850361927114811 0.25567481397493607709 0.34235527459372017134 0.41778826549512970701 0.48280392280998135623 0.54165648622312490001 0.60482049398351256375 0.66700669876046259077 0.72491690244101480989 0.76008840848071812513 0.81673448708291651599 0.83488079824738370416 0.85972620718480807778 0.88588058001800285002 0.90009399468900019858 0.93094072203605904292 0.93961501742232866885 0.95558444063455283413 0.95786871544831342362 0.94774113945914295609 0.95166781827816659955 0.93856949130061106956 0.93933455505669261054 0.9456471851751014901 0.92573638394242563354 0.91083074617632042713 0.90303793547098687444 0.89739420569326611155 0.86744816213665132398 0.85516575558206675556 0.82682229695827436089 0.80130048398481323879 0.78902269385622680886 0.75948688590600554882 0.73180084875357320762 0.7168665111678673707 0.68800103830831937923 0.68173359624093654574 0.66284660251478566551 0.63389751647339498408 0.63136758089840083752 0.60281560439688808284 0.58971734923155216812 0.5823262790342005335 0.58929923298133601861 0.58330084019760120029 0.58056621231143346051 0.58449611522121913687 0.5959917221647431651 0.61514784029783498021 0.63153562720926925689 0.64952470928545447126 0.6812645262251473266 0.70108704412919786719 0.74370723589476683824 0.78208723019696546608 0.81427214785600265934 0.85801547740499428674 0.90605248858433229397 0.93791850646983887518 0.98813951384462217487 1.0389821102661003227 1.0781949766702010329 1.0980396648686563399 1.1301230923014424778 1.1483378361507596832 1.1866723169268342808 1.2003257238512405891 1.215880385933243879 1.2179689965474933544 1.2277507393978941419 1.2289076187985803479 1.2425807914569939605 1.2472398522547709643 1.2401734582832510956 1.2354468470345507658 1.2282847596934971524 1.2115674470175790134 1.1919648912732268009 1.1649916096345063199 1.141061969985384561 1.1074083136755186185 1.0563566941119888476 1.0190822449231899949 0.96495521773658576858 0.9194557862609495924 0.86096446426269801488 0.79310505686756971322 0.72196639631646830626 0.65547506095544183502 0.60026064389060740378 0.50723426400031590422 0.42727768753938494273 0.36231236873732536319 0.2832586691393630951 0.19262728418551125498 0.1127863868206141762 0.033381754803470407855;0.21932265295966527074 0.27128369811592129013 0.33925005582067646603 0.40276374217135796352 0.45542237524404416416 0.50085348713527721998 0.5519227524721483924 0.59611496731853685915 0.6325361383410664784 0.6729906648000957281 0.70816660907613215858 0.74378773702981459959 0.76333247295523698472 0.7703791982579895059 0.79919435223383450406 0.80862973301136709114 0.82814468403244878569 0.82270374987970851244 0.84162166187123221839 0.81920059382788668056 0.83047964964550480271 0.80469535257244684257 0.80580747188340529075 0.78234641697120710369 0.77088256664526511042 0.74297826941909728138 0.72194461125387199285 0.70495389303924094193 0.67945073372438191672 0.65365604690405432198 0.62986649411509587626 0.59951267903627247779 0.58122062419451969717 0.55769729896088660048 0.53108445824766736809 0.51073510142874090079 0.47612687031270534144 0.45122219271500002558 0.43205184692565851146 0.41718405756086773817 0.4042006851475373197 0.3784214112242401673 0.37598428244973813861 0.36182980161994610091 0.3718624855187754874 0.37456394412776183866 0.38835157441909079479 0.40205907330084628137 0.42613852093459675396 0.44231524569768737587 0.47113820500090514143 0.52276078757141364317 0.54491674083801866502 0.60273553007478808397 0.62940340105692516026 0.6932911534686603261 0.74243351312555139199 0.7898045475765347323 0.8374027239303364345 0.89697504676972061866 0.94895229721859775118 0.99833956654415312304 1.048118621583770782 1.1221686856868411386 1.164881228173682004 1.224879978829897631 1.2717120936412265042 1.3319025764690615166 1.3719990391903826854 1.4198004075549075509 1.4756722609769306054 1.5012639932813496291 1.5335764341580284675 1.5705907965613044031 1.5803511866408033182 1.5951916260791156876 1.615758726351185004 1.6064766017667035936 1.6056470971165170969 1.5986611288075582848 1.5758001242836843225 1.5579370510396084448 1.5354395059869643259 1.4981063162158214652 1.4553615281593232922 1.4177964875588489058 1.3602600186636837343 1.3058577624358393976 1.2604611093990625292 1.1843033503229012382 1.0970270959639367714 1.0342105119930711243 0.95560183986794799971 0.85624076175445995585 0.75974991663400059938 0.66811566669973532218 0.56255560608165278147 0.45959137533155491884 0.36328553201292174135 0.25077723139043872624;0.10396893847388108401 0.16968681244819464049 0.23765636661708858246 0.30255105849081515013 0.35662032478414218417 0.41453630821987713651 0.48619256733132898418 0.53254657482189804441 0.58414137107108388136 0.62973706270496832005 0.6855492258877253775 0.73896377858836803654 0.76995023847931109984 0.80114817932220638852 0.82751786015165207377 0.83696212979730955084 0.86341568729936746251 0.86524899933077192848 0.85458882537202551788 0.86382208011363226241 0.86271258088030233768 0.83483182865042582232 0.82764451213622225456 0.80941078373390074052 0.78659931359170276455 0.76927288283364181343 0.75403499979380872453 0.71883360649914385121 0.69986100512544302532 0.66151149818849019901 0.63984218587099672693 0.60219494060166700589 0.58790493206052130137 0.55976311795029565221 0.53540467441474115518 0.5076029036576140685 0.47872146900518919299 0.47799723737359650633 0.46842115625806263202 0.43973378574681476483 0.437980503512316377 0.43956664006464357675 0.4398745801647742093 0.46036825460819291722 0.46801437987003385865 0.47402072500909020469 0.48615463656574070539 0.49787712657657179349 0.52267229344037990924 0.52987698723388465538 0.55177686858889352095 0.57266335183154903898 0.60413759604911809742 0.62309545677873745539 0.6550150845622405571 0.67900218499926290328 0.7196609785237467749 0.75437153078816865381 0.78272600154926363913 0.82522241024428411027 0.86904152950450663795 0.92794789050855774892 0.95746448520515969882 1.0119001666732823086 1.0574879055078625356 1.1054375678616146228 1.1602175986293847831 1.202577803392192779 1.2459412714920381493 1.2820421947845461741 1.2995052930123212054 1.3289646388865290483 1.3656207949968157678 1.3814453021704033997 1.3825636989706633351 1.391734542475596248 1.3971290562295084481 1.3835183046070695934 1.3694639924052343094 1.3532636972431242306 1.3456914258864454137 1.2986330907926004752 1.2797100958829588091 1.2379482481471402178 1.2035473210257134902 1.1448398916170960948 1.0878610571534217399 1.030720242747472426 0.98008915752214431638 0.91862043633764056683 0.8404127787317784426 0.77336051940827776896 0.68854057072991192712 0.61373331684154797117 0.53559620947834662985 0.46684885105456069843 0.39147873225632245919 0.29670713426345712849 0.22421782370734003043 0.13686263043565366493;0.049716866614871672858 0.10747276333856617403 0.15708554041528338674 0.22178198397984577594 0.25461576746986686048 0.31853107231274846445 0.35683161576515798341 0.40416628274322358161 0.45833008266054048319 0.49942653254494973059 0.5394982873863976014 0.58822997856485736978 0.61944477424133692622 0.66436878530324250391 0.70266794405634103171 0.73310732763865560369 0.76927078677091653702 0.79869936097624194549 0.83489350459697930784 0.84472431603272990497 0.8712226577770940672 0.8841052698526914444 0.89260068938915404502 0.91315109431908003668 0.91172702181390163911 0.91643829975200574722 0.90186309367797501402 0.92394281810016953838 0.90651427098403414284 0.90756816303937326573 0.88498832681501837794 0.88266827939194758557 0.86781646192015637897 0.84112426241128013249 0.83124034883532094131 0.79969515336333496514 0.76701031525721696802 0.7401130870080359081 0.72416667051140914957 0.68667218896080883805 0.64692459568859361774 0.62765912330202822123 0.60072197774618874 0.56219261049876867453 0.53892678994469789266 0.51653478454224532879 0.50622877045201064572 0.4846432449587441682 0.48257779139234546761 0.47316461975706225473 0.45627504323352291449 0.45340555329219195402 0.44797796603875500443 0.46579073183602454078 0.47461564123195670861 0.47427208882424676251 0.48172823911904927296 0.49968047884829952521 0.53310667168307535047 0.55390681938209029855 0.58679991319866398047 0.61534169335982369375 0.63842118072075637603 0.69702098348177143894 0.7140894200755996124 0.76208557463863457748 0.79222392160726140542 0.8290251754357176317 0.86881148132799523864 0.90865101178781826352 0.93736495475753334183 0.97903092602285335389 1.0030692632001669828 1.0428648361122403454 1.058594523659317943 1.0964509822651149484 1.1259974690592544633 1.1347260071056706199 1.1575740391829016929 1.1703982920967761494 1.1999147961521750005 1.2052388785934979865 1.1946877598371492546 1.2050050667062863763 1.1918790209688692183 1.1811703913355140472 1.179018554027376986 1.1461872464753095624 1.1091529058507110239 1.0807037642838792646 1.0355201605734332126 0.98164084064053869216 0.92331599297871647103 0.87081382806173457389 0.79916673105135349608 0.74914647353512697769 0.66553798668772579106 0.59123596433071923251 0.5175921493795967443 0.44335902490467027359;0.26929068000857131482 0.33935383203029817478 0.42531841986436796921 0.49208622624143200097 0.53286456081851352184 0.59405080866496551284 0.63563643676087178136 0.67615496798367102915 0.70989857894805263872 0.73312479180087375408 0.75033076835526457682 0.75278675262466510087 0.76032870245695927114 0.76983342853579617149 0.76485621481930143872 0.74250596444282201958 0.72776827305100422194 0.68248098729708139842 0.65693169467499534786 0.59690067245173739074 0.53148946361944304773 0.47392187814839770166 0.37648157416463651215 0.29783163224350678311 0.2267904929183466034 0.13138551559733166463 0.046106449795702095229 -0.025018519363798466526 -0.096082701202228157356 -0.18090156141577651283 -0.25277410635583413834 -0.32770642703020419484 -0.39844225121801268852 -0.45441883182747033754 -0.53382805788188181229 -0.58489935048225449865 -0.65560717148660463405 -0.70256303794197560997 -0.7462595649398097164 -0.80339336809980355092 -0.83804312304425243596 -0.85256689539672581013 -0.8776297126317403885 -0.90734060800432758676 -0.91114125363030062932 -0.90023701934935229652 -0.89416691607506282313 -0.89186053688870281508 -0.85847754867276437896 -0.8182787936343751678 -0.77373516050017010492 -0.72731094974422283439 -0.66571028777062812853 -0.60286961114397463746 -0.52143568191501066256 -0.43457603310340137126 -0.35772389220071643123 -0.24642590390466689865 -0.15000755409564942022 -0.041727188476953863683 0.065598540957924084127 0.16929042145836820099 0.29156232247136332214 0.40256058468830924202 0.52697398612745804947 0.66251277252819784636 0.77714084584853049265 0.89538438395601638309 0.9987655154709254024 1.1053125562635930379 1.1978784413653553731 1.2908284377256811215 1.375053906849373675 1.4309844192112559647 1.4901797560350431571 1.5638575119602990959 1.595171739054915383 1.6379725193583418719 1.6694422720976795915 1.6812735178825404248 1.6884665855384064503 1.6807977629999679703 1.6737066417569512744 1.643717948219183711 1.6195658230872826966 1.5845510408178622441 1.5339877890593172083 1.4707685002555930254 1.4176679599008792376 1.3455314712000667754 1.2680337826739913609 1.1800607673669489817 1.0942829169252425991 1.0097275516869967937 0.90473861117076448402 0.79708933337166876232 0.69339781644346720757 0.57418673091228999983 0.44382731687127957576 0.34415898269706030055;-0.39388943322945774161 -0.33051393751722946135 -0.26440997421019457603 -0.19180433951603639842 -0.14169189289805256271 -0.063813954995145596993 -0.00068633409797042542466 0.053606996318538192858 0.11991690453453379694 0.19497356729573625533 0.25628242356980690531 0.33623275756688547622 0.38663834830461329961 0.45350576207065829148 0.51626089216663806347 0.57578908064506151288 0.62858768998227210201 0.68527560201769266435 0.74511839496570775321 0.78559335563856069751 0.84122356788960139795 0.87942647819962094236 0.91365247803102778157 0.94593965937350976692 0.99648725162913021069 1.0198210141775863047 1.0588969295570678231 1.0656145896531576955 1.1016488621697024808 1.1111605113999885042 1.1213486100839737958 1.1166817680559746329 1.124853541298550974 1.1393581594034716264 1.1389055089913584506 1.1256294476546861993 1.1177419636791514623 1.1179516179405064591 1.10918613608097405 1.09992248458721531 1.0781891958769120876 1.0645695331257256644 1.0496970186250822454 1.0369304480154366566 1.0253780366267100099 1.0090046951648250495 0.99142297001148127489 0.97130713387468747833 0.96551397635910218842 0.96671677718096848952 0.95627635262974663988 0.94789498786835613142 0.93709202255143131399 0.92765617922179044452 0.91342900428399109725 0.89704512119911450352 0.88608319815407465825 0.88111002180940911632 0.85212862523940480219 0.85733643626237387991 0.82782577108491783857 0.80854178466786708057 0.79271545911393603845 0.78449473078119691394 0.77192206560115961267 0.75333457462946518124 0.74044288980619132889 0.73012803717533902859 0.72413237431353005835 0.71895889722888284279 0.69684481185019642169 0.68826730168575334101 0.66205711515596121775 0.65727575124003601026 0.65710248045920482962 0.63396456263055656066 0.62556011949122747318 0.60129626391862045498 0.57857352610255974312 0.57078122176406509425 0.54125939684630042237 0.5091042429350389753 0.4939898752679906524 0.45411171279027490177 0.42877285109755580716 0.38750825213616446607 0.36005223214079790095 0.33307601059397162757 0.28431218438451988373 0.24317642240847878177 0.19489496010677914706 0.16651443239433005861 0.098255385039744388975 0.055910839640432523356 0.0015764085577387027242 -0.054990528642479719057 -0.10565426902820621025 -0.14620043601052482019 -0.21041520826762874496 -0.25274681020359446304;-0.040607984126262847147 0.0078191180414623577544 0.057765485650246493898 0.11128094027087223616 0.16510989517120311376 0.22135073959966369839 0.26614510450278999754 0.29758497306344228184 0.35873093450329590626 0.39896534005898615094 0.41862610971434421892 0.45557631871802994894 0.49449938919981267782 0.5109642778140448538 0.54454822916364609142 0.58043736508005816521 0.59197613356592249101 0.61611674823871687146 0.62569941095654235674 0.63401337426475412595 0.65581065999723020532 0.65801950925253982483 0.66089798590613113571 0.66602489669040509934 0.65356704403479282117 0.65382793105759184904 0.64899784847842656443 0.64230249455036381168 0.63155419154119596392 0.62485107669812378628 0.61214117596398343046 0.58065600783153314968 0.58817219080852622959 0.57724597117634768306 0.55182103984114372341 0.55128223892034444731 0.54097991966630021299 0.55513807317689289889 0.53795024772574906446 0.55030424871424321598 0.53639556486780803901 0.55324014329809689805 0.55441375458096531226 0.56303529200274493594 0.56859747841004504298 0.59002961789146046723 0.60982729482094621964 0.61948961061525964489 0.64624395533612666309 0.6805045646644529711 0.6971790419265623262 0.73902048547761933772 0.77069743842982585402 0.80605372596661584161 0.83408129339109382538 0.86888973278886894036 0.90347910313534529614 0.92734174100645272443 0.9682684211834271526 0.99899995807954267146 1.0324719250360550049 1.0715385253292128986 1.087668147085370407 1.1216744188249474501 1.1331201424773467146 1.1653327093856045149 1.1885419100576128937 1.2065521109871031324 1.1990812412907476681 1.2242660760424544097 1.2339074950056121427 1.227336199084300139 1.2346569092201664652 1.2225436535066520616 1.2036155250068032441 1.2051325034962800942 1.1832668399073522636 1.153565407406335952 1.1200524039252732766 1.1039144964833669249 1.0506978519967200558 1.0118777553603837127 0.97646614538045328757 0.93198559610424769328 0.87284279957636068392 0.803660642964763694 0.74299024007608005515 0.66762143516278293909 0.60511762395170654028 0.53140817646387150663 0.45842290315974060233 0.37415125849545055603 0.29167285450311369877 0.20241319530227308565 0.11241662953214286158 0.03491737971314722716 -0.058131254443770402629 -0.14059477316850216289 -0.21289407610475766242 -0.30045663970907404705;-0.12011036813787163979 -0.031216166219052939035 0.037093338210313207826 0.10208909780285860269 0.17709525047335267223 0.25434026831204048502 0.33939641215293631094 0.39948448423699994825 0.48394193249332878581 0.53747556079473701729 0.60596650520493866576 0.6657501019947110743 0.74286110412964379002 0.78750901878841916837 0.82523091177829055454 0.87938155437778198209 0.92364306744686519579 0.94469971710243694218 0.96879183102124077909 1.0015912499549499692 1.0278167023770203858 1.0566188960901314875 1.0734047988067780821 1.086786796576466152 1.1044096995701082609 1.1115751464758967249 1.1289304416366894301 1.160996470219734622 1.1801805571003745055 1.1960068721262311353 1.2077539247530231226 1.214211411160692089 1.2467873498721859793 1.2622328562846352185 1.2729862438792556301 1.2863944491329251107 1.2959285897230172768 1.3102937817077455751 1.3173492550923251443 1.3223511344219658348 1.3320505385515439833 1.3305788927999828708 1.3233003259765416804 1.334177783969849429 1.3455468669141230631 1.3305218631059365642 1.3278041100047619505 1.3246262627597669148 1.3155663399501826838 1.29215030990794566 1.2789963712483880531 1.2797750264838883005 1.2511197836902301361 1.2285397227473728865 1.2219411816229668322 1.2102345981006339404 1.1944099619852486249 1.1640196938165674467 1.1404636247690287387 1.1224001262767644427 1.1186339329640009321 1.089143266619496897 1.0699324582329468036 1.0471125291181171413 1.0272398839914096413 0.98881335455675334334 0.94211569305341646974 0.91597453471523060387 0.85766546053827552587 0.82466562272699539538 0.76789658957342932233 0.7172044979356241301 0.66828620860973719786 0.60377446959357916612 0.54275501593516384258 0.48420184932315490922 0.40526235306175167894 0.35032468472113803548 0.27733028740939497103 0.21320515141570900441 0.16209528165005859801 0.095221542805480424709 0.025382822119860662391 -0.022002549303263396752 -0.084809143923032737078 -0.15398900404913207218 -0.22610215114049839191 -0.26454063855790116433 -0.33936882981283550409 -0.3937363314369307643 -0.42015099180218984376 -0.4875222527053016397 -0.51580602571252842647 -0.56416544235393950579 -0.61316221799391901204 -0.63476350728955144298 -0.67679288257216241309 -0.7218658558369106526 -0.75017289403458931041 -0.7701668320066277218;-0.2319844172168015195 -0.14726714359449505354 -0.082044738895227148356 -0.055234504981104590171 -0.02562601756043741269 0.012985833862931372637 0.042812313370980958904 0.056149390924198031017 0.11019140541243860332 0.16925954036146878545 0.30526237059222699477 0.44798574622167242065 0.61150356561617791318 0.80754084662384129079 1.0514790122447359444 1.2113085228932778392 1.3716746725154527198 1.4720090054182972672 1.592605236116554579 1.6659476568687023867 1.748875284586287826 1.8457231581727240322 1.9045990988999144111 1.9160506919411972593 1.945786695466095173 1.9201241225483678399 1.8303675693969982952 1.7657740186038961561 1.7095040986253484672 1.5604465568061509639 1.4427153422554375162 1.344710428920324663 1.2010460285466624253 1.0168869235888793323 0.83621310151564443025 0.7304640549397892757 0.56312773418657924296 0.40453507446637892997 0.21491300595848766841 0.034791831477211494772 -0.10703116514080755761 -0.31390169843018345119 -0.45948686409410016696 -0.65562300790934968653 -0.77930511713979400135 -0.94534327960793296253 -1.0863630992963144717 -1.2258095569419769078 -1.3275086668515023725 -1.4057009000945794863 -1.5417090268519855201 -1.6258073032370896627 -1.7246039939428554622 -1.8204079834170232566 -1.9141852373303758217 -2.0186219049244975565 -2.1099785289129848742 -2.1706068125858051232 -2.1846785770096293078 -2.1963469086783065087 -2.160973615798571057 -2.1312160138861391268 -2.0431760376587861927 -1.9652891421123803717 -1.9408287081354900216 -1.8408276495328166344 -1.7218669094294662969 -1.5547325216797216463 -1.410855663739779331 -1.2820951990222300143 -1.1376033648998102876 -0.9895068909960338388 -0.80537411712214579396 -0.64149365465198604497 -0.45063294024319228148 -0.28860993394839362658 -0.10198478232784226327 0.02759359303884830264 0.17006986044465510766 0.35950266100309952177 0.45219241181637148674 0.57270182639870603758 0.63850685020866182473 0.73420429233279160819 0.78980539150840789464 0.875754208459541994 0.89338801177296855993 0.93604510745485025591 0.95224060824721157292 1.0424237457565264098 1.1054868182744292948 1.0696562425907074623 1.068346333422127703 1.0483081146904886793 1.0555434940441192904 1.009917804459832702 1.0199860897571224605 1.0157432303084619196 0.98154294972961686483 0.91679368607495448362;-2.0890827313324500381 -1.8316443203994341449 -1.5869411185733586223 -1.3570539692366876405 -1.1263574124049395841 -0.91025331316313373708 -0.69082223579144164116 -0.52353768457828153693 -0.38079751323028393495 -0.27059722507345757014 -0.21037405243853682379 -0.18533421654459808492 -0.15242656971454446313 -0.10340564847742847454 -0.058819158709877292224 -0.013175296155428947026 0.062213819614559073834 0.14551335467562270809 0.21415995263096240797 0.28424676032298845652 0.30623998977998390103 0.32756451596434793538 0.32131226790679628946 0.29903956217018790031 0.27422128743447093946 0.25769717261410290954 0.20479094181959117682 0.17152921864764067439 0.13953912456795547481 0.12627181711984139523 0.12237838122468297497 0.12609495799454900622 0.11561432374851469962 0.080453267950477830306 0.065397136072846070998 0.042899161952923967056 0.012295645330430000214 -0.023260633691591592331 -0.08393009007698047641 -0.12339110662535784924 -0.17200569033371754246 -0.20818071691617634489 -0.24354181758265250335 -0.24646208821914891707 -0.25915852720913684637 -0.26383266115167475219 -0.21480073576563765703 -0.17114242464344994743 -0.11445123249489394524 -0.03134679671672865181 0.049226799086835387742 0.15013233179634208336 0.25855796057113855646 0.36961023239583673528 0.46385024992152529277 0.53870896746895391427 0.62552368930067259178 0.68769340399510325845 0.73648443812050201629 0.78066518042342480932 0.80963681021850419928 0.84881609790539314098 0.88302193285745533835 0.91897296806999007046 0.94847432032466127971 0.97742263410801544232 1.0117921069918933696 1.0180542077959624514 1.0267394324568386299 1.0213867178637114908 0.99952184887752804077 0.95940712094652513819 0.91526866220515512573 0.86899506976126494884 0.81378281310733768805 0.75745470754821642156 0.70772098047366549523 0.66394938054133656458 0.65583829933705140025 0.6577047213529045866 0.69307388907269906753 0.73132774388534338428 0.77373920693302733476 0.80984966004876302037 0.81024596113202784764 0.81976690807212482248 0.78468526927198822829 0.73533602400203990079 0.64577595212643146283 0.54779172208790216647 0.43138056913932321113 0.32250739241532411228 0.17626217590039600092 0.039578922316853837327 -0.10912599913805888507 -0.24970613649848816262 -0.39252858601944817796 -0.56564804969463422513 -0.7514783110288112411 -0.9100888285338755157;-0.64890172059752782019 -0.61462059456694495552 -0.56135566586167118253 -0.5183912846324544299 -0.46493779778877020181 -0.43472276351774069569 -0.38647884509685315191 -0.34296185821909375147 -0.27245321135272243529 -0.22830807148417231467 -0.18451520853238870257 -0.13409234235413206027 -0.063171894296172509398 -0.0049219969076317593437 0.046149000596193603951 0.093922306700629495935 0.1495810637427993639 0.22021096864889078137 0.26065972643241641649 0.32247252369304169051 0.37428079708438827256 0.43949097552559734936 0.47259162895882517175 0.52610625259552390443 0.57799365933827162589 0.616998705017230753 0.66115109199450494692 0.72017272751087990645 0.75140401021163472084 0.78096674554712819383 0.82026709654025209417 0.84921929873560519919 0.89857610548427024888 0.92515510885766949478 0.94392397923569892892 0.97324763460957708361 1.0106350108585731018 1.0396553771372147867 1.0522312269093405668 1.0874753426807797219 1.0866954453210178055 1.108917758835197942 1.1302945463544920024 1.1264590396818454643 1.1297816007706322772 1.143112914880650699 1.1374211427912295225 1.1395325535457954125 1.1397079362831279425 1.1349477984906350958 1.1288150173060420567 1.1155701066896941409 1.1150031740526791246 1.1192753054075601504 1.1025858636472458674 1.1025403819929717741 1.0981783461854204287 1.08511357264565933 1.0907792330982910567 1.0839342463413335071 1.0778922904287833173 1.0659099793211070928 1.0638225614087744031 1.0341564435864174509 1.0331673561279297591 1.0308521680900002426 1.0009115827036585422 0.99810348763633027769 0.97946689057168445647 0.9538726136730916183 0.94755413055055381921 0.92449977437195052232 0.92270556407114012742 0.90189317121215784034 0.87244369046748682095 0.8493911496145483131 0.80397157903170624049 0.79191254691114598696 0.747044498452304917 0.71262884363001077759 0.68812535315509026912 0.62747595608484818541 0.60489665464708319842 0.54029674384186310299 0.51040634111938532058 0.47040935994936200482 0.40330133792844902185 0.36389983361952399354 0.30416943805412993695 0.25542817384029431471 0.19791367877719132085 0.1510760465053201107 0.091012241879345437412 0.033643706698619414708 -0.019366407775506969818 -0.08240195848168585524 -0.15273249297443997063 -0.21107896541588372363 -0.28023539118770485201 -0.34220203938648552366;-0.054330725186154518735 0.017585803911247779169 0.1020071548266275191 0.19326597133645190274 0.27342642045930576344 0.34437787613159370759 0.43410778994348636628 0.50877837230533606849 0.58535659448093291246 0.65985879955692172683 0.7125283983098571472 0.78270550937959237903 0.84054708778217901433 0.89514730257796537582 0.96081688291152012038 1.0007967342213239803 1.058349037575609719 1.1070569746869571848 1.1533487748876540824 1.190718990466234084 1.2140685653003959743 1.2535395189301286045 1.2758090362041707433 1.277461472511665308 1.3071808664667334821 1.3107216846500344687 1.3002425462844169335 1.3118911490472127124 1.3030956784774538892 1.3009636355274223352 1.2914457112230535163 1.269890498991360861 1.2512414124675614868 1.2359837453008981623 1.2216585316418731022 1.1876175186232782455 1.169629368195093333 1.1475926223648234004 1.111601001487732221 1.0874293596725288502 1.0499691795251011595 1.0219716080497900368 0.97670916204179125675 0.95840617939407235504 0.91785235977084211889 0.8860789671985256355 0.87057878126757215487 0.84267429508582614162 0.81450671839986132916 0.79761838176717070326 0.76559608835487635847 0.74627616795294748897 0.73533455930214319807 0.72984030097198226983 0.71659567579002891868 0.70411279303152207731 0.69867945295643130166 0.69638922299090699752 0.68208935329207542875 0.69398829025729091846 0.69382487845022244866 0.68772297242945579221 0.6935248005898634327 0.68772209926545990744 0.69170430071697786012 0.70386420085729517471 0.71505960110120492246 0.72546136556642137894 0.72594893355004530555 0.74425926444237588964 0.77168314237627277929 0.78111709139267093693 0.78168390054337144601 0.7962896473601721592 0.81149814376540441163 0.81945775621799665789 0.80468132941579606499 0.81605679042421874758 0.80978186832203857826 0.79809651326312813779 0.79122818963968344352 0.76118492775850166154 0.74494289187438089694 0.74056942394811309249 0.71933292041845686704 0.68187051604501147661 0.66368267401234470881 0.62076622454327290423 0.58978908477946456745 0.55284439088902215254 0.50690638889304484582 0.46441777645952780906 0.41880349843294240042 0.34830323400933344002 0.29352504421727981798 0.23891151976863039819 0.17572691051961067399 0.10747603540586472826 0.039957750258459143189 -0.031265523035024889165;-0.52069002772618011576 -0.46253323389485839767 -0.39952832919184455562 -0.33101575099263336188 -0.27045848604743705224 -0.20849739787427706839 -0.16116889545346288481 -0.099091466060411054206 -0.024525924550288832893 0.018973500825041334644 0.076343938413322098846 0.13564180952444335193 0.18060741908975605496 0.2410760221704881523 0.28514271511945932236 0.35994463865300585503 0.39823172911402227037 0.45682277453503133957 0.50684326043795457917 0.55637616025800618047 0.60037372024900481637 0.63988533400707736654 0.68818134173118195029 0.72429540077638543405 0.75974995839644376971 0.78055762248913029833 0.81357295274334662238 0.85000862939798571549 0.8489497898054684244 0.88918516136038106001 0.9051901122564333102 0.90479003062770946286 0.91718148579317715363 0.92740662654964056699 0.95491254351108922904 0.96033188930907587011 0.98633216760753950059 0.99941542423211604529 1.0165743279168526492 1.0250102956167854718 1.0551955537774453386 1.0601350877669371009 1.0898376483363405587 1.1151948984679895815 1.1203250050577411301 1.1379701598273654906 1.1572534954346980207 1.169590211426909887 1.1791741787058207525 1.203160478991512683 1.2203779013680160492 1.2281119214569258258 1.2369529535686203392 1.2625311581706737396 1.288339758940735047 1.3006083371832986018 1.3153387465794952327 1.3197980931860566756 1.3303893891290166085 1.328680432414874879 1.3356310634565526918 1.335366885971748685 1.3346024383260539636 1.3222659602823050307 1.3025720945862402367 1.2949074013293024876 1.2906929537300180222 1.2711686747174923973 1.2587697214612694196 1.2337905961137680677 1.2203774394898847522 1.2122750965217163888 1.1896494967470323534 1.1598749855949337384 1.1425936853347931077 1.1154000489559225962 1.0782020105553771216 1.0547324213509996493 1.0198107372431792772 0.97269537339350442551 0.9331322807618298576 0.8802731809850148359 0.82034717832079162569 0.77174352909002519318 0.70917572512172444288 0.63861328189543631328 0.57222681360931471062 0.49536814843156096178 0.41932073654071860824 0.3500863986011759077 0.2665691917092639085 0.17830151136712060755 0.11202428980363962618 0.027514612574883169638 -0.051723128190882441957 -0.12175293691862142109 -0.20155699514842342901 -0.27569575535012114109 -0.35823219347654444711 -0.43709246678176688627;0.20859938526508745027 0.25148711848540372671 0.27933874930680574478 0.32933846469288285963 0.36392672480861953943 0.39816289990815523225 0.42523800041723236465 0.45032837659013352782 0.47699913974271856976 0.48251723591006556724 0.49574622828637443517 0.51547728434294981525 0.52213394326621087593 0.5237068237217604727 0.52214975186698997511 0.529352124687831882 0.52286017635294501638 0.51494924388536533755 0.52135176771921365457 0.51881616643938299749 0.51890384989907667457 0.51060664939466182677 0.50626449456238697966 0.50543830564758707169 0.49322150193994507283 0.49532324092727253451 0.47738013967516212954 0.48727584556006409144 0.48425753888682621096 0.49196448722219043859 0.48727572960081966258 0.47434952588334911017 0.49050096941327614442 0.48348725638881046018 0.5056076783645160333 0.50112934212406134993 0.50330085714489947168 0.52259977897191778329 0.54031559074184321023 0.55435097066614547057 0.56787531237328192635 0.59838833689421444539 0.61597469766690604587 0.64098788007337148542 0.6916797454731333783 0.70686414894099391937 0.74163609126989060716 0.76758265587187834988 0.7985650432848296898 0.82847309540968749886 0.87074275348615048919 0.8943717020691863695 0.92482911310624538181 0.95337288197511582677 0.99011305350308620454 1.0241217391869525954 1.0410445630079583346 1.0710191186545998665 1.0965769868039214607 1.1259356421308395202 1.1343228201637935992 1.1632086526561080664 1.1758029426914524684 1.1834995252049302916 1.199172680117611467 1.2052450044107374527 1.2101778694206000164 1.2217685296362754688 1.2025715660023770237 1.1979076685612257691 1.1892822515413812301 1.1559404014543399608 1.1503616395622724422 1.1120585847332760121 1.093491742687725754 1.0502441786475282814 1.0199140679449991698 0.97685349155576439717 0.93074855094838515601 0.88982115147803131361 0.83267243503780374869 0.7839221943925031022 0.73670333798563703009 0.68498914647664244093 0.61389336356308676912 0.5733140355490988771 0.50401345860450996739 0.45628816245543113439 0.39494215460368570225 0.31856818512123530329 0.26713890884728980213 0.19578479804760584582 0.13842169616658092646 0.080755614520677101997 0.0037510721484185754332 -0.062230081240627010963 -0.1215118336238972252 -0.19854522852039790948 -0.24041383707985847229 -0.31598941833115107292;0.044389614996045802242 0.11916497224317262882 0.2006861392330998306 0.26343124691606278898 0.34665404863201193519 0.40509431552168007062 0.4834014208835145654 0.55031642333323260718 0.60844552177787325498 0.66226150725294030686 0.72285816180734752123 0.76733070470770126104 0.79889715014610973576 0.84094737922844198241 0.88577178753068064321 0.91442654130303446802 0.94069232847676043097 0.97567433017635618597 0.99616536945188771668 1.0094916804926465925 1.025066431955146351 1.0392445788181410293 1.0510824425701146279 1.0725420215627694542 1.0755343753792658834 1.0667529056491789063 1.0728426375041613117 1.0778207610361945079 1.0733959812817090995 1.0699806975452250679 1.0534757510273717873 1.0628561109983674093 1.0457679512904018981 1.0433590817523412664 1.0415709195822855371 1.0232713608448322784 1.0114348824648375924 1.0018027709349934806 0.98189817655061983892 0.97164662386266686944 0.95329763144396950647 0.93600368887801477236 0.92588001381999840422 0.90296542478928787379 0.88929876017507347719 0.85422244343933129151 0.84144318591856104295 0.81732338822531935829 0.79906959132874244567 0.78784320312777911255 0.77807777036342040677 0.75459116261747261056 0.74438658247523248335 0.73580673456466572091 0.7471490414479875497 0.74570935268363502946 0.73122364421035401794 0.7411751110281658006 0.75000780932797495026 0.75392533612591217107 0.75688905641335446628 0.75331541889568731651 0.76396105461253693836 0.76970625252546731598 0.76896553201064099525 0.76849057371440376851 0.77653840272476692963 0.77384207725683229473 0.77724414234999794626 0.76637401304754737552 0.77192252383034554164 0.75980746697008660906 0.77105602492029889916 0.74840679637797680179 0.75414944447182730158 0.73882021995826230309 0.72519221412317047548 0.72476457364410140638 0.70098721321283596897 0.68722631185946936316 0.66117045077576841461 0.64301760629007154169 0.61741588968900473766 0.60548809909214984515 0.58101643570607031108 0.54380667974589491642 0.5258729573942950708 0.49771287265881808404 0.45927470482356325121 0.42736956603375103603 0.37534413440219571712 0.33419536516845121943 0.30168343061966140795 0.25492938007789645027 0.22061717365481678388 0.18125121206890948411 0.12668910076910563922 0.072926180209481147876 0.025965349086560476216 -0.029393811592636293062;-0.78571004676184663662 -0.72086216612543396742 -0.65953496204743733422 -0.5930264135989634644 -0.52733125683660053706 -0.46517288586817850948 -0.38697142865944356149 -0.31997458241730430961 -0.24668297628532065424 -0.16545953614046532421 -0.095924799528755114175 -0.0058136492838924795634 0.076729350133104820553 0.15336504690360877601 0.24555582135369699581 0.31791474720353207761 0.41092905588796496685 0.48972573677036784767 0.56473306770342812655 0.65278826367962816679 0.72087136085959546694 0.78428811427277012047 0.85712365891562170006 0.91260691391426562724 0.97973326648455627552 1.0462240424751936274 1.0959256319964483239 1.1529474566320780937 1.2038706655078155183 1.2451987138297413438 1.2832291419399424193 1.3256942302129064437 1.3572793216105030201 1.3621750818051610032 1.3895628013420291413 1.404677363238387322 1.420346227034658293 1.4311372543736629037 1.4316521514269924253 1.4452146868573578775 1.4372372427885711232 1.427220926538715684 1.4172207217846486405 1.411737748198648168 1.4111119270406378146 1.3852142582759858769 1.3620301158926297891 1.3441231205769765822 1.3364841130586779805 1.3056239724223070997 1.2861128903101233245 1.252719612737943633 1.2346636901620144933 1.1998249861596812504 1.172204843656811768 1.1501660956638906086 1.1215017332144827655 1.0760086363491667694 1.0581959771875319998 1.0347437411314379663 0.99401631813664237391 0.9710688420621793604 0.94890212765562642616 0.92062036027804927674 0.88105374970562222448 0.86868003606046617637 0.85059308006979872374 0.81579492291385669045 0.79466925045636660485 0.77116083093236165169 0.75293056030797078648 0.74359355487041334243 0.72571876430542336944 0.71328911657124727252 0.6823335783023691814 0.68161105281764555741 0.6574130095776776761 0.63177480551072373594 0.62401580223414321313 0.58788932319116271596 0.57353853183875480592 0.5451769120483361819 0.51286203140141195522 0.47589261882250050162 0.43549522348181596287 0.4044705178721249017 0.36935991183525773707 0.31808007243617358872 0.27573103321044567515 0.2362565950223460276 0.19842648324813799698 0.15682566770504538511 0.11277917201885878651 0.057128016251519392332 -0.0060950165245161605151 -0.05408618916140549987 -0.091938942053265942933 -0.16462021044108854362 -0.21611998402053744783 -0.26883004809039295901;0.47864444900827080032 0.5785896760834342567 0.67353269156366835091 0.77793338511859810858 0.85563228139995839427 0.93557221015234726114 1.0288782601936834471 1.1007165553440971806 1.1604823522686207316 1.2319712529319131189 1.2706477809053391415 1.3297818981260876026 1.3630373329338496546 1.3878963707534623939 1.4017589363371056876 1.4219430642814905319 1.42942069494592916 1.4457786777067165307 1.4328640162718517814 1.4194459375481203178 1.4036087334839180141 1.3940387972119681059 1.368966322348580622 1.3376101585660182813 1.3110902595216564759 1.2671595146769856211 1.2317840615347277478 1.1716966496720859769 1.1240717707224772148 1.0652882474647751287 1.0176361359608647739 0.96718433606903964073 0.89394439220135646362 0.83479756984235875539 0.75726170027871408941 0.69128329580585068381 0.62302468591558402 0.55837411583054064046 0.47541456608824178565 0.41058787457048512293 0.33395290146009043442 0.27769459113883043777 0.20990828192993848944 0.14864701502424340629 0.096469728561532033795 0.038015947997352417254 -0.009185755515317084452 -0.034124294093549729923 -0.070309182378471626884 -0.082454695660609214625 -0.1071904784808555694 -0.11908146332315837357 -0.12003091205812439768 -0.098511529818725504515 -0.081757705171792399712 -0.073810948105642565364 -0.040796626708992020371 -0.012435628464511620794 0.024212683756463886792 0.045349027698380152407 0.076536755804971073891 0.11347323433433210982 0.15582473262773954836 0.20117399911732386508 0.23282808651105424413 0.28063289726135931534 0.31853247818245566947 0.3507065034383833324 0.38827476087435425223 0.42792519067873574512 0.46064948350833095914 0.50142002456820522482 0.53929021747070660098 0.58669539511562329714 0.6159924745164532256 0.64196753360912528485 0.67906365840877180862 0.7040263175835027587 0.73421690709107567674 0.74749079067613799499 0.78423410081603350807 0.78380096223936701616 0.81406296527854327127 0.82286967615744777138 0.8263364089725996342 0.82997874338119748128 0.83533250178323215085 0.83223120736966837985 0.82075476694406235278 0.80034698442943441599 0.7915074945951515728 0.75810186812566771053 0.73380503526726159613 0.69720348442362167773 0.65341922520933926055 0.60053606106642076767 0.52832773885555928128 0.47693168179748096636 0.40400459855153358912 0.34906636548325209457;0.32768914550253414042 0.40316685235158145062 0.47955861854957826385 0.54152834510824376935 0.6005481311898119845 0.66181655374566694672 0.74065811528756020365 0.78796716860008575445 0.83408746966354518904 0.87191097633460201699 0.91439106126981728462 0.94664438734000533326 0.98331785682096617407 0.99179048455832774511 1.0109711470905551334 1.0313327551136208804 1.0406799894274259 1.0374731181049205997 1.0514329923426746216 1.053849946866214804 1.0423576117526209828 1.0284068365792562449 1.0260373051865521177 0.99891615989374116236 0.98900691258034634235 0.9806330120364391556 0.94125815059547213171 0.92866155556613683153 0.90316030944635428135 0.87168369560397829243 0.83745615664396144684 0.8046786490221199406 0.77724568412609851276 0.73179648049949541644 0.70269484950812088897 0.67559592062118878353 0.64266296194481331572 0.60750839392604305544 0.58869027069912704953 0.5564618358763269157 0.51680870657536703838 0.49477422217775207658 0.45684328029987503195 0.43108738084736136775 0.40959647743035659806 0.39276053073691202799 0.37743762620216991799 0.36647824821387015026 0.35703653036808957744 0.36148375232171958693 0.34962050962987128999 0.35814430771001692921 0.36187088085333873888 0.37819756484983951816 0.38536930801613217268 0.39929293271554544553 0.40835420089693791335 0.43663403453407495514 0.45540232692440402174 0.47831431582868449981 0.50940790948314973452 0.54928148362038309305 0.55642614997565975621 0.5969179282544517795 0.61551545856690625946 0.64547267176467892913 0.66131253679407109303 0.6835088666911016686 0.70803971224388073669 0.71512191818619608163 0.72523861458140082004 0.73856323147006952556 0.7560512171856763608 0.77191340205932412744 0.79222593036467525707 0.78313497366395767862 0.78712036748233671357 0.78198845598559452164 0.79482971778484701186 0.78804414352218132844 0.7787500170076030459 0.75737777979414000473 0.75922953361666667416 0.73771860876534123275 0.70558118607353426111 0.69085918149726299742 0.65266477004489198421 0.61259377221919986134 0.58098633282858958005 0.53655913181509728993 0.50165659193069256361 0.44242162943978646794 0.39640710882759638833 0.32905223915053888328 0.27387181705081387051 0.21934590015229413207 0.17232306197051766583 0.10955442840175454167 0.046710295230788179133 -0.015590494939263017937;-0.25554094910307606492 -0.20918671287153264848 -0.1617659522753535084 -0.118515615456856932 -0.056447646041009907902 -0.012870400056164335925 0.033968545183334801496 0.059983451046544615515 0.098695150019761743176 0.13898316734909185732 0.17882660057755198069 0.21073795778307011228 0.24095971404300670082 0.25474834635807780403 0.28239101488036855159 0.32235192724281336307 0.32275881244606219322 0.3502118055180642453 0.35657769781990017455 0.3665528218204252564 0.38363353156750140682 0.38114306228445804514 0.3717234730987259983 0.37875464266708391836 0.37271078890880243728 0.36248262708789424913 0.35932232031433258834 0.34099484574570726458 0.3272760911781601445 0.30822964107148753676 0.28698148862036637619 0.29124381217211836592 0.26906960031606963479 0.25279410055154927228 0.24061789128403493487 0.2283846702188135902 0.2219481200354901651 0.22385527257398335488 0.23018050246441648654 0.22609043852356855431 0.2284183580002925873 0.23752619560442719826 0.25694149051641851367 0.27371009971677062733 0.2984402563849327672 0.3082684767444792695 0.33719433925918845807 0.381190282352390164 0.43076306803056918504 0.48340670899143606265 0.52506114979328355474 0.58245943451787884904 0.63529811128603386194 0.69671678862038555202 0.78130398989809479726 0.84644291973903695858 0.91377040714122137466 0.96558020727325832855 1.0547599455934213442 1.1201953338820822559 1.1773478347735246707 1.245657225785403055 1.3083000048152528816 1.3824210372066503272 1.4433626515224911024 1.5084154561832474606 1.5490578688330154389 1.6078252725989501393 1.6600187199290157292 1.7099325484619432025 1.7469979612415151848 1.7830368323944589815 1.8078090929211780846 1.8300966495130506217 1.846471095515508587 1.8477855513257426257 1.8439757448793663297 1.855278248698730037 1.8276337950592156378 1.8058301949982482615 1.794029949720093553 1.7553581324970315425 1.6911513658381962522 1.6492403705876963471 1.5841307037443175254 1.5136787554213406715 1.4326398397367696713 1.3569532909812582755 1.2657134116899657617 1.1775180424797171419 1.067498225427055969 0.95699612646926646153 0.86136347959868075908 0.73294363952395702455 0.61943993294987675924 0.50217089062674302724 0.37612818507265083356 0.2576580259552218588 0.12818206840451748518 -0.0018517832682474659814;0.41654068842620578517 0.47007254396579967182 0.50870271047699056055 0.52836979042762333147 0.57269406200581374211 0.5888045437828625106 0.60355314865957576664 0.61585569314878696456 0.61922172934745700612 0.63218733439702712307 0.62766516471226918572 0.63830154451702858509 0.63482330990448909702 0.64755043469611162088 0.63421451603920120377 0.64327667406050037524 0.63955689389162639902 0.6619116413531083154 0.66772500935428369395 0.65890335739483496535 0.65918938532053061863 0.67492985079428746698 0.67071674863889407803 0.67782243711903811256 0.68832564097213366772 0.68068644098726116543 0.67933224348309262375 0.67657839007643461038 0.67254582036492160935 0.64959352309618256793 0.64789868627913482779 0.6280119367347299919 0.59990381896571254305 0.5877721921745534539 0.5648402690719717123 0.53669382426652367801 0.52045199700708943968 0.50727608957280989621 0.48454777334584564485 0.46879544958920754683 0.44264855042806949825 0.44299852312876925042 0.42001519504315243392 0.41285583231277145355 0.3835978603303553669 0.36222728971613249449 0.35565594888857415823 0.35124629772219922996 0.32902300739474971136 0.33348530880151544542 0.32104166165075009864 0.32755973579139940899 0.33531562053948726909 0.32577126346990081807 0.31470608083838280677 0.33049368880018781258 0.3260846389237582188 0.32900611492364922883 0.32538526642971449254 0.3441551973721012625 0.34088991385706762793 0.34865620338586383875 0.34592410464702150197 0.33375239439594850399 0.34320715363166598433 0.3297519737873707002 0.3352694606150208867 0.3269154354164784948 0.34541512608246399685 0.33199107000153771363 0.33648257149568727709 0.33496744607911693725 0.34967051620368144738 0.35378885847275870491 0.36752763488988560159 0.3782645568731221597 0.4004993028750092332 0.40449772704120173783 0.40944907244979833472 0.43659954852425508776 0.43740762468583588296 0.45317283962032045563 0.45266607208607617663 0.44995681954656124857 0.46864902079913633992 0.45537455549649252795 0.45942799149054208696 0.45184053750538438754 0.43700194283619370195 0.42740719541639454748 0.4147825846831114105 0.41351715080359552346 0.38873727609280417372 0.36790885425479769033 0.3541463707225408486 0.32315894767652381114 0.2941151052952175049 0.26486393417000114736 0.2469745938694270504 0.21406471769930265903;0.0019522249178153192051 0.10189102895400492521 0.18955484027104210765 0.27279738879478293567 0.34616593055541206025 0.42469666846414028116 0.49047406336388743586 0.54330798151497994297 0.60678975051639405525 0.65188756707529127432 0.73304725046081964379 0.79707036834370637024 0.87739625439618851299 0.94910099353367627373 1.0316062903695690789 1.1038849411309148429 1.1854954379945037424 1.2539796185205356327 1.3381126045031359606 1.3809276354949817645 1.4571448860505693546 1.4970322818008805488 1.5304925264913638028 1.5664261828809693533 1.5880559047715225862 1.601379827723086624 1.5876802547997224124 1.5929619472968514771 1.5869360283926690069 1.5854335452281154151 1.5536268565884214787 1.5265347864432021741 1.4906709473410588718 1.4391843516448432627 1.394819548184303537 1.3298473359135880578 1.268996911220644952 1.2007423559160013138 1.1384829132193572399 1.0513513873182440683 0.980023927937062167 0.89532265811801248212 0.80165276169985155708 0.72079284860379477795 0.63713074639695232992 0.56409355362986268734 0.47947438755589300019 0.42973598996144940498 0.3584995297320860419 0.2907984335677217258 0.22749430668197068162 0.15141281517650698185 0.086866002158944383149 0.031476605822068196017 -0.046626762268915655785 -0.10197499779575895651 -0.18611042459507204372 -0.24127029608173589104 -0.30562515311998955658 -0.3569270618168441378 -0.42489679785108952492 -0.46854057627517115003 -0.50264529908160948679 -0.55017212164387896411 -0.59609145344730762872 -0.62570028808100042195 -0.64056408993917246519 -0.64899521913361568615 -0.6748664684926435342 -0.68069380135573009927 -0.67480301010211207746 -0.67880417608909571214 -0.67466144957554941008 -0.68456137143948414536 -0.66675623016892326955 -0.66686916437387144807 -0.64974851757824925169 -0.63655693562322712697 -0.62609747232058410304 -0.60848780883932696018 -0.58153723459274564433 -0.57063797462448784259 -0.55279207830906884613 -0.52786886173644054221 -0.52436197209959334309 -0.5011071167976695051 -0.51658895851227237817 -0.49620926253662067662 -0.48424744805495212319 -0.50425271625409395782 -0.50561106645903408641 -0.51818711597685074288 -0.53104770722338412448 -0.54201589837967445451 -0.57415134799593570136 -0.59475981122513910115 -0.61578081584348809407 -0.6331577139488209216 -0.65414402421534556531 -0.68411984171385553655;-0.25480177887527277747 -0.22582395480604153248 -0.21092627295426230605 -0.20405958291282844108 -0.17499476917236050921 -0.16042904892212850321 -0.14709075811149083246 -0.12409062223002413627 -0.12795377184194739462 -0.11082859159133048865 -0.11301936265472287135 -0.10639848608392164786 -0.090292383294211228661 -0.093284203943352253519 -0.085318612530221826784 -0.090194835190524638713 -0.089465225575293017002 -0.082165028012063351381 -0.074379246700381443369 -0.071579989558276435613 -0.077646338129013059426 -0.057523746556086496895 -0.052330012974654338542 -0.03011977407664060899 -0.027327182654639726317 -0.01921753180834900876 -0.0017435322174231260555 0.0043722699646792043821 0.036428586866462761562 0.059855095505223915309 0.066709701817460623219 0.09343209112626137125 0.12725885087772881299 0.16138847784842635935 0.18022239636736689383 0.22345680237158241366 0.25090655221461682922 0.29764773395107446685 0.34148434482008616087 0.37403416268244848997 0.43402963595444510325 0.47974716163711478289 0.5088126517317559383 0.56662614971596625413 0.60836821119374484557 0.66307301558784892404 0.70840021447545287181 0.74439696998651561088 0.80034600860706694991 0.84437276525317384035 0.89289274524612993744 0.93501107105477077042 0.97250998911665431645 1.0151916233370812392 1.0527912103371486197 1.1024676324419240281 1.1279876234999712814 1.1697536830388790552 1.1988663635456882073 1.2283259681270382035 1.2688780983426839466 1.290762061653191406 1.2993480215399799693 1.3256007591053600159 1.349835099813167183 1.3624628564777667705 1.372992795378979336 1.3764888717231662518 1.3747110547617902299 1.389250289215448575 1.3803094956332240262 1.362014712010905626 1.3616829628260902485 1.3336898179089682337 1.3173321171158498544 1.301849701380523916 1.2669568379155067284 1.2375826336613253709 1.2188083624064283139 1.1636762326811800339 1.1286232703452294679 1.0875783737637703119 1.0440784153636284426 0.98851472150389474436 0.94473502508476225881 0.89378404064269545426 0.83326073590688132242 0.76175838178513588517 0.70257044444998395516 0.65223359902966515644 0.58992663480055507197 0.52082784131141290906 0.44881664402687648785 0.3914701960618479637 0.32143553851883510664 0.25635677473262297177 0.19315598382092377672 0.11513715377095212755 0.045786298140721208572 -0.036320538383223230361;0.20950093663133342869 0.23679879901166009382 0.22251089305220850267 0.17576916385891896977 0.13987709935817926876 0.15098696309121148462 0.19784319664774874248 0.24207197778420599943 0.25796851962622335819 0.22937781779263349824 0.19765244693448802416 0.20075871183260304842 0.19150462790447050909 0.17609737556402182967 0.14453928456656917056 0.074995198606336563318 -0.0017447455026379668584 -0.090885067260208243778 -0.15862041061564721711 -0.22123416837005599467 -0.25586417713969739074 -0.30165328461864754361 -0.33651438763059821069 -0.31441058457709819551 -0.30964284880027204139 -0.31811480304377026673 -0.28613844819325640056 -0.26169661685153761121 -0.20917521337103767154 -0.18375727244822326334 -0.19167169726847851918 -0.17047206207554707613 -0.17314885514173328218 -0.21283675696772769159 -0.23582369393769112009 -0.24819408459367273134 -0.20697431364260593378 -0.19240429988851434628 -0.14190216224084184482 -0.063195332626734282422 0.016313074625359483272 0.045502228243389952755 0.046071801348240841445 0.054920163721535034118 0.074006445338499815545 0.044992265057597069511 -0.010298286196586646513 -0.091140002671651135224 -0.14970598563920528568 -0.16095862227429355573 -0.15836055269428681025 -0.21642406919447193525 -0.23767752234529673783 -0.21914285315540224519 -0.24389309269449452322 -0.22492107890975854279 -0.1809479304980840253 -0.12807173872494656552 -0.11749165969279697086 -0.10128255150892227776 -0.036625245728826090474 0.034101531768179149662 0.051089919848640731603 0.058390006315098455514 0.06526322817712075508 0.095688336102532800531 0.12582418357152710953 0.16047408505880458862 0.18409933315392049136 0.18151070228964169551 0.19495350274745337771 0.17123236971638439163 0.13947073860007308532 0.15607673400253063711 0.1662130916537038483 0.077276570066407312964 -0.073744075820865020998 -0.14763369590621486238 -0.12916928032247251834 -0.031707258538827359784 0.028477956962851620065 0.1111066364896628883 0.16758373411494822958 0.20405715024670770252 0.26363340888468295153 0.36282738431348593444 0.40004102278154141104 0.39089159223877900651 0.38481210064421467187 0.33340952661616657382 0.31318703579902740231 0.30281680180528453006 0.27184333770974705713 0.24016727304350085626 0.20935167430034457015 0.15629082560743559616 0.1359181689402766402 0.11477590332558842978 0.059336646576176238499 -0.046050722965827420308;0.27395619614317390234 0.35612619538820317056 0.44266558204265937793 0.51363393602342422017 0.58318791810605385972 0.65228384814953721538 0.70920005689943832472 0.77219978269753597466 0.82875081323969179703 0.88363424328630069127 0.9377745164774277109 0.98822795806747487646 1.0288821754557684329 1.0784588976804885263 1.1210954307477909442 1.1626252574954403229 1.2046791099498910249 1.2246534124709969049 1.2541385854973901015 1.2653775401113234178 1.2911191207123606794 1.3035826069357112633 1.3018204735884919554 1.3142516411216256245 1.3110792679955152185 1.3006895499602626476 1.2869250835964076707 1.2568286543130688937 1.2441701150731814263 1.2084015628541069365 1.1810616038755581414 1.1472616181524657453 1.1130017672816712171 1.0676749206691755756 1.0240853930161604168 0.96874268149921560767 0.92247040278502889787 0.86821439701231695185 0.82357680934880073131 0.78062391424361476933 0.7146412752609908603 0.65800884065694931202 0.60352678158555439492 0.5527892186374390171 0.48915318080748948493 0.4327430290593929918 0.38024352550202228374 0.33788873535073721266 0.285911032165338308 0.25568657917539266977 0.20481375456176881267 0.17968301690586960251 0.13524499759348523886 0.10388650543341849952 0.08901998294907630116 0.056483916902627405443 0.020194527271210321873 0.0078139502178278721217 -0.027503102855093920776 -0.036020277754714398466 -0.049257604233332787091 -0.080729212772172723178 -0.076649241804490439445 -0.079748167081074114448 -0.081094305364973237604 -0.096764119728405623144 -0.079890807934834093262 -0.077877618955616956242 -0.057181734177671063313 -0.052279549212137607639 -0.018771944641929806663 -0.0022725510187271437922 0.010482362559229343665 0.033191373604419045773 0.062730064743422964124 0.084668715660206964047 0.11396683640546893812 0.1464179903586176057 0.18847167103801323873 0.21848347556581679263 0.242517177391936678 0.2632600827066756688 0.28102239180472238234 0.30518954468435272043 0.33759080830792981276 0.33841022418253480231 0.35972201674825954321 0.3716587514486522914 0.3681094773048686486 0.37830536607504489099 0.36966087567022520854 0.37022304231168357003 0.35701499075813292183 0.34630979623575952608 0.33537281846714006583 0.30850707613569677834 0.27659106373169983772 0.2522190558565788332 0.20837800356693611525 0.17393730216543745737;-0.28092243340974537569 -0.25118968703779043228 -0.22652932615372828318 -0.19097621457794694555 -0.15384252976882251129 -0.12696997598160855714 -0.099373865050224829965 -0.080563044934861799407 -0.054028154789752431963 -0.035524043118603722269 -0.012792248893997333614 0.02203993416283678633 0.032769158208340996852 0.059034456262333591392 0.066840869947441039489 0.086963903501376185745 0.11901135457069998702 0.12171515742019134443 0.14667298454071880931 0.15916979587028179388 0.16713290688317736232 0.17099190940091554824 0.17719909513051843031 0.1832118010653236706 0.21035333592222885124 0.19960198595133907262 0.21525466596850803547 0.22965714731131703363 0.23778411541396765605 0.2451649552453169234 0.24752533362069720213 0.2482023181706209114 0.27364222284370398608 0.28642313366774740935 0.29074974630575178836 0.31015025950164298862 0.33245283145425963411 0.33975034848409818578 0.36418220832370129525 0.38145346230563498269 0.40595172277611352163 0.44139353669761183241 0.46578431711124201886 0.49884303827089310213 0.52940219475400018823 0.55474279185098707146 0.58764995389395746628 0.62913961711784394115 0.66877990651374374931 0.70166715956406022769 0.74514985070148531676 0.78962840544374524043 0.80558640042529194858 0.86454791944238784662 0.90603278154290911584 0.94951028516007218716 0.98686511848030566973 1.0325527314581381955 1.0688749660311189782 1.1170230351674677038 1.1568643291988678357 1.1919529912700173035 1.2440339182882462765 1.2951166589628184678 1.3341063107932111809 1.3738066244712858754 1.3949941307331188423 1.4187752428857147713 1.4522201032089807615 1.4699244854800608273 1.4782675735480761414 1.4951806172429806807 1.4897702480406977976 1.4894648876119462866 1.4844060398898664133 1.4663636120463601209 1.4474822505835645003 1.4183930728309517288 1.3964434285254314627 1.3707744426255190628 1.3198714347729665342 1.283694041585384138 1.2290569131757702603 1.166252110972388234 1.099258153055354903 1.0517262272253262712 0.97579772156037547504 0.90733267301298503593 0.83412662508347701351 0.76434841398001762691 0.68771861439372006242 0.60265824439969228887 0.51973951823478126144 0.43469117615634800256 0.35376638125674753077 0.26114720251348261248 0.18019788112785728451 0.076234500779235547796 -5.3115545646336824893e-05 -0.10027604052128165357;-0.39859948454065485812 -0.38879136294566973842 -0.35757399918069709965 -0.31852239107646956873 -0.29212910298682231991 -0.24099248769255454672 -0.21598435080695352339 -0.17955306332398196512 -0.13796663882311641092 -0.098300233116014573698 -0.080976502816150069952 -0.032209412919581993651 -0.0010052588408432140427 0.042770306228806814763 0.072976457263431743216 0.1176520749460688714 0.13831921881070036173 0.16429078397126750666 0.19853517984975166399 0.21994325571573344891 0.25321512400118673103 0.25996158373021915899 0.30150364734490914254 0.30935027789464364378 0.3168382692949795465 0.34579304271963584583 0.35335287946370363965 0.36673040362132641734 0.36097285112123228545 0.38126970533280551967 0.38396275273637670011 0.39786829040857901729 0.39671085073322515102 0.39074381317152351301 0.41630745064160967761 0.40937517374007909021 0.43144994186713903073 0.43835589598731611316 0.43605851077404855776 0.46138594404785066017 0.47525864982013971138 0.470644381658687605 0.48680947578595995529 0.50128287287924078175 0.52216439739356712568 0.53858473275752161147 0.53494851686947308966 0.56152412890159764114 0.58270392555502348308 0.57539859415829941458 0.59925681696402788301 0.62337184442997650713 0.63688298282086763802 0.6661815040207503813 0.68095708840360602565 0.69808050616067773841 0.71968943645824812183 0.73875152907851604489 0.77320485904958002887 0.79185856861893466618 0.82507963411724372094 0.83891674007886463116 0.88381424869294467062 0.90666734585546615577 0.94282732006602476549 0.967209044781514371 0.99794288591358015772 1.0259851934849064659 1.0576395909676694629 1.0926904538210118201 1.1183871403973280056 1.1545556621273223019 1.1900460456937329567 1.2160661415083804382 1.2346366274409443786 1.2723936555115971103 1.3049947118177751548 1.3121849653110491118 1.3415211646045213101 1.362519125822623911 1.3609638287549097324 1.3767351253246158382 1.3694490955805889154 1.3640460529901212716 1.3537731045969021437 1.3259236696086555973 1.2940288842710256922 1.2595679353144013657 1.2391463445635975127 1.1928199786864512877 1.1411376264324797347 1.0761188902936276168 1.0317153373140726114 0.95757369325964913909 0.89312553909711234201 0.8174170830336675575 0.7420454499521634828 0.64868889851225652876 0.56804812089441381051 0.49170075751973740807;-0.10918135629189064384 -0.062177810982096251569 -0.024980464270368322316 0.024294113439789988274 0.070011693402653396578 0.088666907659113641804 0.14444355443658846161 0.17241874670215359688 0.20111283244015609739 0.25058107266556384207 0.28196537352395911746 0.30677308024693183963 0.3540130010529919935 0.37935464235025101454 0.39711531944370598302 0.43219874578335654158 0.45146451418775068731 0.46842682958235037916 0.4847907845649110925 0.50658382027960136007 0.51999159761170943295 0.52812341786591543435 0.53237825343524991517 0.53433037191092591645 0.52372943952836459314 0.52456978166896672811 0.53444410997347968628 0.52563387854455678738 0.5303386477978810909 0.51728769312794031787 0.52332500451801866603 0.52060123987356599073 0.54177607571974650824 0.53519716744416256926 0.54891674657716604813 0.56101478229889156779 0.56274766007987042649 0.57243101539421203938 0.5902367782390829376 0.61851221929236577246 0.62457556080699105916 0.63739662677527297863 0.66526079301851503978 0.69857909801338591294 0.72786551426779744212 0.7422946644401083871 0.78132733729197856309 0.8112292394488919145 0.85271578541756076763 0.88891242949054316558 0.91566207553409584285 0.9616388472469350468 0.99203739368885779371 1.0282619034341275999 1.0706770181497342609 1.1024137573112215982 1.1346372067006909035 1.1644740225220586716 1.2031382294372945374 1.2203640326731544086 1.2631172143656732576 1.2820226245784036578 1.3038041756639284774 1.3182760304339566915 1.3384007149575556372 1.3594035039569565271 1.3675661387460924523 1.3910825422594466083 1.4016777385528733646 1.4086943935213795953 1.4264018864060674652 1.4199521754212265368 1.4097328255120851193 1.393025702704456803 1.3809377419275197241 1.3704225218598584668 1.3252986755449440714 1.291713740073119121 1.2654890378011565133 1.2163989170971432063 1.1902707083041008662 1.1353466172638944087 1.0785790091933813439 1.0245258964100134591 0.97962563544837921725 0.9108334869664027611 0.86347131752069783417 0.79078231761041373193 0.7245047094856057468 0.64606207212121291583 0.57997877375675976896 0.49789940140405436475 0.42197585478020827043 0.33415921136850224027 0.26393408504155563277 0.18064402342117141798 0.10397031718779585485 0.015605913378749058928 -0.051125585225062587791 -0.12969583154867406205;-0.010625320765320137723 0.058632119560601846098 0.12054163068135198555 0.18879007788489071684 0.25805260088423614961 0.31958655118728601652 0.36269003047564329911 0.40941050393891315062 0.4729199906030190359 0.51024251794595898435 0.56551290564015699314 0.58960357504314431232 0.64420735295007036658 0.67396276958965750659 0.69853193126928825318 0.74529751874328331596 0.77908962462148079187 0.79566041779373108955 0.83356587809128612765 0.84455795826418367245 0.87145181103565350078 0.89345021882889053 0.91058388359661446287 0.91975178690740122533 0.92554362315226257341 0.93726329907515415485 0.93236759036968708259 0.93846188417419285077 0.935029944503461663 0.93771303599895028391 0.93008685187294271035 0.92143067649784071715 0.9132918493324475584 0.88342485221965172393 0.86958008852032742109 0.8591068722795178747 0.83045211108971717096 0.80785221575357890611 0.77787484533348927318 0.7496792967190174517 0.74623628951034648438 0.70630580951048105298 0.68973598454323148399 0.66451132584802430348 0.64899606458546743593 0.63661462328903561936 0.60508764963703942641 0.59054048204731901528 0.59885152397064078666 0.57908822125004522086 0.58408834486647276396 0.58761490476029409891 0.59366079744313848821 0.6155329625926870829 0.62054785159403869077 0.65582066501918689916 0.65847738896488106075 0.68718245289597490455 0.71601202963238896881 0.72545692365853553518 0.74899181718930063489 0.76921043662507448957 0.78354256146590040011 0.8092349609171581859 0.82285962357712494342 0.84559390101882903057 0.870539226018845258 0.88011038128673990677 0.89623996231753677577 0.91499632356977922409 0.93599765475260510161 0.94977314195992623702 0.97536510764204775725 0.97906732671715346328 0.99703050482100719076 1.0197785085862103305 1.0317774647651891673 1.0468183042588841136 1.0581097778118644381 1.0745526054281755446 1.0785021158602317026 1.0741596711781464801 1.0845133383113625403 1.0836677468629056786 1.0798803942338528472 1.0551473677178202504 1.0434102471808228696 1.0200396479900710744 0.98440085966725254796 0.94609358469911053469 0.9255166119100312061 0.88300305944159096505 0.81506047347078847132 0.76964412978057983317 0.6970054636848623808 0.64169097555681331446 0.56544614061521503157 0.50111114147286661691 0.41985851720637112905 0.3419582013179064961;-0.13684853147686601438 -0.066549505350634544087 -0.0013031467598631951872 0.075120491041441028734 0.13987649905632743019 0.21114637940253944137 0.28083170383538902382 0.35532422082820186438 0.41047621966006875294 0.47768271701320474953 0.53417861487965745404 0.5915252539109498997 0.64586401341389210184 0.68370914981429220525 0.72438627321361981348 0.76842401414673566773 0.82030456096223536289 0.83465933862917984776 0.87887520910668548435 0.90402390990035130791 0.92021692410878652701 0.94746922919680909292 0.96267463048022106076 0.99644619214552054842 1.0006842335910246522 1.0195420209304186798 1.0214006727709692424 1.0155001730582911001 1.0213262741476998308 1.0064581393840426049 0.99686093233288164406 0.98148133319935326746 0.94291703948619431941 0.90825693283907216191 0.89219620779243835607 0.83972917481212261404 0.80578962636613271631 0.74889633063124572132 0.70896445536861218972 0.65059223184177350507 0.60452643914690573634 0.55263622144200852393 0.49881551599431467325 0.44892911361746939969 0.39758240831362418044 0.33486599524104049275 0.27751226489848851431 0.24295783008612722997 0.19032959953392353247 0.15523759835620273839 0.13365894877520403949 0.10517737067327978528 0.078050269185795606575 0.063084228473823944494 0.06138655445677910355 0.055751936888725310559 0.071932049687722529607 0.089051692088118111768 0.090953782760137116825 0.13473980722727246784 0.15512850999575664157 0.19404089663281096079 0.23557732493681562969 0.29244644266611397043 0.32911691019660921365 0.38583760586459980857 0.42531777752988525476 0.48205435051970302318 0.54876974595699934412 0.60079305186962972396 0.6576990066659784695 0.70284640148783472657 0.75841130211693574825 0.82509056107966305404 0.88462636494607471693 0.92218411195876648367 0.97985196193119650232 1.0151505790974535426 1.0703556777697571523 1.1192671143818713198 1.1485980334273346859 1.1826803996941692709 1.2306131837827272157 1.2568874210961082927 1.2714070846023517447 1.3131524502977713897 1.3257942845573111867 1.3469004407981033378 1.3550078469424269301 1.3511281771226102411 1.3312025764703208086 1.3258981683614583513 1.2944444237816965515 1.2668226324981548547 1.2224373810684574515 1.1831508200963700705 1.1127238842549298514 1.0457870495352423745 0.98181583030129349066 0.90453922394378249994;0.42977700701208509937 0.48990353611452613913 0.54240680505099170272 0.59429354047336058198 0.65149276814639511812 0.69995884721592271926 0.73258793454587090022 0.75991408548874672668 0.81089307971186574964 0.82643582211583488384 0.85335545844103877222 0.88502604367590465007 0.89148818195855217272 0.91757238510480998439 0.90824423476853632931 0.91059283899572940335 0.90626324797147794765 0.90408360603858950455 0.86899436901718973836 0.84129164827929270309 0.8164738067389573084 0.79378519863617358343 0.74140486806281302723 0.71042128990073505346 0.65324990421637030291 0.61799160499175742611 0.5610483642215575717 0.52340340801595885978 0.47811007589197596079 0.43900009453699029294 0.38849092442812432902 0.34229304673837712691 0.29605793258542190127 0.25610089331863866713 0.22073019950563013691 0.18246518547316686876 0.13671147696318941556 0.094482405460084531446 0.063860404904805045945 0.031118883405392167713 0.0094514173522962600243 -0.0073333876068208325369 -0.032175128214060433329 -0.049702101182309915695 -0.06661375924240120483 -0.060634673626801839641 -0.055018252034621593916 -0.047965961707542047188 -0.027319607003626185382 -0.012563029965053549089 0.015148658620571868808 0.041811639488131976949 0.078560786584860292647 0.10669284262967483612 0.14082385119266713214 0.19501701604150700753 0.23676260793394487969 0.29688632262173009213 0.34517576229998991888 0.39939858048874299357 0.4546437281304446798 0.50067072590383920883 0.55579791850081050608 0.60873521728379020868 0.66015941040589087851 0.73186692275641207495 0.77639840853467378956 0.83893724765884869488 0.89030642258118464216 0.93311891813459624245 0.9820243174448065604 1.0278966727462968134 1.0705210037700003678 1.0958410713777204659 1.131881522135035123 1.1410543002043973537 1.1772283963548355601 1.1773422550127246033 1.189429018487246692 1.1881939160557819513 1.1742653397610205435 1.177692263169718645 1.1654021691439786501 1.1358652005312022126 1.1226511895243505013 1.0869440707334254714 1.0561403034453431538 1.0197460273579790346 0.98500719887797583141 0.94683374187811042422 0.88234531830777873651 0.84411418740433219465 0.77492550378330049554 0.71023657952233398838 0.6448608737660000978 0.58463121215047686441 0.51920337605331556841 0.43453732602679523422 0.36334641861444821886 0.29037676630521819243];

% Layer 2
b2 = [0.14918005136893106033;0.1558314358566429414;0.15401671661754617881;0.14038759359047761621;0.15174902570221698861;0.13805568144825891563;0.12604910925920090325;0.12981708283688381256;0.12823633099653036771;0.12089211598236146439;0.10386290083216129232;0.088428048891229127371;0.078008907227736262735;0.073921205292822658728;0.054439947317475548272;0.03940639009409491883;0.026132389964646576819;-0.0023739632355619308401;-0.040167129734350520698;-0.041681399726152867924;-0.055837617166505183752;-0.08563621097431411977;-0.096185066197148755274;-0.11922449792856554263;-0.115322672537866322;-0.14097697444259377209;-0.14786360394203673652;-0.17358030822757003486;-0.18497883938222295375;-0.19471662486777879808;-0.1875568399079336479;-0.19001633579245358341;-0.20925295970608889795;-0.20450336628946660933;-0.21496779874009036559;-0.2204282404339835133;-0.22203973394188206147;-0.24597411473881017341;-0.24708567581360416088;-0.25039626388289165648;-0.25330880932564248109;-0.26748675706431496168;-0.26623366361539424485;-0.28514403914211988722;-0.27863762676258224671;-0.28153842383119243031;-0.28827176597507009337;-0.28757515509965714262;-0.30357921053244468768;-0.29705283802922149983;-0.30938105845161406604;-0.31649723023521225684;-0.3050834795521860654;-0.31393383131424645871;-0.31600225849659296928;-0.30185405271263926474;-0.29973834864730364291;-0.29982497689447379363;-0.3048614133574398255;-0.29106470524663596855;-0.28071697912830345656;-0.30396964971620438201;-0.2884352287970687323;-0.28185341115909734455;-0.27520627090200872056;-0.28217706466400066523;-0.29045316680493360462;-0.30029053012887108043;-0.28211372787566929565;-0.30480572394131733027;-0.29980310896300038648;-0.30084759941051941734;-0.29192896086195796457;-0.29580106305946290979;-0.29084663391984433289;-0.29717527052271885957;-0.29949587197152488516;-0.30459602467785573676;-0.28841785347117354643;-0.29235221386118859233;-0.29926608205780036442;-0.30126795757425356426;-0.29381477684404105899;-0.28608703431371068637;-0.27522631263552921332;-0.28162420292433559821;-0.2724088952791850482;-0.26247834406457104528;-0.25974218305167695586;-0.23746898529523452481;-0.21804997960717190097;-0.21716592718837507414;-0.20549298120244940957;-0.1954462357928778149;-0.17524100446221038685;-0.1629155205932416306;-0.15231196833547763769;-0.1216412475892124645;-0.1249516870676903868;-0.092471865029627384192];
LW2_1 = [-0.10517698010361030414 -0.0035231652182172589101 -0.056925514210351073341 -0.49846005667079612556 0.37454634929290486767 -0.29314430366541371908 -0.084072461009955148925 -0.29653166485170362465 0.43694998603941581639 -0.38323328171857318214 -0.47291137003873373601 -0.27043041372949644385 -0.5874780054097324955 0.13592448079191776777 0.34376934568284445159 -0.29246079450267659094 0.39932074876054179935 0.027497084570737143072 -0.21566204389819315645 -0.20965382401098503484 1.3765292193767257878 -0.023286993415915620276 1.5884937482283107979 0.18855847356027333195 -0.27320596465151902876 -0.0075906300282308682842 -0.099461700222872387323 0.027940551974425405918 0.14621028342408468048 0.037732349663473989387;-0.12144329190092506554 0.021192365287906141103 -0.034495670278772441741 -0.4880430666771893855 0.35415627010345229753 -0.30374187860575169173 -0.081258137166409324936 -0.27452549872220766147 0.45964419291306135573 -0.41916195046860299511 -0.49795638416345827659 -0.23398388954323323663 -0.58711455978205351336 0.14621218470898150743 0.36772663566778890365 -0.29857471560057119442 0.43811292148260100321 0.028314338233812186285 -0.23205310526843603292 -0.2104997852412376913 1.4322813202938429189 -0.051252305280557006184 1.5688275603646955059 0.22631364426944711177 -0.28857800809939387898 -0.016905543672109297343 -0.11748006738555691331 0.035716368749063247268 0.13290735878643114565 0.028820816575886535477;-0.1264321235046864389 0.053415192257628432704 -0.0084092302433741768913 -0.48069699604601651144 0.35526117820307479001 -0.30486117881230145876 -0.087246052075003313608 -0.24684813475039596442 0.48689067314742784376 -0.45418034047143196474 -0.5249568718030840353 -0.18304933002331699732 -0.59186807776308358875 0.13906254839503598419 0.40385741798946828141 -0.29531504064177716007 0.46446360684354454085 0.049304912015815278992 -0.24753696280917580896 -0.20516034583427650295 1.4847843594179290783 -0.077202483516569525568 1.5399984316203860768 0.27128115908264527345 -0.31121683012311324168 -0.0015980752486271345217 -0.12794259889771414374 0.067261262350042788638 0.12157497506821852984 0.015009436834776094735;-0.156433788694635173 0.061241675142464729875 0.015776304045924234576 -0.46394798766736061735 0.33442832445832815225 -0.30556678081521698731 -0.088395684369122276558 -0.22962086272194462411 0.51046892004052690783 -0.4906816830440659527 -0.54845426657302831508 -0.13063966185698530631 -0.60701478356988514129 0.14751209810911733444 0.41360423478702479372 -0.29138787775680297099 0.50396550941185946915 0.037383215784758783151 -0.27825722481361736538 -0.22596291080381880612 1.5241443509319958505 -0.12394865961147262523 1.4949834032835718212 0.29217414539667446727 -0.31715552916677902662 0.0085310173837002175462 -0.16219407720809597695 0.077130560041013943029 0.11031819654952867982 -0.010587072501663817581;-0.17005859810593987325 0.070910657231941870426 0.023778992804593702959 -0.47067514281570205226 0.2874352319794772348 -0.33262804211962659906 -0.08957480494313430075 -0.20589764543142943798 0.53527217120899761582 -0.52790821432935985946 -0.57357784222431129617 -0.082440607010171335078 -0.61373113616035657181 0.14247427077093005598 0.43757442500530446816 -0.29708841182359058131 0.5119286540936461849 0.032042348059111755432 -0.28473821278508326671 -0.22716017056990828182 1.5595057086855181883 -0.14874050481831008197 1.4415362485668539172 0.30329688878469701629 -0.33520269614472220088 0.0084654855110373357363 -0.181127454201475524 0.082050985345895763312 0.092913546099521002186 -0.039579635594173379065;-0.17638540288605894513 0.10527190586907715641 0.056969487926986521475 -0.42988587210705775377 0.26907565926064491713 -0.32451725602863779052 -0.091164397475513900271 -0.16779048099633561697 0.56707880273409883021 -0.5554003143858029512 -0.60264338207717726981 -0.039444395705829853049 -0.60243294410978176501 0.1427873134439115177 0.45654760270497773966 -0.29534139084867389036 0.53821164715088498642 0.045628852392988139552 -0.30888502630112202318 -0.2286690842924204714 1.5915269782994605485 -0.1825768541027824321 1.3781598587636829656 0.33469112545414975157 -0.35355076822014003257 0.030410182684646451523 -0.21526804631841392479 0.11475507164692787254 0.086422410269833507823 -0.058588668452977131496;-0.20967107049697558674 0.11825511750286332724 0.089087603728998945862 -0.4253697081170587091 0.24079495118472107884 -0.34045996870991546146 -0.088902490388229782337 -0.12754009641898408911 0.60138745568413265463 -0.57975830765086022733 -0.62895240324704138057 0.022422298497559688124 -0.60994625126110013635 0.12799673831364505316 0.47859365788163810151 -0.28062978379752373526 0.56627540743323767636 0.060717734310619803084 -0.31806773492557038896 -0.24344627592121653725 1.6138886889003971614 -0.21443784892686737487 1.2998154005640563113 0.36904471642079061944 -0.36686766913265733692 0.036945749803623632868 -0.22703284552853231215 0.12481937370106682694 0.078838618171514371347 -0.092811650249454480388;-0.22993739508872304556 0.13065926974283068041 0.10595180137936835441 -0.39237167451063303947 0.2054829809291256193 -0.34805098445250992611 -0.1086523038388886031 -0.096947913969763044317 0.64590668186902422399 -0.59981306398734457463 -0.65261756686796368321 0.07158547628959285869 -0.61157446862400421939 0.12412996981758980808 0.49406232297459118374 -0.28332480805537718638 0.59792000459701011295 0.068706838856313595665 -0.35084572826229432074 -0.24992619276599614686 1.617103790794051088 -0.23543409561117442652 1.1970755012919300775 0.38940740510700688759 -0.38659378274850386692 0.038992700312209915836 -0.25603551097103410816 0.11735922015614166924 0.061555668716064111667 -0.12733329374724336458;-0.24684314625231618123 0.16400690672890927413 0.13679574109564660023 -0.36337592285558406591 0.16785930468063381404 -0.34335966180393068248 -0.095169428713269110798 -0.044672955149218450399 0.69439602654345800037 -0.60249291942298788261 -0.64884315695714556149 0.12393935571029819631 -0.59289697229282090074 0.11729481040952000059 0.49651781121291221899 -0.28406883557636886106 0.61898787805179489308 0.070883017186250521502 -0.36960570313265533882 -0.24740155780184738821 1.6244420670451780175 -0.28061497378613470266 1.0917544938860708204 0.40672920122751493599 -0.390928057137189644 0.060348934987553601306 -0.27536499103357719997 0.13738485101796571453 0.034510805180945687554 -0.14322073119830253107;-0.25833794917683094994 0.18298262062091164015 0.15757847747673289773 -0.31436533825366419492 0.11602542394507585344 -0.33207363236501996617 -0.094722876375478895494 -0.014543074267556568499 0.7538708922779813193 -0.5976617430951876031 -0.67060377434352802517 0.18942216841757414381 -0.5856372384518148122 0.098700848063860840975 0.51571212402296107147 -0.27595732931825978085 0.64224572117815204031 0.077454702191069882411 -0.37618453437816240514 -0.24538638802839612962 1.6202199120579876546 -0.3013382590645490855 0.96861883416640115474 0.4426434193897730851 -0.40451294815410737682 0.067499317275275361183 -0.28511884995651570751 0.13980344670329916679 0.011558988431155723178 -0.17473765160077880942;-0.27406326105428008288 0.19751814291389110934 0.18333115617365025596 -0.28339635169311749863 0.065245530740306686979 -0.3402366561203743478 -0.11049491711506044533 0.029970050973142536854 0.81374712781832314601 -0.58059557752200074976 -0.67811770795929948719 0.24596849064715756161 -0.57680342795341443818 0.10306227531680028919 0.5247134996649405192 -0.26935735327196574929 0.65592464514299275713 0.085943276160075521286 -0.38576541191546459553 -0.25966143086724957634 1.6075704140375928208 -0.34695301136069633952 0.83345909049873700969 0.47949542203538880747 -0.42112475358203416143 0.057824473174135748721 -0.30297819955816029935 0.16079257913653649537 -0.0087439952705711688347 -0.19716380537261490868;-0.28883407978572467334 0.22889078428848544378 0.22009566898539636992 -0.2417211914599489142 0.0063389344557525026391 -0.32104222171497087679 -0.12260198688634975361 0.060770458185922658634 0.87986185012626361157 -0.54388812825900245684 -0.68682326929716641661 0.28401599663385390659 -0.56309703451979575828 0.089109844687690287213 0.52350755368890755648 -0.26465204603512876291 0.675981222833831219 0.089304057825731628095 -0.41477435125959200013 -0.26115782809306875567 1.5902407209057878301 -0.36668018966166887607 0.68964848334803408036 0.4971856242030394113 -0.41474875916807313336 0.056289988351637308683 -0.32798745240299825854 0.14337238409812555484 -0.031823792547292929778 -0.2158544073741402447;-0.29344722464572758902 0.23123089660389026245 0.23333082188175902072 -0.19886006943157039095 -0.042756218481580482438 -0.31909769538426246971 -0.13510511057695559489 0.12152307814960043586 0.95305775675874104813 -0.49004374757587665368 -0.67700613362086414782 0.34942572989138853679 -0.54847320756772866002 0.069573577978959397217 0.50652592958054554195 -0.25369503797690856617 0.67698463325439350857 0.1064089220527258961 -0.4259689653262599407 -0.26221621132450562142 1.5615620218423971188 -0.40746925916578280447 0.53232043481751867287 0.5215269028391741335 -0.44010463387576131966 0.058574111602035225377 -0.33015353180681344947 0.16385939779159464091 -0.066887681822341574223 -0.26456944404079785205;-0.3167396659382132329 0.24075370017063696393 0.2490483670705987973 -0.14102477800238349959 -0.091492872031108438136 -0.31773544971419048766 -0.15496386663845582166 0.15412399064946794014 1.0285553788132315578 -0.41742751803929495358 -0.67401061843772713811 0.39288209425985876067 -0.52039729922675326268 0.066696292187291339459 0.49941157116370132885 -0.24057333716764392473 0.68665236539932816839 0.098849456472948057928 -0.44320210372903406926 -0.25429551031110669834 1.527996015555031839 -0.43680101218080374936 0.36888635899543936736 0.55030154558789690089 -0.44606678890927009551 0.05540502600865028493 -0.34560454671895141088 0.14065729186376432769 -0.097348131336874491049 -0.2755236361090387387;-0.33581750505604657242 0.27835654856440184002 0.26399323500602206449 -0.098090518419106959014 -0.15985162372677849674 -0.29356704300807917596 -0.15200171091318667727 0.19340392631070116303 1.1083234479803416583 -0.32721268960554961147 -0.66756436199643054419 0.44682046509116285504 -0.51135957794168995783 0.039386613498183703497 0.50564068031038267304 -0.2361771831004426947 0.68388709195258368112 0.10898864000156514853 -0.44364904413356326396 -0.25424304439707662295 1.4868496230788108559 -0.45434217815386396255 0.19894539795157925588 0.57980348609591225717 -0.45636227900545567326 0.042013814506030006113 -0.37238296017600203136 0.13292601887660818183 -0.13654106471628438269 -0.30470194781598514133;-0.33978502522001741148 0.28291232569609781056 0.26828774152274303955 -0.050244346716741362935 -0.22021604635866898203 -0.27029341578831861392 -0.16511060910043603989 0.22850972315844045313 1.193235494083784376 -0.22235993670824566459 -0.67512568264307648569 0.48382685854193702157 -0.46827456758770674705 0.025965528476360896781 0.4912996676598692658 -0.24234957656034469831 0.69291764387149901161 0.10929343325804695419 -0.44434930487698365287 -0.24140271812154145969 1.4336163920798661309 -0.49203168065193081393 0.020775921340325912562 0.6085675744319618552 -0.47017185557062446399 0.041984846450080257063 -0.3732404462194928163 0.14053723527626268974 -0.1652002623377322732 -0.33439455316527183504;-0.35915064765232651567 0.29864522653875519298 0.28425280062676233639 0.01295686730125090308 -0.28221865345873869968 -0.26292196909230758362 -0.19217779874759979841 0.27539852924225621811 1.2796404433473724804 -0.10644854441622288166 -0.67304655415516323469 0.5415909278586549247 -0.45511341566658092272 0.012664667202259106277 0.46838435817923512738 -0.22511201683701825838 0.67748256608595736061 0.12553813244013012351 -0.46183961607927259685 -0.24430175618681543304 1.3899154498516845813 -0.51880872452149906504 -0.15192994439566981368 0.6435012362644464412 -0.45829271909507718341 0.021149001858500427603 -0.38599377834427112122 0.13479109598998986752 -0.18470440590886214038 -0.37080659126536258396;-0.35477971493276666548 0.31099275746933241482 0.28227011648684025014 0.060402373275021917221 -0.36443656783616690253 -0.22620489999082937782 -0.20894914933778385713 0.3050883030317432798 1.364942296373950148 0.012739054816936414005 -0.65048177042362775868 0.59463109622220422512 -0.41988680624515822837 -0.0076308833176857706823 0.45575616780201916312 -0.21298324237458490793 0.69677255128842385812 0.12300304282595203587 -0.46778299915969923095 -0.21995306879686185586 1.3363735759513537538 -0.54391368499039860485 -0.32949585194049529902 0.65906364764797142897 -0.47103700704530265808 -0.0046758570134727084691 -0.39914937858598686926 0.11414339796559132278 -0.23365549920871553358 -0.37627552164538641266;-0.36302452044571253964 0.3329809506836209354 0.27097814788324869895 0.12065328594303106891 -0.41689412533985925613 -0.19744207496825988413 -0.2263775200507072427 0.32140183382702541826 1.4401922624067118317 0.13278670865742758789 -0.63756193998539478773 0.64341759807167209217 -0.38690015546927819523 -0.023544202400594734653 0.44483684814601659463 -0.21007630031075436028 0.67778167602163630345 0.12455304208801659671 -0.46614432566617253206 -0.20696390502591960336 1.2913502123542761613 -0.56918809995958130621 -0.50112566143795478357 0.68830300631375229692 -0.46908026037384248363 -0.0071206880821884487726 -0.4022388045823485081 0.10525114408468866367 -0.25652232576867678437 -0.41737029524470492525;-0.36390266392415987484 0.3265809868414474848 0.28143658257128068012 0.1525530769795734598 -0.48602128282801493331 -0.16809724587996566214 -0.23637871987723113598 0.36246145554488984342 1.5055800551334621584 0.24682755789870997054 -0.61272063874355642277 0.68758667643505633205 -0.35670095809652002661 -0.030856473175217474791 0.43014346862632257817 -0.19323674296417267526 0.66532943983006598287 0.13435142009918496497 -0.46289653144508041693 -0.20538155337333935391 1.2276476048768880656 -0.58517481858626418934 -0.6789254716235653131 0.71104504072210328314 -0.46034465039592503688 -0.032544525687172518036 -0.41117274992181856996 0.081089518981067101877 -0.29113347656211546743 -0.42962224986393787729;-0.37471550329085440145 0.35853572046768888981 0.29294826834485537814 0.21150873522041424568 -0.56440438145179949725 -0.12913424817325286353 -0.24596571057974755958 0.3946792679888282418 1.5566952539192602245 0.35775018128885616164 -0.59940863313513881305 0.7354757083785791183 -0.33281407165723930763 -0.055391354868231525155 0.41241899659719732929 -0.17782585933464500894 0.65587401303717984824 0.12224942217409534573 -0.46716835785789451174 -0.18920080421125196057 1.1825134822678877722 -0.60531750623925206778 -0.84519054285041383956 0.72321656594749994529 -0.46021570747832918347 -0.051974315973381278455 -0.42052858695088579655 0.067332964312950743802 -0.31979531555547235921 -0.44471571789120861729;-0.37490070618800475089 0.36462892506698552086 0.27636619036084342227 0.2615200209577937529 -0.62264442236313555235 -0.088497400982341684061 -0.2636693052557344541 0.42214025274338856653 1.5930817362423117522 0.45868191973127886429 -0.56463295393974222147 0.78591920794372138737 -0.29022275541754710693 -0.070026621745836264976 0.3846165060196709562 -0.17326398223852396141 0.64268418797806803333 0.11778247118513673897 -0.45254512168402355465 -0.16663823097908461723 1.1224418130180786601 -0.60748055310964643727 -1.0149339747270296197 0.75364728874039654816 -0.47303711968163392187 -0.072942683344221354025 -0.41129300409036828601 0.043355119654906452975 -0.34305416355698753472 -0.46302327047764912926;-0.37325602125342727255 0.37601610120376094404 0.28131459235830946763 0.30532765898210389999 -0.71198016567022393009 -0.051046267060659671067 -0.27132117251098625266 0.44976257627694343766 1.6163102749059345964 0.5525717986109862645 -0.53794026671815953211 0.82167309493593410075 -0.2636781737004127435 -0.094363974604094791321 0.3798109437774583319 -0.1489120647858647728 0.62099502773952208745 0.12836443250295523355 -0.46031024219652993956 -0.15278523423554876692 1.0605541757394287838 -0.61836648932955895486 -1.1807263011750859238 0.76431839332130968589 -0.46214779913700171354 -0.066522492411101738496 -0.41481589440976074368 0.0270043441408326923 -0.36843933708955156625 -0.47354288784734815954;-0.39275816870289942395 0.383572418690078909 0.29032443815801883824 0.3568908135979606544 -0.76925111879470142728 -0.012873379900011080318 -0.28111855603537322379 0.45800405408426975162 1.6259127390300829319 0.64105780519527122419 -0.50894592818239370313 0.84538391329912310201 -0.21546135248486802949 -0.11231912623830747622 0.37291973191332539184 -0.14411724404980708059 0.60627296124522267462 0.12005536536974940887 -0.43596834180121990521 -0.12971680062604587502 1.0046893534950507298 -0.60298371918918147738 -1.3398547855191296208 0.77886104907136388675 -0.46109628609579905723 -0.089148573192506408436 -0.42842051462459324052 -0.0057285820982706887536 -0.37470352248306593168 -0.47385303144593615698;-0.38731415634607896381 0.38998646722467383841 0.28631940976479602901 0.38229387816001686451 -0.82553589863644960545 0.044961370631932270903 -0.3080744940961290812 0.47450082075568161821 1.6240067888554519104 0.72394126889729126795 -0.47521107961261388475 0.88790041322737978113 -0.17894845925384869623 -0.13030681396658591598 0.3503364482723195783 -0.12262637806523081496 0.58421361834507812283 0.11598709514107045926 -0.42122305086141936803 -0.097717317954089832899 0.94512521679751759773 -0.60049156290909178058 -1.4949802378880718834 0.79651410599142846714 -0.43912514387888579304 -0.11312794329092164258 -0.43513935206445447657 -0.031789638356749624903 -0.4010884188097211811 -0.49670888811874058799;-0.36371946714730740702 0.39296959603617342971 0.28078970013560705654 0.42569549993760141815 -0.88816663574129006697 0.098230118925535750418 -0.3027070853601431244 0.48593360182345002318 1.6104736337292338 0.80044383385615558435 -0.44264153650348253555 0.91810433603592089824 -0.14781524479603166955 -0.1626858433735502707 0.32855737950023061744 -0.088555994023415712801 0.55718380658459698562 0.12118437533959551533 -0.40819278576519746338 -0.088664247214770161576 0.88475072450583913675 -0.60465704283386434437 -1.6436518803973201308 0.79007446997027253044 -0.43659186780859132737 -0.13174305858322776785 -0.42488586008025513996 -0.047650045873072012503 -0.4088994252545592456 -0.49077671417442597646;-0.37085753062086707077 0.3997958789544602265 0.29628751359413674216 0.44892092055636972914 -0.95390460171004665124 0.15555189762806084786 -0.31161894314875426826 0.50069329698761622094 1.5882931941418685362 0.87163342202349680665 -0.40246063528040521007 0.92825370035912779798 -0.1041647673209153413 -0.19634107220993080034 0.32159174618703162407 -0.057392782620804931593 0.51878452993240053992 0.10233689032981684031 -0.38684603295435443515 -0.059892332736700679141 0.81173816789923225468 -0.58197839114133742555 -1.7893247064759876253 0.80251925196001760998 -0.42569783354943147025 -0.14434328100532070605 -0.42858807337910992397 -0.070962037835128652374 -0.42205386780690901105 -0.48524818930529317607;-0.36608206577804619508 0.41028345843544028471 0.2728819505180044569 0.50415546646127640251 -1.0006506832399051365 0.20303723716913860131 -0.32488450016547265609 0.51935625358008463692 1.5544605436426732759 0.93870137332679293163 -0.35095730773128330782 0.95841351354948367547 -0.053520668753611666535 -0.20238637252482863382 0.31891304082573024292 -0.037078015235346248324 0.47364207008746622707 0.093719173450767759292 -0.36090199686134855073 -0.046534886604644325192 0.74948587209076766857 -0.58172182650080017652 -1.9232153527276893978 0.79059149683888463311 -0.40743066705465141863 -0.15944019426262526218 -0.44131119922501793607 -0.090092896715919093542 -0.44133603613376065633 -0.48049636493392555714;-0.34627671491688893912 0.39587736648758581337 0.27876575784202484165 0.52361005096345136778 -1.0364013019040454466 0.26186916239016599928 -0.31572841698365539109 0.52599981856155442195 1.5105970622450619611 1.0021910978271757475 -0.31947948793059660622 0.96934964842450332956 -0.032847981033591495958 -0.23095359681008464925 0.29485952333641030076 0.0030416394615541794862 0.43435785530474857463 0.077987042281702376179 -0.34885313324806260793 -0.027130427241965706514 0.68799392122454738896 -0.54459420458674701049 -2.0472063794618762245 0.78758304760076092155 -0.3850764069298568959 -0.18752994319578036864 -0.42632299628663078428 -0.11810293127186755058 -0.44604257281147685621 -0.47137944435005324495;-0.33684930635617932326 0.39094493004712654871 0.26808255657908480751 0.54995143990437389547 -1.0795083205897444412 0.29338565663728799482 -0.32631938814219008105 0.52533358005200647689 1.4560829944375819345 1.0609677773092345276 -0.27666560551530183787 0.98755094721338343433 0.030203703129736136912 -0.25558055295925447004 0.28959328612803064695 0.024399523316278624169 0.38565041490416313019 0.059476037792144040295 -0.31664321660985433882 -0.012213771847678361535 0.63365129312862422672 -0.51742865159554374266 -2.1583991428406821278 0.78701534044943721735 -0.37241695007026431874 -0.19311613473253883 -0.43695990966696623969 -0.13775996820334837634 -0.46176753828733985152 -0.44326891781010041571;-0.32656460236588291668 0.38285135360643623992 0.26327744782735074125 0.55539740694610506555 -1.1088399698056705667 0.34994439043451247562 -0.32497106617839965903 0.52015990645502829803 1.3932011925535154884 1.1150776859307700573 -0.23084938775537147682 1.0017764427238131653 0.079782922299535069532 -0.28062234556253073947 0.2743947921381797439 0.048842931486958014731 0.34895180909510964407 0.053517251370104108876 -0.28548987191127295215 0.006852241824429100743 0.57286969817195732002 -0.50436863421171806987 -2.2628006625413128461 0.78190500053497968835 -0.36645841741871720831 -0.21724840648366375295 -0.43443014664978946149 -0.15812997777564616331 -0.46671019488160292443 -0.43628785197689501363;-0.32240776243621865893 0.36644695787094416772 0.24595785109283258008 0.58103140044711065748 -1.1252453123967722792 0.39309285477412986287 -0.3458038525315038636 0.50913870771612479427 1.3199770823990764068 1.1645833414791424421 -0.17773572024817463344 0.99602985496556617484 0.12400368033294091596 -0.31323458797590375546 0.27635520928423107367 0.093559654861141969273 0.29696052994578642226 0.027991049977819499467 -0.24191037555981936835 0.023907703436352904097 0.51765339243975139194 -0.46973880191911449034 -2.3538584407048079861 0.76721614279207850373 -0.35058113815266783719 -0.22905062093149655689 -0.42900700799387248008 -0.17301026938806984834 -0.4741608602010142226 -0.40694629039350838084;-0.31228241171222564931 0.36297113336517700111 0.24617344711356708986 0.59253123905098448176 -1.1505745594331497905 0.4377574355510635562 -0.33604579320743044324 0.52284241542025811089 1.2393502421597946128 1.2111485113597717511 -0.1219461460157884175 0.98793700718285804019 0.16504359527680437236 -0.31327418554258956718 0.24642769718934909307 0.12498446249745871761 0.22733147008247953091 0.014601326297033692322 -0.21708857585947285984 0.020880118151672292376 0.46645237753390633717 -0.42851065654916259406 -2.4334074197873531986 0.7597764228455220481 -0.32097050123704090607 -0.24861420868138175977 -0.41395297087058102736 -0.18992523458735652286 -0.49240320338339099715 -0.39567094908467825842;-0.29658702182246610146 0.34842535423756049173 0.23201727790457146727 0.60136294328015216237 -1.1577019101076602148 0.47972328051918844416 -0.33258883615108281173 0.50700479499828798868 1.1546932217864587233 1.2563492719370659145 -0.07382438412509700898 0.99586766666915638169 0.21706426749662741105 -0.34993768849432266288 0.22805223804165350443 0.14253186116874722034 0.16891429199784394055 -0.011859473363753585129 -0.18687465167668040888 0.044568206477786052877 0.41317392428999916154 -0.37843281698141645331 -2.5065801293235780989 0.72684523532434675008 -0.29481256494547830593 -0.28497153145385251127 -0.40580059538812968123 -0.21770841435409252207 -0.49419162430696228494 -0.36389766262240824668;-0.27220266291569650274 0.33035747621825894971 0.22363994617372398577 0.61727069223212760463 -1.1779570418863765102 0.52298995243697332658 -0.34491575401233048881 0.49154485530602576304 1.0629333166109560249 