function [y1] = anomalyDetectorFunc(x1)
%ANOMALYDETECTORFUNC neural network simulation function.
%
% Auto-generated by MATLAB, 26-Jun-2020 11:59:56.
% 
% [y1] = anomalyDetectorFunc(x1) takes these arguments:
%   x = 100xQ matrix, input #1
% and returns:
%   y = 100xQ matrix, output #1
% where Q is the number of samples.

%#ok<*RPMT0>

% ===== NEURAL NETWORK CONSTANTS =====

% Input 1
x1_step1.xoffset = [30.3460437994352;30.3460437994352;30.3460437994352;30.3460437994352;30.3460437994352;30.3460437994352;30.3460437994352;30.3460437994352;30.3460437994352;30.3460437994352;30.3460437994352;30.3460437994352;30.3460437994352;30.3460437994352;30.3460437994352;30.3460437994352;30.3460437994352;30.3460437994352;30.3460437994352;30.3460437994352;30.3460437994352;30.3460437994352;30.3460437994352;30.3460437994352;30.3460437994352;30.3460437994352;30.3460437994352;30.3460437994352;30.3460437994352;30.3460437994352;30.3460437994352;30.3460437994352;30.3460437994352;30.3460437994352;30.3460437994352;30.3460437994352;30.3460437994352;30.3460437994352;30.3460437994352;30.3460437994352;30.3460437994352;30.3460437994352;30.3460437994352;30.3460437994352;30.3460437994352;30.3460437994352;30.3460437994352;30.3460437994352;30.3460437994352;30.3460437994352;30.3460437994352;30.3460437994352;30.3460437994352;30.3460437994352;30.3460437994352;30.3460437994352;30.3460437994352;30.3460437994352;30.3460437994352;30.3460437994352;30.3460437994352;30.3460437994352;30.3460437994352;30.3460437994352;30.3460437994352;30.3460437994352;30.3460437994352;30.3460437994352;30.3460437994352;30.3460437994352;30.3460437994352;30.3460437994352;30.3460437994352;30.3460437994352;30.3460437994352;30.3460437994352;30.3460437994352;30.3460437994352;30.3460437994352;30.3460437994352;30.3460437994352;30.3460437994352;30.3460437994352;30.3460437994352;30.3460437994352;30.3460437994352;30.3460437994352;30.3460437994352;30.3460437994352;30.3460437994352;30.3460437994352;30.3460437994352;30.3460437994352;30.3460437994352;30.3460437994352;30.3460437994352;30.3460437994352;30.3460437994352;30.3460437994352;30.3460437994352];
x1_step1.gain = [0.0787973278784463;0.0787973278784463;0.0787973278784463;0.0787973278784463;0.0787973278784463;0.0787973278784463;0.0787973278784463;0.0787973278784463;0.0787973278784463;0.0787973278784463;0.0787973278784463;0.0787973278784463;0.0787973278784463;0.0787973278784463;0.0787973278784463;0.0787973278784463;0.0787973278784463;0.0787973278784463;0.0787973278784463;0.0787973278784463;0.0787973278784463;0.0787973278784463;0.0787973278784463;0.0787973278784463;0.0787973278784463;0.0787973278784463;0.0787973278784463;0.0787973278784463;0.0787973278784463;0.0787973278784463;0.0787973278784463;0.0787973278784463;0.0787973278784463;0.0787973278784463;0.0787973278784463;0.0787973278784463;0.0787973278784463;0.0787973278784463;0.0787973278784463;0.0787973278784463;0.0787973278784463;0.0787973278784463;0.0787973278784463;0.0787973278784463;0.0787973278784463;0.0787973278784463;0.0787973278784463;0.0787973278784463;0.0787973278784463;0.0787973278784463;0.0787973278784463;0.0787973278784463;0.0787973278784463;0.0787973278784463;0.0787973278784463;0.0787973278784463;0.0787973278784463;0.0787973278784463;0.0787973278784463;0.0787973278784463;0.0787973278784463;0.0787973278784463;0.0787973278784463;0.0787973278784463;0.0787973278784463;0.0787973278784463;0.0787973278784463;0.0787973278784463;0.0787973278784463;0.0787973278784463;0.0787973278784463;0.0787973278784463;0.0787973278784463;0.0787973278784463;0.0787973278784463;0.0787973278784463;0.0787973278784463;0.0787973278784463;0.0787973278784463;0.0787973278784463;0.0787973278784463;0.0787973278784463;0.0787973278784463;0.0787973278784463;0.0787973278784463;0.0787973278784463;0.0787973278784463;0.0787973278784463;0.0787973278784463;0.0787973278784463;0.0787973278784463;0.0787973278784463;0.0787973278784463;0.0787973278784463;0.0787973278784463;0.0787973278784463;0.0787973278784463;0.0787973278784463;0.0787973278784463;0.0787973278784463];
x1_step1.ymin = 0;

% Layer 1
b1 = [0.00047605535975465507019;0.45493356015291597227;0.25217263483828433746;0.27551120459230615811;0.24559656998939530248;0.12144525153377506987;-0.070189650590667757024;-0.68654926965235119063;-0.0097537597489559570152;-2.915609517917757465;-0.26703811678153149822;0.2802632586174767515;-0.25601546037861738769;-0.85148612395283096443;-2.8369175608128514021;0.24694796812472816216;0.37550666901278023646;0.29037773957437645889;0.73439579690868816986;-1.2159309004432459211;-1.1604794339813979676;-2.076870455485371636;-0.96254440894404480478;1.4343755069442374328;0.41741541580331359418;-0.12460911051991283016;0.68227944515556993021;-2.4602952508856423819;-1.211842630410001842;-3.3864342750362261825];
IW1_1 = [-0.49606704748044849751 -0.3219040358193627771 -0.16517110353885997021 0.015720977729528594347 0.16554056136099498664 0.28340647322264994612 0.36659888932739698175 0.42154189108045087009 0.42789279334304491931 0.3816959305283356696 0.32434408684631971242 0.24807129485242526701 0.14242165159585326584 0.04768776824624406524 -0.027792864223887644992 -0.10030900326011239765 -0.13774513225543838502 -0.15857405748208461271 -0.14913281510561174348 -0.12969028318467998306 -0.10793075169945126612 -0.073197778416272174518 -0.069691981362840688119 -0.088045066735596561047 -0.12689460491837370459 -0.17435779393755673761 -0.24024810890468548119 -0.2893206679044608709 -0.32607604387178845684 -0.34335439765468300788 -0.34179905863074228067 -0.32132650220917613471 -0.26426997784298289496 -0.19721927595795732402 -0.094828256982424044552 -0.0095596186836198488584 0.076168426187858434551 0.15468137553595495692 0.19315691211784472014 0.21787740780760600501 0.22143842191833523758 0.20678624385348221004 0.20553844027881579271 0.16899508020802087027 0.14302528910394143868 0.12372876475631017223 0.11862634789365443522 0.1208595345558397538 0.12843119034552266666 0.15023300240745321443 0.18251475827427110499 0.22189208023796394564 0.25986782100527716644 0.29446728583414388813 0.29960485491003763237 0.2956880459209519918 0.29151174358087461602 0.29246652183976207251 0.29015222244977018073 0.28886245887487788098 0.28571211535523510783 0.27925067978883111319 0.24775224261505407464 0.22919315896415939915 0.17239108533840311055 0.13663610415301766232 0.085979098917541255109 0.049939114333198850182 0.046431200335120277611 0.036774669161194768752 0.030480407320284064188 0.035558989727321917151 0.032376538339737997996 0.047865525565001940111 0.063094921211645435544 0.066062693823315810082 0.083806712298684846174 0.097858029504054602765 0.089389071778214798658 0.071408391121045688976 0.071832093542851999102 0.078497679382827770245 0.088180237004083963925 0.085538395804846761861 0.095915277443939905844 0.068868471569423259093 0.036140579101489718472 -0.0029019035783483197039 -0.057637828797521738211 -0.1179924699378343822 -0.17689752715863613086 -0.22849756466649154274 -0.26678402621063057598 -0.32152740904763371654 -0.38748367678415912563 -0.46212119893586750541 -0.5301714166585576038 -0.56838956259724005005 -0.55795007847319744165 -0.54009769214289948813;0.53181109241361101958 0.46420858214641441686 0.40617784656358157935 0.33134226935353361387 0.25874650966557677378 0.18358005959840928423 0.1038856584169630809 0.033729900207038379656 -0.041393459802440392414 -0.13962109963242350097 -0.25505993734917331572 -0.36664523515201391524 -0.48148185011566796421 -0.57980728856027297091 -0.65806916606272181092 -0.69415371504613632148 -0.69113143926458220356 -0.65834752283890718427 -0.60835714311374333718 -0.55894886926756470746 -0.49553294917780837947 -0.41947513386747148356 -0.33480697837596418154 -0.25775885549714006029 -0.18507501445788324124 -0.11218848504027210955 -0.056489675559501274782 0.0037512051270236239017 0.035067494780479838146 0.071809856790575027352 0.10881850311614602034 0.13880395823314958803 0.17472484537496013601 0.19769107085070306007 0.20070563155295709223 0.18915097292080040869 0.16638196989972475759 0.1520052368204907467 0.15960720707875025726 0.1421659233883076634 0.14601736475213319966 0.12902502474206187233 0.095812087395833897552 0.074713547573120167589 0.060147858838208355381 0.039732154927662147181 0.025357160465438972202 -0.0070455652994760248689 -0.055672206953016931119 -0.086972022899142423236 -0.1020253787090324854 -0.10866759681340935895 -0.088820364286285050093 -0.058646154166430208843 -0.028163945193232422376 0.0017685719435269666583 0.022965063946587292026 0.053969985811969795053 0.084048145885429290103 0.11814934126078130427 0.15049185495864317308 0.18811630761344177998 0.22708244967098997757 0.27387743703240896576 0.33846800451384156938 0.40690840927787524928 0.44981482135554867741 0.51213246929384192985 0.55685473196909551774 0.59267323212561906498 0.60865110714215575616 0.59999262950064757849 0.55019663109141481172 0.48991500677018945398 0.40457774653036798762 0.31673733210521559656 0.23755869469304821684 0.17472655756428631668 0.10702207372075669967 0.050014510522910643475 -0.0099270216795240926594 -0.057195373093319172575 -0.089791753407286636901 -0.13308189610045523255 -0.18654174953459481956 -0.22006793540708730061 -0.25423391461274125191 -0.2445207407668514854 -0.21739189347431323029 -0.16749141561970429248 -0.11165487653969154158 -0.077449680183575494996 -0.048475789546867396884 -0.056861297851505024359 -0.090502327756642297896 -0.12713269721976386273 -0.16813851752709343956 -0.21760447077795927462 -0.25868079803834215236 -0.28098281770775918043;0.18758300875364808391 0.18552037263844500803 0.19312186101243095093 0.19147621761932734352 0.20088986185387350258 0.19416709108374141657 0.18398839523701351895 0.19054485350622629714 0.18417698816067920586 0.19222531366307235579 0.17825821083086645924 0.19225778437429849599 0.17742918319433387264 0.1794166116814355505 0.18291427504044438512 0.16822018224158957755 0.16642131172121488181 0.17199540056713308323 0.16605983578761018826 0.18226407986441003906 0.17132581356934928341 0.17516563755073680242 0.1757984918216325132 0.18223847307013291141 0.16606100649016117266 0.18103675562044671543 0.17378701382916431073 0.18240285844461476272 0.18024680981514207279 0.18793721884076658446 0.17737895646873724775 0.17624648254959376925 0.17671899685670089397 0.17407770569606439981 0.18453216941176489585 0.16611381279399539679 0.17861213217164967348 0.16720513895370398005 0.15684953736196854956 0.17167403316488544229 0.16162650066200656696 0.15824550755129385138 0.1423130635546927536 0.14726785600476591243 0.13991200543132437106 0.1421813357598006311 0.12839153427447200229 0.11678146514009890566 0.13111475161015853641 0.1119146325447677448 0.12211589135356984426 0.11550910783754109179 0.10383272282903309447 0.11271355996880347283 0.11463156830778513384 0.10125487596754910447 0.10277559334177190087 0.1072583257104142429 0.11885597439390353791 0.11860888446668285678 0.10307192197788116184 0.11774483807125847579 0.11791528128266352826 0.10182064682010799617 0.10678156427063537071 0.11048488738515037377 0.10883593784701815765 0.1207336561290354715 0.11866616977166583036 0.1170556506926985485 0.11831197773720385225 0.12186776421129989767 0.13767040197058319495 0.13481598082131809879 0.14776222830608295999 0.13912267609623521492 0.15973012660511756722 0.16012540160821522872 0.17488328956845564099 0.17364282185433246863 0.18397429259322234385 0.18786298703261974929 0.19447657595291162336 0.20962903543740313284 0.20715361329657577816 0.21993659535501500213 0.23255360417621673275 0.22691544654141265758 0.22836295462753664065 0.23964818660757525315 0.25395094730431078123 0.24646162036123719918 0.25971226926294410653 0.26988908569190467324 0.26516093988607297716 0.27180224413216697021 0.26808165646277176686 0.27050730207565537588 0.26810957296237514225 0.26094568784388116889;0.19155590827664531473 0.17213987054610177529 0.16470261009690201348 0.16514260535839200839 0.16316640433829002199 0.16695104495121493304 0.15123487483434325251 0.1463832850602848068 0.15088081931201186014 0.14678699082577367774 0.1376067983851344545 0.12578890630938815987 0.12110216494379053009 0.12211197972265612488 0.11681561288391584252 0.11404255964899641385 0.099881397063667748393 0.10732719746808044858 0.10633642696540397676 0.08559801319149602794 0.098997631404053709758 0.088669773670465218407 0.078567190343390297391 0.090180375642808591197 0.085626778898937480622 0.077322627471493252105 0.089216827683151062045 0.085708806129663570039 0.080927678558971302691 0.087483499769351380504 0.086627407009446169561 0.087034522919565773802 0.086479435828770823136 0.1005628516494844471 0.10651414301853412425 0.10550607054500589499 0.10910464264359896747 0.11536140008037376603 0.10660149064388144136 0.10740881980535589568 0.12485203919060554323 0.12521407679913962308 0.12932904623898472396 0.12314125018377290732 0.13361642812905910604 0.13133959730687788658 0.15201422028631897398 0.1408966052822102355 0.15607912360059977841 0.15920632819648861123 0.15399097509499032332 0.1596237145478620334 0.1667167071570004877 0.18725208352756955721 0.17677815552098496976 0.17759817026709082133 0.18237706303405046282 0.19682346682103152302 0.20296150850215985417 0.19402603328407044825 0.19643259970324253305 0.19624118561918471593 0.20104115487451187927 0.20361731370150154552 0.19784904994579172177 0.20052341448231056353 0.19722085020821067403 0.1948911643328107568 0.20607019243089069738 0.1992163692894549365 0.19700487818096512616 0.19616402684672604173 0.20514999066278705175 0.19657400957164677946 0.20946205304798348745 0.20616566154314719395 0.2037090874600310797 0.19824768977599205311 0.19562137751308183997 0.20431832134853478156 0.1972565221631304988 0.20373507653919895044 0.20442519372600628791 0.20494544502960609922 0.21833722124210330762 0.21292624633772005982 0.21069928049202593656 0.20690501038144698542 0.21382106671323439229 0.22487324571600744716 0.2121280783321000396 0.20668564027079935896 0.21903671912820746326 0.20376406365698390699 0.21846969670433660782 0.21119934135414800136 0.19952719645747785115 0.19718730418714228159 0.2018958982848283179 0.18567212903990559791;0.14943322962746893867 0.15878854334198727605 0.1648834580719097942 0.1771788455355548797 0.1669585346714687335 0.16921021095111934973 0.17897103516775547671 0.18167250101686249764 0.17898501201725808274 0.17997137604325949556 0.18500302883278058053 0.19606718026171335301 0.18374217819920332651 0.19767648463136891501 0.18166191073715279303 0.19008426520484847377 0.18265510356605088593 0.18876561207968547973 0.20195788134461664654 0.20013953997164773968 0.18712335932421994555 0.18813017680495922046 0.20295596459835249514 0.19630339970080343259 0.20336727901707510324 0.19215847724314547018 0.20184136887571790808 0.20327449541209446915 0.19192681400536346081 0.20095633218449376889 0.20315459479989964042 0.19186491051020121423 0.20262967727564534792 0.19101211618375665835 0.1926562230610544546 0.19630994971553866746 0.19138985780188408348 0.18551092403789412599 0.17520232348825523494 0.16964849898087702718 0.15083986776840976884 0.14560964294843031785 0.1380473978068335883 0.13777980160791605813 0.13229083762832696824 0.1267262353980136147 0.12697372208243487557 0.11101003661763801655 0.11187042093558254019 0.11327766727866962759 0.10931332048649744504 0.10478346315877189177 0.095770047509540365271 0.094471538640091765049 0.11009724107920429437 0.09638151001354271219 0.10138895096431721488 0.10356248738792803166 0.10595618790712973967 0.11357811955150741434 0.10204159623787102673 0.10528189239869949201 0.12123375413274181667 0.109331917152238417 0.11631947935057716792 0.11866413655933980009 0.12131460550975242674 0.12791394703851841075 0.12526138870169595263 0.14615086025192589037 0.13680006004832753752 0.14543715045988131473 0.15937779825346146123 0.15485407505221721047 0.16512051620725839984 0.17304508391575573745 0.17618816624740948895 0.18786466065016657612 0.19252975701084737437 0.20230336776719415326 0.2150581412748717447 0.21916847383017568074 0.22383239812355673615 0.2327498794948234806 0.23739413356621416606 0.23958549358893735381 0.25213266728430322461 0.24812367449888156345 0.25125190782610068441 0.25972365173057554433 0.25791404457215222346 0.25930277091456016558 0.26173692398750408872 0.26281695249464903652 0.26111829561817750944 0.24932749044448890285 0.25805058040337014447 0.25982204684155707497 0.25676496085490424504 0.23457835307655558466;0.63121558642030328734 0.49153132066155263979 0.34304773665076776501 0.20867805972577493923 0.09431429772168808956 -0.00022413622946986129503 -0.098516651374386254858 -0.16596972113770194768 -0.22732029853954890952 -0.2618699984287719551 -0.2901373389531333169 -0.3139522424095156361 -0.31533233994777282172 -0.30242641268189857096 -0.29481529718032445375 -0.26078523781006052173 -0.22340789412288969418 -0.17501297057544737412 -0.1204600023127577052 -0.05338462813747484742 0.0085703425778802660995 0.06707952551187378043 0.11343024229584075524 0.17176862027967607083 0.20822786402153428686 0.24379128520078438558 0.26606257717456932577 0.2401508714321106408 0.21464417531150292717 0.16784738287256006917 0.11015905611563586719 0.02854487149627575604 -0.054349952335480906929 -0.15221403107753289641 -0.26353735712744069675 -0.35586262990917799653 -0.4693576474493679207 -0.57748409669480094131 -0.70465374972104910523 -0.78580589640057385559 -0.83948244536219573941 -0.83781442499556191272 -0.76334231604341074018 -0.65901032116354130164 -0.52620230496503073159 -0.37017806307623712936 -0.23972680544107818901 -0.12910180604231091817 -0.02219823930518175642 0.02772075681350217452 0.060997394176038693958 0.058648315565899548918 0.03075476127310704591 -0.025069123559287365133 -0.081769061355540934022 -0.14571209596318235313 -0.19989022574698750434 -0.21980959729938984171 -0.20908055759711674515 -0.16510523123854639604 -0.082857501469561431473 0.043742461714919404769 0.17576195141195780081 0.31692965466136985286 0.46068157223796729616 0.57397310730980077853 0.64558453907953572415 0.67699907083442745215 0.66298948243048050344 0.60428666156387722541 0.53417843519103869188 0.42885951103807057327 0.29472396223143793037 0.18165302062654420379 0.065220937396349251691 -0.033036923898745608474 -0.086813494468845328611 -0.10155276985408163981 -0.089424709330313836841 -0.036072764851722886881 0.025729222583671280955 0.11914906381281394065 0.23987097993944000995 0.34068402532080416245 0.4236504957550439876 0.46105141557056572577 0.46974989375511672085 0.45116711753683030883 0.41637672214868659548 0.3433715806672815174 0.27701285955253274196 0.18513379573316596227 0.089245658427426821646 -0.014400482474041596814 -0.12396184591510123196 -0.21854452504313284789 -0.30430037754257499572 -0.3884787703879319376 -0.45830976311529375566 -0.48789295675489569026;0.15068060956862336375 0.17387356475574891612 0.21900061337731596689 0.24716090067278884135 0.25186987171050739809 0.24772147832415902791 0.21499510520323864005 0.1627982446828142582 0.12147366149032026716 0.075947785249971797028 0.072319167621905669496 0.088709784405973407528 0.13604159025011267059 0.22200362752806623856 0.2881300835863719878 0.34615508304287156971 0.3959981064995015676 0.41962113249688659522 0.43776573710296229347 0.43445617984773260423 0.40358879451631951563 0.34294056926343835512 0.27792333576551059293 0.17330315008278535105 0.071065083244196206036 -0.0089051764768544056788 -0.094279887457192734779 -0.14719941550333578983 -0.20255872047952216963 -0.23517320982182374212 -0.26073113782617135525 -0.28009989537025137274 -0.30724985712620100919 -0.32204093948564443961 -0.32092260117634863192 -0.30258441037026373444 -0.30607942692032286125 -0.28350917978574685652 -0.27547923383438571721 -0.25665157065333982223 -0.25708837770830805791 -0.23658409442492764341 -0.22548040102064523249 -0.21980489206748629605 -0.2166970473475789416 -0.21362029430557286092 -0.19684048875226242692 -0.17268476714118277671 -0.12583594382013663093 -0.070146779364019196112 -0.0090565395103430323259 0.047628635864062643379 0.10648966635232517963 0.14390325592348926498 0.17254054244438934984 0.20227601219308624647 0.20414646189906390794 0.20790565126378476868 0.21713045075837364428 0.23184278645569886268 0.25634919195880906395 0.27330706524848902284 0.29781535335366610129 0.31916072365951680956 0.36154872674889754203 0.4049188138501420009 0.46226169940004219194 0.50754531070271891036 0.53935609577817411608 0.55874356870941255249 0.5518964024716586092 0.5358443161438640745 0.50912071057785024397 0.48175076364946761709 0.45220998193435563151 0.41567489087234904543 0.37679490540343879568 0.32520269277603108815 0.27226022954158307643 0.24455638109526084412 0.19580427992669785509 0.16155911732805525172 0.11985455195714042609 0.083542943197158756052 0.059213833203915738901 0.035404942135131706182 0.021179601732762409066 -0.0040144241412178767459 0.0052006468236762319959 0.014321083919359756803 0.05372682335192236619 0.082718427269298844262 0.13088131443386122332 0.1867197301350702332 0.2350235659127064558 0.29624505804460415925 0.33667504844085943683 0.36261930138756376385 0.39906994089306124796 0.39696910272459140501;-0.80260806887531987996 -0.77074485037854911784 -0.74557447133734133793 -0.7134415730708599801 -0.67435501943068620889 -0.63285620557463739821 -0.59490166284674272923 -0.55552810938037944233 -0.51853196871262108303 -0.47282234455043187227 -0.45729800699342421089 -0.42321796970526531778 -0.38477465241907377047 -0.35503125684317143884 -0.33185262651484276342 -0.30157827200989478778 -0.28863069567799143345 -0.26168856306671545164 -0.24739563366713132608 -0.23280768783254349175 -0.22913999233655130139 -0.21562223296108490311 -0.1988149520095227607 -0.18058429922343130491 -0.18357275669569070309 -0.15941399137238199124 -0.16740165829832012734 -0.16451769519191172808 -0.16204984050794243866 -0.16148831205619676443 -0.15008094379242095662 -0.15310453020018049974 -0.14842061133615425117 -0.15208657610302178664 -0.16854598187390537611 -0.1678784072414868378 -0.17585833540993198176 -0.17525195623940281742 -0.1724075333233331675 -0.183544790993827589 -0.19407359286220882133 -0.19875158964352690472 -0.19758299302545231924 -0.22277075914256652678 -0.22161777621773823266 -0.24186989894774180154 -0.25933416609818576992 -0.26372964401015003277 -0.28413218084002545005 -0.30229158037979431128 -0.30315896291279659236 -0.31572114239891041487 -0.31190427744848447933 -0.3098675600480561565 -0.3237740308105841458 -0.30825218886918320793 -0.31342655162662363955 -0.30034055711190293936 -0.28428313519218301186 -0.25123951759597212829 -0.23866755205939543805 -0.21561042628718521397 -0.18600366677765839407 -0.15859495374773302512 -0.11815920918756681046 -0.086811246756101800859 -0.056622838422558927074 -0.025018172299244138129 -0.0062833399136831341245 0.025837663768589345242 0.041858136412540623839 0.052458705827534889143 0.068774989169904668374 0.085280950340220457173 0.087591739396866583056 0.11176779281812929123 0.13116481612298683257 0.14508710386267820169 0.14878050704400588855 0.1543686064317618678 0.15800437572914396989 0.18112629031888177744 0.18623217682651538318 0.19240348369825180375 0.19055449334229174196 0.19980611624610042365 0.19770057580772376626 0.2119962449174337682 0.21379574990557448366 0.20491585122882158276 0.20381678015739249088 0.19647169084958474028 0.18681243638698766252 0.1717275855533180462 0.1483531684954735308 0.13102052721314974559 0.11030991727358591126 0.077754993066019600922 0.055928987416973399704 0.017711311245789451707;-0.30954832823592787205 -0.27910540128475991306 -0.21653242413508186348 -0.15077258579792679472 -0.08023223597348577707 -0.023115511756492658491 0.010535377827814371154 0.022585302511647288581 0.020050987123962481923 -0.0016174739470093584329 -0.030257006294134580759 -0.068994380425520779321 -0.094159960804297185288 -0.096595939242720876838 -0.10398208912952260075 -0.059254384382723540581 -0.0007687975004772949067 0.057825034311085952987 0.11403277951320682504 0.16737044657365501843 0.2082049932838934414 0.21671877866481387143 0.21371376720648038727 0.19387306246703003842 0.1787216575713279354 0.1741042808943153164 0.16413867592965702968 0.17189786013510224838 0.17452573578193211756 0.17164731895619769753 0.12107202915094839035 0.069444927867080424866 -0.015585265688983192603 -0.086066842540368948544 -0.16057872321605587418 -0.17561929750295229846 -0.17216408504763242027 -0.090128711733750685453 0.020604210683078973132 0.16901273459590057668 0.31285020096306270787 0.46261340885492985286 0.56062918435272734996 0.61306908081709954317 0.60408315000813428419 0.54123879570215716051 0.40600632727253976872 0.23873139312887314833 0.04239913425722550977 -0.17439932018738152353 -0.36079476921525088784 -0.51527186797748414371 -0.62667416126380126595 -0.69025961814114678017 -0.69984860253819269893 -0.64738999403095831564 -0.5728453028135176428 -0.46505587931347219799 -0.36553872230335254789 -0.25552185570027413641 -0.17100122958695609943 -0.10971215953276032551 -0.06428450204753174968 -0.025987154798289301139 0.029613691859312025328 0.042727823910347573211 0.068866907603939139793 0.042870236175136335055 0.024360817599693902064 -0.0084661712117869575289 -0.04997129368302515029 -0.081691772245229957172 -0.053877198943440667012 0.0099644474276400843427 0.12867221977742229755 0.28602144513206972931 0.47456459124971900332 0.63263913083501277512 0.76875041354940121252 0.84046958174324737367 0.87462245508571978547 0.81430688411625484768 0.70624212785084494737 0.55668452727690886928 0.34964852768141130301 0.12946550635917003502 -0.089603181558726402445 -0.28885695011040513069 -0.42725575003345273029 -0.50687752029693056155 -0.54397689358864376175 -0.52880248874060931108 -0.49248666841656768556 -0.46948425603296478625 -0.45887940861109988155 -0.46344895942148245371 -0.489287639271188457 -0.52497944519155426146 -0.55935426635863916278 -0.60855905208579508248;-0.34688108270930678723 -0.23976776304327335199 -0.14995068834872776753 -0.066628049017721763247 -0.00056182187715109958414 0.034380843581054337799 0.075025690008239442896 0.094301401836050569027 0.12987349233619455147 0.12999064026321419107 0.11030404304512440861 0.089736397634029019255 0.069064958216896260579 0.034813225245280340903 0.015691418700085165566 0.0030092046875139330693 -0.022442273782727870796 -0.045805554714513883885 -0.074885230131000110609 -0.057202499619897227701 -0.053309595245844151878 -0.041898276172273582474 0.0065956494963174466459 0.067603630812167192499 0.13680111192669497377 0.19224063950503769704 0.24832793829551133569 0.28545850110789150467 0.31640085053041017149 0.32091408761025586038 0.33979776932402822043 0.35096501489026998843 0.3677678179980073403 0.38450199068756973908 0.37109168336515035991 0.34038838236230239964 0.30145160495928896571 0.27295692416417272064 0.2521239171566431736 0.22686746898889031954 0.19217183470788712363 0.1384592967907329053 0.092534014753730214897 0.069112729666962080532 0.026863510597409868269 0.029719627981148445672 0.0028137064525954927872 -0.0099073900588730525602 -0.023103642914195966079 -0.036334331484973961257 -0.055003099387836228151 -0.091355617282161655224 -0.15482003118351267412 -0.18815658492023223936 -0.21895253777767556547 -0.20635580687400845168 -0.1834953444589483007 -0.12907324575344816808 -0.026692071542725410993 0.091595953988855047245 0.24329500423053107561 0.3967096419480365399 0.51812780724353113548 0.58916507908071957811 0.58985306644120527597 0.56122308794303954471 0.47731627678013671678 0.39627701893088534968 0.27844826626907936973 0.18180880094268456193 0.09920744592521157923 0.029714090586983477743 -0.047979944430129525812 -0.084692465012037906891 -0.11142076781625707971 -0.13852968069422499919 -0.10926512884131622805 -0.077328199387493218309 -0.021733908352022737048 0.055443330463806658748 0.11365348099036522156 0.17187890232167768456 0.22355868673318740614 0.24447633838193513767 0.23723627836329730378 0.22028290751895684974 0.17956813072865357439 0.11360066763935865175 0.054993706086295349178 0.030167840192518544096 -0.011830699508470217396 -0.039480780114003882764 -0.056298108063703548865 -0.067460285979094508635 -0.098070492284650298553 -0.11539671291074873882 -0.15199888196561281428 -0.18042058273278216429 -0.2468706331852218161 -0.30990973197010368567;-0.2023356281528520817 -0.17822996994916881497 -0.14245745829253378401 -0.11709313093693510255 -0.085242630871127461623 -0.053212102424468152306 -0.01929948770899326746 -0.014540978853631918166 -0.016315271913055942599 -0.033066027372162500042 -0.052889237195217923826 -0.094400002688941136997 -0.13595952629747232177 -0.19429175618822183691 -0.25837138134746906459 -0.30474389508365662405 -0.34131140437124074527 -0.38236375837750496975 -0.3798922739282374339 -0.37766304605438910658 -0.37290129327125370873 -0.35447169209259193901 -0.36093640149597949751 -0.36689604309340134725 -0.35475364286698368721 -0.35013016527833434877 -0.3091850446578123246 -0.24913208230103001117 -0.19552211546824532773 -0.1397654242019732429 -0.088467700223298029183 -0.027386777353859682177 0.0055589256490777595732 0.026834302512738859164 0.021527293074578998655 0.0065470907683068940014 0.0079157813149072810133 0.013588251378310226003 0.047599043309990721196 0.086593117547236739262 0.16064381882600037299 0.21744246956463850196 0.28029927906710416785 0.30876078758105646171 0.33903115852054105384 0.36424125229065701381 0.34389842427380346024 0.34320824253740978005 0.32626385157519433022 0.3194729734284981193 0.31801782273930084832 0.32794582258829801935 0.3228302977433167853 0.3226904262232712095 0.33781238337016739059 0.33541557114371173265 0.31716504643471010727 0.27600006519877806621 0.22094694265125633392 0.14438952432588045283 0.057193528270206128727 -0.009667906623507678196 -0.048426951576331769833 -0.074152298329243193642 -0.05161115955872033062 -0.012876076433082792039 0.063726475752227298988 0.13590205879476829898 0.18685395198234480696 0.24694486297391365914 0.27983895568638467166 0.284166802388912898 0.25564063826705457627 0.1993782531180677553 0.12361423045907707352 0.043188199286791753573 -0.0095504419926333624508 -0.091502325147917798476 -0.14022387017337037407 -0.18961250250014413665 -0.23876628306795383283 -0.28214953025288808108 -0.29473495595721971307 -0.29614638304752749498 -0.27928234797247847299 -0.23272424526500293251 -0.1549585625397826294 -0.087191509301176528535 -0.013509331591128902195 0.035792907022192906041 0.063140802867214879113 0.081592411698784145235 0.056693185315185613826 0.0032014611512148818256 -0.11654195533366842885 -0.28778611660087338731 -0.49088834228620165101 -0.71384571813717434541 -0.92386268751492606199 -1.0846759257140892174;0.25882132064948193406 0.25546984408205564154 0.25771321327508273091 0.26999252599249279339 0.27077164089443206407 0.26101267202246636323 0.25711128274818467743 0.25932489899703187186 0.25436984890152419814 0.2476617613611777069 0.24530136012557932079 0.24152599903748786514 0.23691770177819088117 0.22476930839730549505 0.2169453606022384573 0.22308292861702916365 0.2193581844938739811 0.20175473786612510563 0.20443230676562504367 0.19472139538023536254 0.18922394668663664041 0.18692896694400396029 0.1853845500229544252 0.1812006259815595044 0.16942946449395418496 0.16661621638376006294 0.17107539067400745481 0.17718134253277520451 0.16492798321220972224 0.17446881337788519573 0.16425106223392918481 0.17552128586595575066 0.16712473516760945058 0.16725132747140683542 0.17816138578223875144 0.16300069589339727383 0.15934863841793503458 0.16952106532615898726 0.15569757356555882777 0.15373112047079295905 0.16156905814454247672 0.16401327082581837469 0.15305301569528848016 0.1518299790435072294 0.14199175369860364548 0.13986994099937591352 0.14651805191041097909 0.13111601424172020236 0.14002630412274455485 0.12323421314689143868 0.12768128707374157282 0.13466217650535500239 0.12226289356439186407 0.12356230076628102466 0.13259917406046567434 0.13206060789290668955 0.12161107717591246313 0.1237051218016620574 0.13315641338937042604 0.13365853058072682535 0.11741578602810548437 0.11925156191462700506 0.12936405578295384622 0.12370187162347175136 0.11773259090936610827 0.12425018611755134224 0.11535989527561507639 0.12239681482381790933 0.1251362203604079737 0.1159982750519313599 0.13392737047330366407 0.12521030119528653302 0.12937657244432906878 0.13139225119446323875 0.12246751582608825237 0.13347094748025567501 0.12455266803630388184 0.1301546466701227478 0.14488608360107677053 0.14548441374728199316 0.14700245083955407188 0.14981113326486777959 0.15410660235998516199 0.15707658714885092133 0.16881241460459650572 0.17994026040932969979 0.16908199771889576013 0.17800881846578420209 0.1996048439432231425 0.19094672296328984995 0.2101792935890747227 0.21612711955085484039 0.21839115817700799349 0.22080682670829115954 0.22565105571960056285 0.22902811148839161137 0.22503492837185104514 0.23653073383963760246 0.24069353228599935091 0.23360808836164609348;0.63691473082576011144 0.61477953113144379049 0.60851600304336173064 0.61887192051995210118 0.62064832371160982838 0.59792928438168968519 0.55025220853090728301 0.48914423562025433068 0.42213208388419676265 0.35895720959916160853 0.29500072895859802413 0.23586678853078957285 0.1911606582034698909 0.15989482312708433454 0.13355624208027835897 0.1139580207278171331 0.092586441064456126426 0.071228096158994128051 0.058456344713062269314 0.042335303270344910864 0.03326956278291107183 0.029828004819096632511 0.053660960779140363941 0.077406287808990240085 0.11929169492956956389 0.13044959254803314974 0.13306136425060399731 0.09317279356161313475 0.039269220927758897999 -0.042767739169484154937 -0.14421481702092628363 -0.23069798269392521872 -0.31376959031433726555 -0.36991071431134603387 -0.39792378320698151839 -0.41154683793161939143 -0.40699610000029201595 -0.35967707996788828018 -0.31074620716744083548 -0.23899055495504842317 -0.20240760625424999986 -0.16450526151204747372 -0.14621417780203760373 -0.15706458916998405906 -0.17737790765648919766 -0.1867350905273279793 -0.19268375491427097712 -0.18527290352929964845 -0.1883586110845290873 -0.15490983537301744599 -0.10083360968854544748 -0.042832401830684874167 0.01648950931411341525 0.055721679970483557753 0.093739574184665011569 0.13751189983248637838 0.16948299345960662898 0.210168822043351744 0.26154194012396603242 0.30430842273565911205 0.35198296674479112589 0.392072231497609891 0.42085903377167532824 0.43183192463709541009 0.43309478777697302254 0.39442021013611977542 0.33110510172448054389 0.22957882152269706855 0.10396683231299262695 0.0014120274468576727699 -0.091281827745779614558 -0.15807894402261998823 -0.19167171979872515974 -0.22956801550559496894 -0.24174393048555820052 -0.23835259455597954115 -0.21247191005831242427 -0.18589257774295880887 -0.16391614499464052246 -0.16442035346297334542 -0.17007309549925356262 -0.19313373647672224531 -0.22339063168221226507 -0.26186053758151900395 -0.30090744607000297073 -0.34689876199075569962 -0.3653249173272090089 -0.37546371002464240529 -0.36071604209530616636 -0.32143934065293960911 -0.25961799165819671176 -0.18284899774168283937 -0.095400773602874452961 -0.0034332018679866351321 0.094066827864728572162 0.19729368230980129373 0.28820532034021278944 0.39308514609990752309 0.46504463378888050151 0.524982657763653493;-0.47530705680506857291 -0.49435434686606849475 -0.49345649514492928578 -0.46188428817258159187 -0.41107919416656163447 -0.35315343281928662789 -0.28942161959600498644 -0.2001643705223591363 -0.10871584292708127983 -0.019878159782380205173 0.073122596396317934841 0.17786850863925812716 0.26835172578380128705 0.35812251045130616411 0.39369349365582145817 0.39458888346507853262 0.3646063147461526821 0.30292735447326379905 0.21255203012292153697 0.11530597193068004014 0.009030185816495672757 -0.079019613459340817818 -0.14687843500969241517 -0.19213776164153509307 -0.20882959244380305819 -0.19454388755450485737 -0.15778103484901023768 -0.09247858890906950069 -0.00011446240965119454727 0.089994938220521125682 0.18581679715869392489 0.25379182502236891095 0.30233630826996155117 0.33715520779813618057 0.35930886079508417286 0.339266040327800944 0.31058333335588655943 0.26167353537732246371 0.20521659168836156595 0.15049434483338125501 0.11626705943258204556 0.070386333933325634371 0.033376841812300488133 -0.022738254554417653558 -0.090300008728677397252 -0.16404643909810068259 -0.23715207765068388457 -0.31294956184002320487 -0.37745435689971479354 -0.41366147882133341707 -0.44619461482240324601 -0.47203466877099198307 -0.44597946282432843201 -0.42205095995882369042 -0.35127851327150144689 -0.2706796886022524995 -0.191723698915770846 -0.12480354749897386302 -0.051640473928755682709 -0.020147157935374311599 -0.020453233256379585447 -0.038713052696611467696 -0.050102466195238948288 -0.072622120027765454942 -0.064078911140266911484 -0.030186297171410851614 0.054293681115939795845 0.1646876273284210157 0.28633283723648028651 0.39034366792368979659 0.46360990732198248399 0.53525507613921585737 0.54775764646611424524 0.52623097000437624171 0.4808318847282607722 0.41648775260497283845 0.36060877283883852051 0.29789316377629482258 0.23872415241775016281 0.18390459836321584874 0.10814494654700280984 0.019934442740401684541 -0.072164636992800304527 -0.17268301046033704416 -0.2344119389465175729 -0.29034583145334391663 -0.29565891248442494055 -0.29104544075096072664 -0.24692785274102685422 -0.18690672237111702336 -0.11210294613484513004 -0.031194873696313029504 0.038092364971195502577 0.084247172092784705644 0.10705740177230926857 0.11122594286708149813 0.12719588207561993709 0.13602786530882154947 0.15810598071965278888 0.20539745041901891209;0.12562211287992264275 0.093452008885788195869 0.082474634750116931903 0.044647841085384248894 0.011480937835914962336 0.0062619576044076544208 -0.0036470843389121944053 0.027533939761549081071 0.045646609859982111013 0.070111604010473518866 0.1129175834200328854 0.11350505895443636917 0.11277677750594178319 0.10092699496172101437 0.11232317542314583514 0.092922121674383031942 0.052680840174609083748 0.0013713530636945731218 -0.056917937437688075064 -0.076219631533597981266 -0.11395466132628956357 -0.10866945900964312954 -0.070869199535604360252 0.0051409653868447627648 0.12255816767869534556 0.26874499131389817386 0.40275710998604574709 0.51011546539018126634 0.61220384817383444176 0.64211455867509026341 0.66613218398817675148 0.66248692195737657329 0.62939154797361029914 0.56162273609956925302 0.48846185799519731274 0.36858700288119078392 0.2454656935622563374 0.10946314594871137116 -0.020162045563159917971 -0.14172127218533694948 -0.25070975787122423695 -0.36331428342782978724 -0.45127682058318457914 -0.48833402338871395587 -0.49634470909568378927 -0.42538939542221693157 -0.28898448686547451025 -0.09202283133149184724 0.13709232176621535815 0.35812480888026615444 0.54592612607272072989 0.67933274032098101003 0.75659998068906442192 0.77352621052668113499 0.71755361188399180428 0.62112914990939049886 0.48130359503075798022 0.28892803538300754207 0.098949212765604602215 -0.085516811633352646238 -0.25304065727422281329 -0.40096458748566504715 -0.50805255803687243699 -0.58645573037969322971 -0.59694832343339887526 -0.59973290907992138354 -0.56074883832217048418 -0.48397380324540795193 -0.38354956436107773277 -0.26502697371994776709 -0.15956512083021962001 -0.0070141440036382606341 0.090635220218932624481 0.19365888328308261679 0.24543141274046417766 0.27285525794924631038 0.27510383957205891692 0.2658475956107921867 0.21654570327014768805 0.16460679682628703846 0.1303279824836731382 0.079525857642449460094 0.079293843273055691911 0.080335515869132373412 0.08910516708864539559 0.092008917675475754283 0.10980799474845916175 0.11173279062573578113 0.11205086128176745819 0.090455007325409883534 0.053207985613057853791 -0.026782218805862283151 -0.091898159407196491899 -0.14845923430702570589 -0.21181196197212595611 -0.27294310643628061364 -0.30495515395285799354 -0.32166489968163236579 -0.33507081576192032646 -0.32277901272167858204;0.13707606511504116797 0.14113890409025264816 0.14444613383979026944 0.15395361193434026204 0.14249176356562484602 0.1509077445447090382 0.15072101792675787757 0.14057492301160312564 0.14306689726976459798 0.14454133094342028198 0.1473885869634715684 0.14736344175141705137 0.15382623529731218048 0.14981212288635809005 0.15185349697776051592 0.1600288098417284588 0.16438087617388630335 0.17014091320741595026 0.1675774382082676206 0.17490558589715360371 0.16665575969329954331 0.18315776794294308383 0.19335052796903406946 0.19615159297688089524 0.19915281594065598059 0.20318705823002811139 0.2047826130171310488 0.21400926593264893438 0.21577581441606738522 0.22058372990036803629 0.21662837049308764081 0.23176410775525388419 0.22277564968795449118 0.2263261760019273372 0.24145056751121143912 0.23770331430497096403 0.22708505781370777465 0.23527810112281219435 0.22832891435702085126 0.2179880829285881505 0.20972626226033058705 0.21501878167063720459 0.19678991332717529761 0.19206302498464605799 0.1773591071920365414 0.17234265815098118169 0.15541037162828325036 0.14679478296773770807 0.15288808447451801564 0.13089333304231542954 0.12563687465495995688 0.11565323001740239472 0.10532264481448259941 0.1006752296060972468 0.10385352042752393764 0.10343508336813972415 0.095680866003763354044 0.091151507027584580123 0.085476222968660864332 0.085285593419024169348 0.068375056628659489077 0.062467875970210369474 0.077509903585426781492 0.058020738034116253745 0.0755300285303421165 0.070150850080888713101 0.075563661492343975334 0.072966330775594473446 0.063708034832143795034 0.077671598553560650124 0.073329182187309008278 0.085117638284707822227 0.076018754199573296271 0.085386658983666374745 0.091194667466366480246 0.09235741013476346517 0.1012291154498122514 0.10511240309798657033 0.11049339390009248196 0.12008960324851010448 0.14510991712388110475 0.15098922508489642791 0.16406770815108850936 0.16463707288967036058 0.17083901909273763176 0.17829106845497588729 0.18894157868145225465 0.21809526133037257511 0.22023099023803419105 0.23638482444336908483 0.23717145238572812094 0.2377119910480558207 0.25881912574261906057 0.24972047476326242332 0.26595867558646602014 0.27290354205415423561 0.27730073699503832163 0.27075441324396654075 0.28415873600185298509 0.28134331689115166242;-0.13752059996274135223 -0.17906854657363618921 -0.23807492848329048218 -0.29683714067164479466 -0.35242863647018152218 -0.3883318859976205295 -0.42486647004634586766 -0.4314388138161902031 -0.42662177101537684942 -0.3961526107985294809 -0.33708496463986548086 -0.28463100711945599208 -0.1974660536188947435 -0.11635005788729158027 -0.040965241481720066075 0.01975036718592663651 0.06117051711443318579 0.1018104673973815183 0.13535097007683358217 0.1695974094585838976 0.19333891146821521878 0.20676200128844404724 0.20085102694612569363 0.15921935926102062653 0.10451153014504188654 0.03377319402995507952 -0.03999764204932741013 -0.098325920627473056834 -0.17782749123920332801 -0.2421308606474588121 -0.31452065023909353547 -0.36318280737730018748 -0.38447306505270822941 -0.3650273734070174636 -0.29790297197865889256 -0.21340393828862483372 -0.13574666301368970567 -0.071826475618302562665 -0.036151214867994767299 -0.047134959172785130532 -0.056047604478759942281 -0.075073868590108200349 -0.098567830275417434027 -0.11315001401875871001 -0.111597069785662667 -0.099402465508537402039 -0.084666002791470032496 -0.056015362997485572405 -0.024186506696108167613 0.025433619983644573104 0.10126467059366911494 0.15296350576476569483 0.19518317235938204002 0.18067862096160744456 0.13779330035172590585 0.072071959251474138064 0.026891621323663857102 0.019262389937328958794 0.042454769111418086402 0.12215300353126337662 0.1950615715242182413 0.26521332826887877854 0.33327904359495358344 0.36786626173528436112 0.38016415033671041579 0.3636509138420587206 0.33065280103519789634 0.29343021242185585162 0.25427970940689437196 0.23690473087270452757 0.21194453519571559985 0.17881125321979191023 0.18566497433103437698 0.1891628655249532609 0.20867102682283547588 0.22968719929192085716 0.22702352689745580738 0.19038529725221758904 0.12080426802625660043 0.0602082585502305076 0.0065197946533691120488 0.0020094836946230655063 0.0073150021483216259507 0.0054734293509884224954 0.0055777711999503258589 0.021620119406297072517 0.049647868749237406005 0.081101874161717851797 0.11133750773161338321 0.11598647444847336174 0.098475466632153257907 0.049477518800812907152 -0.0065974554565692757752 -0.078640325311585462797 -0.1536187879250298649 -0.22277792979400351525 -0.31181806581050358629 -0.40908087136838611197 -0.46813674086503048732 -0.51906384402694216718;0.28389271198019405684 0.23352761473731620256 0.18295138700050347924 0.14346238503615857396 0.11808997842909008114 0.0895762922715087756 0.055397379937940652295 0.038964410975199474663 0.016359777113433005002 0.0019364299227536713611 -0.0023366285418391112214 -0.0058732865601576842579 -0.016445916557055503815 -0.020674591986942440075 -0.038694458880961069003 -0.039654839907929673171 -0.062281502277140562973 -0.068819781348449904357 -0.10361384703933038121 -0.128649133458118764 -0.15191574450884354208 -0.14660684439612406416 -0.1654373800790282234 -0.18751053631393663212 -0.19858331634331152782 -0.19904089635313781947 -0.21440990583709737538 -0.23593369482094878054 -0.26221240519190092133 -0.27906862971330836931 -0.30294832072374072718 -0.3629814586893381767 -0.40051115194984543422 -0.43742578257395742236 -0.45069848054841499252 -0.48198174037893848354 -0.46876702247603696527 -0.44995987484065691486 -0.43275097508432125437 -0.4052331988102316207 -0.3551005826368051066 -0.31548034943445141254 -0.28668828924986500262 -0.24644225579882658717 -0.20628848507235356124 -0.14423328974851806761 -0.10166276696791018419 -0.066884646302186018252 -0.021710286395331207521 0.026360280412407264411 0.073136074727474867374 0.097920388187416426695 0.14173758055994348237 0.14777073691183531534 0.17103096654083643768 0.18566129447551166232 0.17758740828304023229 0.171841599602645001 0.17704794005826579584 0.16416047221100663056 0.16644455353070528036 0.1562944459205883041 0.14237658206078904199 0.13227406860691948154 0.10900428500534437015 0.08220685714870548666 0.067880689147160791497 0.027811431057300793623 -0.0094981324110257579763 -0.053842151872245308519 -0.10846978621391903386 -0.1459429774508796962 -0.20323021075933364599 -0.25453210765395201109 -0.31714781471559505555 -0.3548682292667740823 -0.40466637387169968054 -0.43120919676549679389 -0.4442937018372903335 -0.47559102067663500124 -0.47798465991710470391 -0.47558706431541875048 -0.47858400959233671212 -0.46160191223346336287 -0.44588316860339294312 -0.40054216349383003903 -0.36761121301574711806 -0.32592465764084871394 -0.27723300259366440157 -0.24406733498503285773 -0.18197442021135665224 -0.14509430269555553816 -0.099401659553400523173 -0.037332602985939669638 -0.012874315661730488872 0.039680224145524613244 0.055356677711538952724 0.09440298043358824609 0.11392730375059575976 0.10811278605097413008;-1.0720714811655829291 -0.96347259878792634868 -0.82054182552094867553 -0.68072128821672195365 -0.5484023108538352842 -0.4051615772018402617 -0.2782090295025933524 -0.1611343174898725028 -0.087254875719513708132 -0.01640530119242123927 0.024162347085992390977 0.05086811836915649393 0.070296403162070669746 0.060540034236387735289 0.045839565337376764198 0.045115514500013026433 0.048021200354190649029 0.054931684286825238628 0.059686012183150755073 0.076517986867496376457 0.094173074721246544105 0.11732993891505834327 0.13708871469024552781 0.13972021181068713935 0.17069393816756170401 0.16636496961809763007 0.16414545320988604971 0.15449488178763498558 0.11818682657421709925 0.08786551642289841535 0.041320201442036331996 -0.024875280474799990604 -0.10599114233853872136 -0.18463252970215260351 -0.23376813064168966427 -0.25761222729646193752 -0.2505502608124730024 -0.19592307254352753221 -0.14369375718945406883 -0.082590465910745730627 0.003022722534859976877 0.077915947567669022189 0.15957083542852124047 0.22412709805029756849 0.27465900081698230162 0.33180497346395321223 0.39403173966210192081 0.46501542689682934251 0.52380624319896174068 0.59143539535542877239 0.65197561334471731964 0.68248981484040360801 0.69426238345796631446 0.64319409764976498423 0.56299617800238044296 0.42406434860044278645 0.31906847516633141115 0.20914902423890255334 0.12589099105942830326 0.095600853557731499399 0.082887328597155640608 0.09831461927375539922 0.15068630887875125723 0.21682888412690171087 0.28468520431252491987 0.36392044414588908818 0.43722576796810425082 0.47331270619955356782 0.48625469187434083862 0.46501031982649748686 0.42483189944141458438 0.34805344105757979323 0.29084061970675462172 0.22006038701670393998 0.14598362147130666822 0.052139450544208314209 -0.07539713054358383737 -0.21431768914411930549 -0.34335638221223840905 -0.45407366187043440853 -0.5421514732339043352 -0.59057697711323153822 -0.61019347834179271661 -0.58665593792205195101 -0.56211922341604547704 -0.51030475904281058508 -0.4438083570344630302 -0.35623918554928424296 -0.27845392840544092028 -0.21939038150931738924 -0.12868803541998868889 -0.06214849630277929915 0.0027771916307290306705 0.051005203280169157665 0.083945487010414113205 0.12075315212569780188 0.19342982926314036818 0.28105742985575815629 0.35236047206863707615 0.43529464923975369484;-0.15824249886451355329 -0.13386691424325633526 -0.14838926817751524334 -0.17479005018105417402 -0.23148556034736164633 -0.28284673132298004949 -0.34740175696231656577 -0.39754157620424890318 -0.43189320039180512101 -0.4764112812912004169 -0.48409098851829840404 -0.47033378043504692201 -0.42801725325729511606 -0.36668719485893297438 -0.2879719317544993662 -0.20601676448165218147 -0.12010095750866837949 -0.067243881733106303233 -0.0015019120357498468715 0.062721119403978911611 0.1192306855849675773 0.18633661522875547001 0.22118934721376379282 0.2625678739705444853 0.29993695554440380491 0.30644311987562511401 0.31448255921265561019 0.30581121478269918113 0.31081610840145174057 0.28250262693573313655 0.28390705750059291868 0.28900672107548636136 0.29262575449391781124 0.30228336350205120553 0.30270940393771672561 0.3216018748909228453 0.31941373781141368937 0.31813662075466048185 0.31602932473720563022 0.30010666304803007565 0.29638132493380814347 0.2700698726237031333 0.26700470162172457167 0.26621351133314152815 0.25626560042515711402 0.27048106048418296687 0.2782834334344705951 0.3000371409219514951 0.28990067311562489616 0.27249271318419027166 0.22490275589725486349 0.16065727791142608849 0.062803625807820784299 -0.022910668108559184564 -0.13539279185150271401 -0.19718839723694689403 -0.23457615809519272165 -0.26119702906833602851 -0.24539968214002583213 -0.20868501017818602561 -0.1710371755717256248 -0.15667545166090934838 -0.1198123985808022679 -0.11869573778981507006 -0.11334864602395532118 -0.10254744322287082103 -0.087686286910225785807 -0.067644833182557734252 -0.043966101712671235013 -0.01148658937550890366 0.012913700271465048536 0.05620404279070079917 0.067089026724575909211 0.1137882269186377554 0.14551037186424861658 0.19376448636747498067 0.24611119880191886788 0.29002337919124815402 0.34344849966362611671 0.40725766488681297561 0.43110349183277502094 0.43890325229421028874 0.4340170751424496931 0.42993194394523565061 0.40987408241986783564 0.34467289403057516095 0.27028046901508573363 0.20622559553389943621 0.12916451716030347141 0.054630272024499264283 -0.012057324572929111611 -0.067326608821834818541 -0.11120115303612865265 -0.13430222421372609021 -0.13443764151981452137 -0.10315314486960211471 -0.068185423964176705702 -0.059801417492405736787 -0.067916478041835259827 -0.090180113353441074264;-0.48860034057474360791 -0.44324700808190276025 -0.37157671651919133016 -0.29195145690655704973 -0.17893122308994727221 -0.020891113771655117626 0.1239237798131143653 0.2773863849724422237 0.41072023023720266588 0.50676114523462045813 0.55217985325785357009 0.53397125892762731247 0.46834719608998792717 0.35135031435849484183 0.19430224047381361441 -0.00053851177172959579023 -0.19184340401665647691 -0.3628179082944256173 -0.49217156604025791289 -0.56353196452677356554 -0.59113074672294196876 -0.58012677845268678656 -0.54889967351660318151 -0.50779219805261655019 -0.46394704281944160185 -0.42581337807919122929 -0.39113330997437784076 -0.3472324871698728721 -0.30554341529022494006 -0.27137642026817027086 -0.22483792126924923016 -0.15231039346858063488 -0.081273685305564405401 -0.0095773894931863255003 0.05893258754434502894 0.12652646311511570043 0.18338355776523607155 0.23965702846429812189 0.30253839216628175546 0.37162886402744116365 0.45922450570793049707 0.55394348068785059791 0.66293238672532306399 0.76863601607022502549 0.85441184396391289813 0.90700313314133518272 0.91649775881759298901 0.88191353651283665993 0.77707647740509622203 0.63557277868392525466 0.45677761133840510954 0.24239212317815170272 0.0027562107994574839773 -0.22377975214623541111 -0.41278140468926144413 -0.55468115461291089829 -0.64503534379365889961 -0.6865805024422420022 -0.72261961686611086986 -0.71450500099350955363 -0.70447335371361441414 -0.66435697443879937474 -0.62355995013965292983 -0.55252259493541389102 -0.50304254196910180852 -0.42893183564462439294 -0.36810226865299261467 -0.29959522886339168268 -0.22469111947123299178 -0.17697784985880776754 -0.14423572739638021445 -0.10486154747412941568 -0.06313016418402914165 -0.025452080826083845616 0.033023106870908480737 0.086368481474921057761 0.14384322760999015967 0.23309882163048958881 0.32445076425234231632 0.42999614406562780555 0.5315731934164186212 0.59293174858041097774 0.63320550302264355658 0.63437723567708093064 0.60002670312782158124 0.56298875166336170839 0.50487831081114697973 0.45613066986353195675 0.38972822092966852292 0.33017542866225318976 0.26567467970128955113 0.19648311085733558001 0.13235539015122779749 0.081026808788931425909 0.032156640223287923097 -0.012699101230967495962 -0.051214823664436574802 -0.11051396319260851919 -0.1346171183792845838 -0.14557313097158458559;0.57464002926714907726 0.50747266542497060371 0.42822894964427532516 0.34805891335090483052 0.25929322511749897107 0.20100597284203619575 0.13450729578247072604 0.087606838281855878292 0.096423880533097874879 0.13457686501822119229 0.2122783997728322769 0.31263011530316475728 0.40305419299436306968 0.49006922305109962279 0.54339786993118510683 0.57244618677391656547 0.54855119525435047656 0.52276736713740790119 0.43179778035437355044 0.3395979540947947628 0.20867922307221925537 0.05964894749043776756 -0.080081686358015158334 -0.20278252233948651506 -0.31237844986633223066 -0.38318864924048667842 -0.40809717891150643077 -0.38391201993683110594 -0.35371429461414105599 -0.31580090072902866627 -0.24867854019632196216 -0.1916423083033518826 -0.14340406758987336855 -0.085967733459856657263 -0.012898412472486929514 0.061995694930833830649 0.13624903617652889265 0.19244072952971683077 0.24670748123361277426 0.30594205430008469815 0.35769086956343637551 0.40386350642276602763 0.40954350191758431832 0.41313740868196735523 0.40539903962921475244 0.36364925979243073462 0.3476568164071562328 0.30758321002535232713 0.26442082367493141559 0.20362093406445203048 0.14374529004755937089 0.053958634678928148187 -0.029463220962147450288 -0.11256478555225125915 -0.18135582833388802504 -0.23107908302454244209 -0.27856648376104442555 -0.28841418500740051423 -0.28044375613529626268 -0.2304316162388526934 -0.1809232894690619986 -0.10408362992177004613 -0.03266776689092888708 0.036397909574037254354 0.084301720994634884998 0.13130596801442967481 0.15296310268779395036 0.16457594944126682779 0.13878420930323365212 0.086827879660751686175 0.02642065692676470387 -0.008400426543214552233 -0.049922620312149508515 -0.062536217977150115876 -0.072716764165720398916 -0.059862629532208319616 -0.038800565573734374647 -0.017576609091794228451 0.004109435491355807428 0.018807721908026046181 0.026922695237139086105 0.022810815315278260007 0.0096680675638143101502 0.016889274360628578342 0.0029812884787940923878 0.0048698157286544826658 -0.014246766288709383774 -0.019467990950083183255 -0.026836820596756096741 -0.010577049182865581878 0.027731398600182984027 0.051849434130088044304 0.057874034320082007321 0.023092812608857565815 -0.046915704121892373712 -0.16864832984929120641 -0.33076269558369608692 -0.54452765412452663885 -0.77382159244030801482 -0.98390460094281362302;-0.54892356795089247701 -0.39184980385600065578 -0.22087570661492295088 -0.067806677180954524897 0.08607886695439831426 0.20700733911537902432 0.29629994022349842586 0.35099115771794209273 0.37066991870443855017 0.35807591761407020492 0.32025607862914151625 0.2705427682398825473 0.212051725624315901 0.14690009001545839551 0.07723246432314281873 0.021312916230284920799 0.0013687307895679560153 -0.018958469646766992756 -0.019205765571803073283 0.026049364015974831033 0.082461715631642978908 0.13691411977514772458 0.18781894580122082683 0.22298978687191992054 0.24156294710959799743 0.24227276187602975188 0.21144315435115781932 0.16514955862284969035 0.080214341889799131713 -0.023848223298683017546 -0.16430084367258168676 -0.30056602797017950568 -0.41446263450643333615 -0.50570515483995304162 -0.55564949265643592824 -0.57091065970236587468 -0.57000369473223877481 -0.54273729028880879355 -0.49164700041170628086 -0.4281320057749274377 -0.35806280822644692696 -0.30817755929018414429 -0.25655721286947924531 -0.18806142968246042368 -0.12592036107703724612 -0.07378071483624545901 -0.029109011954606210659 -0.0026820643603088383834 0.016822111851054533105 0.048361820279239645104 0.083730626195592863792 0.10599117929274583239 0.1146628012790803508 0.10303696182369825873 0.1033624788825649593 0.13282142473654251491 0.15443872279050577245 0.1714298525681815788 0.18151715977741303409 0.18075534587787878138 0.18296463848313962441 0.19063823837205387535 0.17749144811257658305 0.16033863411460175241 0.11514100804392723987 0.06073967933683019349 -0.012928875426324187153 -0.085677077967309278606 -0.10970139181067112277 -0.13569435781344252323 -0.14742842616560694613 -0.13129679410714306664 -0.098971546485897024525 -0.043391190037403513935 0.065491479820052406202 0.19173712021607930422 0.33153218824963387457 0.45771793322526144188 0.55278246763849947509 0.59128267491831243419 0.6091797430244139111 0.63631699060516555555 0.62158666693416875226 0.55434958977745107944 0.50110762281466181278 0.42970723104240465817 0.37638867400960512866 0.28995872886749352038 0.23580925740040040162 0.1371542523108824907 0.037363027450464679491 -0.029321618807863020217 -0.10912420221505209073 -0.13963752318760583315 -0.17892767729466879656 -0.20997556351182966594 -0.23103259804936626676 -0.2562492422451539964 -0.26360032892077206457 -0.26274146972177131465;0.58537951948731048457 0.52696116853073604602 0.45739693429809674674 0.39314092751554985394 0.33486178911815994708 0.26611875726622752358 0.20346786940344238626 0.13791084548580462288 0.088067750778849207549 0.060187235875511377325 0.051545600799313209817 0.058659805695175495921 0.070808230743311315059 0.095381761036098688944 0.12653097550455794096 0.14311954082442726599 0.136753709385371236 0.10425147386685336415 0.047632799876047252075 -0.016190775779044812299 -0.095340224682104263154 -0.15109715005670143473 -0.17677460310012466094 -0.19583235112375735332 -0.14493690698836469988 -0.082913008671225307822 -0.0063540910371174619611 0.077764397138381069485 0.15104637197921588765 0.22979659828280468714 0.29840204229981515116 0.34451648898954739808 0.38043000367442936227 0.39351563332430283815 0.39851609751905647805 0.37640478236971502968 0.34397800036837400395 0.29820618558960848565 0.23355297409763040029 0.18553804862641651297 0.12551324246452519318 0.092077150167628490918 0.045189278138311375632 0.0023906707356927490299 -0.024821876257574124885 -0.061505187977741036798 -0.072129453218301081696 -0.10216548696405003405 -0.11763003335606085631 -0.13645594863053894796 -0.14581004157583904446 -0.17448814183832275782 -0.1914086520592517271 -0.24121900443372576439 -0.27387158503636344076 -0.32468510276070916554 -0.38564129751673370539 -0.43751701194583209054 -0.4970393128236970659 -0.52027596210077220462 -0.50238296445571095639 -0.49283286563049005791 -0.44211699822785355263 -0.39367431078750408924 -0.34973603827236376951 -0.29789460389098287862 -0.24934640015072923047 -0.20692327042611802224 -0.1702190194694575831 -0.1271814782677491984 -0.063914716408575156237 -0.013547557963914253973 0.0082436944339269128262 0.024302969277616826016 0.0086425653306747615007 -0.0027515169901394039183 -0.019709980043316949194 -0.046035916016999967049 -0.066425906846805840567 -0.090205387329204342328 -0.12005861091818403885 -0.14569001203371920172 -0.16728758004509131085 -0.1774065123607000416 -0.17440096727657489195 -0.17695575269113278383 -0.16344077278730531622 -0.14717935966995845942 -0.1478905420000698745 -0.15641792395644948943 -0.18614009039279064139 -0.22776513932850686595 -0.30770106980431338739 -0.39992405102479006151 -0.5486970679322494826 -0.66394544618377826506 -0.77315763763992995106 -0.87006435850875396554 -0.93550459119381135231 -0.96859723723288926323;-0.37912955540903775509 -0.41881244849548016074 -0.43909026067861905984 -0.43964628723096077501 -0.42234532094730170559 -0.39736941383963725327 -0.36104653878161085956 -0.30846729273855449938 -0.25878582587855575303 -0.20648348963876236861 -0.16230665888774478689 -0.11691430036554065208 -0.065338246206924632808 -0.025536728336190597788 0.0054265406852448874048 0.041393971660984733851 0.079505626741569176974 0.11593070439423273921 0.15522231319692500473 0.19884740622385346787 0.24420313321991488076 0.29068474714553216298 0.32763486657003887403 0.34760446377559883757 0.36260350811190417142 0.37418892428624489499 0.34846522241457239533 0.30404600712160428921 0.21820143301884745157 0.14153378130009119928 0.085745371620145019453 0.062449453929642045891 0.083238713254849994172 0.086767736978379875201 0.073954472102381221821 0.054891980446391541726 0.0047938481313058627434 -0.034337924643065224906 -0.082447545448451994843 -0.1160558374416899019 -0.11316044260079613504 -0.084445467123708539692 -0.031884257455925213431 -0.0012407422714870008223 0.040483195540365807252 0.079763803676589362102 0.093704018780344927597 0.10945334022039267252 0.11754156718475411436 0.079083982455759344043 0.024679318329082891581 -0.011526136706205170057 -0.036881007448857749953 -0.041414412504131040138 -0.022602470175345446002 -0.0090132168270641178226 0.028996394277841654186 0.072898313980014631253 0.11803037721773132485 0.18022977181750352016 0.25135582782310977867 0.32363418125766657552 0.35571074826594084595 0.33822412331140666586 0.29598647125038607397 0.22295199083886332869 0.11868912920942045752 -0.015179542726055634747 -0.15608359979156766206 -0.29481254578343085715 -0.40979646512271411529 -0.5240085336617867906 -0.60156709695830923312 -0.6660100230515532127 -0.71279780061713127193 -0.75617567902762383714 -0.72643635117497118436 -0.64438642286640845924 -0.49145841847899096599 -0.32952978224617501812 -0.17005254477171846683 -0.012988719495885321653 0.12167108048209684945 0.23750135276898129422 0.33060076297846119342 0.40485957509065451099 0.43692008870338300275 0.44644716190380517862 0.40821408968103156667 0.34766338097690335784 0.27879344934531086198 0.2289895529088222248 0.16951830300099351989 0.11157003339704539557 0.041693267276315795766 0.0031347737817348352712 -0.033054911743735426732 -0.069057175129861161911 -0.08621562246474269442 -0.12474207266955653073;0.53908904595603368559 0.41530293746891155937 0.28739485324955910128 0.1611203680777501257 0.039309931189971086818 -0.08542076018439404006 -0.17162301157442980126 -0.24425409969837946766 -0.29727371275450714672 -0.34298780415604745997 -0.39306227123301534787 -0.41391220200635719939 -0.43504464336068870978 -0.41922201234336281539 -0.40201079551373142262 -0.35560709396490319811 -0.30426016237001896059 -0.23342581375336823868 -0.18653135056645306356 -0.15383514362272535103 -0.14369633775429538347 -0.13724733726440896397 -0.13980061487238834572 -0.13462403333001915495 -0.13830289707037415892 -0.13605932894670480504 -0.13996701138305786549 -0.12323153201002752521 -0.069553556086528856017 -0.044946107000064856873 0.016995978284424700933 0.059925618405566732916 0.090286909552542149449 0.12006736519589973622 0.12812864546230062768 0.14530366015992199347 0.15879746974437355944 0.15161006884606581524 0.14435529989909592907 0.13859484351574155592 0.1153845322700293996 0.12119471753845302564 0.11471704377462998981 0.13126831767459765099 0.17834396459594353823 0.20234634312033186743 0.24818708288034665999 0.27394189577061489604 0.30604509956341352517 0.33750477236953246862 0.36611057041560929326 0.38216462112125548778 0.40376982107252828991 0.40454290156976902004 0.40746954164612875227 0.40940855820220251049 0.37815807649207106023 0.33160594387320524445 0.26867403537778655753 0.20357056527311978567 0.15479154797452202019 0.093612128130976635099 0.034607723335266599163 -0.028347262872230886283 -0.058636249166743578676 -0.074211272168826614148 -0.055020148590993765703 -0.003211054505723552957 0.047345692288586704866 0.096263310307150962153 0.11855979545000891462 0.16369358551118903811 0.17651951658305103932 0.19053514668171614432 0.21824534411963589231 0.23090944413970665439 0.25587643065826298772 0.23804831559806804986 0.23135554653289983063 0.19819187787151593128 0.17382540053583372952 0.13465091673986112619 0.11389270254559949458 0.066123546365318836004 0.021718148887179843098 -0.014775759270884546853 -0.055402050271106090262 -0.098176446003992709488 -0.13707592444766925066 -0.16839882659247254471 -0.18524908485516261569 -0.19605562948305721438 -0.19946483723705032975 -0.17309024614504042727 -0.14543057398343411935 -0.11947830222377318898 -0.051436479112137598046 0.0079608749116630919684 0.067854446567430379278 0.13296938556477044813;0.99451844119565513402 0.90154567701857246664 0.81041420632491578679 0.67227791241518852772 0.55283774326275225697 0.41439250256560888896 0.2838905283915615918 0.17122927626802136869 0.062866936934126274594 -0.031849822846423361811 -0.10412356834832421637 -0.13987388803148717575 -0.16748104450439146862 -0.17547166986407514155 -0.15169083639230696026 -0.13495673535963101375 -0.12229333217021533253 -0.080354084680460527434 -0.043864868089948647056 -0.0036104426041890054153 0.032447120613518370957 0.053373668084230226072 0.086367037683122621639 0.10276891181872330194 0.10913881947638200132 0.10354766674732737708 0.10444770248559397119 0.074172616517866371555 0.051585213111355658622 0.041146179929322033997 0.041684502987000361662 0.035465101491338302253 0.03169975186358045538 0.021411956236524243985 0.01858733046575725828 -0.0061679666006403859393 -0.024007147753814010727 -0.055679478025130249574 -0.11109842633779450083 -0.18091560583754415226 -0.2382709748142952666 -0.26986182651477930161 -0.30575169001631646859 -0.30932300865186718175 -0.33945112309219305224 -0.37493361562623400696 -0.40452795588083545475 -0.4232110539367007207 -0.42025649791175506698 -0.39210063513433285332 -0.35795347823806733523 -0.32789574255278164383 -0.30601030202568735294 -0.27737936441779326158 -0.23586657076659731103 -0.22386367192898734557 -0.21586686454916845235 -0.21411121325837753626 -0.21611025320384807946 -0.20431795842916011807 -0.19235403553572175128 -0.19219333092251733586 -0.17493020828613026207 -0.16787966966983564054 -0.14249038986500364712 -0.1026644789999272972 -0.079764381306678955319 -0.067533679973742849478 -0.047864872883427139749 -0.042028625563976157453 -0.042160861462382785703 -0.052822575086989904947 -0.04098877140425472021 -0.057775594496536443467 -0.076197682631607449588 -0.094084139661085364192 -0.11481355294869773076 -0.087847868244105051239 -0.055409050940431581189 0.021865445751035130634 0.095860976294125682662 0.19392989846538510879 0.25348563481987462787 0.30895205829875244108 0.36768319396893889284 0.42765632201508596566 0.47955856393532986237 0.50973147083240577526 0.51905327831149383755 0.5085439113089308405 0.46828112847343650316 0.3911193951386857659 0.30222254939606274515 0.17442290811076194279 0.065638060518073207406 -0.036978845657855280438 -0.1162258074270196978 -0.14989662058051200777 -0.16737374625880502288 -0.15520852648466001988;-0.091486839278023021627 -0.045022333338063880159 -0.0129179648791558771 0.025089146325265654358 0.021875646964367931324 0.018078128166677427668 0.021472283538013087201 0.00035536776582759457832 -0.039456065661678481338 -0.072840490104149197004 -0.10600037243675199117 -0.13074299918262233255 -0.14873104716212529053 -0.14653293755838830981 -0.11319741912671058004 -0.052852912837977855665 0.055703979323569838278 0.17749021982531104635 0.32622574943427401495 0.47761003246821759349 0.62787704484430839624 0.76269932334894552373 0.88016532006627956619 0.99949019769687197368 1.0428362828873805057 1.023082668991352806 0.91308093944878920833 0.72788911484926022144 0.50487820266299121563 0.28661658945901874462 0.10856595709113782411 -0.022840702070642013993 -0.13128816026213785406 -0.17283490322100494851 -0.17154235597609845954 -0.13788232958472876333 -0.074417247837008371203 -0.017580147546585187662 0.062298715538724867835 0.11786294981561416806 0.19356053447607660112 0.22599759903460639454 0.24168378237064452874 0.2039666483116684137 0.14147793969493446808 0.054217309826067636158 -0.045924672995981741241 -0.11142954266265815699 -0.20044621031973280934 -0.27003563846172645713 -0.32499266616094957261 -0.35030411977319553252 -0.35460157601584540998 -0.33553660501060089683 -0.29412033770406403876 -0.2440360042686392783 -0.19228562490540812568 -0.13282107393987263588 -0.052131418333691961764 0.0061814530480883613656 0.075055768525086843934 0.089598205249413462314 0.085133694558100658778 0.07146901791120569003 0.03429379640029284193 -0.015727416474485465814 -0.04595626637615592841 -0.10157735367085488076 -0.1185840000756778756 -0.12901525655857304375 -0.089861001721907043938 -0.025284244947735214082 0.014806937583451154627 0.052931403092062012661 0.093221379407643106818 0.13691685554592611385 0.1555430972644867571 0.16061574760968053144 0.16035102417706006972 0.13261714096255483586 0.10109390211635085888 0.029811401865114661724 -0.024295050688262626037 -0.066838983363112794422 -0.10666719277808105193 -0.15085263105014412588 -0.1823787662946885213 -0.18075652429157493262 -0.17510937708998600137 -0.1301602167255270226 -0.09262294195927507634 -0.044259121435703992209 0.011453659303367049946 0.077168888060852425248 0.12487688650007591762 0.16626919261428552144 0.20913321268050577562 0.18760971555323402438 0.13412468922277123728 0.026918818258888626421;-0.12426615888921195563 -0.075350572407404323161 -0.036819696805018224672 0.00062080419986008483595 0.010696961391125907326 0.040378575318963508267 0.04726481783879914883 0.055758776812606276885 0.040010253681705805484 0.038155496368447512634 0.021860379953515855778 0.012964195617097886218 0.035219830072283353495 0.096302749927795167073 0.17776839542992170506 0.25978759617873692367 0.33960835931000304955 0.415551535991320109 0.44192535560059342803 0.45842908421618328019 0.43190843261074463033 0.35764998016756793797 0.27406168193543195555 0.18090392145966602278 0.087277449676470261752 0.040173588190381775975 -0.0024153237411281332919 -0.022075138547134810774 -0.01534665224323604471 -0.00069495210033867159914 0.015302292586752769959 0.033168334864089321634 0.032642796404850182856 0.017357419196340685696 0.026564233149991074712 0.014052119198561481561 -0.00097256475415074291994 -0.033334979774562012445 -0.072652918297297308659 -0.10428770354620428562 -0.14070638475379390608 -0.14617699770721986896 -0.15505656935580738875 -0.15694262613318804567 -0.13891913574929645736 -0.11598352445577705949 -0.075113951627131317346 -0.051226636437030494131 0.0021630370663412498006 0.034379819536582485739 0.081868834866788670057 0.12343172713504524385 0.1245927329131272937 0.13633124910178168188 0.10339639516594391344 0.051149568446662248278 0.0015330015256832011609 -0.067452337223657024556 -0.10800577194292652894 -0.13044952037696930236 -0.15538921928511728598 -0.12522202606250035228 -0.074586314637472408973 -0.0048280331916813364057 0.095189202172524259304 0.19406700911712221336 0.30330762303040703642 0.40264074245646658268 0.49283023692299599006 0.53249408244841223148 0.56524156506355827112 0.55895952742732479823 0.54095445268055941668 0.5251166174707316836 0.49996549636354692403 0.45558420799244131461 0.40339808412089200873 0.33773217651435449849 0.25493596288810482786 0.17278237938458326783 0.093240740295093549328 0.035259982575167263252 0.019080505416028018667 -0.0076945029096769472499 -0.016720430380849506113 0.020219524160652549427 0.021787170584966951414 0.041834428697541128916 0.06251392527584528902 0.063384605277201855333 0.070237189177538655871 0.076696611128197922369 0.035028848250213198701 -0.008311117716432557187 -0.070940968164649328975 -0.14036868830755591664 -0.23298230336532363416 -0.29088931591427452661 -0.35656045851406814595 -0.38553226538683366131;-0.70633601865488060412 -0.56279676945860834802 -0.40947156050526783977 -0.26522869007882782233 -0.13118847102476274835 0.00094035581980059278553 0.10775983618017440091 0.17348251872429670817 0.21291384976843863441 0.2196400085133776714 0.20659920266091452712 0.15599748324231516028 0.11699950370216287421 0.093260617322694361331 0.058756292102364673924 0.04972425548222581676 0.030670062269993535881 0.018429867142517500356 -0.013837027040848525958 -0.039321008776489134451 -0.07303514422808501938 -0.12195900939581791333 -0.14258986856125904774 -0.16865923290938611423 -0.18097302133720552519 -0.18035246227975126887 -0.1551970321097432548 -0.13648276156904701195 -0.11588486104205632243 -0.08367383811438275365 -0.04543209892112156506 0.0010641345372133736123 0.029186407847737613763 0.058065872198769956369 0.085340882023298494929 0.1046061558433129951 0.11512923835585038568 0.11102638127764360987 0.092128945428287700725 0.090222999482919757908 0.075824927617738735464 0.0770913518971832884 0.06864274213365079147 0.063576441139568271033 0.049364174613043154682 0.029193666065230217121 0.026526502674421657824 0.029527926990676762325 0.031795827229014306248 0.018507546503054486675 -0.0069205000186428845474 -0.025183252911493241716 -0.020722870788735973241 0.0069953856730011121021 0.036631889997438903117 0.081511734495957527402 0.12407848851869432427 0.16202076782093724483 0.18570112587140291671 0.20485537181628774017 0.19040583687257781054 0.14307997352644077904 0.09089922162583516374 0.036512100827099415457 -0.0037109740495590713867 -0.032338285055748310082 -0.039888890068423110691 -0.041472481959430936016 0.015525570514741177455 0.037689937491611189002 0.056031719957778162999 0.073608213740843003725 0.025676424993640787481 -0.0031516915684924634751 -0.048716226314588058355 -0.11784595942800972501 -0.17964751517030597139 -0.25090555632007227604 -0.2668889135817792968 -0.25856690728033943083 -0.20792096429831311011 -0.1083724685167355567 0.011760407116293050342 0.1791194034728623985 0.33674372159176724217 0.48772270490943286925 0.62232863411133210185 0.71600727287217924566 0.78930008357463166124 0.82484364900030715528 0.8111230514489190524 0.77332171201616017875 0.71684007504811375622 0.61466078017442205006 0.50941913087769363777 0.37837497588219154432 0.23709571724738132126 0.050670068121823300111 -0.146762613955780441 -0.33033090119833447007];

% Layer 2
b2 = [0.085177020426361230165;0.083927093356725379625;0.060499815174732261835;0.041071302400208738181;-0.0094002096908109393503;-0.056602735990477305583;-0.11126739560526248407;-0.1555271598478005779;-0.20536509651511461461;-0.26045831510630562677;-0.29813411518255511501;-0.34567752716775779209;-0.37386266131978240779;-0.4125820984117097856;-0.41866064288008392191;-0.43446998259367847206;-0.43256195366991218032;-0.4355409340103243987;-0.43000436126668095671;-0.4211167259025780929;-0.39726072277476598416;-0.39422568596660473306;-0.40479855296143330001;-0.40712378613479482947;-0.43094819714475535166;-0.4417980182398402178;-0.46398872566728155409;-0.4882488369509127013;-0.5071487350122969584;-0.52267663330490021778;-0.52769144799493628017;-0.50894145766698151157;-0.4843662069801706882;-0.43766134318576915829;-0.3772691632016740293;-0.30832096179853818452;-0.25578620743461971676;-0.20023696941335025756;-0.14853615278362614083;-0.12742251508695734419;-0.12510705251397380433;-0.11507110728453588677;-0.14228850297481418496;-0.15644766325112066663;-0.17752938682482316546;-0.17969294226333987208;-0.18422853212904646836;-0.18647357812109113806;-0.18658487823875544165;-0.18877016917648348215;-0.17397730894350488251;-0.17145253098264520708;-0.17471222790343352016;-0.16864948728199036232;-0.15697806567281749612;-0.15202219811274517158;-0.1554061413783673351;-0.15058042229097023945;-0.18856504885701200203;-0.21404686555028759609;-0.29053758096369852737;-0.3623747035912986969;-0.44291474790410384488;-0.53536327031767283469;-0.63297541580596150546;-0.7017503074017329423;-0.76821275231409669182;-0.81346659282768996047;-0.82635604495929348978;-0.80805363145442155037;-0.76772675178025906462;-0.72156218806350258532;-0.67265950914161865004;-0.61399100485559288121;-0.5686148674226062516;-0.53076428218012317028;-0.52729726249476327471;-0.52490263400528835991;-0.54148151244547082506;-0.56066927900730467726;-0.61651310832937533668;-0.63661401663257821681;-0.68523360593493076731;-0.72135694738798106229;-0.72865885987177025918;-0.72904504481047427422;-0.71803834753824835602;-0.67565201562701981963;-0.60096713490787467826;-0.53103296923676179819;-0.44179595302933322154;-0.32912820158237793278;-0.21870210228428360599;-0.11378534517542529536;-0.01732790050151138822;0.089390656809646681924;0.16710460520786088456;0.21000242086706524813;0.23920776953354094818;0.26747887816270005112];
LW2_1 = [-0.73635171728557424764 0.34442232275153672472 0.034761890382314655779 0.02679974226199662371 -0.034543811134072510693 0.63463329893315090224 -0.12201235334538766686 -0.37436084343291686771 -1.0027769784160993627 -0.15922542175694259781 -0.38054500478367120353 0.098017146317119371868 0.44597150519529649149 -1.4200834878988075616 0.43045424241075225247 -0.0046063671931649823738 -0.046655705920887531601 -0.28314454978066005975 -1.3642187676208139546 -0.13388563569277470156 -0.055812686432084000765 2.038103663629109441 -0.33763637191737044807 -0.13783760340913220332 -1.2439493547538651441 0.99657748624571718121 0.16863803867309165585 0.65695836387437334114 0.098406803016264185469 -0.036868388716230215962;-0.45293771968662788208 0.19449306230166568676 0.042635550223441412432 0.03713793339032801788 -0.021374886640079221456 0.41264282517177436338 -0.13442079580777194225 -0.45065434778371599167 -0.73595354433249571269 0.049290677402703195198 -0.29509913075999549825 0.10563065104284981299 0.61684482439457843927 -1.3834125801744321382 0.35668082216359370262 0.015473756065615367275 -0.11375151473573352767 -0.32191798858097520064 -1.3812782783369841333 -0.18549010579604191529 -0.12870837970796883409 1.6460235663370792469 -0.27204566756419346074 -0.12514945007631766982 -1.2634570761020942342 0.76627463091737968437 0.21182287131908675293 0.67425011249358723919 0.097443425062154934158 0.096440480339797352016;-0.17677557112287309304 0.05639858008526745653 0.049301288553356976962 0.02185584167133035674 -0.010480588386803997569 0.23669018430155522315 -0.13707262519418814128 -0.49930446565817410143 -0.43616528458200842788 0.2418849283938432071 -0.18804263349096600466 0.1123547263195060486 0.81316075168431400932 -1.3037065000597074516 0.28332104868434471179 0.016322017309634638538 -0.23406664356462986154 -0.33390207361130952446 -1.3146528679305247156 -0.25288580502664909089 -0.16786367886544875661 1.2737585328246256999 -0.20401549828038581524 -0.14289001344616783507 -1.2623642514034150164 0.5010506143499924292 0.26236473994546816169 0.69339978068206331585 0.059270422720862553367 0.21169643368773841119;0.075347030836895839689 -0.046325223362163790719 0.027600574143018627438 -0.00071318296038571770551 -0.037212335976159971462 0.11391657997911490419 -0.15315377036534610911 -0.55883768984792336898 -0.14894515664781990405 0.41523503277202183925 -0.074345403303241630599 0.10430588284923139608 1.0201007137627715604 -1.1694013954705908542 0.21843920655616677617 0.016446434003599279955 -0.39869584784905370833 -0.35381321884727601201 -1.1699615584184543948 -0.35160478780302473201 -0.16394949995549953914 0.95438184964295869062 -0.13115913003674201098 -0.17726976306896838342 -1.2290969014803461157 0.21390565232328515033 0.30585780455609229422 0.71063606817297486629 0.021683116644310638371 0.30316603094097627213;0.28750954953444640694 -0.1118851039736503683 -0.000741095231408623158 -0.028684080275376260677 -0.059157085929279235037 0.04510590906425564206 -0.16207340784312601611 -0.57593529031088541714 0.10306940888080606822 0.57236956867746280331 0.044704124626124983055 0.080807269499111183952 1.2129208927182486555 -0.98120142973185808799 0.18645058415284723741 -0.0016973108644835637783 -0.58950653509491157678 -0.35016129590109951186 -0.96065108009143707068 -0.48409727265558227804 -0.11005891521147570522 0.70379754209696065992 -0.05146265752838924401 -0.23203588435707275806 -1.1723417564563813897 -0.099331970301366090403 0.329844551459681945 0.72818930087002242679 -0.024919642931550009535 0.36672418904682180241;0.44343194433513344332 -0.14228860498797255008 -0.037249631781174248613 -0.064350503653570936824 -0.089584456490012273622 0.030348758437389943693 -0.16587634794197900212 -0.59980737955617147161 0.29051395958016668075 0.70997934638350801428 0.15235917309406607489 0.059472991697037076719 1.3620383353439329266 -0.74835665740114309941 0.19064381241431335723 -0.028474324518821904351 -0.76951479127421640314 -0.35253063374935894592 -0.70733617353610656053 -0.64691095422894095979 -0.016355279966631591088 0.53877186610227456587 0.020994101033845670445 -0.30932605958140046987 -1.0936126916553368105 -0.43210782353763815822 0.32987576779090338475 0.73679598293097503525 -0.059818849275817681521 0.39379251712891133463;0.53909480320835811984 -0.14128164953810162796 -0.070213355591729531557 -0.10911047316117199191 -0.12219533958515081673 0.052266001332536109192 -0.14872465784719199333 -0.59868747938450184165 0.3953496593138327575 0.82517791550515340315 0.22453999092116810887 0.017956732910185912305 1.4493764200696370725 -0.48193515184918339633 0.22975218415087550472 -0.04552739117665426799 -0.928872445713694872 -0.3687856336895188325 -0.43782945928632416299 -0.81937550473550546659 0.093856567724346307013 0.48223384721400075481 0.10394080483445077012 -0.38998810532906075244 -0.99038586176642873227 -0.75541487448653110715 0.29675619394286800734 0.72166464128187057803 -0.086940907831823857621 0.39544862408912873075;0.57403872703110947473 -0.13644249289483637022 -0.10755848595262065825 -0.15762193294436119273 -0.15765395058986772514 0.10725368977140969928 -0.11380754651228107421 -0.61017181343408544159 0.40625120024351429882 0.9153663961089233414 0.26186894580024033807 -0.013573349872337216529 1.4738893498377356739 -0.19659320788707754235 0.30968034238238856259 -0.060256303609145855926 -1.0335707843254289262 -0.34805524748781535571 -0.17691340575520170253 -0.98941468593330783587 0.22098809849123687843 0.51037700749821057755 0.18514652515351720519 -0.47470759913737103908 -0.87331735382308095517 -1.0533474304146912548 0.23245995586525869392 0.68990285390366978824 -0.10045237476034198087 0.35830186067736641276;0.5694820754122166262 -0.15720975532361197713 -0.1352232867574325037 -0.19243880897013626585 -0.17377470322505939038 0.18186283385705717675 -0.037963597568553400508 -0.59181903474785102492 0.35337371549451973562 0.98399818594391441628 0.25722593764454992904 -0.048829834174211550479 1.4219213027048516196 0.081248969779584456763 0.40064578475067019747 -0.094068321462627502161 -1.0931618870268764443 -0.33260416814722620904 0.056448713317370259601 -1.1266387941835069864 0.33103198410931639062 0.62664296071313385639 0.26259751890870514091 -0.56378647486351540774 -0.73842614866175992905 -1.2932799211601868627 0.15425434272791208046 0.62517322785567763788 -0.11598641126556707981 0.30043129230521647965;0.52822032844690103293 -0.20887643578601544636 -0.17035256217179522986 -0.23010849976669031647 -0.20345546531324765205 0.26411133995634517024 0.052735640889378952723 -0.57361327045492127574 0.2327213569090321732 1.0270899790018319653 0.19775180028674668731 -0.069549191689969550034 1.3106543667011527621 0.34300604467628326155 0.49977025476140146676 -0.10206129398338352476 -1.0799770253088103455 -0.30223924488631470631 0.2408342255911112284 -1.2179334970320716547 0.42580982201830952505 0.8079595464940473315 0.3320104817313583867 -0.63352464479436443323 -0.59056528845132594263 -1.4602261732220402912 0.058643444837858424434 0.54301713353188318933 -0.10667186073807242985 0.22738986195983415528;0.47292743754853000526 -0.31303426089657254705 -0.19740709407123999131 -0.25605458035471923006 -0.23087917437727528691 0.33485120359112618971 0.1644235370541956287 -0.55503328315487199252 0.086977108812527265114 1.0391064688685645034 0.10034248333394950314 -0.10319731914866625555 1.1540930120629155908 0.57597921093094672784 0.59902620572607812033 -0.1256882916262042349 -1.0004487106454866829 -0.23425790321167405672 0.36935653790574968225 -1.2545461099936283667 0.48664717749870101127 1.0178742303885113252 0.38730797562618873853 -0.67778897280719019314 -0.44479916547549092076 -1.5325017047126829883 -0.035984155775499085395 0.45024425853545796405 -0.086593074197301625472 0.15877602067830717814;0.42722853491129253456 -0.47443950758161529402 -0.22254526707300104071 -0.29554666705611715161 -0.26154167108334158698 0.38335749489519288513 0.29069823067694616769 -0.53554740486451191117 -0.071108415886451878385 1.0384602419363204717 -0.032305549926548063344 -0.12926211694121794715 0.96342107866070214595 0.77150441861397811572 0.67118328903796453666 -0.14420771729899709013 -0.87836011809135006168 -0.18765414696603574529 0.43069682351902971451 -1.233719492549165242 0.51144394011119853616 1.2399599980686739631 0.43003878430931730126 -0.69263571837125958996 -0.29900874660953880024 -1.500144207519363837 -0.11809564654359140656 0.3523488112424320029 -0.031950865189579340242 0.092382438452570950216;0.37977808378620725449 -0.68142433222775822266 -0.24265288484773456235 -0.32039044670703825668 -0.27502123707656322971 0.40999581909099103161 0.40846088535808466879 -0.50704976613134811192 -0.20404767891400779622 1.0340836483386961486 -0.18486611332438893096 -0.16355335944977372753 0.76346262314135082683 0.89934082404434823044 0.71578796135464384243 -0.16639454193691288753 -0.69611149451991227721 -0.12346677317970886079 0.41870485845145993808 -1.1615202427801818441 0.4963569222584174323 1.4396362564267799478 0.44509090892318298183 -0.68879501605146165044 -0.15677910967776048645 -1.3978384039155333785 -0.19321373354090037866 0.26824985144585311581 0.048159425970177284493 0.028146553014255389774;0.35300550544114528417 -0.92636044973573061778 -0.27202723401687411986 -0.33876748464686390339 -0.29800813084228416905 0.40103260724387895797 0.49932405416101066642 -0.47296284715876912852 -0.29113507573253899485 1.0083300406936834825 -0.33062081924976782776 -0.17673632940787981083 0.57513431202440556955 0.96394646024167540688 0.72055054716806032911 -0.17048092563454186887 -0.49215047324924132699 -0.062106137059885220542 0.35323755593411176879 -1.0417305315070084504 0.43794170635306367556 1.5966200378871906462 0.43581113157378814638 -0.661001555215561587 -0.034782135808324156356 -1.2196209922605156795 -0.2446751168320093206 0.21647754523304416074 0.16567701508323007253 -0.018847767358182831998;0.33068805151807961762 -1.1903613693112873317 -0.28266921938660144464 -0.36745578081527147107 -0.30039420405849709406 0.36862943137718051645 0.55870764058005806252 -0.44262492276539666669 -0.34592347906426956783 0.99802378235541855389 -0.46763909617546711717 -0.1948878082602928663 0.39842822457087412324 0.93955026996463497646 0.69030281614018440539 -0.17038565913571332433 -0.27061715127578039874 -0.025741350320189360784 0.24167240105048429233 -0.87288289686595033068 0.35299778156326400147 1.6910713487278234979 0.40646903702673059522 -0.62335504345244274749 0.05171360306075959562 -1.0068717764659176339 -0.27977669664616150458 0.2031817820962717458 0.30471180129536146186 -0.067063453885170765112;0.29633055560957699548 -1.444363151486921959 -0.27761032833321380719 -0.37725033100372390438 -0.29210879294684621854 0.31802811309002687601 0.57271267529305436295 -0.41768739574861568631 -0.32391494668192938322 0.96530835360505973242 -0.56656636826365136539 -0.21233411520857961574 0.25512564160273537572 0.84728397388675580348 0.62749404966227129155 -0.15885606539275912152 -0.049648500471700697523 0.0047106824476918955982 0.11627634071497562618 -0.68109192338366753017 0.221833658257178018 1.724189487327409287 0.35037868772565944342 -0.57712642730689689419 0.12091942542843946151 -0.76681967360607661277 -0.29777787206483208315 0.2412593896238641733 0.44497798927203580099 -0.075901687908249873549;0.25007892848301116473 -1.6639606178064121345 -0.27256910695695601987 -0.36452942202532595539 -0.27921467566548596739 0.255612486697194774 0.54098890529401111316 -0.40031128513735403374 -0.25781354974736842012 0.92703524811002613326 -0.6381967485078028357 -0.20391405599002668247 0.14534713884193020683 0.68354346675141486323 0.54232432463107504983 -0.14702124550403508629 0.16090021852508451516 0.011259794201821361759 -0.0081715226912785453306 -0.45951960550229620228 0.068964673350309507738 1.6876979948188324254 0.2873192705947680281 -0.53754197208699161514 0.1645373207244751057 -0.54142236208946692422 -0.30511225131656843912 0.332336116844837548 0.56395190759767366284 -0.072118226298554605203;0.18569015593320403745 -1.8175837970046440084 -0.26368850701561297178 -0.35115702808141369129 -0.26800527149693476048 0.1835798016784808695 0.45037908729052994472 -0.37068524293873628128 -0.17270212369007870157 0.87762538412352608663 -0.68294522701127180486 -0.19537842490461684863 0.09771894030422575983 0.46179404308105459487 0.44453555264408378678 -0.11787194047027410582 0.36700021896511875186 -0.0080770157341567179465 -0.10271704136828140042 -0.23478963447283010546 -0.073682590667267830464 1.5836576968117495046 0.22267556460649845507 -0.47316514649283331062 0.18562311091319402823 -0.33854463052397321121 -0.30464133135656362716 0.49673453698872160889 0.65968085277848187431 -0.048378455330105547827;0.096819286862750639222 -1.8808638360874130324 -0.2386397347320044493 -0.34312784045094341101 -0.23736096445807455813 0.10132897510657667972 0.31147069733836718619 -0.36162404315049173631 -0.067691876687526408851 0.81903743019175512252 -0.70401355933916065499 -0.18661893088099937299 0.10108676070820080128 0.21499815222912471713 0.35835403005435850776 -0.090887123723547416643 0.55676910851194649776 -0.035107696449785091852 -0.15262628535768207882 -0.028128889098745269576 -0.20842342546167927364 1.4207535316451791463 0.17209640691055230755 -0.38482401290109580216 0.18811735565260476188 -0.18348539754017040293 -0.30487410162140632375 0.71861818281035683142 0.69425427119805649401 -0.0041370359819925539568;-0.012061083075207871401 -1.8453324633392873544 -0.21673924369812219703 -0.32764777522121507625 -0.21549069971793022304 0.0098949717769112616877 0.13005712615110628927 -0.34931062840514554013 0.032983655444524750955 0.76719288307341271249 -0.71091713647672682974 -0.17156572651633175686 0.15145468583838903043 -0.049444133921741677262 0.28028507018761905645 -0.073021969971117151044 0.71386639921642314199 -0.084869794531457265485 -0.1446936289068778414 0.15920425743536653629 -0.31282499915580463945 1.2128476528705940396 0.14884246805602519004 -0.26923658243889864172 0.17355730074656219863 -0.083125019488430429426 -0.29984397190979172887 0.98353777805318076677 0.68249324334859673424 0.044736355546951198092;-0.12987108794132395939 -1.7068964350028386079 -0.2145160778778442412 -0.31471201791477299015 -0.21032855733355440564 -0.086104838470232772374 -0.06729629438642327488 -0.34372627897410384934 0.13183198820479491431 0.73071277465507045168 -0.70107733069376121371 -0.1723351184595843244 0.24318878666867202454 -0.30894510527370816488 0.22611812633153602348 -0.056427110191210161361 0.82829923816191486363 -0.13219965366307825927 -0.080446048967727015744 0.31283171994953223871 -0.37882671394478684146 0.96213679488674208606 0.15721332009268013108 -0.11887129563823124745 0.15686605745984194549 -0.042846913522358885673 -0.29028369476379900505 1.2746474371451708141 0.61857818541263853707 0.091199125908741546231;-0.25005176809267221083 -1.4807884415669236855 -0.20358844201558215503 -0.29784825275485343754 -0.20270999229984312806 -0.17871700142003765777 -0.27780007214844043562 -0.33790166184551106987 0.20094596435595565853 0.71307742128075413124 -0.68333417195268031374 -0.17745395290231305574 0.35493404354692942304 -0.51682447842529677384 0.2057561849554777611 -0.044052355641521968865 0.888555824745200451 -0.18747487636384421728 0.018352868962204175324 0.43716306980197483512 -0.40560854292819037425 0.69853324761345780836 0.20406042445824912335 0.033410340312874271806 0.15404212284525900523 -0.059962886112889503265 -0.28356880127624328747 1.5527248410170149118 0.50959597769980635729 0.1070916384468645205;-0.3609318459068595053 -1.1845665540339098687 -0.20882437609229356767 -0.3049506546353454306 -0.18312572507199681437 -0.25854038203075441205 -0.46936491538789859579 -0.31635748156865312053 0.24883803448466626507 0.72732290870279381334 -0.66174251551624319045 -0.18493320046384401079 0.47806583995741586124 -0.67406509869074726637 0.21869916053716295656 -0.038288686129386254042 0.88047117202057123553 -0.26113962394497580721 0.13986056917682110345 0.52325819500464809675 -0.39867994968710951387 0.43142816342246553818 0.27595976955254031271 0.18852571717016017305 0.17397519934041175138 -0.1217148162062128558 -0.28583449463335558471 1.7872648233367980364 0.38282335730552402575 0.10697369418300584076;-0.46158846467188480167 -0.85083452637793799411 -0.20763175130655611711 -0.31011407206984464846 -0.19890281354101521649 -0.30784524501444804345 -0.60530126702502351499 -0.30862922099552192456 0.27173804357249364827 0.76593237636022115655 -0.63226272636883729117 -0.19730862916080657565 0.5820416932455849679 -0.75233840185763123376 0.2777421857645123171 -0.054424902245068677853 0.79018513020600800179 -0.33537357926929395324 0.2659032688744314421 0.57233448567222866554 -0.36868615861270342959 0.19299772000549639261 0.36115228240608132637 0.32405905169571036506 0.2248719071296422789 -0.20542356739942085886 -0.30361148664469389535 1.946690006007905982 0.23836105415934794038 0.086314126502019833387;-0.54789228660040845131 -0.50234807939094872076 -0.21927188925738555492 -0.32477763722383468092 -0.20750406193142190148 -0.33047551725702695169 -0.70550481159549260912 -0.27822030416637966166 0.28175494466915240732 0.83614748356169710242 -0.59347340213722987734 -0.20700691739807094982 0.66035894955959106856 -0.74752749495876202879 0.38356398595726531875 -0.055284094263914437817 0.62320297475411856603 -0.37343519806566166652 0.37592574450911564465 0.57212550695772335096 -0.33693110436769474481 -0.0079515880505424095526 0.43925132396611898944 0.42582993738845648091 0.31076423124112212415 -0.28824070625205799878 -0.33076710789314606176 2.0060809469831824003 0.098812386774220981045 0.06809331501132578901;-0.60186084059032840532 -0.1783809583061431725 -0.23633824212992274316 -0.34584229529090088073 -0.21803049629728454839 -0.30327977381810233837 -0.73767546642833248249 -0.25862477713684334235 0.27510328751243540157 0.93288970982425556411 -0.54413005111941703529 -0.23554650209551167284 0.69619753761019342875 -0.67067918426846984126 0.51469318751581194515 -0.078412370016423135755 0.38186313646337105565 -0.41458087472946708596 0.44647800426738776247 0.53843510593721721769 -0.30136088156080925726 -0.14657546621420428079 0.48461537392604420171 0.47322929940429098172 0.44981361291778038103 -0.35517011369979178959 -0.35823079719241485153 1.9515086180297518403 -0.010345872595959667781 0.043638135185572024533;-0.63080255176074329082 0.10727576762105871244 -0.26992820070298723101 -0.36330374445586000043 -0.24347794041925055475 -0.24573917084022406376 -0.7061690870963774902 -0.25151234988812326554 0.25209661022144980169 1.0350255766578793093 -0.48723749376209191109 -0.2652403225310001611 0.69591212758582776665 -0.52812543788981691772 0.67465657194673211983 -0.094571211850168007684 0.10690594342434060759 -0.44930067854530458815 0.48018341047503043661 0.4681501942074873801 -0.26131647878344704816 -0.22094739806206581401 0.48207912416857001681 0.49696390708260002045 0.60436082121271428313 -0.38504714871130740761 -0.39056592655352367904 1.8010233612084514121 -0.089854826627287109897 0.03673637650655836584;-0.61782164794028204824 0.32785083925481273148 -0.29529531234394357231 -0.37387848313353411189 -0.27089718291980996456 -0.16322559884205678493 -0.6242968153307908441 -0.23733853523667236551 0.20252750392499291321 1.1462074011483949221 -0.436410343064060402 -0.30385413819954232295 0.66731643087275471782 -0.33568566451019077324 0.83358224725632046326 -0.11874494139559588213 -0.16231432749804783344 -0.48502601679787937794 0.45493192781321972751 0.38433490915624113349 -0.20788550651461290553 -0.23672655405453049693 0.42101209346690771085 0.48563286427722007765 0.77474710862788620513 -0.38035509411157719661 -0.42298673324007873831 1.5703266233516413042 -0.13621466035966287023 0.028774907424973159703;-0.5759875266863958565 0.47804127078289038177 -0.31567070760922133488 -0.38519099652338761874 -0.30413469365913819997 -0.066638943727321750532 -0.50735485854962603103 -0.20977303142599412755 0.12378251565440864801 1.2538501238557848705 -0.38788490820938564818 -0.33239089366818230786 0.60520939890529212857 -0.11727146397065042749 0.99082187666260468362 -0.14711096200221740471 -0.41079451377526526867 -0.50897683160826889814 0.38228080853082752055 0.30340879661738384687 -0.15015611480486704132 -0.20448988408759435909 0.29116565997571847157 0.45924251847191061016 0.91757183514130746804 -0.33607461811513233974 -0.45226651237694287522 1.2854078016669008289 -0.12550194086527199921 0.02990954710487694207;-0.51045284475244900868 0.56969214906597143155 -0.32676302165447446146 -0.40782399786434325728 -0.3258733307179164651 0.020910506617190648126 -0.38615835938875148203 -0.19058544900462828786 0.029701368541656402583 1.3469835696834073779 -0.33252556553298073805 -0.33887503166632826357 0.52063147619000194055 0.1019703640714454268 1.1277368966506684522 -0.17438087521603454211 -0.61083062974937973877 -0.52690409249110370382 0.27577798071029924198 0.22976486841513313331 -0.090702817785345779544 -0.13763252470627981849 0.091660828659744883473 0.42872120357924842216 1.0202165641453728728 -0.27109536200539074979 -0.46594462529008712215 0.97567744796987265765 -0.067363023845769393061 0.058946283368899586586;-0.42113727972215891926 0.59889940187563084351 -0.34942233142324308215 -0.40314313947340030264 -0.33857584320920913745 0.089292825497786110223 -0.27391722138960256094 -0.16007358591698769845 -0.095186636008263561526 1.4227860261316507273 -0.28604454257501388259 -0.36404781232788463452 0.41187866324616584368 0.30158919945970119603 1.2371383572968657205 -0.17477968873612861889 -0.75701012445125726025 -0.56828526257594369486 0.13875988582022150131 0.19683819553219583653 -0.032837843235613617399 -0.04161383513045709831 -0.15739914483052561134 0.40657879726146095578 1.0593015319989471656 -0.18055958864988685963 -0.4642664957217262911 0.66009984977282376573 0.041881068050277588111 0.098651627343883288579;-0.32703556215053686262 0.58412086054118506073 -0.3508668393292257992 -0.39331930514060803317 -0.33276850073103891869 0.11752640909847260342 -0.18264959283069764906 -0.13395132069088880322 