function [y1] = anomalyDetectorFunc(x1)
%ANOMALYDETECTORFUNC neural network simulation function.
%
% Auto-generated by MATLAB, 05-Jun-2025 14:59:46.
% 
% [y1] = anomalyDetectorFunc(x1) takes these arguments:
%   x = 100xQ matrix, input #1
% and returns:
%   y = 100xQ matrix, output #1
% where Q is the number of samples.

%#ok<*RPMT0>

% ===== NEURAL NETWORK CONSTANTS =====

% Input 1
x1_step1.xoffset = [30.3460437994352;30.3460437994352;30.3460437994352;30.3460437994352;30.3460437994352;30.3460437994352;30.3460437994352;30.3460437994352;30.3460437994352;30.3460437994352;30.3460437994352;30.3460437994352;30.3460437994352;30.3460437994352;30.3460437994352;30.3460437994352;30.3460437994352;30.3460437994352;30.3460437994352;30.3460437994352;30.3460437994352;30.3460437994352;30.3460437994352;30.3460437994352;30.3460437994352;30.3460437994352;30.3460437994352;30.3460437994352;30.3460437994352;30.3460437994352;30.3460437994352;30.3460437994352;30.3460437994352;30.3460437994352;30.3460437994352;30.3460437994352;30.3460437994352;30.3460437994352;30.3460437994352;30.3460437994352;30.3460437994352;30.3460437994352;30.3460437994352;30.3460437994352;30.3460437994352;30.3460437994352;30.3460437994352;30.3460437994352;30.3460437994352;30.3460437994352;30.3460437994352;30.3460437994352;30.3460437994352;30.3460437994352;30.3460437994352;30.3460437994352;30.3460437994352;30.3460437994352;30.3460437994352;30.3460437994352;30.3460437994352;30.3460437994352;30.3460437994352;30.3460437994352;30.3460437994352;30.3460437994352;30.3460437994352;30.3460437994352;30.3460437994352;30.3460437994352;30.3460437994352;30.3460437994352;30.3460437994352;30.3460437994352;30.3460437994352;30.3460437994352;30.3460437994352;30.3460437994352;30.3460437994352;30.3460437994352;30.3460437994352;30.3460437994352;30.3460437994352;30.3460437994352;30.3460437994352;30.3460437994352;30.3460437994352;30.3460437994352;30.3460437994352;30.3460437994352;30.3460437994352;30.3460437994352;30.3460437994352;30.3460437994352;30.3460437994352;30.3460437994352;30.3460437994352;30.3460437994352;30.3460437994352;30.3460437994352];
x1_step1.gain = [0.0787973278784463;0.0787973278784463;0.0787973278784463;0.0787973278784463;0.0787973278784463;0.0787973278784463;0.0787973278784463;0.0787973278784463;0.0787973278784463;0.0787973278784463;0.0787973278784463;0.0787973278784463;0.0787973278784463;0.0787973278784463;0.0787973278784463;0.0787973278784463;0.0787973278784463;0.0787973278784463;0.0787973278784463;0.0787973278784463;0.0787973278784463;0.0787973278784463;0.0787973278784463;0.0787973278784463;0.0787973278784463;0.0787973278784463;0.0787973278784463;0.0787973278784463;0.0787973278784463;0.0787973278784463;0.0787973278784463;0.0787973278784463;0.0787973278784463;0.0787973278784463;0.0787973278784463;0.0787973278784463;0.0787973278784463;0.0787973278784463;0.0787973278784463;0.0787973278784463;0.0787973278784463;0.0787973278784463;0.0787973278784463;0.0787973278784463;0.0787973278784463;0.0787973278784463;0.0787973278784463;0.0787973278784463;0.0787973278784463;0.0787973278784463;0.0787973278784463;0.0787973278784463;0.0787973278784463;0.0787973278784463;0.0787973278784463;0.0787973278784463;0.0787973278784463;0.0787973278784463;0.0787973278784463;0.0787973278784463;0.0787973278784463;0.0787973278784463;0.0787973278784463;0.0787973278784463;0.0787973278784463;0.0787973278784463;0.0787973278784463;0.0787973278784463;0.0787973278784463;0.0787973278784463;0.0787973278784463;0.0787973278784463;0.0787973278784463;0.0787973278784463;0.0787973278784463;0.0787973278784463;0.0787973278784463;0.0787973278784463;0.0787973278784463;0.0787973278784463;0.0787973278784463;0.0787973278784463;0.0787973278784463;0.0787973278784463;0.0787973278784463;0.0787973278784463;0.0787973278784463;0.0787973278784463;0.0787973278784463;0.0787973278784463;0.0787973278784463;0.0787973278784463;0.0787973278784463;0.0787973278784463;0.0787973278784463;0.0787973278784463;0.0787973278784463;0.0787973278784463;0.0787973278784463;0.0787973278784463];
x1_step1.ymin = 0;

% Layer 1
b1 = [-0.730517554091820287;1.0927789026384739923;-0.10041759831289130689;-1.1138892953571235545;-0.88698244242470591914;1.6789997469482900172;-2.2075656883571372902;-0.70866924264224029351;2.4725559553293510184;0.62191369451834310755;-0.49225745210951604713;0.74642268035083070288;-1.6181320301513963944;-2.7587385720310151349;-0.88622289206850446419;-0.7124023410415430968;0.23933201158766811978;-3.0326705972486105445;-0.73542896127529044925;-3.7812972480049689139;0.74381082853201185845;-0.94892616985161171161;-1.3053145868582625155;-0.32329214118188087657;-0.45218505395005220704;-0.97326302720162027882;0.69091571659012496198;3.7049693699893500032;0.1844866339578836445;0.096830262568522285083];
IW1_1 = [-0.26706033469592949103 -0.27242695684239837117 -0.28044860290450895901 -0.28469981237383940043 -0.29859060463244646577 -0.31200861053521095068 -0.31398844634818529054 -0.31907286971093251626 -0.32843648067560154979 -0.33676200541939521615 -0.35711405204215806997 -0.36005224972331867361 -0.36866606366216514434 -0.39060647291027916772 -0.4152685755316418148 -0.43013423847819448609 -0.45274593942650476208 -0.4763605883683292852 -0.48770480557287321233 -0.5044148964130470425 -0.5406979986583423381 -0.56206970778600306993 -0.5856779590959613202 -0.61880451168705752352 -0.63906670151307243266 -0.6461327908145165777 -0.67833777480431911577 -0.69955033990176895831 -0.70915825380028474356 -0.73264859929613934675 -0.75364324923638037479 -0.76404203386877656001 -0.76530067280274438613 -0.78932873257938951372 -0.78787845773812370531 -0.78693474543106323171 -0.8038378100676650817 -0.80367806652503159803 -0.78717408059974913748 -0.78896198499953162919 -0.78055041211453379812 -0.77558230269563088743 -0.75306291813010173275 -0.74136097936846634404 -0.72851949382532976696 -0.70029493252972285777 -0.68463470414499494332 -0.65850945117294368281 -0.63432454377374514198 -0.59773006983335363884 -0.55516908058221203781 -0.52430842065701777077 -0.49997435878874862958 -0.47257087819282950214 -0.42910100274718565583 -0.38732302438486176932 -0.35498339503190096123 -0.31896967940243092787 -0.27163404081905029308 -0.23406398688344487446 -0.20474036516666690999 -0.16821469033603442256 -0.11474796259042743807 -0.086405733459256617301 -0.034485031980515154504 -0.0022661778313507038515 0.042220954902781701601 0.062582778291631321888 0.098352610229439058065 0.14409964839984443219 0.18022943636443880533 0.2167093052406276199 0.22961306476558332457 0.26928735854141860884 0.28976136502150184882 0.30182363605959749986 0.32465436670166925026 0.34229921371688443177 0.35038670459454013262 0.35353871511861839627 0.37125001920893840879 0.37072451611721068954 0.35937176991485308974 0.36059519165492037729 0.36110401021932880816 0.35269285835709779375 0.3222290336671094213 0.30727482719414922485 0.30352371732537686277 0.26763986153088786812 0.25426560139364173807 0.22660323871117710182 0.18792601849890830379 0.16732919152962655307 0.13599776845694536154 0.093576849978203077707 0.063189985240413595879 0.031794476476142592702 -0.013044977312748977025 -0.04656713967869145071;-0.11253155522782365416 -0.11753334365496416469 -0.1147486053891425134 -0.072617011212829152278 -0.034613630507483818255 0.052083766369083510372 0.10602244812292538345 0.16454498185300969748 0.21752854353544678889 0.25792429803338307037 0.27029017700141344527 0.2852640879746840552 0.28938168615863002486 0.27235951207164904586 0.2338999506746042012 0.18868576597031092024 0.14589341884802831117 0.096620389590753821829 0.0780487172949314717 0.059872740548466869825 0.071317253042799400031 0.051548667252518449999 0.010718632223013391247 -0.036188896970721237678 -0.07586332240925858228 -0.11629703076168432241 -0.13609664320665307291 -0.13830309840673710164 -0.1485539812781507818 -0.12936584574601003861 -0.10104603794135640082 -0.051144244947695483017 0.0067186782901615298494 0.042222324253639809122 0.052611137310363528807 0.065851733306304630067 0.010805977680275764136 -0.041337883374291214955 -0.061618168265326463129 -0.082844075060192659543 -0.075814946036412103614 -0.059184208379955909052 -0.034105853757990377273 0.027041869733484102944 0.086014963856132289899 0.077296505740589355193 0.019197839514433670538 -0.0778917329095039912 -0.24085235501318008611 -0.39737558588399007897 -0.51513530955069186668 -0.60037380995755407209 -0.62024932343584693317 -0.60756288987295459236 -0.56299567860684385234 -0.46624882803229406036 -0.32549545137463486988 -0.17624323454637799702 -0.053958906085935190444 0.042425994032834007941 0.11422447838346133642 0.16055028304260590688 0.19175172912377377865 0.20153820172896075302 0.20826520508651477637 0.18630637877389849555 0.13558747438886614711 0.064351442237950529091 0.025866393283424361782 0.017787918157344245057 0.013537516310347389586 0.010772304150058599134 0.044294607405217449603 0.04625777396345002318 0.054378658930066457733 0.010593745776932301378 -0.037026199396015632703 -0.07637278925617402292 -0.10359220825688225665 -0.11385575108958784218 -0.079221854449211662197 -0.046457526344767720305 0.038879611068915818917 0.048360763631214366554 0.044691816243590969104 0.0081348059741444822546 -0.068561227642877170529 -0.13029913463863954104 -0.15421734316334193005 -0.17527983688018625164 -0.17343776525570100966 -0.15002002629389837862 -0.11146683445607079299 -0.058380012988797337636 0.0085720103292171237475 0.037136308407627931227 0.021866624539303991526 -0.039096832537505739336 -0.13835299504560163997 -0.28843854101237875742;-0.90980783597843262189 -0.67783800536545280035 -0.48828985908952365902 -0.3063570998922893196 -0.15812497727422097915 -0.043099429992223312058 0.046266950650096810849 0.11457702160655149071 0.13853057862853188076 0.14646118399722743431 0.10633716976431636936 0.062713997579133859417 0.01337704641798138569 -0.037655146600389266531 -0.07378583505659377928 -0.11445322885425267267 -0.14764818804727275481 -0.16967964763296347619 -0.19441107765953211106 -0.21082295646057860883 -0.21430941145582449447 -0.20875612088343478701 -0.19388799499263684178 -0.1661919121787851783 -0.12315457510195351731 -0.060339959646364085821 0.023722180431312904492 0.11028195501930698752 0.20766875170465007305 0.26749216173820689058 0.27540999542710653536 0.20345576070140017344 0.091116648747205986059 -0.052136814493584399122 -0.19913388914965085563 -0.32453404374730748794 -0.41530113441582738876 -0.46933696266997332325 -0.47793655377608773582 -0.44076457799696328044 -0.35779168159305591024 -0.25286925362857287647 -0.1004145823894594669 0.034514859259690826299 0.17267273041327332872 0.25502118980993560005 0.29250221156270045375 0.29627386559152063539 0.26584920626211694383 0.2282966183817642658 0.18310958701083929201 0.14712452774429604641 0.13743664425103468973 0.12042495267644241774 0.11875060022321487496 0.12733506966390312209 0.13622442457648259451 0.14793128886045087134 0.14472789162670932073 0.11950277788987634375 0.078655577498872905617 0.018626211996669417292 -0.050130003325284125393 -0.10806432741088334293 -0.14983171885489199315 -0.17160411874688405454 -0.16333700951148505398 -0.13016707038057565016 -0.1071877382420028807 -0.076949197734265839532 -0.036695405155567170641 0.005770814530611411558 0.054827922738713341655 0.12284237809378983908 0.20131063654097339222 0.2671774130449564022 0.316288652267531889 0.32964065425896588168 0.31232445384966789348 0.26907610610029258913 0.19403335217923867173 0.093561850775422311655 -0.021045012918644856459 -0.11964410651841242417 -0.21428548227706295526 -0.29539279825226333331 -0.35427590035640582622 -0.34714771142000916404 -0.29505968937290116827 -0.1935329957346629548 -0.05222349387540144855 0.093521185295074055199 0.23711063300326556957 0.34730155419084668411 0.41909613566161940668 0.44928401897988601288 0.43343510003956620125 0.36434128364183770987 0.23192266300458802553 0.072630116035952554943;-0.45413633982643131226 -0.45738580771922998647 -0.47546933252809364667 -0.48796832564718001235 -0.50099391731595421806 -0.50881117971532663358 -0.52426072314947613773 -0.54151911867929070077 -0.57171637707618150337 -0.59281456916293406856 -0.61535771735983979536 -0.65686244099547508313 -0.66624572556292505077 -0.70158539633120653445 -0.72522318523693685144 -0.76006708922539534257 -0.77404566458710466481 -0.80209461461385689329 -0.83624318492201465958 -0.85825828859770880719 -0.86339651671332506844 -0.8843327550932101877 -0.89343622322078952713 -0.91405724886257988526 -0.91609448298498530328 -0.9305001942809032478 -0.93937314945366168217 -0.92631459368860025183 -0.92815894202582349681 -0.91841935620910009064 -0.92118006318374823227 -0.90517773243546184592 -0.90437458204656306915 -0.8734259629109102363 -0.85450367071897859184 -0.83963923544279461808 -0.82242519264489388764 -0.79087876015915425931 -0.7635615094127476965 -0.73770988439109352885 -0.7121391476828328182 -0.68189943068511793545 -0.63519356874502630461 -0.61429108987774283523 -0.57902540624774523348 -0.54764364674817100909 -0.50979059518172020748 -0.46178560150035125043 -0.43916541039798473456 -0.39790024376213761759 -0.35158966879628145152 -0.31829577225292576825 -0.27749151853839276738 -0.25232389592455939376 -0.22507336137981651114 -0.18977664392294296691 -0.15027744137115420231 -0.13059822089261208244 -0.09862709306175952706 -0.062668172941349201133 -0.029565807885951339573 -0.01400403994667038382 0.012205840414056059323 0.026751883299293566232 0.047816372061123567361 0.058380150461581882537 0.075549005496470048038 0.071829492509477524398 0.083386917088715858948 0.07844313060615151767 0.089364638563001155824 0.087426692990546700512 0.079438946749113253931 0.07457770039330324785 0.064199698267421487219 0.064371840443902997309 0.051341106665903475659 0.023849344697010079613 0.0075451258892533243708 -0.0068079336946017905349 -0.039506424958833608052 -0.047342315035145916824 -0.076545125756151119467 -0.096084482317777122895 -0.12295305140618230377 -0.15995885311151536445 -0.18164259044169328572 -0.21710321370091117954 -0.23893318192452112081 -0.26654535158467140832 -0.30416530999371815813 -0.33181578668673250565 -0.36559416379158971022 -0.39576116514081022268 -0.42971838563190600802 -0.4568104039408230066 -0.48797169375071219877 -0.51639976837142598232 -0.54856569729249815559 -0.5934620191758489538;-0.63006944221891958424 -0.59430972471977772109 -0.5667564016586855713 -0.53184504934815501898 -0.50853203251164580401 -0.46549886820928476627 -0.43536154230820556243 -0.40674083568388996746 -0.36280201826541624843 -0.33334787604987514698 -0.31078179285200185911 -0.28312528211144327717 -0.24019391513429783069 -0.21947874947540652046 -0.17339941767600661193 -0.15709534758076254546 -0.11666016058151255919 -0.095712408904422729972 -0.060037172250111549288 -0.03101825182388559185 -0.0050549793139709692583 0.032455293004157600989 0.04473323992051800313 0.073402052394737973828 0.097774630690675823352 0.10444284605123632659 0.13468883528874978084 0.15213121303945392748 0.16730754492412447387 0.18892483276096547207 0.19596829028091578007 0.1968091769836160243 0.21338159561898165095 0.20568779786222235462 0.2247088831535176412 0.22511613240546421433 0.21553524502135970597 0.21570102677774141697 0.20326113451228172702 0.18684170924150067528 0.1810105986562414726 0.16453368551494645944 0.17014716803671497969 0.14962164140569425563 0.13599686975291319646 0.10702909713484654031 0.094956165202087952637 0.068326417013719095706 0.044700016129171030177 0.014891037439488486599 -0.0040877283943562348414 -0.029731897753375591265 -0.056100269755082671219 -0.069314514127333290427 -0.10189368397831738422 -0.12398716057184686057 -0.15812602316575447015 -0.18723192286511397553 -0.21429916643354707251 -0.24142448943234981473 -0.26662348076728165092 -0.2956542099866749651 -0.33084251089881377972 -0.36157165486201992 -0.39245673538000364067 -0.42739816708671113377 -0.45035765224465545975 -0.46970157618442437419 -0.49675460121187636764 -0.53008142294543625361 -0.55509454063522822853 -0.56991101867374949208 -0.59601474022516975904 -0.59920391947738738114 -0.63209948912356905826 -0.64491153959584957001 -0.65240084025441247295 -0.6574313782481746582 -0.68436426918076920245 -0.68855304649950066498 -0.70307265465539470206 -0.70874936621041972895 -0.71432769955114028271 -0.70520088492971499949 -0.70366921678354532599 -0.71195110670883854365 -0.71982980981504551821 -0.7154557447183544916 -0.71478944464991922558 -0.69254354895267888903 -0.69565864953017131356 -0.68684489415485827646 -0.68725564594218524483 -0.67040584166716488124 -0.67116438918519361057 -0.644808073964211248 -0.64613861133302419315 -0.63335831655084795511 -0.62439067917972146393 -0.62096804235862146371;0.69709883051426413392 0.51866841809334296443 0.33927012362402492185 0.17651224470910195641 0.042757248981275565447 -0.034539752929838372919 -0.071813076234041442469 -0.095835366082997822113 -0.088772249241269432507 -0.076373739101668725038 -0.033523669531775407426 -0.020786774333364510525 0.021549682369917569358 0.030501449316824486707 0.023587001456417889395 0.013707757492422369475 0.0046991787080225711631 -0.0070642087893049466951 -0.0028634276178105657132 0.012590383223779410063 0.023923132874805286968 0.046169483539662319049 0.070451376459493064708 0.075121123201365144761 0.057317976137991048791 -0.010967835751097748664 -0.10531142026628093067 -0.20237607059506992901 -0.31300340731669995531 -0.41360492761335471146 -0.47142499447450264549 -0.48597403762947538608 -0.47790587308504567376 -0.41478124544887495784 -0.34311009965389377419 -0.26541723161182978474 -0.22121321769175594785 -0.19606357903608934157 -0.17211795954404987552 -0.1371445855500598443 -0.094763373504866563191 -0.056553071271873041337 -0.028991319586443919237 0.024575860193542201082 0.055446991499009619375 0.10439631744536723157 0.16518298287223348586 0.19685633058067891765 0.22954680221646472926 0.22194786403480254444 0.17162223620395497536 0.072138355940357376528 -0.074485186560158012092 -0.21734048036586353647 -0.35933574050098138208 -0.47795908473250470205 -0.53318427650191102529 -0.54857952899440054484 -0.51752636517086081369 -0.44718514723090418972 -0.35149786415134348649 -0.22994596666459107825 -0.11425536110893896868 -0.022752285437633901904 0.036328604603362325831 0.052347707013953283239 0.041502690103545958333 0.010075248047793050957 0.00153051968953671607 -0.0057416326858262412697 0.0062253509715993029031 0.031234441472599985129 0.067306796219917572333 0.10573758630221294363 0.096916098693361860117 0.072874786274878963765 0.010866536942460000223 -0.05437693897202316301 -0.1081631850275705381 -0.15167368494584357319 -0.17745990778420400735 -0.20293521134181652377 -0.20850344159081896089 -0.20778113038879714169 -0.20716076023708424048 -0.17690029925606592931 -0.14619645149046198163 -0.11672309816893219891 -0.084808422985562209595 -0.065140535900862606145 -0.054725575784325297679 -0.041522928393466912445 -0.023655141140710694153 0.013577369297144490159 0.07580840150086050333 0.15929266460194324573 0.27100175197246628711 0.37749067429562177534 0.50219752516598437087 0.62381848398121109156;-0.46222577845988765954 -0.2594173637706500557 -0.08030504047080529173 0.011453787407845177765 0.063946976112289957705 0.061819047527985483692 0.034308768564110976584 -0.022644163467232605175 -0.073975420961487597937 -0.10878374200357275592 -0.09881254693004749845 -0.066689398489166412665 -0.018980089442778885073 0.0070913591936366208307 0.010209649873426051431 -0.0075863830494270409477 -0.026255638398953645707 -0.015146696247811742772 0.019431418140659201949 0.038504192078678334266 0.079285566616450128818 0.11232052348746643378 0.14542982954647901139 0.166288420781635915 0.17748049607103372205 0.1828266309986329996 0.16762289248200629155 0.14360631777360910455 0.061565552715619822899 -0.026942265220509284407 -0.12651748989741928852 -0.19689969941337398529 -0.23073647565476884669 -0.21318338825095417555 -0.15868100391274975181 -0.053103602575072003655 0.075924192404740339923 0.20417383270821146124 0.3106254542850716005 0.39765648858880392469 0.4559319238920104822 0.48499722309445125745 0.46176462042535393326 0.39693496080745188648 0.29637182583039750616 0.17634575657057779963 0.064468591404060651695 -0.02747492288999269644 -0.075598755768661624055 -0.12316950327430191414 -0.15373308769512780692 -0.20871849089858832138 -0.28883020367270578754 -0.37638957932218414237 -0.46361863248532886317 -0.55277314216015327464 -0.5983543718157501301 -0.5834311532172046233 -0.51113991698088767635 -0.38406899353489132309 -0.23111072138955299216 -0.078617712458227823058 0.080800371617142902059 0.22835479797119342948 0.35310817263886973283 0.44885268431247804521 0.48082981138298613866 0.464996623888847882 0.38961003024111851012 0.27376970525641686205 0.154763590836555609 0.041576647457291796006 -0.056755884476589545107 -0.141286645883209383 -0.21230051792651935538 -0.2307702545378365333 -0.22406216393409295051 -0.19805763424415909202 -0.12773722344495305747 -0.04474461419742328111 0.033050445290107581531 0.12396403188604236678 0.2000803592859167479 0.26979886282049103663 0.33167869271742073112 0.39908723080620950308 0.45588798838125194068 0.51491098534785839647 0.54340850843389754132 0.54067600124447723342 0.48081533806315229773 0.38322444532886801305 0.25491194903870423305 0.11235680693842392541 -0.029037677233140612304 -0.12707344419163763005 -0.15816105457851076244 -0.12779847523617246519 -0.0074791803358447159558 0.15094863125562221762;0.17141203751428252255 0.11415916585321078669 0.048877050677575625826 0.006441635122325212702 -0.04531540651576965173 -0.059801444894561177346 -0.045075721015439003392 -0.019969053364122215516 0.023599007797593274383 0.063703297797116781309 0.10845273068043119469 0.13261100372158965421 0.14707630352360931414 0.14851189046946136618 0.12857105512807104342 0.096721593963527016657 0.069394916268851761232 0.032793580292937510312 -0.018463229774235263847 -0.055209787634795753908 -0.10279209778537083675 -0.15493318305705572335 -0.19732839018195796887 -0.20887907702960165079 -0.19636565147097015394 -0.15464118365327519933 -0.070057091889526856843 0.03682416339542760042 0.17626804611696961222 0.2985145296858487951 0.41353486723289767379 0.45862786232066060643 0.42797212044996885139 0.34264184078230486286 0.22350363121694696855 0.068035643517907723465 -0.10812972672312717859 -0.28611773795656564312 -0.43830042557682519222 -0.56490169807587664597 -0.63980071464861110186 -0.6686917023837560814 -0.63718152048335563453 -0.54029267122041402249 -0.41362988980524312277 -0.24935634430144301699 -0.064554890292753880354 0.088080513583024155899 0.20165960083139572445 0.24531874805544900964 0.23198038595690451125 0.15447181437888565791 0.090582878469798303045 0.023542596742905440993 -0.020730396191158417113 -0.035668287275399918057 -0.014426181525044172796 0.01153999033190579275 0.077694231602321001118 0.1586979682626068755 0.19785595723887838826 0.23447645969153294021 0.24652367315148293603 0.24244248614247587703 0.21899148539191534701 0.17212269288815354451 0.13711612092609679059 0.10174552799782098089 0.08009175651000002838 0.036111896448100776202 -0.026366713041401375339 -0.085009425278526729031 -0.13982240470941162402 -0.18294727506873578737 -0.22733889549274377551 -0.26452888950664599221 -0.28326110631912349014 -0.2394910538630294905 -0.14460586580516954225 2.9252605229563308567e-05 0.16310519402098364039 0.33869435643435608085 0.48752162758990702507 0.59708669603928044012 0.67675274681951702593 0.72730127383933751428 0.68584902672782865896 0.54055067839440373856 0.34046851698005209386 0.1171933592231129001 -0.079851399666776373687 -0.23460375210825196168 -0.32809017173427834635 -0.35695877405510595404 -0.3001446058927748628 -0.19930655862842458492 -0.047934588058904797903 0.099927489126550736454 0.21728349397345997351 0.32972837547037048278;-0.082762180080288363926 0.0061684274666594747158 0.076313844178579531841 0.13758466466984242693 0.17850762605532888294 0.21784340055408368819 0.23020580382026167854 0.19828524435644995227 0.15311507859908335405 0.092019102686556789039 0.031129061586848187637 -0.027838636866607514853 -0.080324946957931367408 -0.15514004311900242428 -0.23056784168016788983 -0.29627197553672041108 -0.34842785074124410505 -0.35682643607341391068 -0.33545078852718812623 -0.31174720296328994884 -0.26166457458143188575 -0.20923274930390231563 -0.15974822441058372791 -0.12154333888968563149 -0.075377862474657372771 -0.028567019990841758387 0.038506533772190348897 0.10392730349982391702 0.15562490635755357737 0.19748157855200948463 0.2048527168044524116 0.18933781773023886097 0.15427316660447051855 0.1214302719727947677 0.096212562799904421951 0.092997707549660094117 0.11339810242453216005 0.11511975978169387835 0.11491473703776225457 0.11288278253144694296 0.10601014696503430201 0.11502654458086378209 0.10677118797027922159 0.10187414232378971812 0.075649028185407765634 0.029949729014465527321 0.001366412643297261172 -0.041775305217351045572 -0.071734475115079618379 -0.10100738606255305063 -0.12550627299123745528 -0.14908724411202411986 -0.174216763076843556 -0.22664310362696221679 -0.26988667447764935758 -0.31489832587507576855 -0.34013080902231973557 -0.36263817535951509141 -0.37902218333813875173 -0.36784101377992994841 -0.344966997692618349 -0.32492644323694730435 -0.33230746270457561797 -0.32692429319029414625 -0.32006635721542009421 -0.27968394186174744265 -0.22351578271334651693 -0.14037456697081726609 -0.071531021730349364507 -0.0094071283604407890389 0.053531897955685511792 0.086121560006803751786 0.12124999076661940878 0.15840663881694483361 0.17548659916144834781 0.19612819379443294232 0.19179872042901305318 0.17443152477335754913 0.159682183007928441 0.13228824814374340324 0.078726056857376713882 0.0090056913934389391102 -0.03509926141175592762 -0.061001431407938420948 -0.069919758130834633314 -0.042124359476284095605 -0.022738264833231425915 0.033202894661287361833 0.079610878361312378826 0.11872966056134942603 0.17271644355677531757 0.19653442521649436281 0.16795783847514175746 0.094132228163283843125 -0.038448782411063274489 -0.20487572556538419244 -0.41415827797662363441 -0.65141737883966288614 -0.89438298645140845711 -1.1171656369928617547;0.26774879133868928482 0.25643862479946094579 0.17584637866393504346 0.039230668392418267809 -0.10399423939990097565 -0.26590287672745949177 -0.40846698825113725295 -0.53549181063452633289 -0.64260600456715144535 -0.70895056970818282061 -0.72149712615241767821 -0.65776501990388636099 -0.52648333924989898502 -0.3305552707937240986 -0.14162207627321832248 0.042226229602866455215 0.20957329014714723425 0.32894107862871185821 0.37506474926821059546 0.33571203570223190349 0.22620376470783054579 0.074168025892100239438 -0.057649094222531546694 -0.15027497796877148373 -0.21411613428713055507 -0.21208568834636423728 -0.13805000818190876766 -0.02647138561973188392 0.10998222783901992483 0.22169790197797309417 0.28837122045533331027 0.30380807300993739606 0.26759107285817557154 0.19333028923971118385 0.094410728568041987763 0.017646802513558917241 -0.07495191517574835427 -0.1524296691905914769 -0.19702418330149096271 -0.20135388384398092421 -0.15442989317717534248 -0.06649507025390269388 0.050003217158335534764 0.15938810398965991277 0.25848641418522183555 0.32213339571315380283 0.3467429383054576042 0.31883033208123273683 0.26928358019829978787 0.19617781283704097128 0.13339405073764079579 0.075896990697197810882 0.04021378664737432912 0.0050367978068567784145 -0.028605917637619011212 -0.068470894323259381964 -0.082963952632731235992 -0.068349359568935647014 -0.015561228412125914858 0.062417602650991846347 0.11055191500962587015 0.11397186083667015799 0.098205208110476255312 0.03378221970657278167 -0.047184387079435424761 -0.13631199735318658139 -0.24541723863570127917 -0.33809844568756164396 -0.41005345082992616934 -0.43694998722507344402 -0.44760060059029271873 -0.40983672322141212474 -0.33079892800923399454 -0.2234355093473277265 -0.10401806600351033716 -0.011133476304932440198 0.056896296380388428071 0.076093588927208397066 0.10892935063130507189 0.14483055023726643107 0.1839081903737513346 0.22844901157346675369 0.27331328516850705856 0.28238291513790703124 0.27582631649790056994 0.26671379381270859943 0.21929818345703433469 0.14553333734874349115 0.070469050433804344968 -0.0036403486083693452 -0.086173157404315178787 -0.14600403551465837571 -0.21032786161966551819 -0.25013186097002704233 -0.24275483951267762261 -0.18686504307334469988 -0.10603574792911103775 -0.029314648807031200989 0.027512058999056301922 0.042072641376056020557;0.16300519356408130212 0.065690443428642136814 -0.065141172724274720718 -0.23662694389445751431 -0.39982918401823452914 -0.55369828161030709701 -0.62975946908950397596 -0.66787294912496708577 -0.62965938000813015396 -0.52970316762860625293 -0.36235080951896703194 -0.16827046676089160715 0.062098821677090978999 0.27993857136692323895 0.46152718359287919769 0.60712131877685315828 0.71367474376458239771 0.77254471676754066234 0.76864240954915230564 0.69503092288992984749 0.56231129073642660554 0.39821146996123224504 0.24912149181811824028 0.091494065848490319093 -0.042057476581475281008 -0.13669847953422420428 -0.17356416637280586146 -0.16126451492357266049 -0.096173429712840652339 -0.013040686788631076359 0.072797615294000569963 0.14986247413372291715 0.19207688986757420757 0.22349657973669975752 0.22612191301109790809 0.20666213158320301257 0.15643054472444042902 0.05403413025890126814 -0.057536165073601569508 -0.17325078455544268285 -0.24355094692035458848 -0.28169214282464910548 -0.29222839510744497149 -0.30884007362650423012 -0.30899741633476041081 -0.28979464807934018911 -0.28210153764914058794 -0.25311170626117601712 -0.20264414954844578443 -0.15405616033257138464 -0.11037182935690105501 -0.093354252814664612226 -0.093834598985551409545 -0.097154414975420794187 -0.10023081029866427738 -0.10872228385910868986 -0.086967994473218901419 -0.0550721416530920993 0.00434144237724505902 0.086237619622006253528 0.16229134308090423233 0.21109320453536570272 0.23705728940852521802 0.23308931903017682252 0.20527386081420040398 0.17600305071903088461 0.11561589841515008958 0.04969533626361520573 -0.042245938126851984018 -0.11296704738432265802 -0.18244997759419506744 -0.20838347527455922115 -0.20958924057518207862 -0.13908348080320603879 -0.048946344209912936996 0.080167283679955264608 0.20115932324917032425 0.28725333277781556207 0.35145832684760253128 0.38110896897565038621 0.33749222181743310234 0.28394988208841592803 0.18780019166545922071 0.064705706440428348292 -0.07630851454600742767 -0.17428409894725330198 -0.2447429124194109018 -0.25522151184995417461 -0.21852367411088866045 -0.14178141543466521446 -0.043434103580372335207 0.03698357218264154006 0.080680310180856765201 0.078228330743067925335 0.056184092596993549795 0.057247189880734544731 0.069687069584079164297 0.081332717133289350597 0.12407798151459017988 0.2128568362508669598;-1.1426123181725398315 -0.90901749167556511466 -0.66123309376619965327 -0.42085535029819448605 -0.19294821240119761074 -0.035846108603587348296 0.098990986770800079575 0.227042709484468197 0.35472753758378738898 0.4862547652455322944 0.58513661546433859417 0.63023010586351757567 0.63141870296614166502 0.59039801221778942519 0.46940081222711588227 0.30858311947202282655 0.10745188873958913534 -0.10368719543230296709 -0.28755764963068403128 -0.46069536124255577869 -0.58862996816125601196 -0.66018177021156632112 -0.67440651028855769233 -0.6372589886252205682 -0.5565512644600759673 -0.4443307300211632449 -0.32005924791848100464 -0.19776423347924484974 -0.098033693359079757124 -0.017058301724456499671 0.023749237048162702424 0.065187313691683207439 0.055990424961304789686 0.0056278154517795326087 -0.039493310464784943392 -0.065971151853885204308 -0.062970251665763143922 -0.046382284773393886446 -0.026143292671467820848 -0.016671968483581621479 -0.033073183215671708712 -0.058515590346409199207 -0.080945335232470022602 -0.098931592213813923653 -0.094454715621083651378 -0.030713371982406059008 0.059644675291681166496 0.18323960811897216372 0.31836921230205528222 0.40970128113747161791 0.46132388323246842354 0.46148945825517667663 0.41088341888078416808 0.32448668833815830226 0.21477955046058594402 0.10998650973417435639 0.041198548767615097987 0.014752395970345732329 0.0036077526896228875354 0.017619049823142898803 0.039380464117520691536 0.087513817239459973374 0.16008149973672550215 0.21219708726951425071 0.25931368236134183514 0.27333969777763311715 0.2384020124022872833 0.18768977369704312186 0.11944635644365182714 0.052969428504026513926 1.2088004067909796993e-05 -0.039286698245813350683 -0.054022465438358632794 -0.061404057443305778974 -0.059780440612183134708 -0.055700995410465116431 -0.033247037122721784241 -0.035342895707046899367 -0.032833135104989849551 -0.039843184109989632224 -0.039081436185788034909 -0.0015794102713576367233 0.019599253418154383155 0.079862193114290686013 0.13685648714902567957 0.18366316317173608796 0.20841830973330133236 0.21580627254156742323 0.18825110716195500582 0.13539470701042641276 0.031575545000661196793 -0.12312728254708457665 -0.284872221363746847 -0.41967379805672971882 -0.50680654796637758519 -0.52935822893891915086 -0.50699377358443953323 -0.44515680212165303908 -0.29775966646647950009 -0.083106810983010981353;-0.51240881464423670977 -0.50161271728379641655 -0.49412487153338868762 -0.49310797392533772809 -0.49359575453138393453 -0.49326167746006116532 -0.51360724660091261473 -0.50732092340938705899 -0.5405103026402903188 -0.54812150186307218025 -0.57237189318254810821 -0.59673668692315084972 -0.61209838494053170344 -0.65132028495784399791 -0.67745697125027437568 -0.72379728219349026563 -0.7456618406389883269 -0.78692395189319586102 -0.83631012558328188256 -0.86617345142826840387 -0.90222084252838385954 -0.93752813255593858699 -0.97877130301683812341 -1.0161568408735535129 -1.0346905607741363475 -1.0760288548090142235 -1.1061860625310961925 -1.1236139147031420915 -1.151288614886265993 -1.1641565525386692315 -1.1799255182308718837 -1.1785866110876730417 -1.185418042445965936 -1.1957757200106169382 -1.1935434903980368659 -1.1772354757564345018 -1.1775283768068456336 -1.1490602124027822217 -1.1451470591365644491 -1.1058241560538704107 -1.0863228312456962854 -1.0631653098997582152 -1.0229886111923762737 -0.99229443867858702077 -0.9639052004247122829 -0.91695745334188083486 -0.870389524654105462 -0.82318476253421424271 -0.79103266498481294988 -0.73946212935551447476 -0.69376437627044806877 -0.6481661567902022858 -0.59572829484112832521 -0.54178251563916268729 -0.49553768270374809468 -0.44869931471334612016 -0.39219189194275883015 -0.34745512256604660362 -0.31192804720925398909 -0.26502555041648873102 -0.22533163723901036835 -0.19858978316086409177 -0.15395744116970927484 -0.12361285398937223168 -0.090577244450209287718 -0.060999733070388383049 -0.035695805182847026304 -0.020640614159479906548 -0.0092332922692965318373 0.0029354194029804960703 0.0063888441143068594105 0.026566544748870803139 0.020016731006034408497 0.015604257891430583713 0.00080351718572289963609 -0.0071302883783519021427 -0.038592446468249039238 -0.052421840673939013033 -0.083372198306651296162 -0.11266085501973092942 -0.14144746628958901336 -0.18244672289092267459 -0.22747500953215954445 -0.26261771096824859661 -0.29586092513415979122 -0.34926371757687640907 -0.38743018122423694694 -0.44631008585137138533 -0.49035313532671748193 -0.53826643297153686785 -0.58706064180374595285 -0.63333361068067384192 -0.67255784573189014708 -0.72987748690770770654 -0.77577729291525610034 -0.83015656455197983643 -0.87924885545604025694 -0.91418877767875939 -0.96115122894782378804 -0.99737345414922284892;0.054043900026189584107 0.047103316812919085455 0.020305993551013177406 0.029418736068815613816 0.059551747456467067632 0.092347535809038872046 0.11797372000501757383 0.16358055128520590515 0.18533145327988007067 0.21386144360054168412 0.1848777871214936086 0.13511940532820709837 0.080477893826179300318 0.036788893408697329046 -0.025261192119910229337 -0.088773250339711590184 -0.16708881895918156757 -0.23436213731619612299 -0.28070578098036630399 -0.27200542997212989738 -0.2501830608846059012 -0.17362244847526964175 -0.048898499347459781217 0.11114678670744512767 0.30781142718514403755 0.50871014262586455867 0.70324096710531924792 0.8768795185798127223 0.96108734409713725277 0.95881973097138906148 0.87340989179990846658 0.71042304844385562035 0.48959592934708190404 0.25175024792966316234 0.039869523487717058174 -0.11046867298494375542 -0.22154974982314665222 -0.2664628581141504915 -0.27652939892029271274 -0.26211247458382902487 -0.23161101761566088575 -0.20980767450491935588 -0.16355370218673243032 -0.10936932002863045121 -0.055063476609719344546 -0.024232077733938851838 -0.0049089980653965834684 0.016405309367411993055 0.048883211681444056762 0.089550073076429342889 0.11931982773601391978 0.14496718696305921359 0.16649616426615201914 0.16256305627484879395 0.12550869184732990624 0.081143518455423682689 0.058489515122613904008 0.063196477547242335682 0.044804696532889910776 0.030262911644505646747 -0.0068018691026294139657 -0.042986388739236956746 -0.070357455905101992655 -0.14295113482601140564 -0.21430114763524790722 -0.27808922884302406109 -0.32719503027818369612 -0.31729081120270324901 -0.25505307031821417008 -0.13668332288789197815 0.0049059792619930812918 0.16683821832542408692 0.32196426295538682627 0.46942707121591431552 0.57985625239815064003 0.58996463640239193982 0.52890879770985310682 0.36547546020087801066 0.16493542846207528974 -0.043367787742853117217 -0.2117734711023387395 -0.35972988064593963697 -0.45764889912808409678 -0.50382527800192578038 -0.49277166243596748352 -0.43658552783160470279 -0.3625162839587169894 -0.26973021866777380229 -0.16453523931127708724 -0.087599418758537675456 -0.031308975967987776046 0.0076101341862523722015 0.029921387731800943438 0.048829966867928717433 0.092651059274638916663 0.14681170171945839842 0.22105947273901022099 0.28533386191472065452 0.34307580541177407074 0.36357666894752460607;-0.61544773838280952827 -0.59731070296050803314 -0.58479793363183651955 -0.56601222027833364425 -0.55535045331479160335 -0.54358976073118281391 -0.52566879276639666418 -0.49910029359365271073 -0.48669832529812939725 -0.47642207751907872382 -0.45044593052336068251 -0.43417771450195447036 -0.41855034437096011457 -0.38925782927981200654 -0.37290518237411490743 -0.35115360145541341108 -0.33222397881641491102 -0.32662202322313194092 -0.29726475497534488035 -0.28534709204598257548 -0.27235841525458026613 -0.26394475770415143367 -0.23578361042522810731 -0.21845528444119916012 -0.20485492021161369469 -0.20871216921782984044 -0.19362325648347683549 -0.17375904203488357069 -0.15526918053874091963 -0.1444408065408090136 -0.13783492281204309804 -0.13428999468105248805 -0.11378026544521502306 -0.10571325783360790984 -0.095716959928240363809 -0.073571720666755366369 -0.054044638807051653684 -0.051384921344812269084 -0.039651726532458284047 -0.039993859574309349736 -0.029798062457931342312 -0.019866073230319303278 -0.016812152508506990334 -0.02676685200582828994 -0.0244528517420487361 -0.013005445234410183131 -0.016283747552825078575 -0.013100895224361064004 -0.020668953186631165708 -0.014673595549870561625 -0.031763675427153838238 -0.028071720414456168696 -0.02538114742397127449 -0.030025271173923298584 -0.030122911889186549522 -0.034983779148571376993 -0.03873948048143696643 -0.035680004656392032281 -0.037636740103809789015 -0.044605190384572779294 -0.049045405280525554426 -0.052887211583063288567 -0.044872101795168525817 -0.043267197650980790402 -0.040233393627992913855 -0.048501166908857036575 -0.049662658310179956522 -0.039128548325081058401 -0.033112514111766792879 -0.04025950830669251107 -0.022994578253693914727 -0.023313110888677400501 -0.021347880147424076053 -0.022279102548773591086 -0.016841388855935026519 -0.018310186121247552793 -0.017798017238555161046 -0.024705648433219422333 -0.026195574997864668615 -0.037715672141501510595 -0.0389147585398993065 -0.056425471499358871574 -0.073179448472643099377 -0.068950768985001464895 -0.092988027611669174521 -0.099068548603641032324 -0.11743339144838897681 -0.13171554427117124209 -0.1270265792233247204 -0.15998976259687364143 -0.17419946392819155023 -0.18534787739418678854 -0.20253447058359308475 -0.22861464884717919155 -0.26175835405014052926 -0.28543647904925784076 -0.30879618360386928977 -0.33186554375464333289 -0.36076280811922750713 -0.39475512906443122052;-0.31275548419637233533 -0.092623869046342940936 0.10802193013669544874 0.2658385916195367682 0.36387485123188040292 0.39963761959969978932 0.37868250769106043263 0.31946316246981465437 0.24805532039208408324 0.16577816774118575571 0.08815466404989211191 0.045390325868139493048 0.015988053897232609724 0.00079463514553335329663 -0.011031976484074444353 -0.038551763067254218864 -0.042259612805898849608 -0.053102045001403606894 -0.04693764790116587704 -0.025078337673792475832 0.0067405145719222174516 0.011510841652722470646 0.013910585938023269786 0.025889480030204171934 0.041884765590865610796 0.061651572248179062341 0.089249414126468723518 0.11604432425650516858 0.14701423467866703287 0.17092249060388658988 0.20105164787493637335 0.24286387312050203291 0.3065375806540144854 0.34935151431887784268 0.35131270435831918331 0.34286420851581927982 0.28187080972863959305 0.22000800687207583417 0.1398692296995597828 0.024907142859013083058 -0.090019269284849948165 -0.20345138835607043393 -0.33424856347539794177 -0.44391750538812707605 -0.53387014051229297884 -0.62211022958803718907 -0.70718947495059880648 -0.79106828856505628789 -0.83500794740727901644 -0.80810083521839326526 -0.76885201734281516384 -0.72693396268489596235 -0.70635915927738179843 -0.68830058811844652134 -0.65181196218683068455 -0.60022425056554173928 -0.52762581618837967046 -0.47550036864437111861 -0.40976046017948941635 -0.37195393988543146158 -0.3370388559893247038 -0.31618359449858424171 -0.29551529366892831385 -0.28416206168178798075 -0.28641100147532116971 -0.27412593974013471643 -0.25500536585061972517 -0.25123859994345387747 -0.22740104594844429142 -0.20309561787400487454 -0.18305551250172988342 -0.16959994918090651184 -0.14312569880510386811 -0.1341954518007237307 -0.12411428903666713031 -0.13196654821550285464 -0.13642222860981317867 -0.14072056461184606624 -0.16739796481844707032 -0.17720271559338532374 -0.1875848474964346424 -0.17698776603279642305 -0.1884738985036527037 -0.2045777782740979267 -0.1780350571458093889 -0.16800481499937772178 -0.16103711749154425714 -0.14997255624455468892 -0.15874753722018469793 -0.1448227448367213066 -0.13364159748662876592 -0.13361976641947972966 -0.13542939885827143254 -0.13024651462628888954 -0.13308878921981723287 -0.12201360202668060095 -0.10410911053749470623 -0.086035432297674505064 -0.068002268761522835505 -0.070144222560144714462;-0.70641513595648330881 -0.32446477857693339919 -0.01499949079559627016 0.21597894900836181464 0.33106359944301211318 0.37278198499720882619 0.34219641575970533021 0.28149066401063821408 0.23866756476050776659 0.22015525242945488404 0.22490631302545038839 0.23646812716445658742 0.2410246122929869117 0.25400718153761081552 0.26520472378141313197 0.29728224222883636862 0.32926991348419132333 0.35117462902917029322 0.33581287403599435759 0.31449401364067186559 0.26069776127426019796 0.18377582315239271438 0.10305028719900384548 0.035410669544480785631 -0.034097106466257520729 -0.096347517706579094421 -0.15622411756555620865 -0.21723801971315503945 -0.28166726706776989975 -0.36684104072712986344 -0.43314994424081204594 -0.44718046880063627713 -0.43481217863894078279 -0.38441171451296396455 -0.32067643740907048056 -0.25477039053003380786 -0.19629904527129465874 -0.14953882254626171822 -0.11506820486490355882 -0.088054864728380824457 -0.094744666433692281693 -0.11629843709507374505 -0.13253352597814044289 -0.1021019467291742755 -0.030280198721662130584 0.064756209347364382389 0.16460269518429807012 0.23261192020729995478 0.27012801436694927615 0.27557789725008158266 0.28197447246061324577 0.2621375826628777328 0.23997835681267090657 0.21717405655873134318 0.1684339163359035163 0.13711853171307969435 0.093259779242405152488 0.054075810879479727089 0.018963080408312894126 -0.053510460350473992852 -0.17987588478595425978 -0.35876792535111395877 -0.50151776202043951702 -0.60716131320746247191 -0.64447972922587148936 -0.62781204277309232697 -0.551348277445724122 -0.42599377878078625859 -0.26174219132742504446 -0.096876545042495085247 0.038688202066219722075 0.14440567092629041923 0.19576545848199033983 0.16165730630695934744 0.081332824309426968168 -0.056364510860346293819 -0.20693948900604064445 -0.35625469172351897917 -0.4466171483468543979 -0.48759708449672334307 -0.45241183965009135193 -0.34997564964709071411 -0.17943253754220001017 0.009863449584863496003 0.15047534865517958602 0.23892852974373385289 0.27758941024244476736 0.29334119658177509882 0.30292908862883255461 0.31385728936444395876 0.31599113338473955315 0.32134462106080868837 0.29948079419636985943 0.24404488339371249728 0.17892813962853215681 0.081919136812347734256 -0.023086279146010107999 -0.17260552728979286496 -0.35536827382960856081 -0.55536220333084262979;0.50815099585314260633 0.52714482055557265738 0.48958569916758309937 0.43677253973530555387 0.35089629778659359172 0.27361321711348757235 0.21639783159708503302 0.15743976300714174199 0.14457675668953548498 0.15070194807999492959 0.20263979267249201954 0.23402119687776312684 0.28014311855799972628 0.27426239280603792459 0.23762948339285200339 0.19696205306073860664 0.17102092797956408576 0.16157974079330422734 0.13097651240409505236 0.11524894967976982707 0.07567590729632055202 0.00099659430121777962085 -0.0836847730517229077 -0.17956927692031857124 -0.26325123188271110086 -0.31481949907149148205 -0.32715392901335749176 -0.28980989741594848086 -0.20706830336717008123 -0.12630705238621897646 -0.044962630869321715266 0.0153030706657125877 0.040266183328161148092 0.076522803425871296912 0.094590350894950173122 0.076064972473064026981 0.040940528845381719825 -0.02114392530197396064 -0.072415720688747020617 -0.096406506090449567425 -0.098587937423289959127 -0.084192010419794113818 -0.023615208012587953629 0.067148425197316785606 0.17078728736660481191 0.26259836234884148531 0.33830393736043912201 0.38278209057998574538 0.39985414086027371017 0.39177837375065577286 0.38090753583197806131 0.3289397732311151179 0.25102577123469049791 0.15738409381111009844 0.061428255049217429795 0.013339418824472220118 0.0054889562698286226833 0.0071017260400576048482 0.06852161072882410886 0.14467780596536969351 0.21166788104666836579 0.23427348032531375432 0.24008273340314650879 0.25737705146970069059 0.25472452691174063411 0.25051463490087444441 0.22240348961333700206 0.18847471300309356912 0.14851234038320079711 0.10039211315567431182 0.038594727408754893327 -0.019427349611235371352 -0.069084581101048106455 -0.096701391443124284919 -0.11125406687923285187 -0.084194582078775989653 -0.060897684582648360652 -0.056129615980940253395 -0.041723641627390957443 -0.032292411299907633482 -0.027084650671883959971 -0.012662216691479178179 0.025449298234631666932 0.05121169271267102252 0.027442376042082296944 -0.0002064507551790342732 -0.058023967514914794041 -0.10165428547372776236 -0.1375700578597469359 -0.13630156144019356379 -0.10393940240249556484 -0.035820629443760736155 0.025987852609527562625 0.07945533462027776217 0.081200395861356952643 0.064414829288179833999 -0.0051545162536168788459 -0.12479445154828265607 -0.28274430608648370988 -0.45379481877537841683;-0.26913989470668819859 -0.24806264750108183992 -0.19437954486106839846 -0.17456239542107809815 -0.13138957829838293634 -0.11233952089422499787 -0.072285127873429555478 -0.063390939310496524639 -0.030727648473151132624 -0.015002207277235583491 0.0059078647770657551422 0.037449217957379495048 0.053539738059518671154 0.069667186763740729383 0.086803026608359354355 0.10191636696712774723 0.12518162738009896984 0.12902952021718522291 0.15263869587891745749 0.15405713054299549625 0.17115733599058957637 0.18308283890474272293 0.20178903119807728439 0.20050024780316022532 0.22111163774518582947 0.22735944375015562646 0.21749320190085455473 0.23085803497635851156 0.22997051782704824863 0.22467464919447174831 0.22851034925651758645 0.22360998015043723197 0.19668927715957829072 0.18424264554653643766 0.17975353729230075794 0.16187105731093881511 0.14759731188530547663 0.1207878391226463316 0.092328756472015466317 0.067451939899767332509 0.050512649679532582725 0.018130943306048624003 -0.02245112543086511675 -0.060498033659106005555 -0.090087872290524367846 -0.12318719283948389998 -0.15911832638459172395 -0.19344225363800438 -0.23211191490953392291 -0.27400080276099775256 -0.29859960052920936358 -0.33768454482219734114 -0.35989399317191245187 -0.39353123915416160505 -0.43525658483253432118 -0.4526145163485100209 -0.48004297372709925362 -0.51828079291264816941 -0.53627688726437972022 -0.5539759648284878768 -0.59335955599437517627 -0.61054542713462467418 -0.62707598362816663329 -0.65701771892283866716 -0.66907695157332158775 -0.70268641510390628113 -0.71898796194014269467 -0.73326961513441490936 -0.7487024860440879559 -0.74802103496343230749 -0.76917947178078205361 -0.7733672785237412084 -0.78803260320289092444 -0.79263708879682259756 -0.79061309047228722768 -0.7776542615928931923 -0.77946399052652948214 -0.76519118531010132944 -0.76242821123234327807 -0.76004226280140452232 -0.7500204024653698287 -0.71752296631923728754 -0.70694270677296622285 -0.69772202500451252494 -0.68057298029977275622 -0.66156584637195747778 -0.63988947770722170993 -0.59891504921739058265 -0.58826941174176006211 -0.55889679251699520002 -0.5297717279676134039 -0.511829132634982642 -0.47259291114415130641 -0.46361356162376776702 -0.4259083005315811854 -0.40301220352531091917 -0.37448690389556066327 -0.3725748639729354883 -0.34298795803457787779 -0.31551999718461443134;0.19345791363638153992 0.0060870026621173403333 -0.14488819294411545147 -0.25338022273149007901 -0.28890176160648084469 -0.23901602644033539957 -0.16272299593910929949 -0.082285083531002278789 -0.018120031267671775355 0.039065219874650787546 0.080438965619815755437 0.081075099912514742018 0.07114642731564260747 0.0080147976280821112138 -0.055496354757250905554 -0.10798242703311439206 -0.13712512324447695411 -0.13463336324817248846 -0.07619757801652216056 0.00080233164981350941092 0.11102638529945256518 0.22656429019927207258 0.31636775808099126817 0.33707784806365170827 0.32470161302734051878 0.25496545873567277862 0.15185515627027754149 0.050905107827989411196 -0.096380623536255413675 -0.20233336526442219361 -0.2822153301946973003 -0.31788445567105577672 -0.32824693193865356333 -0.30472164107634519548 -0.25999130151286214963 -0.16201620934875299307 -0.080623468759809038819 -0.00048809866875778630535 0.086576671844849809045 0.16795125411121702985 0.240729692955943958 0.29702775684673482504 0.31255737966251273541 0.32220587306812564776 0.31659859065210727014 0.27994934693255668634 0.24952750137620491322 0.22328079258878669178 0.18552641462322527754 0.15932271044437132379 0.12813212940872364953 0.112372414062530665 0.11103052998777791782 0.12190137943719314695 0.12721556828022365093 0.13204114755459947506 0.13524387150652625311 0.14160100162854732941 0.10581663812610274389 0.076725995160656881855 0.062481084463532787776 0.046376047508748199921 0.04930174051748546088 0.043775381170431379441 0.036548031897525548595 0.044202812898227590577 0.018300687622983622532 0.0026102930431565396149 0.0085034866639466313853 0.048840511095744679193 0.11204808110240510599 0.17887276561125967089 0.27194333119697777779 0.34527154346415506181 0.37949747307766912297 0.39463031737401416121 0.3812003102055190884 0.36991226793886811119 0.34585142617482084182 0.29335195250646167731 0.23076436545563308589 0.15220029643777824302 0.10420831594742852033 0.074242958116655474732 0.076239023873205621906 0.13587629135782156031 0.20129445299341780506 0.30819535001453729484 0.41363262577331255665 0.45950029938948433461 0.48119632062331446631 0.45260415422834476828 0.36942181395578638226 0.25750123381952827462 0.11699925613720978113 -0.053030807709178277853 -0.27856823764496069229 -0.49383106391013598113 -0.6687946996798778132 -0.81876283171036978725;-0.38054262249835563159 -0.29357263592306298561 -0.21903146420291480512 -0.18816353283879286296 -0.15695264889411186804 -0.11026774292926010135 -0.048332480475983312374 0.0052535789591993458866 0.062775903861455151223 0.10599656523086450899 0.14660334923817427977 0.14154487498965023784 0.13703955078286350622 0.11248122656434453304 0.061198735191188291527 0.01825974824170771213 -0.0082090904315268217045 -0.025902686560890106349 -0.0090130450680110212047 0.063450777603034760888 0.15135459096742359675 0.25923825229621449973 0.37606171619846234799 0.46777193499285474321 0.52216186342040682433 0.53627441750164395184 0.50501567205229180857 0.41926938669229624201 0.3208099238814987042 0.18380474769462099016 0.047549135310002148269 -0.08138810464557819091 -0.22023443102214160239 -0.32643969751544693603 -0.41166924442110158777 -0.44413366985386443231 -0.45642149361872585978 -0.43746733917960173299 -0.38729458655774479103 -0.31892913413116757981 -0.25203045055115869122 -0.21339796207383979199 -0.18326377024355114398 -0.13892977770327838427 -0.11302238291762707612 -0.065902633953039968517 0.011939756175263797552 0.10623128562001010744 0.20993775356445856795 0.29218023747772353671 0.33398107713727431811 0.35192182998951182515 0.30949773124055024454 0.24749984992344917223 0.16075871025144866655 0.075904978706392595145 -0.020061403684007217407 -0.088819558208892368523 -0.096682101015420948698 -0.060290877457274211215 0.023531477384595898827 0.11950588863028169251 0.22608865316462481432 0.29588714850882558149 0.30840488880476601974 0.27662702668168492881 0.17771748639273160508 0.041702148420283705055 -0.095968196485637563553 -0.25047667605909323951 -0.39224822601481507123 -0.47716400831837740837 -0.55296975427562899963 -0.55792407328985760273 -0.52793362038686919568 -0.46182011107230896974 -0.36839371075148891199 -0.26632648804272179843 -0.16129602036626292105 -0.075073867165568880511 -0.026662806307377356907 -0.011151212410632837385 -0.0069879404967593027401 -0.024031854415589793544 -0.040413653584097257443 -0.035144688446326365072 -0.013878575965661551356 0.013985805893489435675 0.055281822026054493191 0.088406555044685170008 0.10911570091753669542 0.12332873908403768626 0.11849697506796154356 0.11582811234572774894 0.080030859981520013902 0.032992993893798804039 -0.050141843825390684797 -0.16894703628981680432 -0.28693853499066157564 -0.40729841121366888723;-0.17868886737333800063 -0.14912069899611218871 -0.12827815850660695407 -0.10127447446024684385 -0.07849515874774398716 -0.048338170225939121327 -0.024678647330081848743 -0.015683818357390563736 0.0070467275907657505804 0.023690234334574560016 0.027605612400576032273 0.036389211017023109784 0.04684695809745591244 0.033786014868302037539 0.033417088780570064488 0.037484305936927794778 0.036709385079136500063 0.011548160590830126165 0.0056107277115231809009 -0.0092685302784774655643 -0.031455636045550620927 -0.041404650746049799503 -0.054366127586757538592 -0.087690041760140197136 -0.10639979574801515516 -0.13723269321528389075 -0.17128306083804478721 -0.19145162979311533547 -0.23887047816559672797 -0.26551086499790810258 -0.30245150666594072808 -0.35950022159272709832 -0.40168420756412187567 -0.44455168849252696406 -0.49452338162648595832 -0.54662353191691848142 -0.59757122804559070772 -0.64962103714360519557 -0.69724370943395941325 -0.74182961004389025295 -0.77296200413004412244 -0.82737024026857375336 -0.86055848000179491208 -0.89920915215403285359 -0.92520998952512800706 -0.95437229430457337642 -0.96909980318220956264 -0.98084989454945858967 -0.99547436129666577731 -1.0052641016272267915 -1.0234307673597138333 -1.0104318496459283594 -1.025059919266197106 -1.0083722087118882627 -0.99821695799214593681 -0.98048775454034453603 -0.9619735204284800556 -0.93665034736423624651 -0.92245175787242228438 -0.89280133378904580344 -0.86558066349093276681 -0.81853943220936442593 -0.79016964452822646692 -0.74110944282428714569 -0.70405135292858467277 -0.66826441975230921333 -0.6182788343543452747 -0.58266128705216391204 -0.52697596935296564524 -0.48877163591318395497 -0.43669799407216652876 -0.40506096999797136515 -0.36796720732358439987 -0.32523374851744990544 -0.28429362036309602235 -0.24168786708758327464 -0.19758035266357507065 -0.17048501941415139527 -0.12429798803874923807 -0.098549491888006698903 -0.066901300488898640673 -0.033713496830927218439 -0.0083017291007071985359 0.012649775480125725891 0.023183600783228518888 0.041510717924429216263 0.049648447604831329183 0.065453521841375164603 0.054577876362219855666 0.052712147163457907795 0.052182498641046751175 0.058982307804181448307 0.040437958437520939159 0.028849218828126209357 0.0119713535606972548 0.00076476662089748658532 -0.023122042156003864977 -0.053368192912273848538 -0.088154312454035960167 -0.11038239485114517691;-0.69942116131088771791 -0.64937979918003385649 -0.61398592126815310088 -0.57570914376716164629 -0.54660820617363348184 -0.50604966442764620638 -0.47560199050434565082 -0.4633617990886301774 -0.43159146124328390259 -0.40051105175901074995 -0.39829446203708335217 -0.37767385773402978311 -0.36190003202029413787 -0.35211129972602112082 -0.33813240158937535318 -0.33495860327458032435 -0.32650317547116147754 -0.30907923055250036137 -0.3211865778215946543 -0.30618877501981955902 -0.30356930305327967101 -0.2924050635252029573 -0.27924797805699069775 -0.27622321712167285934 -0.27480628180130145521 -0.25633227156846943862 -0.24605053235943274981 -0.24228086032007273287 -0.23026463668006350027 -0.229513758039770005 -0.21018764273920792496 -0.20602345732875040896 -0.20546802118948992444 -0.20756289925028992283 -0.18885464645198377087 -0.18270606683704354589 -0.18152237439648327699 -0.19035456436843331551 -0.17631393565955386094 -0.18368292773440300647 -0.18075818708764254672 -0.17787732304814829476 -0.19815677508278609076 -0.18624724435257375421 -0.19927663151400273889 -0.21160600871122026145 -0.20693484230086411912 -0.22614186008260636629 -0.21924087623139701386 -0.23811371774109921229 -0.24900485976343975092 -0.25257770534546686303 -0.25519062850650059415 -0.26280644985446727224 -0.25976646759373622775 -0.27606019536421855243 -0.27262905367249512523 -0.27680885046868430877 -0.30096100798692260181 -0.29947060327259522605 -0.32222429594254342611 -0.3340224395363859955 -0.34951952169336170106 -0.35963015839152490116 -0.37958017987715775288 -0.40501555988588161528 -0.42210198208643195938 -0.45286827285108205432 -0.47897268804965797973 -0.51472686560137481671 -0.56085959437620602763 -0.59553501996397684159 -0.61394282679932599134 -0.65462825734687912771 -0.69429929071822749087 -0.72595925952912010448 -0.75876829781021892796 -0.80184420925734145591 -0.83081195434863319704 -0.84586048227817378642 -0.88163413767189890979 -0.90621236858802012293 -0.93839892680937186942 -0.95302703529022492202 -0.97521643551175662967 -0.98928480098342885807 -1.0064638002064123512 -1.0137160138708321 -1.0324031301018923301 -1.041158999385568551 -1.0266582690019434576 -1.0335331951131174755 -1.0406647353492837205 -1.0403667995572030147 -1.0300073637452444864 -1.0198149645712297762 -1.0108605827159482526 -1.0031304364221820258 -0.98869434395661659476 -0.97280181555231159951;-0.3642720751865746176 -0.21745332924691176957 -0.11274271210526991271 -0.080698201035688948979 -0.084461493975894100239 -0.097248395003880994114 -0.12882241367415026012 -0.14244440984372086501 -0.14628523716875055372 -0.13686661275572462038 -0.09573086267589990539 -0.062941575798323601276 -0.058637334964460580133 -0.080369419774515046817 -0.11677898654277212021 -0.12600060841456794947 -0.091124111343931030182 -0.029077087288027710782 0.06822057061034252079 0.20549024073243191135 0.32944547853880024046 0.41493425412707513056 0.44656144385225454707 0.41874150927703851499 0.32562136346052178437 0.18611796334264291142 0.02870244858800199278 -0.11304492776325426873 -0.22710796109830672096 -0.29300959584685359882 -0.29351746992496652311 -0.26473180271092860982 -0.19872963328834605812 -0.095087442413646278139 0.010877058107584118909 0.090175820280587501432 0.14481147136763600214 0.1753612679566143584 0.20345370443881535816 0.23938334659602741872 0.27921830013122023173 0.31825891176361470469 0.3432508419377156561 0.38877707776187575561 0.42486905289002779851 0.44138443019285311664 0.44792513495867219975 0.40052868022930382397 0.29456658599173762836 0.14260205913765158781 -0.025497765683374359197 -0.21085503053927331929 -0.38194816726366814796 -0.4905986306879062675 -0.56367162901857736923 -0.57604509383437330072 -0.52502136179832714635 -0.46608283433018943276 -0.37986509406606056016 -0.32267231512144123329 -0.30383536401680405481 -0.28246831766618057946 -0.25166625269677339594 -0.19780143400056265923 -0.088417078804413976045 0.051722813566468080204 0.21093396384125326359 0.34671959623440651299 0.46274457357999759788 0.5064547910475513115 0.53074326692406603723 0.51561897660270639143 0.46204552406055615643 0.36282691121191018579 0.25301085223987274109 0.16433749638647740521 0.10875368207029358081 0.10888066926095156528 0.15166134212911661083 0.22865446478315920587 0.33113232825270422222 0.43068044984503484063 0.50468736091272214939 0.4936562481684395598 0.41952455533754284822 0.26215890449250756067 0.060943662739071528811 -0.15924048825937855978 -0.38586372918922828834 -0.58297271763398839095 -0.75189107903078233885 -0.87265319756955228581 -0.93534679618808558299 -0.91338706813322145806 -0.80269901818737643406 -0.60617080050956806403 -0.31988265975236362948 0.016603826380360637432 0.42004122745493138735 0.83054522431590671605;0.18864582461526668844 0.14963547264417068061 0.14150508149995516538 0.11038390073023786331 0.067427558175342489077 0.044457154560255694731 0.037333821244204035139 0.033849870209822982559 0.030263207686836907095 0.027844187604905718675 0.035523430478517685482 0.0399243395567425996 0.059486060374754817781 0.068268931528172011047 0.10174471416393417178 0.090423560398905436508 0.055945608327208497246 0.018409764266452934706 -0.030013027844954440898 -0.07163454197627598663 -0.17219715383238917705 -0.23875202904244655078 -0.30851948717170746272 -0.35224513724455064345 -0.3419716825818959749 -0.31144767451402982639 -0.29380667592088738349 -0.25242465340394953932 -0.21755651091156438803 -0.1927049024213033368 -0.15316196647774515949 -0.13004882365998657323 -0.1459009874866660228 -0.17673248226438534325 -0.26036749890103105809 -0.32409107355473559808 -0.42152224268518845296 -0.51154632813123424029 -0.55687887420993142928 -0.55539191965606193868 -0.47949630344039340102 -0.36123587474473761727 -0.19969784898295553366 -0.034225452429109654018 0.10586230902147163169 0.24987588814029917939 0.38237723657614025585 0.4801135469288367319 0.51834906439015826507 0.4923017105703114682 0.43684920114823522219 0.35109838641403462445 0.27189904120101671126 0.21432015131659493123 0.14351359570539945487 0.09172759080837639134 0.025732392634523214986 -0.035355830957791128943 -0.06118391694825639493 -0.059715114854137864298 -0.03027313652938039279 -0.0071075800141342628316 0.060381440969738055247 0.094691116271093694889 0.12562024371411484314 0.14392952580810949859 0.16092507691717888862 0.16137462684772022059 0.15431520588367086955 0.14278587323218161487 0.10523154912580169607 0.10540818454544885474 0.082329002647170121398 0.050895139321856040782 -0.012507894260204653267 -0.076978820063956163167 -0.13291334395730228235 -0.14939697212529445824 -0.17133348882833174254 -0.18338344063440556453 -0.19232773403555153413 -0.20236479121702191653 -0.23140907526248438719 -0.29251929661504350033 -0.36929158908388759475 -0.43390131286052735504 -0.50408324619605027195 -0.52750984993870908557 -0.49749982838200579316 -0.44343822367904633941 -0.40790542921876604687 -0.38157709678396767305 -0.32084104826040754643 -0.28844117096475985207 -0.24825551198460013569 -0.22032735361605515489 -0.23089258559884914823 -0.24959792203222674889 -0.27383808656166430673 -0.28602636565966160775;-0.57950657356184109847 -0.54083820690976780465 -0.47197361493453166004 -0.35723639088834024946 -0.25385065027963210627 -0.15061590972370753061 -0.057916337357511324391 0.031671619466652978225 0.12441837536467263703 0.20825254827013586767 0.26857488911959737088 0.3046232924118817964 0.3050173432890480596 0.28246668062624230577 0.23871704885606115365 0.19524638116364156915 0.16172230934448977857 0.13755104186640620956 0.093597579714533821194 0.045068003870407678801 -0.015680981192928159645 -0.073921029177530905852 -0.1241332173037956732 -0.16233239791908862792 -0.1656985901605732836 -0.14494928761131589678 -0.087603703886576303472 -0.02108474180251520419 0.052694918172042241877 0.11051469893943620393 0.15358027621096620452 0.18677329532551584235 0.19069366936880652319 0.22551839204550444551 0.28523632142422694624 0.33327484694153980405 0.34820711650042796004 0.34967925218554923861 0.33414847876061126719 0.3329873042569918562 0.36695347701029323861 0.40476519448464565176 0.43257028198739844171 0.4222754253125761692 0.37010515015979777997 0.28170748663458139438 0.14921221228667846948 0.01392680992416442734 -0.12847098962568256897 -0.24580754716333708121 -0.31203163447083787085 -0.32963184260434130746 -0.26973484057826818683 -0.17261073351066433257 -0.053136639235344819421 0.092402549155157095995 0.25656045289819184863 0.39340045505256371339 0.48871979798559478381 0.52061371801917355473 0.47026720595228860278 0.37806247971970841082 0.26216478730089370908 0.1370609562329518083 -0.0058164671315488443784 -0.16162889429435020605 -0.30562431963094294218 -0.4294859740540475368 -0.50697990721608909848 -0.53240570363293893141 -0.47759625705345487567 -0.37297154712306640478 -0.25557888663926331407 -0.13196400158483312381 -0.042883302231258621506 0.031197022905515427865 0.055779618123603054436 0.069265557876209749022 0.067137488760805469346 0.072620410326117920685 0.081674054875618781746 0.10043186665381746703 0.13170505538000479295 0.14053985128584559061 0.09324171534142884632 0.024938538309993381337 -0.07032579328705257371 -0.12336874990014505549 -0.141262545654704752 -0.13522628585030610493 -0.11180148017017337014 -0.10049174289328896559 -0.10053529440097756786 -0.098540457346665916161 -0.079654324451249994277 -0.040264107650168690089 0.033830291117669386569 0.13156311711333912307 0.25903493534542282317 0.43826902164766534664;0.083795755798288865113 -0.087499074189567940807 -0.24678407122667214701 -0.37194160874766918345 -0.48005923510220477324 -0.52642545872804391571 -0.53177642868954178024 -0.49075127237352833554 -0.39517225211519912964 -0.27421162848727392847 -0.13274611776060080137 -0.0049575425201651909801 0.11287625214964508436 0.19011177461744296902 0.23291190619748350366 0.25551620310096057054 0.26974015253478422771 0.27149289535733617251 0.26594112770576155969 0.25581220981272045911 0.24350232016371647914 0.19399611421883236617 0.11528563124342965096 0.021628546573738392095 -0.095197482945482164718 -0.18985183253639298373 -0.24910435789420148911 -0.24507624232270780462 -0.21918999185714907463 -0.12752172771479888813 -0.0088808602907949306393 0.12282398326663476751 0.2407979265536256408 0.34159848364878364624 0.39344956388125629232 0.39692447470000202792 0.32886091422256436001 0.23482975192241634099 0.15006404372089787724 0.049705615763166968724 -0.030859053740456363762 -0.10630541527705264504 -0.16623179478635244366 -0.18373010892806290739 -0.14094027796674885034 -0.075823612469977347272 -0.0033069494104084680604 0.079671658528289987511 0.12624611416997558178 0.15459009260903874838 0.15253742201468936668 0.10948836224070361556 0.071477719889696880728 0.026327490583730434048 -0.04235181921384285203 -0.11742186372816301732 -0.17350287715398332589 -0.20264936436543293241 -0.20073078510354591675 -0.17300561181766416219 -0.12424323621882339685 -0.063146936449687759985 0.021580743565080159202 0.11852220517071826444 0.22432958724778764847 0.31379254223501967802 0.37729155700043587318 0.39705624379131171375 0.39916576592869018603 0.3733475381452214803 0.29438309325977035646 0.19638049098182741581 0.098822059129861236637 -0.041459354596768895063 -0.16106323147914611282 -0.26539323398419595312 -0.35778908107651136161 -0.41556795900382442754 -0.46735608115310517396 -0.51121827983401924023 -0.52099684765791831609 -0.47652294413241602644 -0.38962105881002184748 -0.29320452463612567406 -0.18221689845898755844 -0.078745233630212144171 -0.008259133863220762331 0.050823042868696335916 0.10259424573609884912 0.11694674677961129639 0.12674786082198291615 0.12197020887069874584 0.1176936145014331192 0.10423272441446553016 0.082660193409099719242 0.055029288955587625509 0.021361439089543438064 0.0071327203966225702358 0.0055972050727975068002 -0.0014763312089335028747;0.22413012034792473282 0.14566369484266505907 0.041087458922118534621 -0.044383029561159921539 -0.12352008711619727466 -0.18260091121143956494 -0.1802040540173959482 -0.18558018451316696251 -0.14776307176795125398 -0.13501146031660171687 -0.12581374329504327325 -0.15493957930724971961 -0.1957832828377755463 -0.26672701752824856669 -0.34500013671302942608 -0.40994437288934248986 -0.45013882356323697831 -0.42406683213050000436 -0.39747310714290978728 -0.34665895276270980441 -0.2946405976235201285 -0.25416209684776353006 -0.21700789494604297292 -0.18790925005811684456 -0.17286559747450258584 -0.15584170065488156531 -0.15894768663214378646 -0.16896585097176455847 -0.20018811170110231701 -0.19251995096418189624 -0.16178123617261744305 -0.10751720515784543575 -0.039434373754434037807 0.024358287943896949485 0.089476756364069570671 0.13551990496014515442 0.15704297412038017989 0.15998475915215099041 0.13677957928921669062 0.065953585243615026057 -0.016395530625327253693 -0.13415248382246525161 -0.23720539835114079485 -0.33423615018080637951 -0.41075185437988848136 -0.45822848015468570226 -0.50938550209457511553 -0.54714834846267002 -0.55772871072668162018 -0.53254614738851713263 -0.48668383420281863261 -0.39599213918738573881 -0.2988350027928460273 -0.17414730987801674278 -0.038857737755128698987 0.08125397599507708235 0.17312080196315618452 0.25053420562735123633 0.26721386665043039832 0.2559818646136455822 0.19202497247202646169 0.099641275613319896243 0.015978858845415892104 -0.036357006258683974287 -0.096067268902858812818 -0.12385477990817628235 -0.13040604578043180073 -0.10289550709375819282 -0.066803011881696031105 -0.0048902659733395170347 0.033709062961886568366 0.057836487107926062845 0.10903803496334944778 0.1408243288501329904 0.18023157081934118584 0.21578721737279210613 0.21221696259253780559 0.21040418638990343592 0.18180510318733414388 0.13367642025821743768 0.076254207816686445098 0.067709513893883951918 0.003662785595056712671 -0.0441475408584302495 -0.098837772491325262547 -0.12500996182095908127 -0.15022962267427991678 -0.16885178635900352506 -0.15906425275033678202 -0.16282962691253866083 -0.12027481969593128985 -0.068958620998257350032 -0.022070943910900486101 0.025744602804608419933 0.048028043641960463384 0.045366234284758472084 0.034952639958832798506 0.078639403058071918884 0.17557344654672990547 0.30654486279569359564;-0.29253568509698935074 -0.10724458812924207718 0.061748784281963821352 0.16828313642808609418 0.23404862250123439904 0.23668628226131960268 0.17740414423758238405 0.071822297343745025722 -0.049199864655232662669 -0.13866665710650441512 -0.19899121028887647999 -0.22298146236709831536 -0.21099407092007285702 -0.17282228048340653181 -0.12604029755167633908 -0.066936637523783745762 -0.0021349220286255442443 0.077372977447094801184 0.15796117013895841219 0.21953158235494030226 0.26212294005541486586 0.30065564730891430889 0.33931604018384314836 0.35937498816117652289 0.37503494831476924531 0.38664573727070428166 0.39673430295454314987 0.38397452697973927238 0.28201211194215752842 0.12621116121151554346 -0.07984360854980129818 -0.29665434414801988838 -0.48538498241527650023 -0.61897440029582062593 -0.67648464096994842532 -0.64973381067392899091 -0.54272529393511736995 -0.40777275212475810884 -0.27114350653881130748 -0.14798359249373774227 -0.056883784464681376447 0.009587528152017075686 0.031353173291909730569 0.01723886307864523279 -0.040723632616389254801 -0.1050972133357523236 -0.15827109375126788282 -0.19701383181773365894 -0.20001829696475939557 -0.19616170816963870993 -0.16454158368250174083 -0.12340792406438907958 -0.053653352175447893702 0.017042220083945361364 0.097417436789032238464 0.15932031288794243351 0.21688801095242254968 0.27982631923944223384 0.32722803697174912552 0.38231341955909414754 0.40226650510584699427 0.39378718418907071586 0.36386749548373026331 0.31024802954684516099 0.25103110964162783647 0.22170251089009931911 0.18585037362493159185 0.18458010139277389317 0.18751081505042857533 0.1993320475086015342 0.21772760895411158444 0.22655054083954961897 0.21304265625899412862 0.19120819331841845679 0.13102833872211439026 0.03793607481097421158 -0.083516538451354094263 -0.23612645779075538965 -0.3560023846853638263 -0.47260135293986332838 -0.56043419969965146965 -0.59293319671728106357 -0.54424875901889813168 -0.42466283538185539692 -0.25740330384258919283 -0.071913143897401374249 0.086244367161485646633 0.21988487653496527341 0.30201323815738007061 0.34322488241529336417 0.32945132940321986137 0.2741126440393573116 0.16334935153175120237 0.023464181232539564614 -0.12555668500447067504 -0.24025927878904265733 -0.33062469650343823124 -0.40896481130894457579 -0.46206874409194992337 -0.50733530891092959436;1.1021571710399669097 1.043713909649021998 0.98029928391654252984 0.91816125445502572155 0.86473519294125000823 0.80729739769683572792 0.73200851934076949235 0.6842419804533800276 0.62609284496263473141 0.57331201456656399884 0.54746056048989122367 0.51480858654803429708 0.47901268908298894056 0.46087272119284145022 0.45368919226681908574 0.43564382618354730026 0.42268540509157281893 0.40217821408363507718 0.39484756129053355522 0.38547099698849840443 0.37423473628697251359 0.35066986751536022293 0.33204462518686317374 0.30071826236791776576 0.279771450439892988 0.26653624943571518902 0.26689620804379127206 0.22977932794728531118 0.22426858883131550737 0.20954295472832282221 0.20444031079976540677 0.22230449412363870176 0.20555733451389973654 0.20698352136554373781 0.20075657971100641097 0.2109480470860465029 0.21444287525008515205 0.21883094799296209931 0.20704203655183098243 0.22335879111744255665 0.22485176564110584407 0.22282808839986298355 0.21813527586555306326 0.22319515909386825059 0.21874391772058909833 0.23070033838452924657 0.21658287055208583216 0.23148826765767369085 0.22116854899592969241 0.22384153676811940903 0.23178232770165790866 0.23982135132448842429 0.23519263167691245586 0.23199308787346620275 0.22998980182569125907 0.24179818949521295068 0.21254251786541134006 0.20995687138746252365 0.19847081637038982427 0.18617095198855374005 0.17045842161680033189 0.17077915147881425617 0.15332297454354013033 0.1432470689950331999 0.11569816145486995496 0.088497062701687181918 0.072128660242084141618 0.048196158658450137524 0.023574150238191787787 -0.024201684463845060669 -0.043881115143498697351 -0.064030567309478605975 -0.072118355495515457099 -0.083817206545703737408 -0.10797734991394403181 -0.12956594307043578507 -0.15281749005755546067 -0.15518098777456171278 -0.16116654726632848038 -0.18870334316213047132 -0.19160839569173271357 -0.19202789504807901699 -0.21477230218849610588 -0.22625020655750244236 -0.24263196221095673089 -0.25278534111040235066 -0.25124186443320944973 -0.2490953572953122086 -0.23338381680099368198 -0.23389239322124363851 -0.24040949371590034089 -0.2220868174571412057 -0.20720678102967918233 -0.19815308295766487223 -0.17518483170151910588 -0.15721938710218846813 -0.12074629862273768277 -0.087215752385283076831 -0.042982758985885466396 0.0051665997268290865183];

% Layer 2
b2 = [0.95863782955468912483;0.74241116121057115773;0.57257965780257802368;0.40062639842925118483;0.25462115290567327586;0.11408307149545535153;-0.059072771262364105749;-0.23035825099136506;-0.40329354959235907963;-0.55514389872660740988;-0.70469692392073757237;-0.81445955871590225428;-0.90448288283673738963;-0.94320817861211725397;-0.9506317208352924597;-0.93426604673774238385;-0.91109557259193607592;-0.87465356762193613438;-0.82643265741847227179;-0.78400087253086114814;-0.7069501892915038832;-0.63077394755689697448;-0.55559040113426283458;-0.4742856789432506881;-0.40869505135567701926;-0.3702999667216946289;-0.36427414105933120236;-0.36531961388057987428;-0.36241246648702624134;-0.36623798714407412858;-0.34705172587419758079;-0.31886607881805467679;-0.25292305636361356314;-0.18106993785267838648;-0.061378771584615035573;0.067753180069699880939;0.23980229612093850733;0.38799801229439079275;0.51543884676536155798;0.57515469779890848745;0.55670379037897488317;0.43840589401625673638;0.27594210301912525107;0.065464823758020790345;-0.15530139438187762213;-0.33703751918905017204;-0.44429507891562880495;-0.47759941004660605435;-0.42376407452388026309;-0.31162916254605455002;-0.15863477317853194593;0.034453428851502751473;0.2296902899404831;0.41784141987620748715;0.56980714858115810717;0.67708404181125414478;0.71443909753180101507;0.67430801846875809691;0.56646168659959339475;0.40881035614520366828;0.21318540980619568592;0.029897207452194915489;-0.13445102815924059314;-0.25614264081576948451;-0.3450270767388240456;-0.38878037088027078694;-0.38748287681712700881;-0.39340258172119729752;-0.37576498371624861283;-0.3722205844969044275;-0.37562482607951391822;-0.38388137097170593748;-0.40446113075650708124;-0.41259688555290091605;-0.38003062753029148713;-0.33440419403375654106;-0.23636744335564663366;-0.13795750711136409161;-0.056614349273305997201;0.022285888960804026843;0.067569010571021229095;0.057251707112406007016;0.039602022182238801051;0.025916669308085303614;0.031590617992053482421;0.034174392060339398025;0.066305867218229327942;0.1009652047594180313;0.13010683456455343632;0.1641677179851116497;0.19559105528878090174;0.23628043264510201205;0.291179937109988074;0.35370495445495425679;0.41247893196277024552;0.46480341285480519797;0.49607835716326847963;0.50931957913148517836;0.50460269416300329581;0.49178881333842150436];
LW2_1 = [-0.074851690191779798877 -0.14945318746409100297 -2.7062939645466084215 -0.27565568971548465305 -0.29062531360101262479 1.1093840767890323917 -0.75190288113502889988 0.64438330152486111846 -0.19542800796392295615 0.58407003168862647868 -0.1183393810592391765 -1.1496549543174694463 -0.21760619136791159445 0.42842221345731512638 -0.34314413399831927842 0.47875280273327480707 -0.22762782764576586225 1.5025996145970668127 -0.38713249774403274417 0.3078830084776102427 -1.5060170702701198842 0.48737710476705076168 -0.17559197993505967772 -0.88635323906778828995 1.3208820965121528257 -1.1684646945996715051 -0.59414920887395250571 -0.53092492708920391298 -0.036070187724200356016 1.1983324079502406523;-0.13045461635062394201 -0.16750483001832855434 -2.3650489206220228766 -0.30618209670475265982 -0.30014761514886406646 0.87065705975279084061 -0.44412184766162327021 0.421973828012939145 -0.27907010305284057905 0.41532840544363669455 -0.17141174195260580615 -1.0943417925883229813 -0.24286360535834150554 0.44447661959720347058 -0.33263961806614750216 0.98987656533205092835 -0.037188600716820736924 1.6250486112935773608 -0.38158192912293514842 0.053449264016442288305 -1.496646428142955898 0.50273792288816188112 -0.18622374255701143464 -0.76798568461515581696 0.98256110780030714302 -0.98885260686142739672 -0.94526739710957286 -0.56754796883394531548 0.16608711789056551655 1.3786913459503851165;-0.18298422270479547391 -0.1319810540829466361 -2.0278020030654162476 -0.33455340964040547469 -0.32761245376312880806 0.65013233470778486467 -0.15105230313271914011 0.22008545686887551196 -0.33573328549405767607 0.16592282939686628374 -0.24380889206393374646 -1.0121697778526743683 -0.25613048119374537404 0.45239678890477025286 -0.31094688705361078762 1.3356695867180510273 0.098430882410631456714 1.7004016723560384516 -0.36028023949024218231 -0.16057397852687979589 -1.3781978030415633629 0.51319272043782493409 -0.18742643426906699378 -0.6472577728008235276 0.67873566331201340418 -0.79333090603247891082 -1.2680054793643380506 -0.60139446676960794935 0.29918183875266962657 1.4907737575204769165;-0.22910979728931057942 0.0044383145860319968626 -1.6853694211223388955 -0.368011476759159184 -0.33218255348820741046 0.43746183944839411861 0.075417284693627364978 0.066714221178034827098 -0.36163012594556115387 -0.14988659252285924106 -0.33587667880884886085 -0.9102054247373407847 -0.2931112312697737865 0.47594701601814048963 -0.28439803068586100299 1.4798076539292643883 0.19616768314629129399 1.7209179702808938828 -0.33363637989310157561 -0.29743444181474648635 -1.177421743699644141 0.52620130008256293941 -0.19550806055439498565 -0.53820902058213837549 0.43188000491944122938 -0.58079669644666043204 -1.5280415775657905098 -0.62397833236582411764 0.33024269158624225406 1.5476176446085891936;-0.25545893398408292541 0.19872621496840764399 -1.3518452302323085146 -0.3817332671213328199 -0.33575496244130664802 0.25873183740742339287 0.2627993399024933785 -0.056031890704047848661 -0.35175328024656327131 -0.50515207311415721847 -0.41079870983671856743 -0.76646875023484306588 -0.31007709017794737871 0.51565340434740569719 -0.27086670029525555803 1.4587045976220887056 0.25961276589452536578 1.7082843581036670777 -0.30196194194851005976 -0.37223467038386748307 -0.90422602337931357042 0.52937887705986153009 -0.21239336985012655101 -0.44709319230809657642 0.24071057363800421602 -0.38712677363642034045 -1.7126328350066524209 -0.64338051269853824277 0.27302581866025626978 1.5041692259015071453;-0.28874928682355571752 0.45699690178289309461 -1.053938499407518492 -0.40713473599385879842 -0.35783572094293292221 0.11265861831258656978 0.3526105888161798485 -0.10961838076487286087 -0.31432371892942967406 -0.88192556478181483026 -0.46223093737371040435 -0.61650781299765522459 -0.31933576909594246773 0.56038316729122217286 -0.25280259622927342411 1.272197725663790191 0.30732995883515140667 1.6502108949878786515 -0.26262962605209250189 -0.35544868848996602484 -0.60024829473433238824 0.53763186641913229824 -0.20515999473244592166 -0.36894759706049590209 0.11850985445988769518 -0.210655158142676463 -1.7728677679638651377 -0.66386149911573189009 0.11360861696512085384 1.3883563239405345424;-0.31844742846091017574 0.72812723090915087987 -0.78998946188518481826 -0.42128399850316911035 -0.35843030918456247891 0.0055178085659145035408 0.39571802175753501007 -0.12508101705077451227 -0.25337936128526789004 -1.2364583652470662045 -0.44757542633846630897 -0.43657407460368691243 -0.3322554241236641559 0.61525358079888203822 -0.23087361128332106741 0.99335002064864830196 0.35563662858157907287 1.5932597200429570172 -0.21214553924161047571 -0.29388647225364278315 -0.28067748586079455109 0.54213532402259922982 -0.20389804723959489841 -0.29877608658946636089 0.0577042068383478296 -0.075214845502742502803 -1.7296112545596773469 -0.67334025358680493767 -0.11311182090970579861 1.1985640668601349468;-0.33543629780951994546 0.98534492595757727784 -0.58051102729474191033 -0.43950228923423445559 -0.35140238845442617333 -0.077814951439678523015 0.39484462292303385 -0.1067196561280590178 -0.2000256719355461843 -1.5390008474797838289 -0.36136959763754955555 -0.23133611200411091646 -0.34979685771233154368 0.67654669477033080316 -0.22810302970267587463 0.65344097201290229915 0.43029035771807189192 1.5108173221379344042 -0.16371009875264957989 -0.21478956376678520757 -0.0061108655796928822851 0.53743774698440938131 -0.20847483382497536408 -0.22762821104868258271 0.038889298282163101139 0.016941443784008362178 -1.6071977852065710834 -0.69322141588075936181 -0.36222604827794679938 0.97406802428158090201;-0.36007277929812198103 1.1831145278711538982 -0.44119871342117439328 -0.47442028335905689351 -0.35200592912323575012 -0.13551009574551298176 0.36756124033008269469 -0.065478018222395795167 -0.14946652059232476417 -1.778024206429474896 -0.18652497903874132312 -0.022237168103527042706 -0.37271175149229146539 0.72613646764934058897 -0.2060526775001144395 0.30329545569095978097 0.53144653645302231126 1.4319163629886368927 -0.089409763903488800874 -0.13399369455415219288 0.21879448704330742292 0.53529711908617094718 -0.21111705466037825052 -0.15244221791484677264 0.048486734715029781995 0.07868048709366505522 -1.4229726511334290784 -0.71056889891681296323 -0.6026210898554873463 0.7153366316274274439;-0.36887484879013404671 1.3076618363927785538 -0.3531555271535920526 -0.47341779117987670134 -0.31998388627088442115 -0.18872680150227352791 0.34370339713365377632 -0.029506828409345934455 -0.1130438249392188288 -1.9276370315226623031 0.065964771980426259446 0.18614651713832155999 -0.3971585119735394076 0.76918103000627091603 -0.20663838012608445882 -0.0094472600883885732292 0.67758606202689775078 1.3654684471004010504 -0.025200519911961996589 -0.080570194226116137459 0.3661427143661357686 0.54386232389078736915 -0.19750051704864798885 -0.077211534313457744205 0.073467700891597861879 0.099833786113048397781 -1.2088137930869404801 -0.73408842461081758035 -0.79064396312876294992 0.43132645038703765206;-0.3706368024125763494 1.3496321766514967067 -0.33666242749485236763 -0.49873826229134765597 -0.29776879308535197932 -0.23388383726101208415 0.32646801814619214044 0.0036163609182768320649 -0.10712793007269211243 -1.977647442659510979 0.38481128462555264091 0.37222458382563139434 -0.40893059194919523236 0.78379225631318927281 -0.19122046947889789759 -0.24655438300017148978 0.8487926039156294955 1.3107235285339196018 0.050810271814374863286 -0.056749452344059023168 0.44374534823676559103 0.53917458381072613793 -0.18436463404806713307 -0.0018883529928860557506 0.11868285546432656707 0.093794866925622014109 -0.98190486221313999504 -0.76064154612931600408 -0.92057981584120485152 0.1771935761936357101;-0.39862655214456377273 1.3342629420681739738 -0.35076991385963940395 -0.51516020752479851907 -0.27312370931795920681 -0.30043190741324982129 0.32101367957452159319 0.007169132241884965985 -0.13484809692251659152 -1.9213284985621397194 0.74353912988824322206 0.52442203283257859958 -0.43053078616154455416 0.77258960477971705405 -0.17407875273979159236 -0.39758959535083387982 1.0487741343348844225 1.2651205976255104346 0.10876454507712149389 -0.067743502838288935375 0.44457221298502730411 0.52688847344952283169 -0.16699040646177154557 0.063112989259283686083 0.17572507786806015884 0.05858876080780399398 -0.77561791823731984774 -0.79992058345312699874 -0.98346829341322616891 -0.040331837787855651101;-0.40178657780193316462 1.2592780451472429526 -0.40491409056438637526 -0.53623698636553063235 -0.24241537688004158313 -0.35943618008939121067 0.30579365901871169431 -0.0045836882225209173158 -0.18687137576364024061 -1.7742007080144148734 1.1322738599825139527 0.62424132578521263071 -0.46112155638351803866 0.73338947659306796822 -0.17507797302185199029 -0.45755875796461459304 1.2484963159778297292 1.2175340505271432523 0.17431738980579025711 -0.085021547648547898812 0.38300648763451572432 0.50154440642393960381 -0.15686218759253311994 0.11261167028358964881 0.24700601941536953765 0.023277810194191957127 -0.58918693509598007996 -0.84922716610809978466 -0.98452325725877098961 -0.20788636044947031434;-0.39454650983149036625 1.1517836052612226982 -0.47913822423575935794 -0.56097472836121209383 -0.20723642698500108206 -0.43173829797771640093 0.27346776549955054136 -0.031706506068502032791 -0.27596870845413107309 -1.5436643662483722217 1.5115069659464275276 0.65918167775587266366 -0.47985148600605143088 0.67267483932781935163 -0.16661760878318015999 -0.42428699760567695209 1.4422995170124530695 1.1373540830443868987 0.22781757393263657452 -0.10300649605933537289 0.25786133121903337395 0.49671493214350431744 -0.11351914558003137201 0.14603816950795173168 0.32128063707478032862 -0.0038865465215329950133 -0.44554359344460509051 -0.91925554855917790409 -0.92185158443466963529 -0.30460766780212711335;-0.41605574143913370833 1.021332795344300548 -0.56698194372286325748 -0.58563196599400624276 -0.15925111507117609144 -0.50768518568312948069 0.21768941081332499055 -0.076153029993443158152 -0.38411259116761758969 -1.2767846402750329116 1.8542267925415258922 0.61214721673314342887 -0.50710690271837255416 0.58627551780560260841 -0.14824976684178525765 -0.31654439228400582662 1.607520563666461566 1.0257042514981453696 0.2797688622814341608 -0.088828220516033645771 0.12067717095355608159 0.47265287110238918267 -0.096141657928687243584 0.17059136612428019153 0.38256897653403598714 -0.012668549553884510608 -0.33494043588236316333 -0.99408245919492788101 -0.82125684787610431226 -0.32106560249447740896;-0.42815507882001235807 0.88166894193386946554 -0.66689633681667148668 -0.60387961019615044034 -0.11037157389476692781 -0.58195885518617274101 0.13019650595192810982 -0.12471237516970030967 -0.4972784634677400728 -1.0066632649683793232 2.1229484760349803807 0.47330916805388895119 -0.53513470714310518161 0.48405262903671858465 -0.13203440627558440945 -0.1505622930269968629 1.7290045057503935499 0.87778623091537377743 0.33386593464615560434 -0.023058576541600369486 0.0093621177581086865993 0.44685017259156428748 -0.049263236302123335209 0.1951850083064821384 0.41737020585641781967 0.0063905149930940079867 -0.24720330587440902947 -1.0597333887254036799 -0.68915403902663263658 -0.27074725877613331493;-0.43240197884789188798 0.7459937110964792728 -0.76209904265208483487 -0.61497543540994159539 -0.057668970675531533443 -0.65373189115144547667 0.027941569778191507195 -0.17191505169438023315 -0.60329381265076309493 -0.75055089843620137469 2.3005219909316259042 0.25029161093919743974 -0.56579072878574498962 0.37280432713694394709 -0.12039497303425598929 0.047454197283104189442 1.7964647443722330244 0.70800444170931886578 0.38024280921029551816 0.080836192653715374656 -0.049923033030042210378 0.41962775941788005296 -0.0098601766177290866427 0.23209949520462094807 0.42400381775207068857 0.054267649361316207257 -0.18309806244436860334 -1.1095911526028510163 -0.52942040016595492968 -0.17222563920910652357;-0.46722664093968918619 0.6076618503135721161 -0.83095969526921897863 -0.631336293270360005 0.015187668565244699659 -0.73083202030815397343 -0.070566521648227159558 -0.21979938010878904975 -0.67495702567485937884 -0.54121985133908723231 2.3685928813648962077 -0.045196964084328217215 -0.59104583635051777257 0.26963803251299717223 -0.11568289828172567679 0.24598380684392123774 1.8154919504242845729 0.52845288145088165077 0.4134502041111980386 0.21247282397281280764 -0.038593308626076038015 0.38764448327832740082 0.045270366642051508566 0.28767429347498074677 0.39165904917255073281 0.12405160927409512872 -0.13683204213540528515 -1.1339649425469893185 -0.34070269502592853694 -0.060690140846811464759;-0.45745561393531636307 0.47068027706080961536 -0.88368504538140368876 -0.64680616082915309839 0.070262701742712263542 -0.79631929313000437975 -0.15146772019265161702 -0.26820794481802767706 -0.71593076989959159029 -0.40504373759649775488 2.3156730223059320828 -0.3801545874000734071 -0.62808764572203157339 0.19076897158632810658 -0.088734657812794784371 0.42955661882475115743 1.7670662679905679848 0.32978826715015013837 0.45100160886245327374 0.37844421447537957004 0.072775013333378754665 0.36201171469144732828 0.091087706489872202753 0.35664187296691962636 0.31572129631834694452 0.19143493987857951311 -0.09286247950575483856 -1.1360119851413388314 -0.14962653086790309032 0.068853139462279541738;-0.47040073027488737978 0.33616687698289343667 -0.91690852463113825532 -0.66068832941878763432 0.13196694114385038032 -0.83621394017033157109 -0.20368130601206063668 -0.30324752207309668695 -0.72654847218122331487 -0.34777197217277905361 2.1602061348158443366 -0.71881190040400855246 -0.65810719667384953713 0.16110852608851120027 -0.097836728249543064573 0.57971953766018635701 1.632150946445422468 0.13381302951865714501 0.47381040105463301249 0.55701462757705999529 0.28642471145532150123 0.32050512836816846818 0.14209491072963656433 0.43275886982050854046 0.20773155585708369397 0.25857969933486563141 -0.05674244436808594666 -1.1055679795087269834 0.014979873116701427488 0.19376538656641292824;-0.49650332430345495149 0.19951939275305052846 -0.91859239715851337404 -0.66351046000099789257 0.19604883187542609946 -0.86339780104797037019 -0.19688478441921045126 -0.3490119431723261445 -0.70520896215386885686 -0.37390415868918236431 1.9121974622530719667 -1.0116175931327693327 -0.67862162910572487728 0.19199094436474836711 -0.083245734115610828252 0.69431575569589909502 1.4273513839425733263 -0.049704050354005824275 0.49045545613995439327 0.72362894375362885047 0.59094567937900510657 0.29545092382592019753 0.17701438881299638717 0.50096767272663345061 0.052798996072934825663 0.30275790236078869988 -0.048185000657412470348 -1.0516605121678579415 0.14331938409021566239 0.28932487846219590022;-0.50542502961994872912 0.05761387362063324219 -0.91531128940120998205 -0.66093231725121326381 0.2438078572137386546 -0.85356471295540259359 -0.13633130735595364036 -0.38394942741355142513 -0.65900693790643549708 -0.45975508901089884306 1.6092014452653378154 -1.2183332268389150954 -0.70873288517209409587 0.30567448711921008098 -0.070817797313597219411 0.75879461962455507784 1.1502429469246664429 -0.22239188115397526269 0.52488857785626685803 0.86254404068210288603 0.94650168699731973554 0.24559546629165721066 0.23985027757483551314 0.54442428127885222899 -0.11739747578601250622 0.33136102411191548089 -0.064302019587784683963 -0.97755623665301438763 0.22773516699666720986 0.36054171720518074507;-0.50243885513429131784 -0.089900047945636538116 -0.90052558850646569066 -0.67870834523242140612 0.30562496891110857433 -0.82450129420081641474 -0.021740245579064104015 -0.39880802447407115441 -0.58350021278737529418 -0.5792074434279108619 1.2791235469864019603 -1.3243133966762785647 -0.73841744939554132543 0.49345552683216303835 -0.048700261228043426054 0.77237535989530547997 0.82869835286421766885 -0.36961612360285572842 0.54801299026273042614 0.94312540107925835198 1.3076015396592266526 0.21461758469395639248 0.29109645534989825322 0.56028947821749819358 -0.29114165776434069999 0.33795630673661419818 -0.098078452868762516781 -0.89525090188330425089 0.27220364153342468949 0.39736070759193659052;-0.52102092712223735393 -0.22592729155794272211 -0.87091601938072449318 -0.68376069447506704346 0.3445592057136914188 -0.810607304312478405 0.13877067988644192775 -0.37526460733383310009 -0.48732468674360390759 -0.6937937713967411435 0.9339272121532476989 -1.3288512749903318433 -0.76594427147200483397 0.74341893861100094565 -0.058656128243320539151 0.73265281119789027464 0.50017584138206905298 -0.49298959109744461271 0.56395146469233503606 0.9340077148181131772 1.6114214535470827716 0.16075656810468516578 0.3389235996249884697 0.55546403210531347661 -0.45203795263473384169 0.32414039416603113164 -0.14344510719702618928 -0.82021522824638992688 0.28964340741709154736 0.40115428272450392999;-0.52586018931436873114 -0.34323285532829928002 -0.82109047811664837013 -0.68049009163415108414 0.38928834637152087694 -0.82094244617090073035 0.32392076082062176701 -0.31762125079124636784 -0.35503409296206461798 -0.77597193251751783727 0.61004835832865000889 -1.2394144414972714241 -0.77899336646111549953 1.0441775260938437331 -0.03665930735304569893 0.65194225644793746266 0.19304094848078687252 -0.57356110267146231951 0.57594297653510828638 0.84357723968753250965 1.8202003178769041725 0.11403839167910807817 0.39185182206823498952 0.51804013264421200358 -0.57089928795450095578 0.28452931280663029678 -0.17225033513133469754 -0.75420316027460920782 0.28049946144933873837 0.3610836479461601578;-0.51909174645857247832 -0.43759039400971561085 -0.7505865216217189051 -0.67466386497759800456 0.40516162346998507715 -0.87201627560676753248 0.51558698256135349069 -0.21850202649498545737 -0.18819360512426150378 -0.79904064226805060489 0.33882734905300537775 -1.080554397026245228 -0.79044783770022863933 1.359728231284186073 -0.057135989451209664991 0.53110890983123448805 -0.075155483820332560918 -0.59472421328054225764 0.58758351594016478003 0.66526251308810646634 1.9075140288339744732 0.071087162277724769144 0.43258449252426967035 0.45657297134158708607 -0.63309781563507139257 0.22344182326812903061 -0.17156638788286296404 -0.70359470678594049353 0.24737432106470133575 0.28612297511268686145;-0.52686214590568702931 -0.50174040807950148757 -0.6554170625825214147 -0.65846705982258424417 0.45230620868453552674 -0.97294131747601431126 0.67520185286070955044 -0.077502062041261907122 0.01015347357223759725 -0.75321446224797372615 0.13685807459891352611 -0.89229035340260265396 -0.80948341381103749992 1.6574070888254939238 -0.056889727460000233394 0.38912193309493292581 -0.29368900065788394738 -0.5514715116229728098 0.59536673592389732779 0.41946253853854836846 1.8564751533217771495 0.017023557214244654928 0.47786880393095110264 0.37440302796042479461 -0.63232557093631192036 0.1505730856885606761 -0.1247326714109593393 -0.66909306174867444472 0.18539517638833102886 0.19462290395949205513;-0.53512767759501622677 -0.53348825704303071138 -0.55815180030658251287 -0.65120544394658708143 0.48344244909883404837 -1.1167086074441032739 0.77655807875941751384 0.093110095933496200837 0.21832636799340041089 -0.64532403534598381523 0.0077442360789419613029 -0.70576695617975393482 -0.81357015795746323583 1.9122320787960773725 -0.03291800341043946837 0.24306480955963299939 -0.4566256993676612308 -0.44838679391473734714 0.61045566680361817991 0.1439602954190537798 1.6749273956053718493 -0.039321135512982663407 0.49844378199922900752 0.27898063731444355806 -0.57977022609836315059 0.071851941102379343618 -0.015087316049024352207 -0.63815245426393596428 0.087316471237055146015 0.083374531463629678041;-0.52838726015327608376 -0.54153733941638837468 -0.46464029876479912007 -0.64038467805012599943 0.48542640443080053991 -1.2836052901855090624 0.80419886336720036724 0.27703946716858096622 0.41446407163143084151 -0.50894862575101285085 -0.023621611944022312402 -0.54380969667299494663 -0.84062096457412127659 2.0657556020300589239 -0.03435200121389769129 0.09740018132593676603 -0.60611241959366413123 -0.2822889506265081061 0.61492957609025888921 -0.15377732524336540365 1.4077415387774370181 -0.1116094331410303897 0.53789060762875395838 0.18549020141682659446 -0.49151626752372667983 0.0039974003191612199337 0.13584788525261839998 -0.62050239595400535908 -0.0842148644724462353 0.0088844095319420002266;-0.52901934518457327528 -0.52285087797958396116 -0.41857960316121772815 -0.61766492625862978727 0.52740529927016099876 -1.4436050691408899294 0.75684659328144454626 0.44534715569389504708 0.58231660662690876151 -0.36331763392819199643 0.0025924509507073579401 -0.41573418375667819946 -0.83218041529015074342 2.1322681783809360745 -0.038703046671616073149 -0.014968877911393565008 -0.71575906071490558169 -0.090963452153217008722 0.61932935135850319952 -0.39475219195459904098 1.0786504527994627001 -0.1463555114940858215 0.55980500114164266634 0.086175862573139513922 -0.38260888303595586013 -0.035986221018049095732 0.3521369095470482935 -0.58289061294264588042 -0.30456100156780713251 -0.041522336750384268578;-0.52362354585406778451 -0.51976779952582252697 -0.43752786359807743777 -0.59615249354734412002 0.53764870830816891001 -1.5620615241013819929 0.64267766260229397535 0.58133439806121034454 0.70611883075341741467 -0.23302957272607061068 0.090538395036695445972 -0.34285928342283511494 -0.84006996863749894278 2.0892687696828726729 -0.02547938296857381324 -0.089449663158524678197 -0.80185895774830306948 