function [y1] = anomalyDetectorFunc(x1)
%ANOMALYDETECTORFUNC neural network simulation function.
%
% Auto-generated by MATLAB, 06-Jun-2025 11:41:56.
% 
% [y1] = anomalyDetectorFunc(x1) takes these arguments:
%   x = 100xQ matrix, input #1
% and returns:
%   y = 100xQ matrix, output #1
% where Q is the number of samples.

%#ok<*RPMT0>

% ===== NEURAL NETWORK CONSTANTS =====

% Input 1
x1_step1.xoffset = [30.3460437994352;30.3460437994352;30.3460437994352;30.3460437994352;30.3460437994352;30.3460437994352;30.3460437994352;30.3460437994352;30.3460437994352;30.3460437994352;30.3460437994352;30.3460437994352;30.3460437994352;30.3460437994352;30.3460437994352;30.3460437994352;30.3460437994352;30.3460437994352;30.3460437994352;30.3460437994352;30.3460437994352;30.3460437994352;30.3460437994352;30.3460437994352;30.3460437994352;30.3460437994352;30.3460437994352;30.3460437994352;30.3460437994352;30.3460437994352;30.3460437994352;30.3460437994352;30.3460437994352;30.3460437994352;30.3460437994352;30.3460437994352;30.3460437994352;30.3460437994352;30.3460437994352;30.3460437994352;30.3460437994352;30.3460437994352;30.3460437994352;30.3460437994352;30.3460437994352;30.3460437994352;30.3460437994352;30.3460437994352;30.3460437994352;30.3460437994352;30.3460437994352;30.3460437994352;30.3460437994352;30.3460437994352;30.3460437994352;30.3460437994352;30.3460437994352;30.3460437994352;30.3460437994352;30.3460437994352;30.3460437994352;30.3460437994352;30.3460437994352;30.3460437994352;30.3460437994352;30.3460437994352;30.3460437994352;30.3460437994352;30.3460437994352;30.3460437994352;30.3460437994352;30.3460437994352;30.3460437994352;30.3460437994352;30.3460437994352;30.3460437994352;30.3460437994352;30.3460437994352;30.3460437994352;30.3460437994352;30.3460437994352;30.3460437994352;30.3460437994352;30.3460437994352;30.3460437994352;30.3460437994352;30.3460437994352;30.3460437994352;30.3460437994352;30.3460437994352;30.3460437994352;30.3460437994352;30.3460437994352;30.3460437994352;30.3460437994352;30.3460437994352;30.3460437994352;30.3460437994352;30.3460437994352;30.3460437994352];
x1_step1.gain = [0.0787973278784463;0.0787973278784463;0.0787973278784463;0.0787973278784463;0.0787973278784463;0.0787973278784463;0.0787973278784463;0.0787973278784463;0.0787973278784463;0.0787973278784463;0.0787973278784463;0.0787973278784463;0.0787973278784463;0.0787973278784463;0.0787973278784463;0.0787973278784463;0.0787973278784463;0.0787973278784463;0.0787973278784463;0.0787973278784463;0.0787973278784463;0.0787973278784463;0.0787973278784463;0.0787973278784463;0.0787973278784463;0.0787973278784463;0.0787973278784463;0.0787973278784463;0.0787973278784463;0.0787973278784463;0.0787973278784463;0.0787973278784463;0.0787973278784463;0.0787973278784463;0.0787973278784463;0.0787973278784463;0.0787973278784463;0.0787973278784463;0.0787973278784463;0.0787973278784463;0.0787973278784463;0.0787973278784463;0.0787973278784463;0.0787973278784463;0.0787973278784463;0.0787973278784463;0.0787973278784463;0.0787973278784463;0.0787973278784463;0.0787973278784463;0.0787973278784463;0.0787973278784463;0.0787973278784463;0.0787973278784463;0.0787973278784463;0.0787973278784463;0.0787973278784463;0.0787973278784463;0.0787973278784463;0.0787973278784463;0.0787973278784463;0.0787973278784463;0.0787973278784463;0.0787973278784463;0.0787973278784463;0.0787973278784463;0.0787973278784463;0.0787973278784463;0.0787973278784463;0.0787973278784463;0.0787973278784463;0.0787973278784463;0.0787973278784463;0.0787973278784463;0.0787973278784463;0.0787973278784463;0.0787973278784463;0.0787973278784463;0.0787973278784463;0.0787973278784463;0.0787973278784463;0.0787973278784463;0.0787973278784463;0.0787973278784463;0.0787973278784463;0.0787973278784463;0.0787973278784463;0.0787973278784463;0.0787973278784463;0.0787973278784463;0.0787973278784463;0.0787973278784463;0.0787973278784463;0.0787973278784463;0.0787973278784463;0.0787973278784463;0.0787973278784463;0.0787973278784463;0.0787973278784463;0.0787973278784463];
x1_step1.ymin = 0;

% Layer 1
b1 = [1.348971613878015674;1.6727651802508916035;-0.63126647769280552769;-0.51404417500264676377;-1.2516032672081440769;0.22901787846095703061;0.63253042259119374169;-0.47587673103621674908;0.32387173621818488023;-0.53838280719016762266;-0.88631429003011286127;2.2809123632876775467;-0.2962213230002033737;-1.9532991137839732509;2.2952354261139165104;1.566208602260717786;0.15154114629487822064;-1.4096972870267250322;1.7688419183559380699;-0.77441577217741286443;-0.37352662251024065787;-0.99039461296739894625;-1.300796512720540532;0.57703789257408122371;-2.0952981187791137607;1.4554388027528515348;0.22761604707935170766;0.53230150433332634741;-1.4643082617924798594;-2.3073883084308919322];
IW1_1 = [-0.014322977096741242378 -0.076881169296421761339 -0.12759734824622051552 -0.15819502113581135339 -0.14536333815891333554 -0.11759979861972090498 -0.050927331078365355166 0.034926570692509852079 0.11381756967023132221 0.17837097256517711608 0.20890120105276924201 0.19742452625595263704 0.14789737602254882098 0.075003840469972410387 -0.020116626123633792739 -0.1006401848467558674 -0.17006794647026565737 -0.19882750861462297753 -0.19122653772131387173 -0.18796517179857621938 -0.16352389197800892839 -0.13563518453577752543 -0.11340449103267855047 -0.087030226042664887709 -0.084145054897358281809 -0.092262804846467497133 -0.10070415793840557794 -0.10365810028879481053 -0.064119026714089186192 -0.0083058084425067894851 0.069802072382193852684 0.1673886963600063893 0.25847570811318498762 0.31989801833152892163 0.36797217027886264251 0.40781372476613914069 0.43234130507192680692 0.44309718329410080484 0.43285898494544555737 0.3931461342179323748 0.33193265286952833293 0.25487540559974353194 0.15753862368671603389 0.035110427383122561062 -0.068461510684131046678 -0.13943736786186131105 -0.19035773262482402757 -0.21761455983057034769 -0.23782722700704930774 -0.24367725999966352579 -0.25271982865363068482 -0.24167421886635409578 -0.20375920911274836289 -0.15282923686012872544 -0.10071054961599829047 -0.082893951312096661455 -0.079958187261484597874 -0.0800259771032392625 -0.090527246940974123723 -0.085873091015787869629 -0.071398175777971500944 -0.059186140599726100309 -0.05860279452288429114 -0.066808570127485672474 -0.054594563725925707165 -0.013913292804618559995 0.041334798260608436593 0.11554180063179406157 0.16551317718022368064 0.22374503722748195766 0.23589003276392728203 0.21051573145310900625 0.15034250241591975983 0.055894754864582764375 -0.04510045505183630371 -0.16167570375260892357 -0.25748314743288569506 -0.34369309937782149822 -0.39698381504970708944 -0.4575096646912487075 -0.51982919252870318783 -0.55707972115300041782 -0.54809280447562436223 -0.45426735617263386269 -0.31768635734649430802 -0.17924336373353436103 -0.051172117916884488076 0.033975924255057431134 0.092523438970204388565 0.13240645158829353334 0.1350151539865658834 0.11844226123006545981 0.080213517302950801402 0.02185384366438947526 -0.022312112627387536284 -0.055623989638597201579 -0.064031208607074494021 -0.045090718089689903192 -0.0097887266183853179763 0.034957986317972297718;-0.2495864512693352355 -0.25001446235069318957 -0.24882167000596924766 -0.25397351589762223734 -0.26057484073883863118 -0.25544203716896651812 -0.21386816247168444205 -0.16936764561211978264 -0.11415062857662229556 -0.05832252236829591624 -0.028470955253454558603 0.00061138821682785984748 0.0020655214804765169301 -0.011379158333141674297 -0.038482547148101120538 -0.063558096198450098058 -0.0929364351015620066 -0.10793130730447007826 -0.10764113054506854739 -0.09166249738311349482 -0.049262119219685464311 0.033427960493706158907 0.15088385071864063303 0.29246004721067880849 0.403027584509161374 0.49154335878141791616 0.55040003048089092275 0.56167492111290140411 0.56353683574373891751 0.50929482451017293876 0.41316480381657338938 0.29145098215949871712 0.16524183294254168874 0.022651509628865116458 -0.12898723082310104004 -0.25663623543229924229 -0.34911602775265143661 -0.39365078072886011684 -0.37286035923139115855 -0.31091826637601477357 -0.23856593099942444147 -0.17626760459236628931 -0.12299415670694115177 -0.078566127265063318008 -0.051328836179160543252 -0.049864222245888004115 -0.077462933246159909606 -0.11334931838574642537 -0.1674612671492727578 -0.20076873278945334134 -0.23463364777312226139 -0.24302888073901476873 -0.23836087673193540049 -0.2220886521598579022 -0.17470558932433746802 -0.098622988626783925081 -0.003745483360724038719 0.093953923736573519143 0.181061156756802899 0.22589548087984898106 0.24203985228826466192 0.24098274384812312654 0.23823022182425243609 0.2127080571043448165 0.18116924248102628248 0.14582331033564860379 0.09092166673124944809 0.026699765906849363267 -0.052946019833235713481 -0.13768967390962524866 -0.19139747309268245745 -0.23218226220351431688 -0.2579700592605126408 -0.28425972536164034743 -0.27957518150296450932 -0.29062384862137041752 -0.29193811298073141236 -0.30467184610876479889 -0.30260888434603211428 -0.31801820306683742379 -0.31438978340031464853 -0.3021012761847771122 -0.26222589110776212129 -0.21495738676491948915 -0.17350390298359044672 -0.11793072751847676061 -0.043545274776447644161 0.004143179846152260544 0.063668315085350632443 0.10713464328190082375 0.12447801605245677192 0.12458024479064346013 0.11091409521145043082 0.11561821752518537665 0.11678751245798237035 0.11729322168093733736 0.12695524513259245913 0.13368969584758683133 0.12365586326428811004 0.084560738918572478373;-0.62279282726185236641 -0.47786661363400251279 -0.33947138061132930975 -0.23717518115981692239 -0.11131529810547648174 0.0080107044561746366951 0.11806695152510045255 0.19472472482948102734 0.21237316758764415714 0.21229072319222055953 0.16932371043132340982 0.11379899042460833725 0.044762368577990430119 -0.014012245311666941816 -0.078539147751580051793 -0.11124601913845554024 -0.14920281312747055158 -0.18754891243735807849 -0.19700780006755205798 -0.20817577901924069761 -0.19278428787283138912 -0.14609355993256833983 -0.061361542060747002736 0.022067737797885983442 0.10440456880706498743 0.17318336163443986964 0.21357258569192694164 0.24160797541475556582 0.21003886469456004016 0.14905787128145342457 0.034080715249877192863 -0.086340332096840305409 -0.16371242888646414526 -0.20670020079746379005 -0.1998692805438155029 -0.14061164176855159291 -0.032766511773456401257 0.097288297863110717589 0.22447442130338732258 0.33532967423153647868 0.43876002946676534444 0.50911020667156148267 0.5423587016073150302 0.54603273083022785261 0.52265883440610561017 0.46788041380900557975 0.3837240143985899965 0.26219792285413340283 0.10476051901555272217 -0.069269151395426095674 -0.22439603919698489221 -0.34129552782372651887 -0.42332294909634926583 -0.46292459175821099038 -0.47936326906537335413 -0.48540355669659096538 -0.49266874006334387959 -0.50048150108045874607 -0.50523519370262082173 -0.49269885908205163227 -0.46318474722415292621 -0.41518217024916737046 -0.3454329953787292351 -0.25717549710503107008 -0.14822237897193432654 -0.0056553219942021906719 0.11563665336096887182 0.23322663648782143708 0.33102954248928789793 0.41329859606542479478 0.4746219287938421294 0.48895104200848327203 0.49699727196164089627 0.4754178454584895297 0.44723570598805240106 0.41548056730307719731 0.38559589076600198077 0.34693373720436981866 0.30499195861811695396 0.25643761995786057417 0.2155262926806583712 0.16855608258150325818 0.15104965679518064792 0.12470346151075915875 0.10399190402213127904 0.073522721414647898563 0.03107327074858814292 0.0060681265072557669799 -0.018350063220600745795 -0.063102774000355896233 -0.089239066718522108701 -0.11969179322802499243 -0.166069245691942452 -0.2189154701855697549 -0.30514973278228091358 -0.37523011693102459319 -0.4025765457672802472 -0.39596064631471622475 -0.28598722182278807358 -0.081424521371058933283;0.063289629930550164727 0.1199023474626281921 0.14369738743449098073 0.12975838385522212026 0.11934370161482732442 0.13516011011582351742 0.16671835320592642837 0.23510148956692647482 0.31149211783846159074 0.40429508689323245818 0.45534329794278943782 0.48685675793869975791 0.45517133659073144569 0.38836898673637504364 0.29566641319305259072 0.17907081206334227175 0.089518750094423685248 -0.0038900121589968265391 -0.059896125508734007759 -0.099004442335247327955 -0.14028836881361142486 -0.15091565912647220138 -0.15176265877679942506 -0.13798052548408124007 -0.11480097187050145036 -0.081378135124169775905 -0.075581729878502451614 -0.080309982514084166105 -0.085701884465324396079 -0.082626152025358709508 -0.077342882091627929153 -0.080694179902079637978 -0.09418570584385044242 -0.10190549298936318889 -0.1218085035122523363 -0.13506942032950139398 -0.14034189529774052096 -0.15815907088542824344 -0.17582962724609393912 -0.17966050598368063507 -0.19085691443261321165 -0.19744104069531856482 -0.18257072125557741171 -0.17481001220824107789 -0.13456289393802886578 -0.075429767144868431483 0.0093038763424605954583 0.071155539567698572467 0.14249683726290393593 0.16421509483124194229 0.19815709721924806841 0.19014693327231266262 0.20431912896125986601 0.19885602426706822099 0.23116731088635023017 0.28399089013771355861 0.33021875378445353366 0.41824290519259449406 0.4864314062112177206 0.53045110498339476113 0.58300868321457344212 0.59560228170120932401 0.60701678537012482284 0.60651443614771216595 0.57433961407774514196 0.54218569554849072034 0.49430668653393716738 0.44256383694287543262 0.38237194338922597669 0.32451862488170102328 0.28273076540560859726 0.2450576577189537697 0.22621177410018872278 0.19040458560251877218 0.17885287042238823263 0.15538378641967282023 0.14222005318484631786 0.13208956231310609031 0.12026919164055399625 0.12995488279531675069 0.12661181189675504988 0.12943348413524743967 0.13788588000098045416 0.12813791212542374742 0.13079673872141253654 0.13214383141149591006 0.12795611385061603227 0.1213160692872958385 0.13867409009235101558 0.1469417206842161816 0.16005516493556792845 0.17386310601145063548 0.19014609341935961861 0.21183582394155586748 0.22222090618222117842 0.25740286546299429027 0.28136368709537318278 0.30801145917575967204 0.35338018162371320763 0.35429312076080377025;-0.55358641186651957877 -0.32875678595683305305 -0.10498014863274116037 0.096825325707182385848 0.23732068763152361357 0.29252080156477588968 0.25277674564548890945 0.17105215192592507223 0.055553002024586767282 -0.090732420525170026648 -0.20711382710878059599 -0.2960424964548573068 -0.35599492211272820708 -0.35091711536814568229 -0.33350027646813379389 -0.29104245183954191578 -0.23974105296022546474 -0.21799837363063281903 -0.21382104255607287113 -0.2014284528821364828 -0.18008103381844275948 -0.1681858613108735967 -0.10846846211812881389 -0.014342654728007759798 0.10644288112235197885 0.21650657420127941699 0.36910983123974766551 0.47258342173481249215 0.56513751265294998039 0.64174668187969807764 0.65096148515558271974 0.62917722069978399002 0.55732028655334375777 0.44787109291687721147 0.34017014263915223982 0.20842250781288992889 0.092379221398469726911 -0.0062716612592222881553 -0.071113457187698916884 -0.088504196216086405968 -0.079311767470696598048 -0.053511928418173079769 -0.019686835600128682611 0.017083762658379606642 0.010475535800519885851 0.015073251140541100643 -0.011234314104724248823 -0.075157717309373053838 -0.12931936948596539638 -0.19659412895247466158 -0.23280732914873430994 -0.22845073028304449525 -0.19370686652426527541 -0.10927634362510739441 -0.042604791797169687395 -0.0021384850479996939283 0.00068070903723469790032 -0.016367386159586352207 -0.022489461183648546544 -0.030041468927856779247 -0.031478386019623473546 -0.011284981311308284191 0.027604783170621982613 0.065184824712739550256 0.11027001767746059946 0.14480636145040334806 0.17657245208200025854 0.18024215891905445708 0.15485794673549713174 0.12595790201740089675 0.041163961129960249807 -0.041405803554036453573 -0.14031784509096392743 -0.19251494088000287164 -0.20223128118891964267 -0.15897349815457426092 -0.063104127931335018964 0.05735574250957647946 0.15005783976640280075 0.23790196852015821349 0.31274478081449741396 0.37652084267724728051 0.40788313897590861012 0.39402511644737364671 0.34338217463330322765 0.26757253485649629132 0.16857155949002611273 0.086497965550709141058 0.037897446206974917671 0.018252414881259382967 0.026679283343195536043 0.034270927695331340757 0.05003266778542464488 0.0616594377570298946 0.067525972055848773601 0.068432924150345311731 0.034896283260911070689 0.0062161140487656234982 0.011839976189696959849 0.082861408408514983237;-0.092521503910628646872 0.023517508024038562275 0.14142098396563324014 0.21322927223229357074 0.24916677331688286134 0.26619241549955563464 0.23706446488375240711 0.21250321816961448285 0.17772477699671612728 0.1454665973261660139 0.13005975953486056951 0.10665475445568242674 0.093774370280000657329 0.11209168316726783599 0.13136826899363190924 0.17935441225795908937 0.2280887716492969175 0.2770850547167709732 0.29596172912977752878 0.2654168967291251624 0.20810791520972191093 0.12888735543211704559 0.048086960299225538218 -0.027938188672041314176 -0.10966060369596164481 -0.17464752673430247731 -0.21349329251205845237 -0.22368050809943948454 -0.18858753280068807356 -0.14118398054725167512 -0.066584314291816992792 -0.01094703392909461212 -0.00073963267367011366685 -0.025911256694406230999 -0.067672729880879828324 -0.1439632112422072896 -0.24045666255040720749 -0.31984097320705612288 -0.37834721455172631854 -0.42369119080233685892 -0.4104174151170138507 -0.38206592243144471555 -0.31682734772326659467 -0.2535902053588423577 -0.18012263996469515814 -0.089156407785531480159 0.023317125118553039959 0.12733123331298279446 0.19375836925516265463 0.22503944229542485744 0.21951771458139893167 0.17330686422284496961 0.11767030029586340867 0.056663608628880125784 -0.014740252935116706853 -0.090023783955503478005 -0.155974453351497927 -0.21538220983710118506 -0.22601516922553452349 -0.22548189859860817696 -0.19764520250433992299 -0.16651365352602631731 -0.15919275150742007163 -0.15323081699376900344 -0.14324237271276984984 -0.13949064088839746578 -0.11715072499826423291 -0.069944444327319346688 -0.02232069203732591281 0.035487457738409014518 0.064292450600242315173 0.081895187911759537158 0.056161826273446034674 0.023164865288008016503 -0.043155679375483910198 -0.10782080312257384669 -0.16846039090527040183 -0.22386588105022417472 -0.26506623096127052142 -0.26489710868653393305 -0.22259544344237175428 -0.15342096184387715718 -0.087900159833421129263 -0.0051218676910879078201 0.067980048884080102045 0.079360775638227049056 0.070296514894605019452 0.033537759894428739726 -0.027556042989932492959 -0.080368563537492360149 -0.15361116149202536096 -0.19861998462078406247 -0.20389842165308488808 -0.18233012078677082735 -0.12137153898368484295 -0.040827366122643857227 0.096489382279450294777 0.22783311195789812675 0.36878986700670207677 0.50090033016725776793;-0.72794632389581559462 -0.55865717687923222012 -0.4006798872749099405 -0.21256930814627952864 -0.055667348272521892383 0.06210047078246285629 0.15954458597594398106 0.20770810336756681536 0.23299166916459007615 0.24936003187125596603 0.25789175734628377867 0.27348366184819883351 0.3050642438676156587 0.32928190826720715734 0.34178249975041347097 0.3478560559418657494 0.33601916070924942037 0.3100048409098501434 0.27339772429209574511 0.19158901867307959188 0.10627679150134672348 0.0063304369595782970792 -0.063784505173249003707 -0.10636485812745088975 -0.13026242507742516463 -0.13580606919898938201 -0.11024171782761940652 -0.08516375095529865602 -0.061625449007360895426 -0.038986970754798108696 -0.067218992625079632131 -0.093091262709249153473 -0.12062134735863173918 -0.14322984466786561897 -0.17926215924109034638 -0.22974691978300068596 -0.25742689175810012925 -0.27004025916379614802 -0.25449743628899934578 -0.20931525024027267112 -0.17980681046115792876 -0.1269068696177702571 -0.086307925896732473614 -0.043755887110793777184 0.00026896571581910003667 0.044310521940776531613 0.077518400526346772916 0.12592649420808713079 0.1866615833121274548 0.25978252013990960068 0.32218404711775200377 0.369716915887720321 0.40157062111361180312 0.37333368894584945119 0.30351757358721548341 0.18981176126066706678 0.025279880289585530267 -0.15178984908406131793 -0.34330163256374685021 -0.50593721557499582442 -0.63783578404679741602 -0.70186383125612250566 -0.68870242606609921587 -0.63127502637712151756 -0.52870471821563824744 -0.39737456468536175302 -0.24442159174173461178 -0.13082082846384415764 -0.036720237049415731245 0.027746977639490792711 0.065363054479355045534 0.091679843387148560185 0.11942766905660599785 0.12580921647417078746 0.1490995398369208691 0.14127450801487859144 0.14255493252135889581 0.1207583143418024807 0.095654557992816593992 0.053441908078841075802 -0.023996377405397038146 -0.089586085230690198911 -0.16914168159764492172 -0.23354112966738085899 -0.28107259134613965523 -0.27530116165181922616 -0.24228281311755162086 -0.16200597938182637048 -0.048818104083986707531 0.079956503571315687418 0.22045105242647150545 0.3189274259666967648 0.36183228142378826009 0.35149727397157504161 0.29011811842430251795 0.19521820484539612051 0.10154246302690925208 0.0020231322642690592953 -0.081593283017044257455 -0.14670925335796830558;0.23999580283398910807 0.15971213509931647678 0.088982385643073522163 0.028330789944666010666 -0.034073853202704507126 -0.09860640794414078647 -0.14423436387919508217 -0.19520919135620712348 -0.25008079698285334835 -0.2733299299057782572 -0.28125052891838980829 -0.24282875844081852623 -0.18777921042704157073 -0.11774558088115640031 -0.028576631157268952976 0.048960236581640240172 0.11219139648864370762 0.15021402586669418966 0.17026299132399461134 0.17582404901316045498 0.16460187539610990348 0.12545105585749144472 0.091290155064876740698 0.062622430681784552187 0.025511530517050080846 0.011544122949753328478 0.021456725004133474222 0.034262663837423740221 0.067170402344208915424 0.078067578267027537553 0.091714557375438987563 0.08166107903279502811 0.084932631276096723361 0.075704097795081332078 0.063271642756119766959 0.037982856221223597337 0.023635040041572935587 0.01409430981697944521 0.024646418842197762716 0.069083775467303348838 0.1127142202714662006 0.14131877463706529752 0.13728243830672565151 0.12340288939830865167 0.073326967087149932945 -0.009320963898662014413 -0.097744640949284325449 -0.18342342461532243347 -0.26182076064174752972 -0.27239573953462459244 -0.23501072756816129838 -0.14971381427744054338 -0.03340662852637295982 0.078817208577538350189 0.17721048842348333108 0.28381157456230449165 0.40452729658191033391 0.505027337099716922 0.59465910093847040852 0.63433259899778804414 0.60590504513654774854 0.53700845255657714272 0.43614472885087141041 0.30882434493061144964 0.1882824136104264412 0.073346223026245188636 -0.027284671164290709433 -0.097621168194906987603 -0.13315045911549713842 -0.15859834364603778156 -0.15361383633384001479 -0.12579445373820319354 -0.055784000609393674663 0.028313608868225162429 0.12031620324619503315 0.20966273262218679263 0.27501057983263910156 0.29249877837205084941 0.26958177054868953659 0.20766249116640167482 0.11097382281027630413 -0.012312779524210441806 -0.12339528055222209746 -0.20451006778011590614 -0.26330281758299078909 -0.29088493064870862836 -0.28306512606290051837 -0.27229974100065879039 -0.26428575717249608301 -0.2577362312484030582 -0.2360323885741161809 -0.21516874528272095235 -0.1996377025342574163 -0.16846668921243526662 -0.1510387666348531055 -0.15396235615687514642 -0.16472670247776169394 -0.2258662823478932713 -0.31824921250888971169 -0.4701990794356872283;0.26862417592882187334 0.26400757373922834059 0.25570605912596150455 0.23662712232378754762 0.22626950459458763931 0.21293811037512730411 0.19643316007957584146 0.20164655208447018753 0.18832789672326039065 0.16458110309502119173 0.16764297383851661793 0.15110878181458461955 0.14681971870936266766 0.15648905087034203909 0.14351274466362290427 0.12691567029428657554 0.11871202289038251809 0.1152752893639647086 0.090713047489445239324 0.063862575777763608276 0.049819053493238903141 0.026689767585786689646 0.020960058533268634273 -0.0083270144234145106882 -0.022578449842341585807 -0.036211349014738589136 -0.038163065563287905391 -0.05118273251085354858 -0.065025006450254621559 -0.080223507442357844255 -0.086684737762255673066 -0.085445761609564088723 -0.10076732956668939256 -0.089053026706781474031 -0.089555547139172839155 -0.091501100285850622829 -0.089065401467522772871 -0.080719629554692598483 -0.065509289165793752052 -0.041238767867875635031 -0.024030911784804924458 0.017207175166181636061 0.04013514337106805635 0.083055361129974303314 0.11413367943978061647 0.15360512687331792647 0.19204392220384766676 0.2167679005218639543 0.25603482669042693098 0.29101585495956910909 0.33185249525371857127 0.36279540272077481777 0.39139997036179963175 0.40626782780961162578 0.44041267932183675304 0.45859201070201288664 0.49372855894324946258 0.52047641182770443269 0.53283055445127180949 0.57866825569044066935 0.6044553872315154841 0.64208459382745697308 0.67494266473644304316 0.69286082384226921338 0.7302386396397997359 0.77164918617947086954 0.7971653052624202429 0.82153459720489230289 0.84348665018468382826 0.84974285120959014428 0.86395016439190153168 0.85901482190242406389 0.86126845358410586417 0.86266709520560702629 0.85588828160787089327 0.83620081720237426914 0.83298163122016510851 0.80807589047103878244 0.78925467587196107555 0.76447649426600694511 0.74091321709162671905 0.70561684983492223289 0.6739929002177370565 0.63409948623997469674 0.5985684005372206018 0.56430291827099765545 0.51429533051181053338 0.47787520065593669383 0.44066071442071125253 0.40140906244060647889 0.34467081726188125712 0.30059636991312221888 0.25858249777218200727 0.20984001626816342623 0.1682323313524978492 0.13969642338044466201 0.098774268902796169556 0.066534943237427160434 0.022526893450840829169 -0.014365138078929527363;-0.36581098155094704527 -0.40144688102138992303 -0.44967829989035396077 -0.48462392862307684949 -0.48919233786937665887 -0.46231108003068216439 -0.4222612155054508154 -0.36047406953216659664 -0.29923830639801735076 -0.23034154989448335504 -0.15993535238186118441 -0.098655255131814320602 -0.034985465865659391704 0.008154417847246558243 0.028431658062829812811 0.0046984422634623506168 -0.067806732224142129972 -0.16601447959742510196 -0.30012323001262070088 -0.45503767942575640282 -0.63341657386074778913 -0.76875290294492293341 -0.86037609809806092631 -0.90447832131432726044 -0.84700172427910835893 -0.73898658723246191116 -0.52332560936298111454 -0.24973017324952662133 0.024217071158986268331 0.32298560605478915386 0.57545819908118367447 0.74195013370528517527 0.79534972368168466161 0.78287867379607056773 0.70786034193986291374 0.58567028732181980466 0.42342430544921427771 0.28603656507243230278 0.14239033790564351034 0.045367866599178394149 -0.017721707394358066773 -0.077847078300280717067 -0.12513086367756229289 -0.13794228495925647815 -0.13660507193857152064 -0.11376158572848965589 -0.10766847088285981526 -0.073091473993761882366 -0.062290333218167577567 -0.052250649383513959878 -0.044334410000102332516 -0.034677987193864744098 -0.017077905329654589212 -0.00025904751285143112413 0.0081547151760801035031 -0.013775818635150472585 -0.017603500929483522491 -0.0091046405056788189125 0.006368682446292374226 0.040888655917008152885 0.084382418442306247885 0.125541048973882019 0.20842119817396279058 0.26166424932948101345 0.31717544545680104173 0.3480059195456561838 0.32923907161112980768 0.27442026917590900403 0.17548573914947143693 0.032437949708349692046 -0.13619461047436007273 -0.32442007862918281758 -0.49217916421746515931 -0.62433293963208569277 -0.74307633132271722065 -0.78080696821098904969 -0.76465104222323476701 -0.7166540135871747319 -0.64368986055692789527 -0.5801789003185291449 -0.50374833829414611408 -0.40468452692131201553 -0.33208950522524777194 -0.24801617796380909242 -0.19497239358239745743 -0.15736249729096746242 -0.11789670296727572385 -0.10362640561263641859 -0.094727677335925672408 -0.11805217890598462827 -0.12644702758298528855 -0.17657961589200321662 -0.21962148042945714432 -0.27325451135812589554 -0.33715087216325057007 -0.40647196844843280772 -0.44042944498324404501 -0.47557148569052404286 -0.47219016150973708301 -0.45355689456386538705;-0.33732257958287004129 -0.32308820149398997934 -0.30043605830236908005 -0.29357072421456958944 -0.29775426907966789924 -0.2824201831308469357 -0.27684197233319457476 -0.27906886189519236607 -0.28429917856921066432 -0.27475034391856978377 -0.28137853603580287309 -0.28204351724089476994 -0.29633298831129023521 -0.29741845247215309422 -0.31494147214292250725 -0.31558328717244765738 -0.33566212632521452708 -0.34921542636413793748 -0.36328333179009880682 -0.37192277259626166375 -0.39745962298462117479 -0.40235309290604881483 -0.41509932922135955868 -0.44066702871538782071 -0.45672625436196229165 -0.45310611739018441524 -0.47145803456738366588 -0.47479819603198825106 -0.49082878134764978961 -0.50580715384722785277 -0.50765013902729905215 -0.52082662000218704623 -0.53056868503421061867 -0.51634118291635300313 -0.53021844374184456949 -0.5299579810454887463 -0.53333091728097858919 -0.51721787777739902658 -0.52215595141268000834 -0.51104530614080245776 -0.49553830186968872429 -0.49894249120961164934 -0.47638133342534549897 -0.47230942065931386109 -0.46356025940866346646 -0.43866685059208876396 -0.43303767607374687998 -0.41128402437325234375 -0.39351379998223928736 -0.36214527482534936142 -0.35735955665259772074 -0.3297896563217385113 -0.31202680693136131129 -0.27724777616999013441 -0.26097507745462644735 -0.2342938465303758544 -0.21916491282631991866 -0.20025561732491869993 -0.18383485887771724987 -0.16801234854186458678 -0.13938513566440502434 -0.11605517766478942732 -0.11311609837362769648 -0.087899522281357847509 -0.081585169132639190348 -0.071865275444595366761 -0.060015390881109360877 -0.058050583296857742599 -0.04169726236885327314 -0.051795052555290120588 -0.034981372264586349519 -0.035265670342917991575 -0.044642699689321233003 -0.049511390135891612807 -0.052949604274158769412 -0.052574975869840431808 -0.064843698653925030406 -0.067781236121064264433 -0.081745626259751319465 -0.10439443086173585962 -0.10944174633943709596 -0.13304223306597154353 -0.15698748196767298158 -0.16546938400014932213 -0.19739830392246582313 -0.20287634460262313207 -0.2332773583882542523 -0.25793321654843909263 -0.2695557243669322034 -0.29952384076958749048 -0.31809219682041500743 -0.33336006898699394041 -0.36037882279569621868 -0.3889396067959600134 -0.40670489387620084587 -0.43790001852594256926 -0.46276966036511202329 -0.49440645907497898781 -0.50750754553823929083 -0.54539776882993218354;-0.1639404379165680381 0.042336657252319408185 0.21213101274525372752 0.31087376060868948668 0.34648552098853241388 0.33607560799785796135 0.25880364612339556984 0.13978720606051420194 0.013467675843109046252 -0.14402047978939014339 -0.27834548852851614953 -0.39963134296343205687 -0.4600777856846633429 -0.47377646877888673904 -0.42528041991331910765 -0.32612812855246658961 -0.20360340906462565114 -0.071565144488714732551 0.047383828604138762686 0.13571265792613323997 0.19056313013004422263 0.19571219858889726817 0.15549427528190915004 0.078018837345187094789 0.00091187720441080833203 -0.061226950502301105694 -0.091704496007374125544 -0.094214312980775885564 -0.083721512807524212096 -0.034674516863593171645 0.017306523976484050609 0.096562510193972106443 0.14968936384183686994 0.21684040060439754849 0.27359428912640820775 0.30738322343204060871 0.28861127954299520271 0.2610441053639737663 0.20652959682867919056 0.13991348540988673976 0.087728946562194279335 0.030191856334492575553 -0.028901455749867934614 -0.07962224890438042435 -0.13365455807097753604 -0.16658335818474881429 -0.17736323454728669669 -0.18056066348242794106 -0.16741838616828905173 -0.13529024453626523061 -0.10684785986491382448 -0.101194260725668575 -0.094027579807205260987 -0.082314321760187297849 -0.079835482468280302704 -0.063743013370315598776 -0.074422996658298906647 -0.088911782157415894523 -0.11669482049466112228 -0.15430099606507155507 -0.17125825103903782876 -0.18279124264157092794 -0.19505634206014749177 -0.18606815706223209239 -0.19780251901858805774 -0.23700300876985103127 -0.27961971688915404632 -0.32683891186597352485 -0.34939850353629431368 -0.36660521117425870496 -0.34236690611294273712 -0.28618160816855880979 -0.22380267900747349841 -0.11405362209596603407 -0.014347767037719836788 0.11494058320215394531 0.23820364447815187137 0.33143867319905950808 0.40508394391088597963 0.43035474697072317873 0.42153181623063218364 0.37406342236928447065 0.28198665656599430918 0.17436845913436171962 0.075391660515196842751 -0.024535866954240322102 -0.094069342556652293941 -0.14782939696791147499 -0.18324202308312814713 -0.21444033588885899611 -0.21198034510429036859 -0.18001364827447277617 -0.12914356459700362945 -0.094058136166681086121 -0.078000950897679943719 -0.12689212899499174858 -0.233137704744667551 -0.40236924418850122942 -0.62283340627999395078 -0.85777600473839366035;0.49435778741126634728 0.36787242114573576179 0.25491978099714318606 0.13260327511651345822 0.014201311534152948751 -0.051613156898683017204 -0.12348625099962277918 -0.13123937847159830583 -0.076224593450840455455 0.017142837890804941275 0.13692773244634220964 0.22691629073777638825 0.32501072367186190082 0.38948946782777055242 0.41297788479015334895 0.42926602430965526969 0.45090848986413772925 0.48004905339930686869 0.50507754627469580999 0.55268411087510982416 0.55469730236369840792 0.56258833279814379758 0.51499927997260319668 0.46681662532759238271 0.38511096997017268961 0.27457494712010344085 0.15837294496901618834 0.0058220928925144408914 -0.13803477322025928253 -0.28542222483816126477 -0.38807174647431763592 -0.46444314663848385027 -0.48836664457462297673 -0.49871618970478742705 -0.46956524012538553015 -0.42270797598279230556 -0.39050648399098786268 -0.34720028591033053056 -0.27886174905091265508 -0.21526866620828510879 -0.15442140765334294583 -0.08167571180051055868 -0.014068069941033994538 0.04432026087234249706 0.093328975282352191756 0.13767495481903910259 0.1603855866390322682 0.16369203809201501865 0.13964900001485269776 0.075822492116458570233 -0.0035172580960425867472 -0.10228587318151066698 -0.17741601318085006844 -0.22266029515374768932 -0.22396315370458744209 -0.19749854090203528001 -0.12465658333520486523 -0.043800158772873749868 0.037435314759113540173 0.12192449061810033129 0.1757571114994804784 0.19263416890313780905 0.18889953412617616069 0.16062560942469708558 0.093253079817511463911 0.036779798265065229146 -0.056643921870714764033 -0.1081894208502464233 -0.16375575225649263711 -0.18135626176629948691 -0.21578680922234375061 -0.21642973301917164952 -0.22908330707273083515 -0.19866212519648540624 -0.17606836037959708308 -0.12116909277782625387 -0.072872564098133890687 -0.0015268348613464775669 0.08091299077482949631 0.15174795111150335414 0.23726935957659123222 0.28306183915426302855 0.30462742414907495458 0.29924671174145228703 0.24880888748577278946 0.17678092087601887661 0.055768279353642334628 -0.088307099316789178234 -0.22170984687118247547 -0.34763896328177140704 -0.46028781847954280959 -0.51678578094618221606 -0.50121645031807759985 -0.42962704503411719426 -0.32451160911087972849 -0.17502508977203012908 -0.047724359820559648926 0.069143200124263642925 0.12824565744779445331 0.16867813976945664201;-0.4187213109882630957 -0.29858278078884159523 -0.2005141513681345522 -0.096698017818894740905 -0.028219726670097266402 0.0019537259215085577349 0.013839654849833817746 -0.0014013295929911487921 -0.057569994376332769837 -0.10416768469923973206 -0.13943974094014766063 -0.16875337656456301794 -0.16895912643200000636 -0.10653222677670086405 -0.02789286067289421453 0.088803412897695416239 0.20877556503363936535 0.34932417687304190279 0.47930277903009793627 0.61229848789078111793 0.69379200921397132795 0.72500169490055577093 0.71801249613156270524 0.65879585750614577666 0.58326817856697188436 0.45235600031503214735 0.33078667281329948713 0.15700658329323069484 0.00041341599352903214172 -0.13916284148385471564 -0.23980617713442409222 -0.27437037288877885732 -0.26238208446781358107 -0.20955029546404427276 -0.094209639306062534225 0.0050418836516305824344 0.12011418318596867039 0.22139272357684977588 0.32775647023420756421 0.40073856333878205005 0.47009300050678343164 0.47708282076276709027 0.47781360335251471527 0.42934444421995221486 0.34071891100374890327 0.26804546253578159787 0.1891428726975703245 0.13629357997023064386 0.1221695471972145397 0.098922635099618572152 0.10805931424942159802 0.11919590237223588736 0.11865896766376808624 0.11331015654385875879 0.12852435501441225596 0.11963266459831878308 0.077033912999784556752 0.0071495332831306643295 -0.046294044409285910191 -0.12290644539387463041 -0.16260951992278402378 -0.17545087340735346371 -0.13252708440818314339 -0.10052785123083714247 -0.062313523659966903179 -0.067803850213577321338 -0.090941473477610265674 -0.12791703638080609284 -0.1593448337896167244 -0.16126789172391547966 -0.14767082988641364039 -0.083492275561456719135 -0.034089823994024680276 0.010150637030094739749 0.066169152175924894621 0.042337385016494727408 0.024617375759119805578 -0.040220027339316725967 -0.099804359613909585103 -0.13147128782353764698 -0.13945271753323437713 -0.14421402392313698027 -0.15054723872852085464 -0.13034150710124081662 -0.1345456225430297359 -0.14493480830416552441 -0.1367273058340867653 -0.13653615544059424791 -0.1588652156749086608 -0.164816490392922399 -0.20556499710736664266 -0.23812210945247419547 -0.25222585987501533467 -0.24076081263807974642 -0.20732858951824451044 -0.12265519227332717656 0.023089119003288166576 0.22602739486892603482 0.44735048983501324305 0.69951756451190372221;-0.62446549493208036719 -0.46394414847259429768 -0.30974063059796780317 -0.11226514597416754893 0.10470580253561172224 0.29155841911038710146 0.45060814703184493002 0.57884835888519825531 0.64139693234611505623 0.59268327185639557708 0.46978717603064001906 0.26348288199993841197 0.021122472548005727377 -0.23143467301520298518 -0.48542871538712278889 -0.68935666375567894448 -0.85561175087186458477 -0.92195959561065565779 -0.90863480195777412973 -0.80685942677586419691 -0.61736899352986707168 -0.3920906934095103602 -0.17927712896820183208 0.033458220258916954171 0.18313860269590179208 0.27591319921534940285 0.30646192432577301634 0.26686990844934038725 0.23375636645045549944 0.1708043377444434241 0.081127006457248893034 0.0065233100801622926485 -0.062307676802058682697 -0.10656343163641518457 -0.10872596000836423635 -0.10961524353539332799 -0.091744228997326121577 -0.063144934133224722705 -0.05539147006863210515 -0.070977698468822736366 -0.095967081752625887914 -0.11775469985618416957 -0.091772106343009682283 -0.083556587947701196906 -0.020399364951656749623 0.059523539167836217456 0.10652302824531420522 0.16443512226877063376 0.18205521191142609583 0.19156194559562889079 0.17338582134953120506 0.15929337404990576155 0.15957793538048947735 0.16280336647350934776 0.15729491711987964031 0.14161307931488104073 0.10806869643382950585 0.051182327945653617596 -0.0096259646232539127636 -0.08296150147357891913 -0.12041418944442383587 -0.14349304559285111504 -0.16266981296557048164 -0.17411770824692618387 -0.20873296136763097586 -0.23555792830675489902 -0.24072121819189362668 -0.20317306947638238968 -0.18037094005551196352 -0.095180210651053906434 0.0036223560221719333131 0.10225831270786676919 0.18264630920061047936 0.25106251923024386352 0.3000799980144270851 0.30828690310027340171 0.27516387291357119471 0.22391183276639620159 0.13043313440160289596 -0.00029407055115180421711 -0.10192045588560330605 -0.17785501751929416736 -0.26556439521923613789 -0.28301856118487850322 -0.2840402356312341503 -0.2737108835400523521 -0.24852033568789222429 -0.2217398655430439236 -0.19628461821631193462 -0.17451090850123643361 -0.16784001681926280503 -0.17054013529952588568 -0.1370380726641942104 -0.12062066547087545165 -0.074763765837333448494 -0.0090206442229228724072 0.037283430325011433781 0.14478199756254525599 0.21274331335878626792 0.28948846237783432134;0.2275319050651620767 0.013015550019585441638 -0.13826441327313676588 -0.2379484418552120506 -0.30316487583213541646 -0.36530486783794902106 -0.40957390707517521422 -0.45128010388320410895 -0.48185085927460891142 -0.49705800459559335014 -0.48746117855572890232 -0.45020987550492497231 -0.4013998029952969282 -0.33043222300424168747 -0.27182109319894343091 -0.21105919852714372098 -0.14301478408661011388 -0.08913189941053456522 0.0079795664679491069837 0.092110081864813675434 0.15468326611992744279 0.16537252906159433108 0.1598881080363978302 0.13309573621297460244 0.13137094419027747771 0.11742233124293935398 0.13890572208716703284 0.15088307242289064614 0.16501619518115329122 0.1653228661058276372 0.15777630523918187433 0.14633908986392579754 0.1606438516382877324 0.12706543806942180441 0.073939179980829272676 0.0089515274858937583097 -0.0793510447560980825 -0.11027953151903766016 -0.094732536077670931318 -0.062063185663832835803 0.00055041500671342263179 0.063169324618276220806 0.12719802536627503042 0.21001147110483378566 0.26251201737170487549 0.31841918013344339133 0.32634379009325437115 0.30348320111822130185 0.30092577275072102116 0.33179709939839158173 0.38069547665379310786 0.40194322185539399506 0.40402943834998589212 0.34842354657434854159 0.28790338179252000783 0.24002713514316692534 0.18923910759181591934 0.11532551682847774766 0.045058307767808503108 -0.013038464940335206879 -0.044048479956246187894 -0.068449006897941269689 -0.066286178499772752115 -0.032087291922551074153 0.0074528567286898756913 0.078250211678555947614 0.14994017604204465388 0.23048207839614123782 0.29420636406550998432 0.33408446521257895157 0.33837535499027215913 0.3145428280180213032 0.2977344292426353789 0.27058915772361741281 0.21115403638402246989 0.1308527860543918786 0.058551702539047345564 -0.0079888732031882896123 -0.047770470714560649139 -0.092619097688945398184 -0.12910104241458961183 -0.18687433634839947794 -0.21942695355729771589 -0.23734925691663943947 -0.24198410965253458471 -0.23096999922893332591 -0.22240394668978355486 -0.22890244702399856203 -0.21461829380818614466 -0.20217944045637539774 -0.1906370473323620307 -0.16167589720149586063 -0.1615915158628410675 -0.15346480567818363006 -0.14097383437389074401 -0.13550454479463644453 -0.093587063221510641275 -0.021077954508347811202 0.041407225388816928935 0.10754710372822069708;0.41526906081116304881 0.285499892514557152 0.16428264968676101199 0.047657810768033825877 -0.090035103354596732195 -0.21048028351650752144 -0.32513082881875998709 -0.42037463183404405465 -0.46512602376846984287 -0.45783667985081316631 -0.41082187482322973793 -0.32373156378326972682 -0.22202522093770263312 -0.10226894575311511193 -0.0025263360193944965452 0.063350108212506708871 0.089728694683995052772 0.099198201690240711548 0.08155957269355941508 0.063164823969389036207 0.03773074700224540029 0.010656340813740488443 -0.0048319578413140292991 -0.01951059205713891187 -0.030211916964397379781 -0.015746336100840158806 0.0084860231055368575553 0.036126997386314502192 0.053362231493574184549 0.0638453383820352105 0.084819425834937456354 0.095226302996288328395 0.10607117477375761772 0.10547106133758167579 0.092739885665900134715 0.079439116297438730485 0.058206763588816622101 0.026644833344834060324 0.0055796774450046155228 -0.0058787532392235762949 -0.020290487060585959272 -0.0086717227481830517349 0.010340767928655686045 0.074751069593190791474 0.12043707177605432468 0.15202064882241445032 0.21021235717276612331 0.25723278230106011444 0.30923180767420205273 0.33984081768212659469 0.35212675410070087834 0.3381965013459455327 0.29373868501794364594 0.20892251382031737372 0.11294589634582617721 -0.008877995175905206704 -0.11147902120035632634 -0.20953719441974139048 -0.27618285931158531588 -0.30792794900403352987 -0.32195807663830139367 -0.29802669576108065108 -0.24622262340961989513 -0.17498059296778578631 -0.062710628959580710928 0.072620935005296358145 0.17794461164066996406 0.25008231804412528465 0.30136603116200766372 0.27353198089086955269 0.1864297522617393843 0.061175286247268576001 -0.083501547501198300494 -0.22815131670867899727 -0.33260821225909725785 -0.41226957985674966833 -0.44110641026513169871 -0.38513253157950194661 -0.28539853074673654509 -0.15719124107298174109 -0.012927721070048201271 0.1035553762092307345 0.22998464905421600601 0.31505066142821569475 0.36813448075989702035 0.40336101212079900069 0.39843359752695506337 0.37893633103525065087 0.32483255562434615316 0.25183318668074750057 0.14243729833215906799 -0.0035787654269643191796 -0.14730632115199174259 -0.28558258957088961116 -0.3838981946180595739 -0.42944737188355230906 -0.4542390762645435176 -0.44339049014857112585 -0.39113984036101989705 -0.31290590240872862005;0.16962120844698511113 0.03653767867757849036 -0.08205380244588444949 -0.1979758801410341218 -0.24693105067395432206 -0.2382543623301246194 -0.17959464216359616318 -0.065563958249566803294 0.076657925452951830581 0.20576014547265908394 0.30767061966326980649 0.35477304490423239303 0.36274764265227660287 0.31989952827598666651 0.24614024268757619951 0.15420176328764181872 0.049447320372204825456 -0.063257136151449441797 -0.16679051262044733428 -0.25596263140337049968 -0.32427100653586549139 -0.35181015807837218157 -0.36963501670678872157 -0.35116487109659166865 -0.34266139452107058361 -0.31166050050005955629 -0.29974678128068904526 -0.26420276080616927894 -0.21239871170099380859 -0.16252849966551169425 -0.078767649513137083517 -0.003240761926294632566 0.073884652416568566413 0.144370337307141966 0.19708293463941364831 0.24149105425729497365 0.26609309559916188848 0.28092577793195927516 0.28036719116939384788 0.25768177116187085396 0.24060826439586360803 0.22451539090623698347 0.22579589428873222956 0.23426986130844512646 0.26773712710075747712 0.29972581254574959253 0.33663396452785776525 0.35914657639039254677 0.33355365154158961305 0.29710477839996646265 0.23712865807733501944 0.17238685417509377884 0.12455471152567756943 0.081738322344980005041 0.056193984561883486561 0.045976543886552756479 0.049008182938758901304 0.048778752133149326509 0.046699796593914918996 0.039450746976971942659 0.012503069782977447102 -0.042764743853512636462 -0.1190508951778153357 -0.21362738914727408268 -0.32011360654415721427 -0.41759981662432726912 -0.51073558113343220377 -0.54600951547760412375 -0.55793753995250239264 -0.52996572861358604012 -0.46969076834410689036 -0.39146878258259970584 -0.29862846449776275781 -0.19155215642515485697 -0.11697102259355059151 -0.0097955209723346488293 0.079195883402774419624 0.1782772213916841153 0.27135419326416776453 0.35071921257925631199 0.40077868412325678982 0.42445766050631394961 0.4019607110377724779 0.3574897701651814641 0.29565319319618560412 0.20434753104838093707 0.12009594106891662013 0.042738799041595422479 -0.0082584716743156223046 -0.0334489151888101785 -0.023116825159559355879 0.01927333487630406017 0.086205764650256977433 0.15237301263926844586 0.20790368815834839311 0.24428151112728976879 0.2626481739393595749 0.24160604928036119587 0.18646809067747580069 0.071029467520977357387;-0.32013547165792194393 -0.26430567591310072384 -0.23577326182378485764 -0.25568718420226016486 -0.3171187278280933608 -0.39003739450565988456 -0.44824191034078203488 -0.4891085056196848857 -0.48725261133053182627 -0.44292225693794873287 -0.38103944564777780801 -0.2946278297758121445 -0.19642769055150580138 -0.080938090576088195238 0.050413525409216848605 0.1475083194642053952 0.22886404161492329701 0.2764200778685367843 0.2908761923770265545 0.26916928455074429216 0.22154806177606947704 0.15511063202604971623 0.067510863690163042117 -0.0018863665042109763539 -0.078554534338762652124 -0.13617880035009743978 -0.1644153543014610086 -0.16278801151194677299 -0.13586980192373498966 -0.089857399041182062227 -0.0092950225034647386557 0.057737981520508956101 0.13508607879167663923 0.19277796452883969036 0.20907693496427665059 0.22053852286567901531 0.19829497356556746723 0.14696079834013633936 0.093167155939880230697 0.014074228911803262493 -0.076980832609518490273 -0.16429381983856650162 -0.24187929619396039693 -0.30105201574091722261 -0.34226932203269666566 -0.35514541640016228374 -0.33165505700762004659 -0.30405434806471048903 -0.2609475021969803743 -0.23530286192206281703 -0.2344247367578047303 -0.24001444147256942308 -0.23126498687435245727 -0.22792127581561980043 -0.1959794677524886175 -0.17922884257388230211 -0.13611666720707846223 -0.074703364498056992749 -0.018692528984049244789 0.048702645065727578899 0.11162203996808879591 0.14036579508857940923 0.15954094700143736651 0.14397681552888436096 0.11853976056608246659 0.087430978166589776168 0.045658433349624660824 0.014626433810075632758 -0.0061790693376506319878 -0.038949427705109104791 -0.07836952539409806906 -0.099201021552702675632 -0.10242885799962410387 -0.096016281473984707584 -0.090432246559174617184 -0.072239481011943509903 -0.044216749759055047619 0.0045068342085920901421 0.0759676937235105737 0.15999117863202425016 0.22319176830086695507 0.2783952066636908862 0.29647125063052870431 0.27509202740468202686 0.20555005154381172927 0.12419533203177329783 0.028689267087334990869 -0.08549987511590827205 -0.19033134633938950109 -0.274484353254428326 -0.32981017085215119655 -0.34899620599649433528 -0.33366522740840376393 -0.27987058770991796175 -0.17846063896381891833 -0.026240831157546079533 0.17307493754760344684 0.3852701187798870941 0.62125497025951070817 0.82495825138882794558;-0.13352453858768192907 -0.089122945691219923603 -0.064219146567718418672 -0.0023301064064921162 0.04582053281878856188 0.11160954688182540828 0.17787344828514856099 0.25922706715303217573 0.36228912471233021275 0.42203803640595788371 0.47719453855383781038 0.52360223528673421889 0.53017049520233394677 0.53000969245762752369 0.50795939512622678702 0.46004408125515366956 0.3886240600075576701 0.28612497034086181724 0.20024672982183264192 0.12268559968826701911 0.015135742118987636357 -0.048725844678820982858 -0.13629742533958247308 -0.1636743272302199903 -0.19166887129435325465 -0.19838287424414940974 -0.19993041039572412298 -0.18953598047203201737 -0.16814210853757435848 -0.13848965848099545339 -0.1197494594017583236 -0.061320383579854802203 -0.024947461659462339539 0.026225028293701428683 0.092421684364291781244 0.13767940103737133506 0.18830294032812189275 0.22475283943427620814 0.24267073664006927336 0.25956527828947190129 0.25369393555462110834 0.25483313314754507672 0.23917884991514498649 0.22062001551816531886 0.19816409416683036793 0.15414489344120108072 0.12337056839147853005 0.059584673171203771103 -0.016524258607898523188 -0.077728859158502819349 -0.15498907384472743187 -0.21916366335475259697 -0.27272044619237112428 -0.31061632844492198524 -0.33354647810989584977 -0.31796448145868788648 -0.26950903366537659611 -0.21605573186609047798 -0.12208559941346949773 -0.022508113805634080012 0.095301140056363711772 0.2046903834786363563 0.31463989356588761837 0.38321381608736926339 0.46919154108037702811 0.49752737260409934938 0.52443558520252231414 0.50884065937039701932 0.48309346272438968839 0.45363907563290928326 0.41549964298792618766 0.3923864073660816576 0.35344837988809291174 0.32561671160762467592 0.29578939572972456906 0.2672410162369118769 0.2401521870946373427 0.2175973868976707748 0.1725436269401956213 0.1565212505023453049 0.12501591928134120346 0.1038495377391312896 0.061378080897302365881 0.022113769991655835706 -0.048805672962181384511 -0.11209277882309427732 -0.15809056444642752282 -0.21773868583174019187 -0.26535910876248697265 -0.31467937805746165614 -0.32058633031366651212 -0.30049084975402723385 -0.26049544650825745551 -0.20049230784686108975 -0.11786061422861464354 -0.003009408132592558769 0.11046792898138403649 0.24600314300016057345 0.34125234921602454197 0.44001778181349732177;-0.30804670715527143754 -0.28873903236270764827 -0.26736614428123328668 -0.27708453273276595352 -0.28565291053904745544 -0.27114816818260767395 -0.23046637383745868788 -0.18560672430562369373 -0.11597963421846858856 -0.048021792933945789406 0.016173995670140890735 0.062490240082950516964 0.10914323869936518041 0.15515438411149359843 0.16175955348615253526 0.17564732050259826424 0.13660977440743365952 0.05531177958933943678 -0.047730455449459169293 -0.16984486257405842502 -0.30042494627573018695 -0.42448704923889485352 -0.49218823394751504141 -0.52383365129351866507 -0.52952301796323419936 -0.49534933977320039222 -0.42276658898055496927 -0.3615531199152968167 -0.31672987174078276462 -0.30337890957446322915 -0.29496066437657947334 -0.27768536805752430663 -0.25877088697556993591 -0.23531183101103261834 -0.19013362865059513229 -0.12801304717621345142 -0.035979663817753679278 0.060249233023303636059 0.19872509208938843317 0.32209500376510824537 0.43342586623860068773 0.50861382442291924733 0.5560114700125026177 0.54327472084675909603 0.50973379153655773433 0.45685838710250725736 0.37253198056367775592 0.26815669258178942425 0.18563205072770111448 0.11452499640886767973 0.055641981588998683239 0.04478313812665876692 0.058806129270568781309 0.12033647228894091274 0.18026582515174616184 0.23477706042300250378 0.26628304197946733867 0.29361336213293554032 0.31155512872546470282 0.31632845103011048016 0.33397405339828728499 0.34816368739197522952 0.3811321156776394381 0.38260447025366539631 0.36429902282718251705 0.32912370888500308563 0.2522192375321152813 0.15099990900730650423 0.027282329350679038887 -0.06339448015684572002 -0.14879143457040952536 -0.2119122866680198114 -0.25752878545037749536 -0.2588707697240574257 -0.25223039165847110921 -0.22287610638902258242 -0.18113937103946362028 -0.1514283466309710724 -0.12994793127342330052 -0.1369312958049661022 -0.17871238366808675502 -0.23414641581563438999 -0.28660840481859534146 -0.32591781689435694869 -0.36121800198983472496 -0.34287151707197643935 -0.29014657974033786214 -0.23699270105453373869 -0.16556799712363204358 -0.096727651872148087686 -0.024861258611915616062 0.03860009022515097088 0.054455185390029005321 0.06854962662412231178 0.032308048997684989112 -0.014041157520860735042 -0.10435600745986922666 -0.23929480751156254059 -0.39897184789992623521 -0.57386612161183137015;-0.7802046180573299905 -0.75168834388079397435 -0.72343676214054186691 -0.68250049698880066451 -0.65914925315599914857 -0.6255789245190850334 -0.58281432563426582849 -0.54853454780035393323 -0.52718259545738443972 -0.49821916472983734936 -0.46638974659762755248 -0.42196269697568850043 -0.40008415159300858566 -0.36765600592254010781 -0.34915175618692628756 -0.30440572418550215783 -0.28130597552167446729 -0.25083350975069473865 -0.2352168023713656908 -0.21600850104346910885 -0.17725018118919330656 -0.15932446832557234373 -0.13587851667541525624 -0.1232715357316197663 -0.092971481098473279792 -0.086233581096423095325 -0.061026970760815417438 -0.053961132197283406819 -0.038856261743568383527 -0.032041172056459871209 -0.027419241651977118573 -0.018103285639032011545 -0.018181229877650834093 -0.020596830622735994715 -0.021897204791518923295 -0.032531627003441865309 -0.019775358280185926368 -0.044310814297377820736 -0.046444274002368307608 -0.046154139925185272419 -0.072396572492333749471 -0.075725474944501602881 -0.089347273380041766777 -0.10647929552182439084 -0.10642520635513252891 -0.12593780562318004912 -0.13635570272491803756 -0.14676644333043972757 -0.16240035097211125148 -0.18705998577847013364 -0.19061022284908452074 -0.19176246146754288846 -0.21268451351464967569 -0.22068552546382705359 -0.23131498187033688874 -0.228787981319744399 -0.24324965190575506546 -0.24381907687767270798 -0.24794406129618712376 -0.23162400009840022896 -0.24707843631920314853 -0.22752600067738013023 -0.23241586739654862548 -0.22055004252261908859 -0.22205590275472364414 -0.21000870908351010335 -0.18897547947636958443 -0.19146057805570990129 -0.17567988723786756577 -0.16659421296729817752 -0.14467701363736351627 -0.1357557045671293483 -0.1235259173545111 -0.11589728708233107413 -0.089754274273286152597 -0.083256222320431616524 -0.063333294547869956048 -0.055485755495712371643 -0.0501717622186706666 -0.026552742693532520313 -0.028181879219035491091 -0.026795179894466409493 -0.021124930296017918607 -0.01826454933468377867 -0.0065253677537115443649 -0.0075881379929974186738 -0.03150535003174242954 -0.027016919899704821412 -0.045365428778224241302 -0.039235679954433090588 -0.055165356570223915422 -0.08334408785916128104 -0.091991682042128639085 -0.1220907616045898425 -0.13839571768405187213 -0.17069179413939175594 -0.20023873441513351246 -0.23593449813557262895 -0.27829596501505809991 -0.31394402956699124507;-0.64134297104206594575 -0.37655524917100341442 -0.14005189182500463185 0.053343621032822280403 0.18739706113058191006 0.26507627407112294149 0.28322692692020351446 0.23562375514085795447 0.16678812650401139694 0.065093143502996705929 -0.059981229906387309447 -0.17726281733521212503 -0.27406661941039983654 -0.32280317944317049594 -0.33835029524735232842 -0.28887058899713968785 -0.21599032879795349027 -0.070579856479694225158 0.076259282216768475848 0.24686680942516120441 0.37214184715552900418 0.44287937759289014439 0.45295524011596149938 0.3771916857737301898 0.27117410793792778856 0.14814515216072285386 0.034374831086800325397 -0.075714519819607153939 -0.16044010684237303144 -0.25106843770159170681 -0.31772904840259474923 -0.34873184898949671773 -0.33153520805063613208 -0.3122141769757199592 -0.23898509235363321612 -0.14870247699844807432 -0.051568917310222624206 0.050483870913009917802 0.11570308070717223725 0.13886741174656536124 0.11034535947300845582 0.072993408293796385733 0.037155375207787492975 -0.025011567076439113894 -0.063424648357758711681 -0.086436319837715575032 -0.090954938884838021362 -0.091200955121434862383 -0.067865606581559517752 -0.044543631400953125066 -0.02348321510783802149 -0.024598532035194155959 -0.012987711590627842514 -0.0097787013004262800936 0.036668486542353197211 0.1034254869755408951 0.14843721583316724089 0.1759499621075468756 0.17821006234657990608 0.14184579876709368929 0.11026252773969670573 0.058164522080578456853 -0.021237823111892852046 -0.069742533199806680533 -0.11866145947948840422 -0.12409204836513541836 -0.12639224025021028597 -0.079589500873475924059 -0.038101353249968585024 0.014512267082594489109 0.086238685588614250044 0.13080913656139397938 0.18388590836899296188 0.23191720205034482838 0.25116578322513538613 0.2257401447965553809 0.13735768096200084987 0.027994585407552452505 -0.091556741316636977568 -0.22130122539788704694 -0.28815080304621099039 -0.3343798450667644917 -0.32881958388545223793 -0.22790414759858301785 -0.088526620303246400523 0.10608404902239976231 0.32117124136809754864 0.53182023800853173157 0.7026782058424045907 0.80025132675015753225 0.84226122167700057108 0.82015131301054511326 0.7517737536741653237 0.59218900236762228584 0.38358413268460522794 0.15681136786398372496 -0.08728206393731210988 -0.32324014075961421399 -0.59193049024998989349 -0.82248183494863325027;-1.0050066332381080159 -0.83688641690077791857 -0.6936609567850131608 -0.55204565691856510856 -0.42183778316368508721 -0.29600401948599475155 -0.19805508074385072548 -0.10872466958326641728 -0.036453307824275846261 0.021216563823968810631 0.07671723492298287983 0.12130163052897173503 0.17556839926673536989 0.22469504168817922007 0.24709819934685664511 0.25885779765994271218 0.25382776011952040696 0.2216542629436585865 0.19419943778094436726 0.15851573984541500462 0.13364628351646365423 0.098578179504110713394 0.072920835161554758974 0.039685112373688227749 0.027679412159188062498 0.020972466990111487961 0.04236031709588597427 0.046528759901489982753 0.048435166087640091348 0.045305791202951167795 0.0077318255582205126786 -0.036785369204732493165 -0.082556174698016904223 -0.12205343775812207974 -0.14746863878198057662 -0.17506772394202585463 -0.19520635760577884077 -0.22665393878436612685 -0.25530064199485513754 -0.27801628186574017798 -0.28257150732723163022 -0.30147416704199947457 -0.31070836611865221277 -0.31823804532895444419 -0.30755563194318913389 -0.27746127301293643796 -0.23626611369146707786 -0.18182186492220941965 -0.10162525621300003142 -0.019861522348699114232 0.087074422198998330247 0.20417019383482229444 0.31011209226063102262 0.39984670136442196364 0.46337671347302272773 0.49591833423827880178 0.49807225259944493123 0.47575136555284652795 0.40430069269027041345 0.311181695063736663 0.18998649965859235045 0.066194205218886512099 -0.041008873679989940597 -0.1321793745924273733 -0.20449661789436213155 -0.23779162407990647732 -0.23693158354500443163 -0.19552169647040973377 -0.14852093089745599386 -0.073261303113184031433 -0.019228918323676343766 0.042192586197904030643 0.090621920552812068594 0.1250079988202318082 0.15202778116273946152 0.14700525237793976574 0.11816899327931276731 0.081244903401029716639 0.04280661466086554956 0.0096449786330119000738 -0.010347811097669044889 0.0071367145890049001403 0.028141185370552265071 0.063928107829226935022 0.12290618191649542446 0.19867653850348593325 0.25120697046137285824 0.30493584962015346518 0.34634342809117568684 0.33200159974875143032 0.31229558791888523128 0.25569612163414034978 0.15608980704146366292 0.025015204723259437669 -0.12506876011517606417 -0.2541031972254595428 -0.37919541111720678206 -0.45454490517432427632 -0.50792104343239874442 -0.49731259566118973803;0.1188708927386878389 0.095652128442442307943 0.075969418954462575311 -0.0068558560121155815575 -0.084619693462153755537 -0.14481554215316491674 -0.20596140779735688797 -0.25151748685430352914 -0.28382157714741046428 -0.28754063331168039364 -0.29065902792826103784 -0.29106847179972206163 -0.21577602387022654096 -0.15037034172417956812 -0.032524487424638835742 0.092470644060201515058 0.21169917632335966129 0.31293479403704577146 0.42651625287664363118 0.53322806740399397718 0.60438800496343603186 0.66518188319014859289 0.67827390298101009058 0.69079059036067569366 0.62063069212500998617 0.52605436310958453294 0.37596508371430931161 0.22751629131773212777 0.10198083523157072672 0.012789183331498147483 -0.031548526267850235394 0.0058616419424259253931 0.037976679060657346498 0.12608054617450772938 0.18867486415650067122 0.25301946519700257987 0.25994311122979230078 0.2446740502403462747 0.19187544623507185593 0.12489739215581185938 0.075769599250057106943 0.028220810338056522698 -0.029683364122169302729 -0.07113315803194164566 -0.11757712590336792668 -0.14905255334756095653 -0.1812864746961282969 -0.17888322112956581145 -0.17854344468957528136 -0.14789222775106225516 -0.12928809972275473461 -0.097219774733565481051 -0.079219463399328879372 -0.041929983107048776625 -0.018952282617887651617 0.023552043084120982686 0.048753426713620269528 0.094714278241823893212 0.09843594215850925977 0.11433065462589302175 0.125020063362447309 0.13801871089014480787 0.12903659194436994939 0.12767616567557318885 0.12280685155503681671 0.11625823057235842861 0.12904804431112248952 0.14592337654413894965 0.16111773630521677991 0.18489474503038957898 0.20841361944566016984 0.23289022574474058103 0.21943740170598624584 0.17381995541721195764 0.15921009399344066004 0.10225119818937387917 0.084340734679239234839 0.053947332796269904798 0.066833636314353239705 0.098180060382416584064 0.12080908977145404792 0.15026202439291944102 0.16745049166652142825 0.1709687579379548239 0.19044936342456128542 0.21013170279696086196 0.21797748254623017239 0.19601488915186346396 0.17501781940256025405 0.13238618558515194423 0.08527069421864076626 0.049448155343298175191 0.0024074507810317134771 -0.073809501215788886341 -0.11649131907733946412 -0.18416093157388549462 -0.25717180988617832638 -0.34432977881608667348 -0.42702751578730929749 -0.53946602158922751791;1.3067631270513067054 0.90415424933539789709 0.5658039609490672639 0.27671617609731163911 0.062917979019928418905 -0.092236597853346979914 -0.19406257364896756235 -0.23863387850829351211 -0.24627275856820624034 -0.22534003753470127629 -0.19429877367621767315 -0.16192602922840468316 -0.14623040886115545867 -0.14693752792370634586 -0.19091054133681895078 -0.22955269607299039203 -0.26890343959656393125 -0.301787996180205631 -0.29893750463512824833 -0.29754992384383877058 -0.29495027830844594563 -0.26112419077934101441 -0.18341120041123798456 -0.076636712928607839124 0.027779706725390665434 0.13029009558904708355 0.21472118897568370777 0.24771858811063895978 0.25463092865663888853 0.22440639155200495236 0.18707738382764063645 0.15200710490371027728 0.1065584455390132107 0.0090980046728339272755 -0.094315754253866818102 -0.17085012978563721142 -0.20852878867175889122 -0.22038816549182851934 -0.2104505233667194608 -0.17288371168806063172 -0.12786141873137327196 -0.089919569450678110689 -0.083778945016996744788 -0.085313382870188275708 -0.1060882874226593553 -0.16576659497569798396 -0.21580576498390827145 -0.26789059964589123641 -0.29527802899546679027 -0.32718769475239090072 -0.34433207237458068883 -0.31892622777454521232 -0.28780926202808665426 -0.21420981195755800508 -0.13630419035561169849 -0.070742020997395405058 -0.0034315449372615837963 0.032467421941683928532 0.03703044960255578999 0.0098500122050553615832 -0.046075680146196069942 -0.10839518099169058452 -0.17353858963938456617 -0.24818574514263011532 -0.28742497436748043471 -0.28889386127222455025 -0.27325340560745031704 -0.20220996224953050047 -0.11678500638191473271 0.019647071920076600304 0.13515413132359269111 0.21765297732799404606 0.25778772012679923575 0.26751930807314983074 0.28271377475530101719 0.27124202936602753722 0.22429076630915409374 0.1571634294326004766 0.076062210964115195555 -0.017503156418472349404 -0.091009459736757461479 -0.16198604818456713295 -0.19139873909082619208 -0.20031416271427679443 -0.18690961302012215617 -0.15615442047977892703 -0.11389099728299949266 -0.065945253638505202387 0.0067181502816254928812 0.074300694970425490427 0.13020955647616386242 0.17808272282899123562 0.20102209943043869433 0.21123677262583670511 0.18864824791305861984 0.13344518492029622259 0.050652960040004926801 -0.036201408154704586839 -0.11910600340252831819 -0.17118598695703154955;-0.19695842483176417836 -0.072661064560393881506 0.039822610053198058411 0.15235266995901869391 0.24819466563447106777 0.29326648415453598906 0.34086336706039321864 0.36261760244033974798 0.37295658206633630627 0.37086262914282885905 0.36337378923846763712 0.34074905339606642585 0.30269401685294594628 0.23945903483632394182 0.15268796213824964436 0.061421747076458289849 -0.038513350698757407853 -0.11418979582448561538 -0.16130443678584061029 -0.18442293514816093802 -0.16838008412587482376 -0.13521472191958358589 -0.092143548865899954636 -0.03175859090024977377 0.019126032515023635994 0.046520161695195585971 0.055098401246090195071 0.063140072423550616665 0.057323817590615867845 0.061148250752867387703 0.067107526227629790694 0.077117363103163943938 0.1165018943032893467 0.12212709686669376286 0.10488085214809018952 0.07700748971383568342 0.050287902042372663314 0.03867547963160963137 0.042830266597576292786 0.031229425945110488028 -0.0039245527658166752538 -0.038279259021487994918 -0.086779711917041660318 -0.14827238192274355688 -0.21690541444887057043 -0.26978053382589689546 -0.32267096654422022795 -0.36855653366685814376 -0.38242682437988650967 -0.37411847379341062192 -0.34404284560311743091 -0.30641388973161481912 -0.25771536034370695623 -0.20895789241919410228 -0.13213296427558032797 -0.060598590031847587856 -0.007850775880301832238 0.038332177028548075626 0.054641276695825378995 0.07426143699050442859 0.081475743129334213255 0.080732012857916132798 0.076349661312788724699 0.065508135128199890262 0.046399809745459562327 0.035963539993346824164 0.0053501839657226291438 -0.025501813911850166466 -0.055626534331755912721 -0.064885463237737056597 -0.083836669608658459518 -0.10896185223007148757 -0.1105585858897810414 -0.12895021356529462464 -0.13353336217706068823 -0.14591164223684657819 -0.13510470345738392894 -0.11159129969384867787 -0.067112283281107687483 -0.00083372812088308961408 0.067149396804440791842 0.16175598770827653849 0.24440439845984840428 0.32416092953069414184 0.38211190647946419174 0.41505107063959673086 0.43407440621931725477 0.41850669182304689464 0.36791047903480073034 0.3019806480984232322 0.21158759327988230226 0.11200012961252375776 0.013588210098150834554 -0.083066964065895199099 -0.17207406123985141688 -0.2453468686677090782 -0.31090838640985796193 -0.36279728099148200737 -0.39301388294702360726 -0.44045896246287463693;-0.34811407152084045125 -0.31996436739600986332 -0.30274358334561796147 -0.27730110144912956116 -0.23657172983873264727 -0.19780485268758893347 -0.13900107836457203936 -0.062234478341684176805 0.043436193788270412164 0.1539228328116359068 0.27288282199162877673 0.36402486930603555892 0.4468086072677558418 0.47075416870615416354 0.46592678088725525409 0.4336259312896083018 0.39430733481357888026 0.33885672882716744159 0.31033250308901033643 0.300073190272252599 0.30213401200037498517 0.31812230127370877408 0.3104508348345031421 0.2942787421638674572 0.25291499506730213964 0.21035545263728352983 0.13699171986919139732 0.090419254799032691694 0.017160014363486075784 -0.032983450673759212579 -0.07789458427862835932 -0.13376718313352461975 -0.14872093937926331164 -0.15843220752668404905 -0.14456400578102140964 -0.11865201359064557474 -0.099882593427023644295 -0.10446953424157415236 -0.099642709196093470769 -0.099620971878948541556 -0.085407138897449746961 -0.089210724058110299484 -0.099538115265229917816 -0.085962514079577695414 -0.098370108494621286144 -0.12161184612881832667 -0.13753024097130323034 -0.18305878185333743224 -0.23834964237430136813 -0.32364414175905509286 -0.38188073918129611384 -0.44216014976175871398 -0.46990590087272188224 -0.47758233081166184819 -0.44429062347288250656 -0.40119125747381728653 -0.34400982901854842977 -0.24869346767875635806 -0.13050449916350959079 -0.029516660523540683148 0.04189275956093558434 0.073154146502551448128 0.0695218900329666184 0.016348837011163675631 -0.031717590548202154177 -0.095374474165491995858 -0.158032816032306761 -0.19072556214308544753 -0.18020552628289707164 -0.14295820062308689513 -0.09960857668379471952 -0.070640243501268504267 -0.034337669482977020707 -0.0039644510234817069427 0.017088479704438181567 0.053668638899141689336 0.068259105767416408672 0.12707669799828080759 0.17177421514021276594 0.18127716018428144396 0.19834977723205315936 0.17642974924067017506 0.15756291315984721768 0.1130677957870795669 0.084919946240831198359 0.029880824546102590505 -0.040393293848490940956 -0.1013246666628477427 -0.17470948333589711443 -0.24464522746677555554 -0.2745704562772051105 -0.32220880645293781264 -0.33766576026425443313 -0.3351861057680632916 -0.31171092108264203402 -0.31155556987681587433 -0.32394985239649287667 -0.36003596481889504899 -0.40465383536367510731 -0.44245973518626757759;0.3158552246449226053 0.26757978128789366989 0.17534736300967465605 0.073053761573684775077 -0.044955098207598062632 -0.12463339972788704813 -0.19124528930884474032 -0.25779834019348291108 -0.2778994437282714669 -0.26771908468566996131 -0.19772836410530542084 -0.15109231365639613776 -0.053484584902789074345 0.026267195820887493524 0.08348110234794364759 0.12363966163044126656 0.10673229568496409025 0.059902079664414652205 0.0063060700701010347774 -0.097257943225895052142 -0.20139820152985254964 -0.2388038388792550204 -0.27389769557645676779 -0.25045614859045622902 -0.17468374522503779533 -0.10135981673223883048 0.0081700020229786129294 0.10244045008057024726 0.15633494871573966334 0.21632229486149379127 0.23694032555836774812 0.25655971276660960445 0.27608298639173139977 0.29982826652965255398 0.30528504408519102631 0.31377840866002065789 0.26306966707097190206 0.20014026898371170549 0.13194115633796188458 0.039619334524466538749 -0.023072151034546718729 -0.10456828037400531239 -0.1779328985898406823 -0.22687152241086372406 -0.26569839456619492868 -0.26505750156415636143 -0.26432987003235292045 -0.24326381039601208123 -0.22949361604201654052 -0.21436241292099539324 -0.17721201451125700999 -0.17586208233674247015 -0.16053384993336314301 -0.18098156812807997262 -0.18606994290255210456 -0.22603877375894645962 -0.23420678212760429049 -0.22399121292327972554 -0.17421839033414196485 -0.13867678453165269148 -0.059962944924435310212 0.036466601022119488063 0.1734176572011905948 0.28969188869215672932 0.40720114196621720604 0.48857110617539617481 0.52896634550435905897 0.52331290703085397986 0.50639416736799403029 0.41260299025446200982 0.31002146995376650418 0.21446901866840054063 0.12683773612264567787 0.060933904528982354987 0.020332367458348703237 -0.003198452737157270187 0.024620225833886778127 0.074606473838141465493 0.19118310914535613376 0.27463744806614748262 0.38335460677301869126 0.48197636581378838772 0.51522533354250821258 0.5403869590562594416 0.50396530925651150667 0.41165771026065328675 0.33592505036769437776 0.22599047643590047807 0.12321365046235289997 0.054615989861335458022 -0.015127938038139030624 -0.068075310990824158819 -0.087356169998675445298 -0.084510978128819816413 -0.10665858466435766683 -0.14497585340983479285 -0.14898789985282206993 -0.12904805259723545197 -0.12578975777640702405 -0.13628741558173365633;-0.26676384255432594728 -0.18187504946960417196 -0.087678733090221880331 -0.010763819170284837437 0.052817603054460940393 0.097151870114564095604 0.13792398691222437779 0.19200921677089724526 0.26391764271199674718 0.31112852720271461093 0.341247366917008077 0.37363758557867698951 0.35361253033825429393 0.30221705853918140461 0.22573025396165780077 0.12334733970401370873 0.0056366705080023605384 -0.10544464117852962726 -0.19970666898049080351 -0.27277657230479251949 -0.30099220074737442765 -0.30227242185694264132 -0.25943301633282395136 -0.18387982018467496914 -0.083105858600527521274 0.049337900414730011256 0.18405479865512203164 0.32514517628716688158 0.46055967297922112413 0.54832417205891059719 0.63538145843297932913 0.67725127689685848953 0.69748942301079841499 0.68602328303642812202 0.6217105910062802332 0.51040457373068459646 0.37784998587365253853 0.2453069018517338995 0.12271776886516266858 0.0057148125768802472343 -0.12164874478557571869 -0.23957134325351506221 -0.34632236023455215124 -0.44789224688264672736 -0.48701406248223261253 -0.48247726001510071736 -0.41948823586632671967 -0.29547027893637689555 -0.13783639456902177511 0.036981595476662479371 0.1788409862726136057 0.29119113056492279545 0.35063969273744655109 0.3526991966992821248 0.30554408088970447244 0.22861019419088818294 0.15069177432760391677 0.052059439316227695826 -0.040645424821647582747 -0.13655524918668843215 -0.1889127029453808726 -0.2317817208011654917 -0.25616734938448387782 -0.24236903764786449367 -0.18915940734037070547 -0.07924027661501908959 0.051738060873422676844 0.20654615446307200699 0.33748550545501804221 0.4474354802202273329 0.52772514800415948333 0.53456441446737590351 0.51733107192008764841 0.47687927422581849468 0.4164445973132139267 0.38254679616031372902 0.32384036695607198997 0.28676110972479018635 0.22012287499310861927 0.14186013262903465759 0.049758785093426044499 -0.029054725969926201851 -0.097763760070555205672 -0.15207063966077211115 -0.2015834123511399123 -0.22255412278615469002 -0.22526392719960000588 -0.23563691580493195676 -0.25492253871309700219 -0.27110221013174318205 -0.29448010430454873987 -0.31950430468406071371 -0.32919822036864188064 -0.32421414648302554484 -0.29849288833905751606 -0.22131741691564316143 -0.1460060414631522141 -0.018565200021317611323 0.1382308228051442045 0.28757250070359807737];

% Layer 2
b2 = [0.049097178827301274362;0.045591444242184898938;0.04359892336832534715;0.058982785944049757887;0.049160388966488333118;0.036218912319934626343;0.017846864488675989041;-0.026415028685631048583;-0.10797936854318054833;-0.19465851637953929254;-0.26320076559493627011;-0.34001429545968703261;-0.4006176920291218968;-0.45738014373537899671;-0.45267402323961947186;-0.44088124501394804211;-0.40903860176483930466;-0.35072728852876949857;-0.25878081072291531095;-0.20654656496680529054;-0.15841796107259362159;-0.14448798277273453006;-0.1581026382877380454;-0.1977828614239926508;-0.29045030916643643781;-0.38042207713228048949;-0.49833104033674519018;-0.59118844796294101052;-0.68732463004141020058;-0.76355998456939777608;-0.78288150875852313693;-0.80684612828018020814;-0.78986209637483295598;-0.73906792237507956678;-0.66114621715603949514;-0.55133748665523962806;-0.4236908864844344258;-0.27332585908820467013;-0.12496186481237495092;0.017554295783773397888;0.16567090430651232325;0.2797375056927419168;0.36228940548932081489;0.43201013515318098523;0.44617654193387551453;0.45848373135541614642;0.41646335236000331381;0.34434851193972770833;0.26810769027646180751;0.15629880954024114037;0.050057354129957161437;-0.052789322020212116338;-0.16205730471156296058;-0.25295155794826351681;-0.32701688482785062906;-0.36314680384436343052;-0.38271065179475149964;-0.36271245579215199983;-0.30790448150417476514;-0.24706069902336297295;-0.18663321145599354178;-0.13722056862868073357;-0.099862800001554244411;-0.089833849626097986296;-0.08009218860262048989;-0.11442199505682996985;-0.1596931475520882715;-0.20672306857691424842;-0.2693129565966837502;-0.35276889826084567581;-0.42276838261869253976;-0.48451000955316164687;-0.53329498967687427591;-0.55045848464077107298;-0.54602947081257091622;-0.53107074137878929054;-0.51102023448131483896;-0.49599180865644509897;-0.46767473408444082406;-0.45635906034498002759;-0.43475758002002806712;-0.41153628222782712154;-0.39060923420391957528;-0.36264336885294284896;-0.33502966817006618605;-0.32500027928646574304;-0.29257415694553573493;-0.25783125574897780563;-0.21214308463722320042;-0.17103719146229215409;-0.0946207736474372757;-0.018427326920212511174;0.053938137733464924795;0.13841686376385128887;0.19923141133684227344;0.25381701280790652797;0.25478339257789101024;0.224445556492660514;0.16638264621710863178;0.08623729227713713974];
LW2_1 = [-0.49339096575981705728 -0.97096885922244657863 -1.2783928515201887777 0.000730996266154041981 -0.10134305707107049699 0.4882796947698195833 -0.10826218874488932609 0.64182456743624927142 0.15220410883552662473 0.6595954745542899067 -0.59377319916105320008 -0.34370799592978501513 0.89316872850231820991 -0.22746777671822485112 -0.96099303839515826109 0.43820667312685063211 0.74038305350503963442 0.080061104186036263775 -1.9288645675949862568 0.22326426822985195875 -0.23314949847949814621 -0.22332320000963737372 -0.24998969847827148816 -2.2777447657296066019 0.76607662384220254204 2.5563980628209472812 0.24524710287938392139 -0.21115128095467983194 0.2794969582556584009 0.0058593757091949813867;-0.49624811454766498686 -0.98410327052753765464 -1.1750419993959624332 0.15498729384848350388 0.13444974069895979096 0.60124220202889389064 0.021949735843061552593 0.67761414080211468391 0.14444133010141813056 0.35561863518539021944 -0.6208028320425171831 -0.16527515663252825839 0.80143154382301617922 -0.044619569115824778138 -0.79576673462073144183 0.17001942500275496473 0.53949825338060264368 -0.28706887453643353814 -1.8612247353964703755 0.22396103809048326094 -0.18560869472638757971 -0.24588598875239617292 -0.078068092240061559561 -2.2903201621193187698 0.54795854819766964816 2.005306227790395468 0.376213485615826293 -0.27503150401494574906 0.29564066136272404428 0.030601597181603074072;-0.52371570969552727615 -0.94570237094982922965 -1.0296978220801675796 0.311130851609041581 0.31327614169086215323 0.69201131891912270877 0.12470365141159742151 0.68902191130173029432 0.17919080085010799519 0.080651817967300101775 -0.63017934108091178125 -0.029664989782735330659 0.6881370312527916866 0.10266774113881514674 -0.61952772301747538464 -0.083860232794593758676 0.30758250900244255011 -0.58246625490914427647 -1.8068007153356604455 0.20254541172770296198 -0.14263158579506221568 -0.26964470294937786798 0.060223693911464558359 -2.2743886493137335236 0.3660557659678307374 1.4486607289678965493 0.54938407147617640547 -0.32552041786888352703 0.26819253013155169851 0.071171572869066446199;-0.55910966693452690546 -0.86215852498914358204 -0.8617420920012157648 0.44753789837241081395 0.43851210295982873122 0.71265605647863783378 0.22621786095409801565 0.65617947788514108254 0.21054189731447300882 -0.1369252927176978496 -0.64603741746675003021 0.055969073296229535086 0.56993605373487066235 0.23231011506014503931 -0.39938308687630147409 -0.33537578842739018681 0.063633904398609969499 -0.81826957592628968285 -1.789567348626212695 0.19724851564006301574 -0.12844677039044691269 -0.26616886755338720061 0.15211710365321740035 -2.1919212369458187517 0.2156378110870400544 0.9152069035957588472 0.74604348486313531996 -0.36290419554545400027 0.20694529511871231908 0.13181755061962865949;-0.58383500546191602343 -0.74598671914273662065 -0.66044882701362106481 0.58127362866237319849 0.50328351029931905902 0.71043542381826074728 0.28565765571311946269 0.59031169531305893727 0.25091413815300717127 -0.28321534418131166788 -0.64902573494767501483 0.087013316338220292323 0.45123685387031337024 0.31339465228611695924 -0.18630295604847912916 -0.53786604625230161059 -0.20657280142139303192 -0.93453156038398887961 -1.8130392839472582178 0.1649011884382141635 -0.1288079945711666785 -0.28821061168157069421 0.20300299351677314474 -2.047980033792330623 0.11770478587788703317 0.43003187154946637127 0.95762030458856350901 -0.35474489074677534317 0.10860237147850770878 0.22061036938175046518;-0.59358594899246008847 -0.60268248231346743804 -0.45743261223861336751 0.69636286092593080443 0.50053555129840621163 0.69547076443966826531 0.29666943882568752588 0.4933824039963185526 0.24254518400572380732 -0.35129416146193920278 -0.63663346235016715635 0.066832724511101448961 0.35527697746042624649 0.33819867491373539758 -0.016987279061959646709 -0.69213616520931886544 -0.46648557715398963897 -0.91398425872019206651 -1.8566980154818575333 0.15780173590693141739 -0.14155431659815959078 -0.27561004846374415056 0.20500014675468178349 -1.8528892566020072064 0.078755156046635702016 0.014287208469565023175 1.1313173113968151284 -0.28712679831674675635 0.0055667090066926546571 0.33534392829988440843;-0.58501378875667031654 -0.43145558246372939237 -0.24273250965601625428 0.78939772981649947159 0.43186577262060665827 0.64839299836625619022 0.28184723060832594932 0.38712844665933543453 0.21887194353913017042 -0.34917368768440981697 -0.6430048620525169456 -0.024618142879257426392 0.27646999174073094707 0.31727410610130118984 0.099523942292416844868 -0.81213654672172086446 -0.69572957987719719064 -0.77761722608644301413 -1.9165324560553864686 0.14865996251950780449 -0.16674572227630915511 -0.2689981781596354482 0.16972374138105764119 -1.6126878009164431482 0.078594330880677784612 -0.30835486837856479481 1.2748997990352046727 -0.16943361746267363022 -0.11188438942263369269 0.48315005138773914339;-0.55422012977315793236 -0.28637724209690834654 -0.057709791549977580705 0.84367377919192532154 0.34443016280006549801 0.59432220684767511631 0.23087833629179282946 0.2473698757051369379 0.15970702380300688672 -0.28516678442527576554 -0.63560230972490405765 -0.18208655466555762059 0.2512302745528645076 0.26202339047874484423 0.16773295590346701256 -0.8898134239081829655 -0.86198640982696150825 -0.54619051495951742581 -1.9462414022559177962 0.17274724266113700155 -0.19207248700788950857 -0.26812841272912196766 0.10605575542598207062 -1.3258872410401405517 0.11273905836004791126 -0.52961960135224606105 1.3585509091956327055 0.01162290201691937655 -0.25738536076209161951 0.66559407906083289941;-0.49409596244525566533 -0.16377178372424025521 0.080227815778494249166 0.87578508886616412976 0.23923075267235455188 0.53680504238551507434 0.18158112833153960963 0.10030683056071393322 0.072469811919282089985 -0.170249615823202749 -0.62797023135182905573 -0.37058811846596334538 0.28359665154840346668 0.17961772541550563576 0.16316393727790948209 -0.9377704914087099386 -0.9478119955415860165 -0.26100995995239367753 -1.9225710172479277826 0.22530888368246818065 -0.21057261003536578703 -0.24674304531066579282 0.033036957089416188471 -1.0279921320519083139 0.15650322605364669348 -0.67457715324594869077 1.3603608112533611685 0.22333467032377654626 -0.38100725267025165044 0.8692369767424833471;-0.4077370145774248944 -0.068387658071439344498 0.18140884643234100881 0.88224344191548509375 0.12728605930349365383 0.48382063709459738332 0.17478648540710570169 -0.0075517235203840880203 -0.027841023464720296432 -0.016437495234074079448 -0.601491954142723384 -0.57448913282237934474 0.34680656230839962406 0.098103554192306249848 0.063163852481251198112 -0.96514798292803904989 -0.95170915017494706056 0.025339968244442932083 -1.8410837990758253113 0.28374282440276954453 -0.22484368826683284737 -0.22173037015980401332 -0.044846014028952038699 -0.74435735997970420286 0.1907686514616850626 -0.75289766203799424193 1.3007525313975309977 0.42384347952602885456 -0.46357617264134726165 1.0562375283720983887;-0.27785915108329700685 -0.023428355831025076544 0.21964477477098612312 0.84214581411547662082 0.040089244301008741811 0.43526546007918442971 0.21206674392608720892 -0.096211237624195700135 -0.16264203426381523832 0.17318849327942861804 -0.60817418294557112901 -0.74745153065080727206 0.45778382364304154306 0.037412335339275265556 -0.10670170110242348238 -0.97204480288185390879 -0.89496013037255184308 0.27056044642844739867 -1.6969600161355782308 0.36852773406697209024 -0.23643932037724751938 -0.19892276591684965314 -0.11876271231701347741 -0.46954694824230464034 0.20993518347761092047 -0.78666825600171152999 1.1629742981959776404 0.58538231662609885309 -0.48659317731189682954 1.2087951267578485037;-0.15528839344885009277 0.0042119918467751291807 0.23246814902919454848 0.75783278225220362945 -0.030023392656263435396 0.39224161101248944394 0.31427493832670727603 -0.12627123902162967761 -0.27202863890705580863 0.34699796240750591103 -0.57401268083838508094 -0.87328015334088393562 0.5669282353328509716 0.0076880779289824228637 -0.36103029284980930891 -0.96495669469849243427 -0.79749751723415829296 0.45068718110811623045 -1.497478882367960118 0.47210515734422076051 -0.2318730830602167281 -0.18452277225490396062 -0.17913448114921456944 -0.22807958692874027995 0.19767220199353954802 -0.77318621300194478874 0.99155665263488079741 0.67619632614307134677 -0.48271471016522565778 1.3303046463414036626;-0.0060798898322332603841 -0.0019349752470835435321 0.20115918859819173492 0.64508317669895154367 -0.068537172793454032016 0.38130112539336985522 0.4638624133622687995 -0.11298834889692158101 -0.40263382881250342482 0.50900409293281889678 -0.55384968063449668829 -0.91976904104057577438 0.69741912155976837351 0.015108898076499340662 -0.66633180471317099425 -0.93096826202984372944 -0.68400334652851479955 0.55094929515036816792 -1.2507216220958943254 0.56549653886513095991 -0.21561894041816065393 -0.15714967666638238186 -0.2155672380876458849 -0.038482056166745493009 0.18109558075054008053 -0.7523238705390505876 0.77030667593486978895 0.69489471134995073331 -0.40374496439271018167 1.3811915920801256519;0.12232473152785797166 -0.037219444138162631475 0.14027951006747194085 0.48940539217474582356 -0.066269434271558763649 0.39269901074109087036 0.63367234080569534438 -0.062809414586379480605 -0.48201856904999879072 0.62620404393386397413 -0.53800858192128597768 -0.89340705165895428763 0.81971696237701197063 0.073454294559421942634 -0.99008959139282382012 -0.88288330050163121854 -0.56230168756638287952 0.56165667548482522964 -0.97294087166473708361 0.65239284463300362127 -0.19989093437980148815 -0.1333186230525086613 -0.22374056915352716346 0.098233894574027008639 0.17005225813874594309 -0.72384000016674598932 0.52797173462197810601 0.64593585560001587353 -0.30913029684859494317 1.3706852303896313039;0.22304174549690536367 -0.067963391842719003688 0.065374292563041447313 0.31847647759527342171 -0.061257861679677387545 0.41591184962921795565 0.79180935309588973414 0.014154275845164933714 -0.5437499322654539835 0.68115459056986626951 -0.49589363915029049945 -0.78653921978497376433 0.92024993176924418936 0.17303631824321216715 -1.3198631249374297436 -0.82634575217030881156 -0.45683017813425230713 0.50944761924768178218 -0.68685716708960697918 0.70363193391454081915 -0.18972268587941484852 -0.10626552039005023043 -0.19690965441292881954 0.17740446583590746554 0.17568073062168798604 -0.70311507789585503403 0.2694357150321199379 0.54191032141928718868 -0.1983768200894255318 1.3104157628417665293;0.31091760189953177029 -0.089255178884588143307 -0.0092639407443067603443 0.15525179952702516939 -0.046103380480651226514 0.45371216526485858012 0.90453502459551016202 0.085554808337128890328 -0.56697320298356723711 0.6703893723752856193 -0.47855123214809991428 -0.61161277287909088241 1.0127808044588018088 0.31804337386224823536 -1.5975711490899682232 -0.75109638085311702937 -0.37982359336617577128 0.40071485429981329451 -0.42840864213224616464 0.68987572071429437148 -0.19578616598367462598 -0.086957259123102523257 -0.12167374475985295867 0.21530259550890226694 0.21242523978854843669 -0.68270273050708218943 0.0087319447186103467395 0.40121237708441032099 -0.08651326035728704178 1.1935059778038343836;0.36301481706817717576 -0.10375996455652646 -0.083951547153474539997 0.014091466436090688275 -0.02307882383336630136 0.47715045579050030522 0.95051976703954499381 0.1343597209219441202 -0.53967874623305978066 0.58007025810999490734 -0.44058632013993470622 -0.3989749711740469551 1.0840242633773480296 0.48837219802138653879 -1.8039432176867737923 -0.66912803423408229175 -0.32467767827464694141 0.25942876846583939887 -0.21304431894604874964 0.63195160660384530615 -0.22909955663837502926 -0.050393699878580805462 -0.017174413194043086639 0.21274389782504904423 0.30018080274759056936 -0.67328188503483388239 -0.2364634310714882337 0.25882728655795084194 -0.013406377538119190404 1.0330133004110966244;0.39230687315902584844 -0.093006845045854533161 -0.14391401000858169978 -0.090223046884663052336 -0.020158593393493899615 0.48019516260839961719 0.90973740871946839892 0.14584661017463618204 -0.48671176319749032135 0.41532500918000836432 -0.4229886417337194171 -0.16189787380974238196 1.1379581817476331906 0.69020247764477404839 -1.8821199345159778105 -0.59685418875174134357 -0.28276758312741356871 0.091182082199404351774 -0.058035830257567928847 0.4893191494601471514 -0.30762455862267990003 -0.042348725384548348283 0.14859222169557936843 0.17676820356606726126 0.42681558937541230758 -0.68888404599326635847 -0.44760691812763453434 0.13335546394996983244 0.034269460719053061737 0.85671259776359842686;0.38976528614877065104 -0.032778669749207116346 -0.18649662086624194113 -0.15169893731723987917 -0.031670210663090968273 0.44261815768541229454 0.80034861434285364812 0.10550682351612780674 -0.44583431065215317624 0.18366432353296521796 -0.40272163152923762253 0.089990161425856196598 1.1599596137774972338 0.88958894808030697376 -1.8609473967522598414 -0.5256431954204328072 -0.2673891237285876965 -0.07593173673364972398 0.0043733371209341148633 0.31689144174054006964 -0.41206820685523842807 -0.017360616503351189444 0.3276821802325990407 0.12655545785996422103 0.59527327397609852699 -0.70332200841821912451 -0.62792655155412224754 0.02993757311562959128 0.055156485206989042114 0.67687454575591088357;0.32250335423528531109 0.072919742414731217317 -0.21340376626010923444 -0.16068165948147436484 -0.018375403575412722901 0.36651966916751382852 0.62334131174731421954 0.016897849666065910268 -0.38181560137494041651 -0.11248039541172455413 -0.37949007091156355953 0.2920668090352787627 1.1630584074812913009 1.072447981846946341 -1.7147065506592764628 -0.4628318883181453125 -0.24587898632032850754 -0.22716672224712108896 2.5171922798510775517e-05 0.12075615476354292777 -0.52873615592736078472 -0.0058706297761564789697 0.5076011509090211371 0.053464416237410668231 0.7903838189090505173 -0.72116355411949806253 -0.74070118381285754428 -0.027612525716803015124 0.0054523241275371385484 0.52862332310455861784;0.22963732981602599792 0.24550125420482982186 -0.2086466589334017574 -0.15203132807556338224 0.022235674056948057792 0.27302148961815403405 0.40896036504911098541 -0.10846278057107076875 -0.33508992784863456116 -0.43056469703642630265 -0.35831621801934970817 0.445028315544879427 1.1333040407154788554 1.2185012478476942022 -1.476449356321734685 -0.39795905866267727857 -0.25475902941914424504 -0.34464609578601212991 -0.092717089696462445803 -0.092383312396465092076 -0.63681965349287528166 0.019789102606448900901 0.65388388149430376473 -0.011719384102046769697 0.98921822572351025826 -0.74000228090673747516 -0.78519509779691709639 -0.057891789555622047425 -0.071681827570486578161 0.42011706892091121857;0.098207554210299002895 0.50762852122843227232 -0.17817363430150792714 -0.14818028259583815309 0.077778642195186584174 0.15817324477168995256 0.17669462433586732852 -0.24503244722453812465 -0.30606470592898776806 -0.72791035093272660195 -0.32519347848997320893 0.53929631841898761913 1.0796373135044712299 1.3208403876026548751 -1.1991160262343305565 -0.33404810032477405546 -0.26916093381925859651 -0.39780644802222070444 -0.24602235295283522709 -0.28342805979470375721 -0.71698625659410852862 0.022247110321975731295 0.73529547892182411939 -0.078743574371206298546 1.168433865386235615 -0.73620113001696740884 -0.77049171830723017784 -0.067544400184161190737 -0.13490750543865037692 0.35751745424790420946;-0.067063448009752182899 0.82853745995463290441 -0.11415628587594826848 -0.12041964171096132541 0.19018177959451509906 0.040118706388523363293 -0.0088583503658899373501 -0.36965968636895779609 -0.31026706223464145529 -0.96084812392204210774 -0.30877025630450904981 0.5626560186048782386 0.98018408806452594906 1.3651797052451675185 -0.93733136327460375714 -0.23784648986877787724 -0.29030556827385223251 -0.40731812340475082035 -0.46691099401431263027 -0.45472112431433014956 -0.76058140486742675801 0.03485721890306803239 0.73618373306931905731 -0.14472579398576068677 1.2928016825136776635 -0.69607711181385445443 -0.70395826142659401192 -0.057000227356973638682 -0.20707999013231956353 0.35192486866654737465;-0.23294010014487154248 1.1821425767512030447 -0.041016942823240823413 -0.13187172355209245134 0.34933196954178646898 -0.08742239349615285593 -0.14725064750070840369 -0.47479238641545284949 -0.36902051932415902424 -1.0861074506312100585 -0.29053647454188641364 0.52174916081882116714 0.87216083759773710415 1.3577235239587155391 -0.68192616747332068794 -0.14408859808054677587 -0.30243645068939151166 -0.35379796610790753553 -0.70795695488481968916 -0.55958202072160068141 -0.77178478910163039739 0.047817766762929779512 0.64650669033229157812 -0.19200012658652548803 1.3644486547804193233 -0.62012284539683582008 -0.60332918532081825091 -0.036760237076398839806 -0.25096407138375853574 0.39708593112134404901;-0.36706980724376275793 1.5164550100228297858 0.030308301178093195738 -0.13044838057335472747 0.5652163855340820442 -0.19906306314732580276 -0.21063294935318804812 -0.56514887620282061587 -0.43328186350001124394 -1.0558981944686167687 -0.26419824731397695272 0.45711326232433746597 0.7529472388267267613 1.3152548045969580937 -0.48567118411554316415 -0.031926414637814440334 -0.308814719887451683 -0.29486986785948460232 -0.95538831482372055248 -0.62321475033481243955 -0.75415130710000466419 0.050151116086452909859 0.49156378126175914733 -0.21962994513207842462 1.3414384791787283824 -0.53168297115497231697 -0.50353826936729706443 -0.025137144735934289358 -0.2528604370902757803 0.4903049868432576841;-0.47068993488828769767 1.8067470188469905157 0.086624736223701107041 -0.13958198405997562785 0.79511118405390490693 -0.2967319496478210139 -0.21219299280369199878 -0.61478244114527857977 -0.54683306284645605277 -0.90564126009761491964 -0.25244755961134929256 0.36986394354915758109 0.6185374648128270092 1.2141409718507478743 -0.34464003981624707906 0.074773346856764719148 -0.2862339313197297952 -0.19298913414552057444 -1.1670341825271324243 -0.63219823139577124849 -0.71903590232024772178 0.064848252603335071464 0.29145761758376237394 -0.25282520237413425024 1.2747140504909422187 -0.43944306936217325532 -0.40171348948626328657 -0.011604155830555760998 -0.23424261164582380057 0.62884068581541285869;-0.48708346249760203772 1.9941181247095254303 0.11250452318034541432 -0.16111374471658876373 1.0704402148364746683 -0.35804689134455719435 -0.14569242558853520708 -0.65322637735762745237 -0.6623858041003443109 -0.61748416702971553605 -0.23660213129547369437 0.29499201247190481867 0.49727760309520163684 1.101411235009448264 -0.27381048317527317826 0.19115048208557972043 -0.26131942006137820478 -0.11268234152678519022 -1.3377747094975436237 -0.59720509461179371868 -0.66092009477259006101 0.076860365349661119438 0.062242077953170590887 -0.25810887925926373487 1.1375018181901472847 -0.34897100553828036551 -0.33045459485360340057 -0.026935861004194438378 -0.17271521927677704888 0.7835385619107957389;-0.43496133376244178192 2.0842240529228828194 0.099713856184370092128 -0.18360157438556798382 1.2899750880494067484 -0.3965839281301676289 -0.055835958323118300983 -0.66154159113512744916 -0.77114404345860843026 -0.27548081913613081673 -0.22946600052866550357 0.24682318970720340534 0.35195903463202649064 0.9368916031297083169 -0.27892059770507926508 0.28924979457088123569 -0.21819615409607451273 0.0045538066837210707319 -1.4286724928694030101 -0.52940192964075238891 -0.59918288946036712961 0.080469515219712572929 -0.17365017338139571157 -0.28499513088004513328 1.0068904023712994533 -0.29956768441937470238 -0.2671170437862256386 -0.048535666802999838376 -0.090077782657901686592 0.95743565806191555101;-0.28419521266403746651 2.0495631101897555659 0.047209425191521263432 -0.22487133842661158334 1.4732997263691618439 -0.4180679055971019964 0.025683479324943570693 -0.65907985779966771211 -0.87390092857301582274 0.074042015877420194747 -0.21783830269614459785 0.19797153443437981446 0.22523961953033483363 0.76482277503217110937 -0.29948221444645539702 0.35742103058097834944 -0.16545919522976401672 0.145957403748239678 -1.4372948654882105046 -0.43813461859752111938 -0.54679456203611842557 0.07580030997979762819 -0.39371007653897321932 -0.29702078497321893202 0.89708105209932487156 -0.2617343844717179846 -0.21636323489764616723 -0.080399081487057807993 -0.014245517895260410152 1.1384988382442104982;-0.033275409241474658562 1.8913089495048329702 -0.043968941941740495583 -0.24731495279714746371 1.5986611469195002311 -0.43107266025183516023 0.10954632110656589705 -0.6407495210546211295 -0.96436506492847262617 0.4075687930629158795 -0.19734725785028287004 0.19676851469833442354 0.098630365457523586081 0.59566719226005060417 -0.36303231586204953718 0.38402365110621772271 -0.1133514157709629433 0.28289893926004650027 -1.3779419530188214971 -0.32610840439267246849 -0.50397142753336587884 0.096271018924704965247 -0.5891148693491825572 -0.30090215771892320218 0.80676822463825470511 -0.26414079218205677169 -0.18753190006106423837 -0.13486348141729981309 0.080533986707976845665 1.2934993073883493953;0.29047351115776415265 1.6234859212323882183 -0.16289850727118532214 -0.2932966972463830202 1.631629709015147478 -0.43648362619015423913 0.13749321620171089942 -0.59657440127991012702 -1.0324558423611729374 0.65624940392952801904 -0.19017359595227067981 0.19940622299432658737 -0.020722439100364774267 0.44361569906356868032 -0.45767049437165602255 0.37711077707761719857 -0.052227439434442600452 0.45904340401846271957 -1.2346788139026014797 -0.21724380487592687139 -0.48716359678343340578 